weights['MEYDA'] = {"conv0.weight": [[[[0.015528171323239803, 0.24363452196121216, -0.35191333293914795], [-0.24186143279075623, -0.05775255709886551, -0.005415457766503096], [0.010622994974255562, 0.39064571261405945, -0.025235842913389206]]], [[[0.1722629964351654, -0.052771009504795074, 0.0012405181769281626], [-0.32052740454673767, -0.2647089660167694, -0.14710387587547302], [0.10821356624364853, 0.17638880014419556, 0.27371343970298767]]], [[[-0.326124370098114, -0.2562001347541809, 0.023904431611299515], [0.17454427480697632, -0.10614270716905594, 0.2328691929578781], [-0.12430286407470703, 0.07524346560239792, 0.3422132134437561]]], [[[-0.17614665627479553, -0.018998678773641586, 0.055707551538944244], [-0.001178524224087596, 0.4839123785495758, -0.04604285582900047], [-0.14474201202392578, -0.11930879950523376, -0.20420484244823456]]], [[[-0.1584043800830841, 0.3691275715827942, 0.2626830041408539], [0.2052924633026123, 0.06029240041971207, -0.09691077470779419], [0.023446550592780113, -0.36667025089263916, -0.25623854994773865]]], [[[-0.36817196011543274, 0.09004776179790497, 0.11145689338445663], [-0.2739226520061493, -0.02628983184695244, 0.21490387618541718], [0.21551953256130219, 0.1310700625181198, 0.007227968890219927]]], [[[0.3048405647277832, -0.10420490801334381, 0.13539551198482513], [-0.30728209018707275, -0.26867809891700745, -0.21343806385993958], [0.24249790608882904, 0.2274622619152069, -0.111205093562603]]], [[[0.008105008862912655, 0.15871134400367737, -0.194244384765625], [0.019512049853801727, 0.04133555665612221, 0.05497195944190025], [0.38967904448509216, -0.2855251431465149, -0.19254910945892334]]], [[[0.11201924830675125, 0.3168638348579407, 0.3308243751525879], [0.28585436940193176, 0.04535810649394989, -0.3121565580368042], [-0.045263390988111496, -0.3316084146499634, -0.40047892928123474]]], [[[0.2774290144443512, 0.18982534110546112, -0.4926847815513611], [0.17177660763263702, -0.027835769578814507, -0.1235189139842987], [-0.0017931649927049875, 0.20883777737617493, -0.1683843731880188]]], [[[0.10775057971477509, 0.247507244348526, 0.27833542227745056], [0.09474162757396698, -0.33258846402168274, -0.24512602388858795], [0.1460728794336319, 0.05300616845488548, -0.28120580315589905]]], [[[-0.11451725661754608, 0.44471579790115356, 0.3702895939350128], [-0.14919784665107727, -0.03244161605834961, -0.236940398812294], [-0.03900671377778053, -0.21294668316841125, -0.2085929811000824]]], [[[0.038681864738464355, 0.03836559131741524, -0.1468753069639206], [0.2190346121788025, -0.2894364893436432, 0.27127641439437866], [0.2518286108970642, -0.34665215015411377, -0.02853499911725521]]], [[[0.001379388035275042, 0.20908957719802856, 0.2142569124698639], [0.14852461218833923, 0.12260399013757706, -0.07869309931993484], [0.08267056196928024, -0.37547633051872253, -0.22306101024150848]]], [[[-0.0034299332182854414, -0.0733601376414299, -0.05864327773451805], [-0.2093486338853836, -0.028451358899474144, 0.08663933724164963], [-0.12834285199642181, 0.036280810832977295, 0.2758425176143646]]], [[[-0.20638331770896912, -0.17723079025745392, -0.17017756402492523], [-0.0032627431210130453, 0.148909330368042, 0.26703116297721863], [0.19601970911026, 0.3308653235435486, -0.010789094492793083]]], [[[-0.1429401934146881, 0.0065463995561003685, 0.41519901156425476], [0.1024399846792221, -0.05833510309457779, -0.12039948999881744], [-0.25362327694892883, -0.22182056307792664, 0.03583446145057678]]], [[[0.24073347449302673, 0.16275133192539215, -0.43555402755737305], [0.3504428267478943, -0.23039047420024872, -0.10303366184234619], [0.021881593391299248, 0.000658080040011555, 0.019868576899170876]]], [[[-0.2693083882331848, -0.27081212401390076, 0.012824011966586113], [0.04101790487766266, -0.10650018602609634, 0.22432775795459747], [-0.22247816622257233, 0.07560449838638306, 0.42953941226005554]]], [[[-0.23080964386463165, 0.3236967623233795, 0.13930527865886688], [-0.37151795625686646, 0.2806625962257385, 0.008714285679161549], [-0.22939562797546387, 0.3304544687271118, -0.23554562032222748]]], [[[0.049457620829343796, -0.0672144964337349, 0.2455945909023285], [0.12306731194257736, 0.16289550065994263, 0.1290355920791626], [-0.15948309004306793, -0.18390339612960815, -0.3750797212123871]]], [[[0.2034526914358139, 0.34718558192253113, 0.30534443259239197], [-0.284313827753067, 0.007661009207367897, -0.2198634147644043], [-0.26578783988952637, -0.24760939180850983, 0.07544072717428207]]], [[[-0.08605533838272095, 0.061063848435878754, 0.05777794122695923], [0.24805781245231628, -0.23669564723968506, -0.2358936369419098], [-0.10901835560798645, 0.3424890637397766, -0.04745073243975639]]], [[[0.2844078838825226, 0.12741604447364807, 0.03231734782457352], [-0.06426689028739929, -0.12125802040100098, 0.028899190947413445], [-0.17730286717414856, -0.09133264422416687, 0.010782815515995026]]], [[[-0.305754691362381, -0.1541799157857895, 0.34499651193618774], [-0.30616694688796997, 0.04937690496444702, 0.40602636337280273], [0.1404191553592682, 0.1530921459197998, -0.23850017786026]]], [[[0.09409911930561066, -0.35093748569488525, -0.23247283697128296], [-0.09837447851896286, -0.09436094760894775, -0.09734398126602173], [0.4222712218761444, 0.157599076628685, 0.3482075333595276]]], [[[0.2215847223997116, -0.2421811819076538, 0.14523328840732574], [-0.3038523197174072, -0.1946772187948227, 0.0772920623421669], [0.09837235510349274, 0.301325261592865, -0.087342768907547]]], [[[0.1012173667550087, 0.23393407464027405, -0.378202348947525], [0.3539755344390869, -0.2771644592285156, -0.03699295222759247], [0.05877996236085892, -0.16949602961540222, 0.11911137402057648]]], [[[0.40584027767181396, -0.02868473529815674, -0.10842028260231018], [0.008453058078885078, -0.24910873174667358, 0.2577953636646271], [-0.09010873734951019, -0.19020149111747742, -0.1438867151737213]]], [[[0.0038018571212887764, -0.012163674458861351, 0.07904965430498123], [0.09511386603116989, -0.12269908934831619, -0.09029076993465424], [0.02359488420188427, 0.23145028948783875, 0.08702951669692993]]], [[[-0.10441891103982925, -0.1412414014339447, -0.2439519166946411], [0.1575959324836731, -0.1084141880273819, -0.2374410182237625], [0.4671997129917145, -0.005488836206495762, 0.08306828886270523]]], [[[0.08686728775501251, -0.04643760621547699, -0.3292766809463501], [-0.18311238288879395, 0.2605912387371063, -0.045486126095056534], [0.39031171798706055, -0.016701627522706985, 0.08326151967048645]]], [[[-0.08646046370267868, -0.10553190857172012, -0.2886485755443573], [0.15399159491062164, 0.11721386015415192, 0.002062481828033924], [0.01695890538394451, -0.09454094618558884, 0.3426748216152191]]], [[[-0.2112383395433426, 0.21710103750228882, 0.006725278217345476], [-0.11376851052045822, 0.10948426276445389, -0.12921544909477234], [0.1792917102575302, 0.10374411195516586, -0.22117753326892853]]], [[[0.08006338030099869, 0.08295653015375137, 0.1507575660943985], [-0.10243723541498184, -0.41442739963531494, -0.12240438908338547], [0.1896013617515564, -0.1467578113079071, 0.1629122942686081]]], [[[0.2589533030986786, -0.19060669839382172, -0.04368706792593002], [0.17445966601371765, -0.01601603254675865, 0.03771816939115524], [0.01962689496576786, -0.32371285557746887, 0.08191327005624771]]], [[[0.15955157577991486, 0.345691055059433, 0.23765654861927032], [-0.09941889345645905, 0.135832741856575, -0.11711511760950089], [-0.48512575030326843, -0.4081133008003235, 0.2902723252773285]]], [[[-0.018371760845184326, -0.34657883644104004, -0.012685293331742287], [0.1224772185087204, 0.3167990744113922, 0.2126290500164032], [0.10262256115674973, -0.11209958046674728, -0.20588958263397217]]], [[[0.18815100193023682, 0.11817721277475357, -0.24803170561790466], [0.24499519169330597, 0.15083634853363037, 0.22874535620212555], [-0.3580988943576813, 0.005834897514432669, -0.1000087559223175]]], [[[0.18595917522907257, -0.14664828777313232, -0.04848402366042137], [0.10149723291397095, 0.10138624906539917, -0.21579532325267792], [0.23752959072589874, -0.23478050529956818, 0.03897346556186676]]], [[[-0.28053081035614014, -0.43505847454071045, -0.28958937525749207], [0.29355302453041077, 0.16017311811447144, 0.32389676570892334], [0.409372478723526, -0.17416027188301086, -0.11803460866212845]]], [[[0.059740956872701645, -0.11923857778310776, 0.2890795171260834], [-0.2623945474624634, -0.2051541805267334, -0.37442710995674133], [-0.09309502691030502, 0.31542104482650757, 0.32938891649246216]]], [[[-0.004911455791443586, 0.05828898400068283, 0.11437147855758667], [-0.22436420619487762, 0.08829600363969803, 0.26998579502105713], [-0.02645636722445488, 0.2619960904121399, 0.14380674064159393]]], [[[0.32171937823295593, -0.10394984483718872, 0.2052292823791504], [0.11387775838375092, -0.10791116952896118, -0.15834718942642212], [-0.14994147419929504, -0.2903667092323303, 0.2634831666946411]]], [[[0.10952429473400116, -0.18169596791267395, -0.3884557783603668], [0.17350274324417114, 0.1635873168706894, -0.08539483696222305], [-0.2389504760503769, 0.31777334213256836, 0.1277887225151062]]]], "bn1.running_mean": [0.17510274052619934, 0.026924164965748787, 5.605193857299268e-45, 0.0490734688937664, 5.605193857299268e-45, 0.42171040177345276, 0.03820012882351875, 5.605193857299268e-45, 0.02684280462563038, 5.605193857299268e-45, 0.24101607501506805, 0.723493218421936, 5.605193857299268e-45, 0.054399922490119934, 5.605193857299268e-45, 0.15233471989631653, 0.13904252648353577, 0.00907836016267538, 0.029578305780887604, 0.010305020958185196, 0.041278254240751266, 1.1859980821609497, 0.26674601435661316, 5.605193857299268e-45, 5.605193857299268e-45, 0.03158239647746086, 5.605193857299268e-45, 0.05660240724682808, 0.06461209058761597, 0.03605039045214653, 0.033900268375873566, 0.040545884519815445, 5.605193857299268e-45, 5.605193857299268e-45, 5.605193857299268e-45, 0.04628495126962662, 0.02538439817726612, 0.027290748432278633, 5.605193857299268e-45, 0.0736757218837738, 0.47942644357681274, 5.605193857299268e-45, 0.020074302330613136, 0.10479158163070679, 0.08024076372385025], "bn1.running_var": [0.13833414018154144, 0.041093647480010986, 5.605193857299268e-45, 0.02503049373626709, 5.605193857299268e-45, 0.22020073235034943, 0.026647940278053284, 5.605193857299268e-45, 0.021832004189491272, 5.605193857299268e-45, 0.11350349336862564, 0.4458622634410858, 5.605193857299268e-45, 0.028553389012813568, 5.605193857299268e-45, 0.09016858786344528, 0.06755539774894714, 0.00436609098687768, 0.016367975622415543, 0.00439412472769618, 0.02155718207359314, 0.9228067398071289, 0.19795332849025726, 5.605193857299268e-45, 5.605193857299268e-45, 0.019305720925331116, 5.605193857299268e-45, 0.029078716412186623, 0.050654780119657516, 0.022042913362383842, 0.021728195250034332, 0.02040514163672924, 5.605193857299268e-45, 5.605193857299268e-45, 5.605193857299268e-45, 0.018182335421442986, 0.014764652587473392, 0.013948669657111168, 5.605193857299268e-45, 0.03978477790951729, 0.3485391438007355, 5.605193857299268e-45, 0.010628700256347656, 0.10839615017175674, 0.04411088302731514], "bn1.num_batches_tracked": 99840, "conv1.weight": [[[[0.0971146747469902, 0.19018985331058502, 0.12847235798835754], [-0.02245677262544632, 0.1471938043832779, -0.0070602623745799065], [-0.1769608110189438, -0.02544589899480343, 0.05131620913743973]], [[0.05434504523873329, 0.14456620812416077, 0.12546969950199127], [-0.1019253358244896, 0.004913059528917074, 0.08282694965600967], [-0.1390606164932251, -0.10903298854827881, -0.07427067309617996]], [[0.06594561040401459, -0.08641035109758377, -0.08884921669960022], [0.02935720607638359, -0.13107819855213165, -0.11310380697250366], [-0.12319957464933395, -0.248978391289711, -0.032260168343782425]], [[-0.01178508996963501, 0.05923870578408241, 0.05326685681939125], [-0.1534949690103531, -0.053320083767175674, -0.01226851250976324], [-0.045133188366889954, -0.044966503977775574, -0.012164190411567688]], [[-0.02094990573823452, -0.007752012461423874, 0.040090907365083694], [-0.03550119325518608, -0.07422718405723572, -0.023031404241919518], [0.09700345247983932, 0.04923431947827339, 0.01012300793081522]], [[0.09171946346759796, -0.051918692886829376, 0.03798162192106247], [0.057920023798942566, -0.18694642186164856, -0.05098460987210274], [-0.07444882392883301, -0.16707536578178406, -0.07739081233739853]], [[0.03423255309462547, 0.12419093400239944, 0.027392709627747536], [-0.053167104721069336, -0.06208488345146179, 0.03642214089632034], [0.03932550176978111, -0.0018196783494204283, 0.011513772420585155]], [[-0.08348152786493301, 0.0741690844297409, -0.08778500556945801], [-0.13338947296142578, 0.0810028687119484, 0.03733984753489494], [-0.10114492475986481, -0.05009621009230614, 0.10892803966999054]], [[0.0796462744474411, 0.027189306914806366, -0.03535613790154457], [-0.024335747584700584, -0.050063587725162506, -0.021162521094083786], [0.11730311810970306, 0.06071634218096733, 0.15006506443023682]], [[0.08788224309682846, 0.10614165663719177, -0.1614166647195816], [-0.18613633513450623, 0.055517178028821945, -0.08245003968477249], [-0.1353292316198349, -0.03429108485579491, 0.18951255083084106]], [[0.059337079524993896, 0.06814169138669968, -0.10164639353752136], [0.0022679308895021677, 0.058416787534952164, 0.009265746921300888], [0.10084362328052521, 0.09541571140289307, 0.1307743936777115]], [[0.010451208800077438, -0.03758121654391289, 0.02182551845908165], [-0.06933916360139847, -0.14489254355430603, -0.0028705245349556208], [0.04467116296291351, 0.07917212694883347, 0.03100258857011795]], [[-0.03166423738002777, 0.19438263773918152, -0.011500827036798], [-0.16514775156974792, 0.10322994738817215, 0.0671272724866867], [-0.12095420807600021, 0.015399976633489132, 0.1123119443655014]], [[0.1047617495059967, 0.052431099116802216, -0.06925128400325775], [0.003566221334040165, 0.04719804599881172, -0.00013227021554484963], [0.07256172597408295, 0.05625743418931961, 0.11682040244340897]], [[0.038947273045778275, 0.010810446925461292, 0.09435704350471497], [-0.1806204468011856, -0.14971373975276947, -0.015227297320961952], [-0.20241478085517883, -0.12002048641443253, 0.0201214998960495]], [[0.03930265083909035, 0.01106547936797142, -0.1016700267791748], [0.01491302065551281, 0.05626903101801872, -0.07002608478069305], [-0.1947956681251526, -0.08080082386732101, -0.10341021418571472]], [[-0.04421559348702431, -0.03634519875049591, 0.01534375362098217], [-0.12760190665721893, -0.14793190360069275, -0.014140698127448559], [-0.061250653117895126, -0.011885668151080608, 0.00553123326972127]], [[0.0376751646399498, 0.09937781095504761, -0.19194795191287994], [-0.27217984199523926, 0.04952789470553398, -0.059700027108192444], [-0.23624666035175323, 0.05822907015681267, 0.1435128152370453]], [[-0.03515278920531273, -0.0005627776263281703, 0.11694220453500748], [-0.018547236919403076, -0.11406062543392181, -0.04639806970953941], [-0.22924193739891052, -0.23388521373271942, -0.010060771368443966]], [[0.05044301599264145, -0.039821937680244446, 0.05063369870185852], [0.08769720047712326, -0.1428355574607849, -0.0716424435377121], [0.056602414697408676, 0.0957290381193161, 0.1129310354590416]], [[-0.02766197733581066, 0.022054370492696762, 0.05772021412849426], [0.013237708248198032, -0.035598188638687134, -0.03288235515356064], [-0.002299516461789608, -0.018621401861310005, 0.07987070828676224]], [[0.010826842859387398, -0.01460117008537054, -0.07326234132051468], [0.012240653857588768, -0.0484282411634922, 0.021005867049098015], [0.06784769892692566, 0.08641202747821808, 0.035645563155412674]], [[0.1741030514240265, 0.1280362904071808, -0.00783790834248066], [-0.05272912606596947, 0.006361858919262886, 0.009600149467587471], [-0.020855242386460304, -0.009461181238293648, 0.07821202278137207]], [[0.14452269673347473, 0.0057682618498802185, 0.0027939218562096357], [0.14897429943084717, 0.00544661795720458, -0.06378152966499329], [0.16405798494815826, 0.1581742912530899, 0.04885144904255867]], [[0.06688340753316879, -0.10754821449518204, -0.0269903764128685], [0.012489616870880127, -0.3331720232963562, -0.06512847542762756], [0.018294962123036385, -0.18582765758037567, -0.02223053388297558]], [[0.10523292422294617, 0.1801888793706894, 0.023811371996998787], [-0.04139797389507294, 0.15412257611751556, -0.035707976669073105], [-0.35276859998703003, -0.16087287664413452, -0.05476067587733269]], [[0.15207619965076447, 0.19065597653388977, 0.15264104306697845], [-0.04541539028286934, 0.020276270806789398, 0.014241784811019897], [-0.053918447345495224, -0.1187225878238678, 0.008640708401799202]], [[-0.04169948399066925, 0.1035476103425026, -0.07732183486223221], [-0.2799876928329468, 0.1283276528120041, -0.09802567958831787], [-0.2862412631511688, -0.01102402713149786, 0.15463568270206451]], [[0.05203854665160179, 0.025932753458619118, 0.031954262405633926], [-0.11822452396154404, -0.13399896025657654, -0.03345147892832756], [-0.05554508417844772, 0.011831031180918217, 0.11078179627656937]], [[0.0396074578166008, 0.04497009143233299, -0.16473355889320374], [0.07647974044084549, 0.02675499953329563, -0.10803151875734329], [-0.06296741962432861, 0.035551946610212326, -0.008875641040503979]], [[0.019785171374678612, 0.14499011635780334, 0.005184694658964872], [-0.07894498854875565, 0.11658968776464462, 0.058304112404584885], [-0.22489134967327118, -0.09589871019124985, 0.06025071442127228]], [[0.0715300440788269, 0.1732814610004425, -0.06379909068346024], [-0.10404301434755325, 0.18641716241836548, -0.03646789863705635], [-0.30683618783950806, -0.12181749194860458, 0.05380761995911598]], [[0.07461177557706833, 0.006609032861888409, -0.034585971385240555], [0.06582894176244736, 0.03797387704253197, -0.033194590359926224], [-0.24219536781311035, -0.09218483418226242, -0.02200222946703434]], [[-0.0018427139148116112, 0.12007656693458557, 0.04452775791287422], [-0.13725921511650085, -0.015783242881298065, 0.15553663671016693], [-0.07119107246398926, -0.03438137471675873, 0.0984242707490921]], [[-0.03423615172505379, 0.050545431673526764, -0.03746052458882332], [-0.04883667454123497, -0.058853890746831894, -0.01325901411473751], [0.01366014126688242, 0.03631693869829178, 0.06139661371707916]], [[0.11726221442222595, 0.14705334603786469, -0.027081986889243126], [-0.1472271829843521, 0.05111120641231537, -0.005735506769269705], [-0.039677735418081284, 0.021355345845222473, 0.1501280665397644]], [[0.0655115470290184, -0.12887823581695557, -0.11092107743024826], [0.22373777627944946, -0.01006194856017828, -0.17191697657108307], [0.27608126401901245, 0.20677126944065094, 0.005385923199355602]], [[0.0138917351141572, 0.03754674270749092, -0.11582593619823456], [0.020283838734030724, 0.1862073540687561, -0.026333674788475037], [-0.1410774439573288, -0.002447820035740733, 0.02809756062924862]], [[0.0726340040564537, 0.029585188254714012, -0.14927853643894196], [0.08567114174365997, 0.15781401097774506, -0.036617688834667206], [0.007563378661870956, 0.1127614974975586, 0.029189834371209145]], [[-0.08476871252059937, 0.1757456660270691, -0.16720591485500336], [-0.28050628304481506, 0.09088221937417984, -0.0213797427713871], [-0.19667202234268188, 0.0722755417227745, 0.14309030771255493]], [[-0.04908904433250427, 0.1274978518486023, 0.06291051208972931], [-0.02368129976093769, 0.17522238194942474, 0.04855479672551155], [-0.20272648334503174, -0.010273919440805912, 0.0654921680688858]], [[0.057573337107896805, 0.060658130794763565, 0.17632517218589783], [-0.1773645430803299, -0.03798465430736542, -0.01935034804046154], [-0.19374443590641022, -0.06911077350378036, -0.057048771530389786]], [[0.05628969892859459, -0.0751870796084404, -0.18663379549980164], [0.08839672803878784, -0.031548872590065, -0.1587463766336441], [-0.008227190934121609, 0.021487481892108917, -0.045906007289886475]], [[0.13131001591682434, 0.03269067779183388, -0.07783626765012741], [-0.011501449160277843, -0.09856417030096054, -0.1267791986465454], [0.09085801243782043, 0.0844895988702774, 0.09294336289167404]], [[0.06928089261054993, 0.09114927053451538, -0.11385253071784973], [0.04058489948511124, 0.2531449794769287, -0.041323721408843994], [-0.2169310599565506, 0.04199611768126488, 0.05871456488966942]]], [[[-0.03917625546455383, -0.030111514031887054, -0.011406805366277695], [0.03513053059577942, 0.05388904735445976, 0.0738576278090477], [-0.09230232983827591, -0.05218179523944855, -0.11899835616350174]], [[0.023478247225284576, 0.06362757086753845, 0.02645987831056118], [0.05705378204584122, 0.007982619106769562, 0.046693310141563416], [-0.13618914783000946, -0.14114712178707123, -0.15207664668560028]], [[-0.08453023433685303, -0.0828806683421135, -0.030423935502767563], [0.027898890897631645, 0.023413028568029404, 0.015371214598417282], [-0.18852543830871582, -0.15718317031860352, -0.15553809702396393]], [[0.034345682710409164, 0.07546965777873993, 0.13107971847057343], [0.04071454331278801, 0.11189671605825424, 0.07237013429403305], [-0.07712074369192123, -0.05243588238954544, -0.06396957486867905]], [[-0.03452363982796669, -0.011441986076533794, -0.011877729557454586], [0.030213825404644012, -0.018877113237977028, -0.010839730501174927], [-0.10942121595144272, -0.11863070726394653, -0.0570669062435627]], [[-0.15806835889816284, -0.12510572373867035, -0.19276615977287292], [-0.040719177573919296, -0.1988220512866974, -0.15462511777877808], [-0.2243579477071762, -0.29007163643836975, -0.2773502469062805]], [[0.09377987682819366, 0.04442897066473961, 0.0912017747759819], [0.012721128761768341, 0.040551066398620605, 0.054717324674129486], [-0.10983337461948395, -0.11093493551015854, -0.13951648771762848]], [[0.15190055966377258, -0.03978753089904785, -0.10060608386993408], [0.06516144424676895, -0.05831942334771156, -0.25649744272232056], [-0.18451304733753204, -0.19632668793201447, -0.26018181443214417]], [[-0.17377524077892303, -0.1450386494398117, -0.1558631956577301], [0.09088032692670822, 0.017802463844418526, -0.08074689656496048], [-0.15282407402992249, -0.11247643083333969, -0.17899926006793976]], [[0.10968335717916489, -0.08883390575647354, -0.11916962265968323], [-0.09107808023691177, -0.19248592853546143, -0.4110901951789856], [-0.25681954622268677, -0.21057134866714478, -0.2256757915019989]], [[0.049197904765605927, -0.027908233925700188, -0.0401388481259346], [0.12683075666427612, 0.06291637569665909, -0.020516781136393547], [-0.21716219186782837, -0.16779538989067078, -0.14746248722076416]], [[-0.017670687288045883, 0.07107425481081009, 0.09048482030630112], [-0.01137671247124672, 0.011062280274927616, 0.01107202097773552], [-0.10085034370422363, -0.14323833584785461, -0.1015980914235115]], [[0.1732163429260254, 0.007072805427014828, -0.024261603131890297], [0.07158263772726059, 0.006759207230061293, 0.021769944578409195], [-0.11652988940477371, -0.18143126368522644, -0.14930009841918945]], [[-0.08430565148591995, -0.08826600760221481, -0.09467099606990814], [0.097957544028759, -0.0777333676815033, -0.09486617892980576], [-0.10910974442958832, -0.11525484919548035, -0.12965846061706543]], [[0.06600894033908844, 0.006273576524108648, 0.1160569041967392], [-0.031581610441207886, 0.05148781090974808, 0.04091370478272438], [-0.11412358283996582, -0.08049596101045609, -0.08525887876749039]], [[-0.11698286235332489, -0.14333859086036682, -0.17606955766677856], [-0.013655968010425568, -0.08689337223768234, -0.11292550712823868], [-0.1810813695192337, -0.20262286067008972, -0.21300502121448517]], [[0.07149087637662888, 0.10839689522981644, 0.137806698679924], [-0.03716472163796425, 0.06168651953339577, 0.04982095956802368], [-0.1518014669418335, -0.07670199871063232, -0.002805500291287899]], [[0.035774242132902145, -0.15823706984519958, -0.12317793816328049], [-0.031718622893095016, -0.25080856680870056, -0.32053861021995544], [-0.16143399477005005, -0.15980881452560425, -0.18651415407657623]], [[0.036547113209962845, 0.024551009759306908, 0.011987815611064434], [0.04664381965994835, 0.0670812577009201, 0.13404721021652222], [-0.16989605128765106, -0.1150747612118721, -0.13141123950481415]], [[-0.12332635372877121, -0.1240115761756897, -0.20537595450878143], [0.031110722571611404, -0.07356127351522446, -0.22752520442008972], [-0.2363264262676239, -0.25904107093811035, -0.20488005876541138]], [[0.042817749083042145, 0.10938061028718948, 0.10137476772069931], [-0.007815957069396973, 0.024213865399360657, -0.03365262225270271], [-0.09822726249694824, -0.11698706448078156, -0.07915347069501877]], [[-0.03484005853533745, -0.00479680672287941, -0.024916531518101692], [0.014570497907698154, -0.015173440799117088, -0.024201342836022377], [-0.10624251514673233, -0.16903558373451233, -0.12903250753879547]], [[0.0032150207553058863, -0.0006978744640946388, 0.04522622376680374], [0.04095447435975075, 0.05648134648799896, -0.0021975827403366566], [-0.10156979411840439, -0.05588673800230026, -0.04149799793958664]], [[-0.11117754876613617, -0.12625494599342346, -0.0577227957546711], [0.0695890262722969, 0.009098558686673641, 0.0036538986023515463], [-0.08979909867048264, -0.13067686557769775, -0.1513683944940567]], [[-0.22320398688316345, -0.13344478607177734, -0.029778368771076202], [-0.14134718477725983, -0.1467125415802002, -0.10813060402870178], [-0.2826310694217682, -0.3159480392932892, -0.2188275009393692]], [[0.03013591468334198, -0.03501975163817406, -0.03011377528309822], [-0.0023030326701700687, 0.039381951093673706, -0.005294374190270901], [-0.10297289490699768, -0.16463126242160797, -0.21517042815685272]], [[-0.0009245933615602553, -0.016414174810051918, 0.0059676035307347775], [0.06885331124067307, -0.038126301020383835, 0.03574023023247719], [-0.19433535635471344, -0.22713762521743774, -0.1794688105583191]], [[0.11440496891736984, -0.17644810676574707, -0.16952966153621674], [-0.004467432387173176, -0.16375046968460083, -0.21691109240055084], [-0.19365689158439636, -0.1798928827047348, -0.1407736837863922]], [[0.1011224091053009, 0.12399300187826157, 0.07795658707618713], [0.0011519957333803177, 0.01977980136871338, -0.05097118392586708], [-0.07847769558429718, -0.04191754385828972, -0.03494029864668846]], [[-0.1048702746629715, -0.10142132639884949, -0.21091292798519135], [-0.04357496276497841, -0.1789420247077942, -0.3164078891277313], [-0.23964554071426392, -0.14656272530555725, -0.1590430587530136]], [[0.07394327223300934, 0.019088322296738625, 0.08547618240118027], [0.03706875443458557, 0.05764937773346901, 0.09261605888605118], [-0.06841418147087097, -0.09754380583763123, -0.1145826205611229]], [[-0.006381076294928789, -0.040788434445858, -0.00851067341864109], [0.013342558406293392, 0.02321474440395832, -0.006558151450008154], [-0.18188004195690155, -0.15764521062374115, -0.21712587773799896]], [[-0.05834736302495003, -0.09120406210422516, -0.09904750436544418], [0.09681661427021027, 0.13099071383476257, 0.16334804892539978], [-0.044111840426921844, -0.03425093740224838, -0.12330394238233566]], [[-0.0006906649796292186, 0.07767484337091446, 0.0800180435180664], [0.039320208132267, -0.004770112223923206, -0.012841538526117802], [-0.061440832912921906, -0.10789451748132706, -0.11811820417642593]], [[0.11267761141061783, 0.055504631251096725, 0.04515232890844345], [0.0871938094496727, 0.1243370994925499, 0.0548701249063015], [-0.18187133967876434, -0.1374664008617401, -0.17154553532600403]], [[0.21695370972156525, -0.017828498035669327, -0.0935666561126709], [0.18775489926338196, -0.028438109904527664, -0.14813892543315887], [-0.08916482329368591, -0.09983201324939728, -0.11106868833303452]], [[-0.08412190526723862, -0.09612254053354263, -0.04880942404270172], [0.02727665565907955, 0.07387378066778183, -0.024759089574217796], [-0.1886681318283081, -0.20621101558208466, -0.20737864077091217]], [[-0.0051296912133693695, -0.038002654910087585, -0.10135604441165924], [0.0498557947576046, -0.023768480867147446, 0.02498750388622284], [-0.211448535323143, -0.13618038594722748, -0.1959381103515625]], [[-0.03051324002444744, -0.07356726378202438, -0.03560943156480789], [-0.10563691705465317, -0.13412372767925262, -0.12376035004854202], [-0.22849808633327484, -0.23282188177108765, -0.2706170380115509]], [[0.20422101020812988, -0.012074033729732037, -0.011783532798290253], [0.10510765016078949, -0.11342545598745346, -0.19363895058631897], [-0.1811799854040146, -0.1691909283399582, -0.2409539520740509]], [[0.03192532807588577, 0.08808682858943939, 0.011867760680615902], [0.07190995663404465, 0.10086797922849655, 0.14719785749912262], [-0.08187074214220047, -0.0975288450717926, -0.13029097020626068]], [[-0.0019457226153463125, 0.03221388906240463, 0.05966581404209137], [0.057970765978097916, -0.02361159771680832, 0.022840360179543495], [-0.18060490489006042, -0.15218952298164368, -0.07869641482830048]], [[-0.06902194768190384, -0.1143227145075798, -0.09358281642198563], [-0.07043854147195816, -0.18325543403625488, -0.279333233833313], [-0.21728681027889252, -0.22419704496860504, -0.1443137675523758]], [[-0.07510603964328766, -0.06908705085515976, -0.06908780336380005], [0.09207171946763992, 0.09105806797742844, 0.07294739782810211], [-0.15192614495754242, -0.12931402027606964, -0.09119611978530884]], [[-0.12232055515050888, -0.10840406268835068, -0.18020406365394592], [-0.002693567890673876, -0.037922486662864685, -0.036142319440841675], [-0.10533478111028671, -0.19541911780834198, -0.21581915020942688]]], [[[-0.060759808868169785, -0.02174580842256546, -0.06222715601325035], [-0.09460553526878357, -0.02910223789513111, -0.02827269583940506], [-0.01996312290430069, -0.06444000452756882, -0.09231383353471756]], [[-0.02474045194685459, -0.01735215075314045, -0.10122673213481903], [-0.035561610013246536, -0.02340810000896454, -0.0840119868516922], [0.00782390870153904, -0.010588448494672775, -0.10156992077827454]], [[-0.01184084638953209, -0.023113813251256943, -0.05088790878653526], [-0.001445846282877028, -0.06506559252738953, 0.00915885902941227], [-0.08111122995615005, -0.11897288262844086, 0.015488673001527786]], [[-0.028598284348845482, -0.10158448666334152, -0.06242820993065834], [-0.08982749283313751, -0.07910075038671494, -0.045606549829244614], [0.016911465674638748, -0.04420376196503639, 0.006333595607429743]], [[-0.014713374897837639, -0.05801553279161453, -0.1773242950439453], [0.0237802155315876, -0.02311132475733757, -0.03749605640769005], [-0.04703010246157646, -0.02312234416604042, -0.0446002371609211]], [[-0.05887525901198387, -0.05438049137592316, 0.04687471315264702], [-0.05987986922264099, -0.07159240543842316, 0.014971341006457806], [-0.027578720822930336, -0.04002027213573456, 0.04769425466656685]], [[0.0057451496832072735, -0.051320094615221024, -0.02260388433933258], [-0.09355400502681732, -0.06433065980672836, -0.05943404510617256], [-0.04221155866980553, 0.003567876759916544, -0.011710270307958126]], [[0.02055259235203266, 0.009978591464459896, -0.018007919192314148], [0.00030306726694107056, -0.0087267542257905, 0.013571733608841896], [0.0034735966473817825, -0.06402886658906937, -0.024344680830836296]], [[0.025939978659152985, -0.06408769637346268, -0.07423059642314911], [0.0488482341170311, 0.013871323317289352, -0.04125073552131653], [-0.009397505782544613, -0.09757634997367859, -0.09452987462282181]], [[0.014459779486060143, -0.06577931344509125, 0.014004741795361042], [-0.042207200080156326, -0.014209775254130363, -0.002837137086316943], [0.0033123684115707874, -0.00838878657668829, 0.025938065722584724]], [[0.019292660057544708, -0.07618013769388199, -0.07166031002998352], [-0.02547834813594818, -0.03001330979168415, 0.013182598166167736], [-0.013222859241068363, -0.0643380656838417, -0.08550502359867096]], [[-0.05666619911789894, -0.04291187971830368, -0.15936072170734406], [-0.06460297107696533, -0.015734635293483734, -0.05516325309872627], [-0.015501842834055424, -0.03241196647286415, -0.05967235192656517]], [[-0.01354292407631874, -0.03919075056910515, 0.01516816671937704], [0.01617283560335636, -0.01810886710882187, -0.02586442232131958], [-0.028183184564113617, -0.043480195105075836, -0.06945743411779404]], [[0.019679313525557518, -0.029535118490457535, -0.08348054438829422], [-0.004984263796359301, 0.01196234580129385, -0.043027687817811966], [0.0074441866017878056, -0.03970849886536598, -0.0846024602651596]], [[-0.021844202652573586, -0.03660944476723671, -0.015108386985957623], [-0.06158861890435219, -0.04993373155593872, 0.0011675483547151089], [-0.06062241271138191, -0.034136123955249786, 0.011995396576821804]], [[-0.030803252011537552, -0.015994202345609665, 0.04546255245804787], [0.02224566973745823, -0.08844223618507385, 0.03783590346574783], [-0.0694643184542656, -0.10818235576152802, 0.02746380865573883]], [[-0.03337300941348076, -0.02686220221221447, -0.017847314476966858], [-0.07205090671777725, -0.014640738256275654, -0.0414993017911911], [0.004000348504632711, -0.010382070206105709, -0.049511611461639404]], [[-0.0671808272600174, 0.015424816869199276, -0.0912075936794281], [0.02269119769334793, -0.037480004131793976, -0.020161636173725128], [-0.004060816019773483, -0.014499964192509651, -0.00791157130151987]], [[-0.009079250507056713, -0.046527355909347534, -0.03802007809281349], [0.004235829692333937, -0.07712627947330475, -0.04591425508260727], [-0.04034090042114258, -0.0012385441223159432, 0.007122543640434742]], [[-0.015930622816085815, -0.07752810418605804, -0.019831828773021698], [0.03644772246479988, -0.07446479052305222, 0.06538986414670944], [0.027475034818053246, -0.021706119179725647, 0.05599571391940117]], [[-0.07668650895357132, -0.02699640952050686, -0.0471222959458828], [0.030501535162329674, -0.0172051340341568, -0.03764024376869202], [-0.028857769444584846, -0.07881247252225876, -0.02825106680393219]], [[-0.03312911093235016, -0.05373849719762802, -0.033713702112436295], [-0.02057744190096855, -0.01745881699025631, -0.07594312727451324], [0.023699678480625153, -0.048641037195920944, -0.023173965513706207]], [[0.002204471966251731, -0.011178174987435341, -0.0433596633374691], [-0.01769338548183441, -0.08848356455564499, -0.0550188347697258], [-0.013511032797396183, -0.031684599816799164, -0.06699920445680618]], [[-0.052743032574653625, -0.049159105867147446, -0.030433576554059982], [-0.0023670142982155085, 0.015543646179139614, 0.02001708559691906], [-0.032031796872615814, -0.08376392722129822, -0.059822529554367065]], [[-0.038325924426317215, -0.01400730013847351, -0.07284186780452728], [-0.0680866613984108, -0.0701427161693573, -0.04246445372700691], [-0.06453201919794083, -0.0698281079530716, 0.03470902144908905]], [[-0.006429237313568592, -0.07129902392625809, -0.055146485567092896], [-0.09847657382488251, -0.08650682866573334, -0.01486723218113184], [-0.0981459990143776, -0.09649927169084549, -0.01904204860329628]], [[-0.020016206428408623, -0.017773305997252464, -0.036077965050935745], [0.02682841382920742, -0.09767168015241623, -0.02609066478908062], [-0.06420278549194336, -0.08988462388515472, -0.0616392083466053]], [[-0.029872385784983635, 0.00193484453484416, -0.08335211873054504], [-0.00761830247938633, 0.010662555694580078, -0.04790667071938515], [-0.010656213387846947, -0.05114377662539482, 0.03088180348277092]], [[-0.022996673360466957, 0.0010628332383930683, -0.07730818539857864], [-0.02219994179904461, -0.01930146850645542, 0.02122400514781475], [0.030149705708026886, -0.06459715962409973, -0.08753249794244766]], [[-0.059329766780138016, -0.09219281375408173, 0.05056878924369812], [0.003062216565012932, -0.032143693417310715, 0.03069758228957653], [-0.03716658428311348, -0.12029968202114105, 0.057471148669719696]], [[0.009554767981171608, -0.020507654175162315, -0.10299883037805557], [-0.0059725502505898476, -0.027954595163464546, -0.03961549326777458], [-0.006476347800344229, -0.013481505215168, -0.09054743498563766]], [[-0.023127833381295204, -0.04391222819685936, -0.04949721693992615], [-0.07866864651441574, -0.02918172813951969, -0.02186979353427887], [-0.023043300956487656, -0.12619324028491974, 0.01302923634648323]], [[-0.015317102894186974, -0.07115238159894943, -0.0990690290927887], [-0.0526595376431942, -0.006960617378354073, -0.06830424070358276], [0.010360396467149258, -0.04498770833015442, -0.10141050815582275]], [[-0.06707725673913956, -0.07289771735668182, -0.08842899650335312], [-0.09395958483219147, -0.03491147607564926, -0.07548734545707703], [-0.03082352876663208, -0.05146721750497818, -0.009941519238054752]], [[0.03072464093565941, -0.05026726797223091, -0.10002481937408447], [0.03630901128053665, 0.003070821985602379, -0.13186925649642944], [-0.0013336349511519074, -0.03673204034566879, -0.11274881660938263]], [[0.0574665330350399, -0.02132411114871502, 0.03246717527508736], [0.02477237395942211, 0.009035805240273476, -0.044823236763477325], [-0.012735784985125065, -0.01867789588868618, -0.009048418141901493]], [[-0.026756873354315758, -0.009462660178542137, -0.02193998172879219], [0.025947196409106255, -0.012662362307310104, -0.01795516535639763], [0.017989497631788254, -0.056727614253759384, -0.034108635038137436]], [[-0.03630072623491287, -0.040874361991882324, -0.017902430146932602], [0.0023591292556375265, -0.018265269696712494, 0.00610439432784915], [-0.04417179524898529, -0.07472633570432663, -0.025487160310149193]], [[-0.05429208278656006, -0.10748492181301117, -0.031584884971380234], [0.005284614861011505, -0.05354800447821617, -0.02592834085226059], [-0.08405734598636627, -0.061958976089954376, -0.015981383621692657]], [[-0.015498396940529346, -0.05902184545993805, -0.01117938943207264], [0.019237428903579712, -0.05621686205267906, -0.03347199037671089], [0.01860104501247406, -0.06760480999946594, -0.031328439712524414]], [[-0.025450177490711212, 0.018475499004125595, -0.11232579499483109], [-0.03009684383869171, -0.0001593453489476815, 0.0002962265280075371], [-0.028741877526044846, -0.07588396966457367, -0.06321826577186584]], [[-0.006779355462640524, -0.04705703258514404, -0.11642446368932724], [-0.03108135424554348, -0.015079790726304054, -0.06587668508291245], [-0.003408537246286869, -0.030136656016111374, -0.0734650120139122]], [[-0.016295041888952255, -0.018391737714409828, 0.0101926876232028], [-0.04884761944413185, -0.08662987500429153, 0.019102362915873528], [-0.049989327788352966, -0.11707708239555359, 0.052690062671899796]], [[0.005069337785243988, -0.05250079184770584, -0.0670330673456192], [0.01099302712827921, -0.007917358539998531, -0.06645409017801285], [-0.022600682452321053, -0.024406850337982178, -0.06811144948005676]], [[-0.0032681722659617662, -0.08243808150291443, 0.014513886533677578], [-0.06450485438108444, -0.04766523838043213, 0.020560864359140396], [-0.05238557606935501, -0.11322347074747086, 0.012638479471206665]]], [[[0.03724335506558418, 0.02272064983844757, -0.05188552662730217], [-0.0027125009801238775, -0.15703082084655762, -0.08854001015424728], [-0.11760099232196808, -0.0018721356755122542, 0.16061781346797943]], [[0.026080187410116196, 0.13158752024173737, -0.03463546186685562], [0.07233475893735886, -0.07197503745555878, -0.19742915034294128], [-0.00632233964279294, 0.03992047160863876, 0.1656426191329956]], [[-0.08471769094467163, 0.18149663507938385, 0.05514223128557205], [0.09353195130825043, 0.05333862453699112, -0.1739770770072937], [0.13237087428569794, -0.12296131998300552, -0.188369020819664]], [[0.008073316887021065, -0.13559548556804657, -0.10743030160665512], [-0.07210952043533325, -0.13630439341068268, -0.04110598936676979], [0.002997826552018523, -0.06316771358251572, 0.05653345584869385]], [[-0.055482372641563416, 0.06166158989071846, 0.03919215872883797], [-0.23021544516086578, 0.10934165865182877, 0.011818384751677513], [-0.07172831892967224, -0.0038668352644890547, -0.07611847668886185]], [[-0.16037173569202423, 0.13790850341320038, 0.05423837900161743], [0.09244322031736374, 0.17931483685970306, -0.054372768849134445], [0.0634617879986763, -0.09052891284227371, -0.12769027054309845]], [[0.0440310575067997, -0.02025187388062477, 0.019086485728621483], [-0.0735049769282341, -0.14897263050079346, -0.08884648233652115], [0.00560262706130743, 0.14829890429973602, 0.09906637668609619]], [[-0.0006820295238867402, -0.09423638880252838, -0.010797879658639431], [-0.02575813978910446, 0.24382884800434113, -0.01845462992787361], [-0.08043176680803299, 0.16115693747997284, -0.0709269568324089]], [[-0.13131755590438843, -0.051885928958654404, 0.08682659268379211], [-0.1596260815858841, 0.24941720068454742, 0.07745016366243362], [-0.10201095044612885, 0.11868733912706375, -0.0771883949637413]], [[0.02046559378504753, -0.22751261293888092, -0.05882915109395981], [0.04939902573823929, 0.11886483430862427, 0.08032262325286865], [-0.15196989476680756, 0.2260570377111435, 0.021550213918089867]], [[-0.08390605449676514, -0.091208815574646, -0.03284399211406708], [-0.19724762439727783, 0.2151246964931488, 0.008129095658659935], [-0.007974944077432156, 0.24697476625442505, 0.017724530771374702]], [[-0.04717598110437393, 0.023432748392224312, -0.0514586865901947], [-0.19437503814697266, -0.07472946494817734, 0.002396796364337206], [-0.000984328449703753, -0.0007425670046359301, 0.04238518700003624]], [[0.022352349013090134, -0.27249276638031006, 0.013136981055140495], [0.1118166446685791, 0.03513331338763237, 0.07150125503540039], [-0.03951767459511757, 0.019115300849080086, 0.024397408589720726]], [[-0.1688392609357834, 0.004563069436699152, 0.02942398190498352], [-0.26484814286231995, 0.26059019565582275, -0.004563580732792616], [-0.11952841281890869, 0.09451772272586823, -0.1315225064754486]], [[0.0047390880063176155, 0.10875726491212845, -0.06726528704166412], [0.07740230858325958, -0.052531324326992035, 0.04265209287405014], [0.053061146289110184, -0.08922266960144043, 0.04398433864116669]], [[-0.09472842514514923, 0.12105284631252289, 0.02477184869349003], [0.017147695645689964, 0.16137808561325073, -0.16521742939949036], [0.08219116926193237, -0.03003888577222824, -0.14645305275917053]], [[0.02115776017308235, -0.17192257940769196, -0.09615395963191986], [0.03195750713348389, -0.2071325182914734, -0.05667361244559288], [0.009276674129068851, -0.14276862144470215, -0.000989048625342548]], [[0.11277659237384796, -0.28484007716178894, -0.025013837963342667], [0.0716051384806633, 0.10084202885627747, 0.035106461495161057], [-0.08769477903842926, 0.2274433821439743, -0.028099754825234413]], [[-0.030779199674725533, 0.12672816216945648, -0.010430095717310905], [0.10535554587841034, 0.050814684480428696, -0.11249703168869019], [-0.010862820781767368, -0.05199643224477768, 0.04282893240451813]], [[-0.0913066640496254, -0.02292853407561779, -0.012128787115216255], [-0.0882023349404335, -0.0054212892428040504, 0.11113277822732925], [-0.03751729428768158, -0.06318255513906479, 0.13783486187458038]], [[-0.024046778678894043, 0.006039415951818228, 0.03919394314289093], [-0.08639349043369293, -0.016774773597717285, 0.11727388948202133], [0.026956288143992424, -0.07202747464179993, -0.028875768184661865]], [[-0.006889633368700743, -0.1497706025838852, 0.09387753158807755], [-0.17544111609458923, -0.18558736145496368, 0.10250025242567062], [0.0683656632900238, 0.005826381966471672, 0.12129194289445877]], [[0.08761563897132874, -0.03476957976818085, -0.03300553560256958], [-0.11581632494926453, 0.012793244794011116, 0.00041530412272550166], [-0.20336376130580902, 0.08625894039869308, 0.12543828785419464]], [[0.03326252102851868, -0.059316035360097885, 0.18838411569595337], [-0.23292724788188934, -0.08824191242456436, 0.040397245436906815], [-0.027442270889878273, 0.0015445909230038524, -0.12673093378543854]], [[-0.10486679524183273, 0.15470856428146362, -0.03452115133404732], [0.0680759996175766, 0.14841695129871368, -0.02973850630223751], [-0.038593992590904236, -0.1247653067111969, 0.012208638712763786]], [[0.003277804935351014, 0.11768355220556259, -0.016243457794189453], [0.18060535192489624, -0.07936626672744751, -0.20222382247447968], [0.009514862671494484, -0.06084528937935829, -0.03561736270785332]], [[-0.10831160098314285, 0.1461382508277893, 0.0037067856173962355], [0.021669859066605568, -0.052281852811574936, -0.09758301824331284], [-0.04452066496014595, 0.014857064932584763, 0.16406792402267456]], [[0.11268415302038193, -0.2956327795982361, -0.09840624779462814], [0.12049434334039688, 0.12560708820819855, 0.03054097294807434], [-0.049638163298368454, 0.2284901887178421, -0.02716350555419922]], [[-0.08419398963451385, -0.08878090232610703, 0.026865901425480843], [-0.04227564483880997, -0.04018053039908409, -0.01839771680533886], [0.0053154523484408855, -0.06155453622341156, -0.039083465933799744]], [[-0.09060195088386536, 0.03408725932240486, 0.002695089904591441], [0.02561698481440544, 0.06967287510633469, -0.0630313903093338], [0.03507858142256737, 0.03788559138774872, -0.1402902454137802]], [[0.11998617649078369, 0.01375627052038908, 0.0196076612919569], [-0.04117973521351814, -0.1538344770669937, -0.1017821878194809], [-0.2100045531988144, 0.01767215132713318, 0.06612491607666016]], [[0.06072928383946419, 0.036945126950740814, 0.001042695133946836], [0.03517812490463257, 0.0296875461935997, -0.1538059115409851], [-0.0675569474697113, 0.05598749965429306, -0.0426652766764164]], [[-0.015318488702178001, 0.1720520704984665, -0.0029732706025242805], [0.07772688567638397, -0.017871810123324394, -0.249254047870636], [0.08719711750745773, -0.08086400479078293, 0.024736056104302406]], [[0.028770077973604202, 0.008356872014701366, -0.021436741575598717], [-0.14819686114788055, 0.06106826663017273, -0.023147104308009148], [-0.18137811124324799, -0.01656593568623066, 0.10953051596879959]], [[-0.09629182517528534, -0.15662842988967896, -0.035574205219745636], [-0.12470218539237976, -0.32363080978393555, -0.0663890391588211], [0.0963478833436966, 0.05038268864154816, 0.24393931031227112]], [[-0.09196607023477554, -0.19483023881912231, 0.02786562591791153], [0.04505818709731102, 0.056408293545246124, 0.04341186210513115], [0.034166283905506134, 0.0724497139453888, -0.06723737716674805]], [[-0.10679793357849121, -0.09595899283885956, 0.1622432917356491], [-0.16528362035751343, -0.20997858047485352, 0.061020828783512115], [-0.003033275483176112, -0.1281883865594864, 0.037791747599840164]], [[-0.06386803835630417, 0.05025289207696915, 0.011596355587244034], [0.008475621230900288, 0.11635909229516983, -0.12435153871774673], [0.07229958474636078, 0.08426325768232346, -0.10411197692155838]], [[-0.08308380097150803, 0.03864316642284393, 0.08765752613544464], [-0.052224352955818176, 0.059290360659360886, -0.05086895450949669], [0.01864015869796276, 0.04433107748627663, -0.18119896948337555]], [[0.06194872781634331, -0.15476767718791962, -0.031352873891592026], [0.09454211592674255, 0.11543326079845428, 0.04420125111937523], [-0.012292196974158287, 0.11333974450826645, -0.08338954299688339]], [[0.04147273674607277, 0.009119329042732716, 0.06663664430379868], [-0.06746383011341095, -0.13484781980514526, -0.16252881288528442], [-0.10561468452215195, -0.16439750790596008, 0.053282998502254486]], [[0.027095789089798927, 0.07704662531614304, -0.08256017416715622], [0.06687996536493301, -0.1312883347272873, -0.15464000403881073], [0.08372698724269867, -0.01676749624311924, 0.13622261583805084]], [[-0.09345140308141708, 0.09560368955135345, 0.08882222324609756], [0.004626381676644087, 0.07053975015878677, -0.0687556117773056], [0.08405466377735138, -0.027835648506879807, -0.15604378283023834]], [[-0.10490809381008148, -0.21954567730426788, 0.13489387929439545], [-0.24307657778263092, -0.16366612911224365, 0.07654239237308502], [0.002582079963758588, 0.0028327559120953083, 0.015655478462576866]], [[-0.012695892713963985, 0.06748165190219879, 0.018391504883766174], [0.002292064717039466, -0.038315821439027786, -0.06464099884033203], [-0.03510912135243416, -0.0047629461623728275, -0.014048711396753788]]], [[[-0.0009235860779881477, 0.032304856926202774, -0.04724773392081261], [-0.016684703528881073, 0.018786337226629257, -0.037565506994724274], [0.03552260994911194, -0.04258938133716583, -0.023096615448594093]], [[-0.012533091939985752, 0.016708040609955788, -0.002583768917247653], [-0.02752186544239521, 0.020891213789582253, -0.023889873176813126], [-0.01929408684372902, -0.01708630658686161, 0.01744549348950386]], [[0.035100534558296204, 0.020888088271021843, 0.011983021162450314], [0.020795775577425957, -0.023030560463666916, -0.024478070437908173], [-0.01763012446463108, -0.03192818537354469, 0.02406187914311886]], [[0.004866885486990213, -0.024723343551158905, -0.02683095447719097], [-0.0007864278159104288, 0.031003234907984734, 0.023326870054006577], [-0.04208831861615181, 0.006944292224943638, 0.006605715490877628]], [[0.007538354489952326, -0.02849378064274788, -0.008865585550665855], [0.0029225978069007397, 0.029992006719112396, -0.06933216750621796], [-0.02004394121468067, -0.03788688778877258, -0.030487263575196266]], [[-0.001038426416926086, 0.011817865073680878, -0.04756211116909981], [0.023125696927309036, 0.031089050695300102, -0.026856746524572372], [0.002502402290701866, -0.020202109590172768, 0.013644703663885593]], [[-0.024984018877148628, -0.02966385707259178, -0.05471805855631828], [-0.044805511832237244, 0.023994095623493195, -0.027691693976521492], [-0.0098465820774436, -0.03985684737563133, 0.019146321341395378]], [[-0.04441479593515396, -0.04544258490204811, -0.05643786862492561], [-0.0562170073390007, 0.02733498439192772, -0.050478432327508926], [-0.025929933413863182, -0.013614307157695293, 0.016906818374991417]], [[-0.02026277408003807, -0.08082883805036545, 0.014275485649704933], [-0.08130156248807907, -0.04151933640241623, -0.03652462735772133], [-0.04000958055257797, 0.012457111850380898, 0.02239789441227913]], [[-0.016187267377972603, -0.041312459856271744, 0.021108465269207954], [0.011918107978999615, -0.01153792068362236, -0.024829983711242676], [-0.012110444717109203, 0.04060482233762741, -0.002966554369777441]], [[-0.040968380868434906, -0.07583236694335938, -0.052132222801446915], [0.0049659921787679195, -0.04293133318424225, -0.03247140720486641], [-0.006696910131722689, -0.05590323358774185, -0.023458844050765038]], [[-0.01571914553642273, 0.01615353487432003, 0.02053528092801571], [0.030434969812631607, 0.024535544216632843, -0.064064159989357], [-0.018089214339852333, 0.00035160643164999783, -0.05063074082136154]], [[-0.011357956565916538, -0.058089032769203186, 0.0026208471972495317], [0.018773911520838737, -0.062399547547101974, 0.02574821561574936], [0.0015505842166021466, -0.04770206660032272, 0.029425686225295067]], [[-0.05689813196659088, -0.05753324553370476, -0.04467836767435074], [-0.014421498402953148, -0.01152271218597889, -0.034326184540987015], [-0.052065666764974594, -0.012565449811518192, 0.028890633955597878]], [[0.03843335062265396, 0.021503452211618423, -0.013356393203139305], [0.014127570204436779, -0.04559094086289406, 0.0005367504199966788], [-0.05313050001859665, -0.03184741362929344, -0.026157556101679802]], [[0.0247049443423748, -0.02158009074628353, -0.030519915744662285], [-0.00234277849085629, -0.05100632831454277, -0.01660951040685177], [0.0032778822351247072, 0.002429771237075329, -0.0013923189835622907]], [[0.03044014982879162, -0.044059619307518005, -0.04583457112312317], [0.049047622829675674, -0.0003152413701172918, -0.027776146307587624], [0.02313009463250637, 0.020950600504875183, -0.019016634672880173]], [[-0.026221122592687607, -0.025008637458086014, -0.002758631482720375], [-0.011921445839107037, 0.01029587909579277, -0.061497703194618225], [-0.030967703089118004, 0.026959890499711037, -0.005124517250806093]], [[0.010280446149408817, 0.01483065728098154, -0.030557336285710335], [-0.01778898946940899, 0.009641798213124275, -0.030953314155340195], [-0.02245716191828251, -0.003038583090528846, 0.00028551998548209667]], [[-0.02738848328590393, -0.04960395023226738, -0.031829122453927994], [-0.04602131247520447, 0.014642581343650818, -0.061725594103336334], [0.02994312345981598, 0.014741823077201843, -0.05675370618700981]], [[0.0014139480190351605, -0.08468879759311676, -0.021788520738482475], [-0.05955330282449722, -0.07955475896596909, -0.018885387107729912], [-0.048632021993398666, 0.01774001121520996, -0.049288950860500336]], [[0.015047827735543251, 0.004306827671825886, 0.02335437946021557], [-0.03487198427319527, -0.053348030894994736, -0.05311087146401405], [0.03883592411875725, -0.02711344324052334, -0.008400492370128632]], [[-0.008203660137951374, -0.0005069631733931601, -0.06281319260597229], [0.038684580475091934, -0.049429893493652344, 0.027461161836981773], [-0.0248034056276083, -0.0350385382771492, -0.021098606288433075]], [[-0.0015407777391374111, -0.0411648154258728, -0.06409350037574768], [0.023105964064598083, 0.026647420600056648, 0.016018686816096306], [0.03231082111597061, 0.010923639871180058, -0.007627113256603479]], [[-0.04217097908258438, -0.04570656642317772, -0.05174676328897476], [-0.011661727912724018, 0.023465806618332863, -0.039242930710315704], [-0.00683324271813035, -0.011655023321509361, -0.044029589742422104]], [[-0.025592636317014694, 0.0291436854749918, 0.02844364382326603], [0.010503201745450497, -0.018465077504515648, -0.014443828724324703], [0.012337448075413704, -0.025448868051171303, -0.02673531137406826]], [[0.02475574240088463, -0.012374905869364738, -0.0415748730301857], [0.02508256398141384, 8.063678978942335e-05, 0.018721915781497955], [-0.055449116975069046, -0.010475533083081245, 0.021708469837903976]], [[-0.009827564470469952, -0.041261058300733566, 0.020376723259687424], [0.020192690193653107, -3.761953121284023e-05, -0.008370663970708847], [-0.0031189024448394775, 0.020554879680275917, -0.021418124437332153]], [[-0.031101971864700317, 0.010408740490674973, -0.006948907859623432], [0.0181121863424778, -0.01807686872780323, -0.02557683363556862], [-0.007200624328106642, 0.004700306802988052, -0.04808094725012779]], [[-0.05750049278140068, 0.0008306482923217118, -0.04627562314271927], [-0.013594437390565872, 0.00529689434915781, -0.0033398675732314587], [0.020618176087737083, 0.01453873235732317, 0.017174530774354935]], [[-0.0060196202248334885, -0.0026541678234934807, -0.0028999624773859978], [0.030404873192310333, -0.060830436646938324, -0.043548181653022766], [-0.05182889848947525, -0.033885225653648376, 0.01517635490745306]], [[-0.06729743629693985, -0.05913901701569557, 0.016821391880512238], [-0.05248682573437691, 0.02301967330276966, 0.0022957168985158205], [-0.003047813894227147, 0.03566953167319298, -0.04687454551458359]], [[0.03483233600854874, 0.009278841316699982, -0.056278131902217865], [0.00835440680384636, -0.02677825279533863, -0.04825582727789879], [-0.01362246461212635, -0.04069165885448456, 0.023437101393938065]], [[0.043064218014478683, -0.013344653882086277, -0.06507278978824615], [-0.00354296388104558, -0.007690010592341423, 0.01210795622318983], [-0.001534467563033104, 0.004036151338368654, 0.0003605694801080972]], [[-0.05156685784459114, -0.04859849810600281, -0.05560802295804024], [-0.02381002902984619, -0.0018843670841306448, -0.018439404666423798], [0.02811174839735031, -0.020831210538744926, -0.038558799773454666]], [[-0.017564425244927406, -0.04206370934844017, -0.029188990592956543], [0.02603665553033352, -0.024471858516335487, 0.02846328169107437], [-0.01274140365421772, -0.031541094183921814, 0.019919566810131073]], [[-0.04614349454641342, -0.02844441868364811, 0.0022006933577358723], [0.008715295232832432, -0.07190197706222534, -0.0063566830940544605], [-0.03150664642453194, 0.028353966772556305, 0.01339886523783207]], [[0.006873088423162699, 0.008199965581297874, -0.022192280739545822], [-0.014758064411580563, 0.028208529576659203, -0.047046512365341187], [-0.04722362384200096, 0.008890526369214058, -0.017756016924977303]], [[-0.012647458352148533, 0.018310166895389557, -0.021263672038912773], [-0.056269120424985886, -0.03646465390920639, 0.03561896085739136], [-0.030891066417098045, -0.0180085226893425, 0.02359813079237938]], [[-0.01119665801525116, -0.06548289209604263, 0.02411027066409588], [0.013158204033970833, 0.029218848794698715, 0.012333396822214127], [-0.03840696066617966, -0.014285446144640446, 0.024249756708741188]], [[-0.01321185752749443, 0.0006815806264057755, -0.06940730661153793], [-0.03233486786484718, 0.0034273741766810417, -0.026831822469830513], [-0.036035358905792236, -0.06258512288331985, 0.013124313205480576]], [[-0.010801013559103012, -0.052900973707437515, 0.02713477984070778], [0.02421572618186474, -0.03890857845544815, -0.056054990738630295], [0.042606208473443985, -0.014272358268499374, -0.0460113100707531]], [[0.01745755597949028, -0.029869133606553078, -0.013410390354692936], [-0.03509769216179848, -0.05068640038371086, -0.041406385600566864], [-0.016056159511208534, -0.02815495803952217, 0.053226254880428314]], [[-0.00860627368092537, -0.030392063781619072, 0.0026330945547670126], [-0.047891054302453995, -0.03728744015097618, 0.0036172010004520416], [-0.04388946294784546, 0.020838459953665733, 0.0009605161030776799]], [[-0.05439010262489319, -0.07039014995098114, -0.006221654824912548], [0.010582773014903069, -0.02150789089500904, -0.056434083729982376], [-0.044562097638845444, 0.0115298917517066, 0.006505120079964399]]], [[[-0.008898853324353695, -0.08005290478467941, -0.06322819739580154], [-0.11034983396530151, 0.010549127124249935, 0.14494101703166962], [-0.14493507146835327, -0.034427717328071594, 0.12671184539794922]], [[0.04142320156097412, 0.09672485291957855, 0.03569041192531586], [-0.11135317385196686, -0.0445016548037529, 0.03044668771326542], [-0.0694485455751419, -0.06952013820409775, 0.05034051090478897]], [[0.061999622732400894, -0.009106657467782497, -0.17001019418239594], [0.10567378252744675, -0.08219496160745621, -0.17979244887828827], [-0.0029984447173774242, -0.11294123530387878, -0.10850933194160461]], [[-0.0727706179022789, 0.006063506938517094, 0.06268836557865143], [-0.058699898421764374, -0.029114458709955215, 0.15158702433109283], [0.040882352739572525, 0.11493566632270813, 0.24624952673912048]], [[-0.0550479032099247, -0.09333862364292145, 0.07538067549467087], [0.03424561396241188, 0.009665842168033123, 0.13386598229408264], [-0.04324020817875862, -0.03845420107245445, 0.11523374915122986]], [[0.00659227604046464, 0.09121979773044586, -0.17427022755146027], [0.013157503679394722, -0.020399922505021095, -0.2140570729970932], [-0.03327695280313492, -0.08982706069946289, -0.19009967148303986]], [[-0.11052422970533371, -0.0970304012298584, 0.043500300496816635], [-0.16458015143871307, -0.10699714720249176, 0.14714089035987854], [-0.07471943646669388, 0.05552509054541588, 0.2856847047805786]], [[0.1953151673078537, -0.12164229899644852, 0.05068635568022728], [0.21236085891723633, 0.06528526544570923, 0.060946159064769745], [-0.029387757182121277, -0.08901022374629974, 0.023818017914891243]], [[-0.009399796836078167, -0.0440693125128746, 0.10277222841978073], [0.06216677278280258, -0.02593950368463993, 0.10234806686639786], [-0.11004738509654999, -0.14549201726913452, -0.12189851701259613]], [[0.20429402589797974, -0.03142182528972626, 0.06619652360677719], [0.2615783214569092, 0.12044315040111542, 0.18071073293685913], [-0.030651886016130447, -0.04287220910191536, -0.002630563685670495]], [[0.03673938661813736, -0.04999271780252457, 0.0517834909260273], [0.0333571657538414, -0.016996629536151886, -0.0015494442777708173], [0.00018778153753373772, -0.13618649542331696, -0.06548350304365158]], [[-0.06802749633789062, -0.04104650020599365, 0.05078614503145218], [-0.07000544667243958, -0.01698242500424385, 0.22358590364456177], [-0.009359585121273994, 0.01963883824646473, 0.22930710017681122]], [[0.1363830417394638, -0.1653708815574646, 0.031081030145287514], [0.07520917803049088, -0.0795520767569542, 0.19589687883853912], [-0.10543806850910187, -0.17920012772083282, 0.17429989576339722]], [[0.002652120543643832, -0.154686838388443, 0.11009301990270615], [0.09035606682300568, -0.017338501289486885, 0.011901634745299816], [-0.07455278187990189, -0.12528492510318756, -0.08353868871927261]], [[-0.0620122104883194, -0.016370655968785286, 0.03945793956518173], [-0.06431964039802551, -0.09073064476251602, 0.01918625272810459], [0.08574295789003372, -0.020869290456175804, 0.0841631144285202]], [[0.08710844814777374, 0.03665948286652565, -0.13855797052383423], [0.1171179935336113, 0.03596531227231026, -0.11584411561489105], [-0.057101767510175705, 0.059457335621118546, 0.04336288198828697]], [[-0.042575158178806305, -0.016294201835989952, 0.05364000424742699], [-0.05051678046584129, 0.004090340342372656, 0.14277681708335876], [0.025450343266129494, 0.11612315475940704, 0.24191778898239136]], [[0.1403423398733139, -0.1375662386417389, 0.046838343143463135], [0.3204231262207031, 0.14998085796833038, 0.17582225799560547], [0.023719223216176033, -0.0680016502737999, 0.03651052713394165]], [[-0.0068333870731294155, -0.01616625301539898, -0.09414762258529663], [0.0023779072798788548, -0.07691465318202972, -0.053488533943891525], [-0.005032622255384922, -0.11314314603805542, -0.005899765994399786]], [[-0.039249077439308167, -0.12245865911245346, -0.07258442789316177], [0.047351762652397156, -0.08603089302778244, -0.04712185636162758], [0.04757022112607956, -0.06988939642906189, -0.14518778026103973]], [[-0.09873280674219131, -0.05471567437052727, 0.05909045785665512], [-0.027623295783996582, -0.06759253889322281, 0.1598043292760849], [0.013535990379750729, -0.04448268562555313, 0.2240745574235916]], [[-0.08688706159591675, -0.12112574279308319, 0.10267551988363266], [-0.08188185840845108, -0.07092814892530441, 0.14592720568180084], [0.042233649641275406, 0.08368845283985138, 0.14776553213596344]], [[0.019003260880708694, -0.06421445310115814, -0.016835350543260574], [-0.054375939071178436, -0.02579718641936779, 0.14736439287662506], [-0.024533210322260857, 0.09292084723711014, 0.15941505134105682]], [[-0.035528652369976044, -0.15846441686153412, 0.013364553451538086], [-0.01939002424478531, -0.10932669788599014, 0.026153750717639923], [0.03440510109066963, -0.013234426267445087, 0.05853819102048874]], [[-0.0027525946497917175, 0.021155793219804764, -0.009758563712239265], [0.13086406886577606, -0.024542249739170074, -0.0656113475561142], [0.11603399366140366, -0.20572857558727264, -0.2052343487739563]], [[0.15187713503837585, -0.015926452353596687, -0.19480235874652863], [0.020005596801638603, 0.0714261531829834, 0.0016965351533144712], [-0.22272461652755737, -0.05402500182390213, 0.0757056400179863]], [[0.09313072264194489, 0.10053425282239914, 0.021065613254904747], [-0.041554346680641174, -0.01856641285121441, 0.11046586185693741], [-0.09406635910272598, -0.08820339292287827, 0.06402146071195602]], [[0.20975716412067413, -0.13122235238552094, 0.0700516477227211], [0.3539947271347046, 0.15423816442489624, 0.24555633962154388], [0.022282784804701805, -0.14221440255641937, 0.055356018245220184]], [[-0.10885171592235565, -0.05981694906949997, 0.025991471484303474], [-0.0135917654260993, -0.09300479292869568, 0.23642516136169434], [0.05978661775588989, -0.01098750252276659, 0.2833111882209778]], [[0.04054676741361618, -0.009651255793869495, -0.0968232974410057], [0.1365145593881607, 0.07868421077728271, -0.086546890437603], [-0.020638946443796158, 0.07406750321388245, -0.024705497547984123]], [[0.07437935471534729, -0.06005583330988884, -0.04931434243917465], [-0.08341125398874283, -0.06595421582460403, 0.128679096698761], [-0.07352285832166672, 0.0339149571955204, 0.3108103275299072]], [[0.18775129318237305, -0.04277486726641655, -0.17970295250415802], [-0.00733103696256876, 0.08534527570009232, 0.003482482163235545], [-0.22416524589061737, -0.02353231981396675, 0.08605372905731201]], [[0.20772048830986023, 0.019385479390621185, -0.1826786994934082], [0.18418177962303162, 0.02931891568005085, -0.006395622156560421], [-0.07258602976799011, 0.00814608484506607, 0.08035651594400406]], [[-0.07393208146095276, -0.1147904023528099, 0.07352378964424133], [-0.06332208961248398, -0.05605276674032211, 0.18825165927410126], [-0.06314660608768463, -0.03149143233895302, 0.14171117544174194]], [[-0.1483003795146942, -0.13347594439983368, 0.11520025879144669], [-0.1407471001148224, -0.13388073444366455, 0.12071521580219269], [0.029623283073306084, -0.0003761030675377697, 0.33761170506477356]], [[0.05547872185707092, -0.19624550640583038, 0.020607760176062584], [0.1905803382396698, -0.030888613313436508, 0.1643235683441162], [-0.07458268851041794, -0.16855977475643158, 0.047635555267333984]], [[-0.14595527946949005, -0.12567782402038574, -0.11298396438360214], [0.05034288763999939, -0.16148781776428223, -0.1820068657398224], [0.12396854162216187, -0.09557632356882095, -0.1706220805644989]], [[0.01708594523370266, -0.023479141294956207, -0.11119603365659714], [0.09040184319019318, 0.07142883539199829, -0.07454360276460648], [-0.0284006055444479, 0.03937553986907005, 0.13624180853366852]], [[-0.004931279458105564, -0.08950840681791306, -0.12590353190898895], [0.1371377855539322, 0.04656531661748886, -0.1287531852722168], [0.005638272035866976, 0.07856693863868713, -0.04524353891611099]], [[0.162504181265831, -0.14901983737945557, 0.03611806407570839], [0.16405510902404785, 0.009532887488603592, 0.13457880914211273], [-0.009223815985023975, -0.10831232368946075, 0.06553970277309418]], [[0.0997287854552269, -0.049050554633140564, -0.15266487002372742], [-0.10658242553472519, -0.05574801191687584, 0.14106592535972595], [-0.13422930240631104, 0.07233446091413498, 0.3922085762023926]], [[-0.02886904403567314, 0.0043283854611217976, -0.012771060690283775], [-0.0998053178191185, -0.05994804576039314, 0.06136692687869072], [0.019080430269241333, 0.015836648643016815, 0.08631490170955658]], [[0.0015895669348537922, 0.011022577062249184, -0.14616699516773224], [0.11591044813394547, 0.02633609250187874, -0.15181806683540344], [0.0346897691488266, 0.054061561822891235, -0.131528839468956]], [[-0.19220827519893646, -0.17932267487049103, 0.11583495885133743], [-0.03905290737748146, -0.09286410361528397, 0.14851613342761993], [0.06406896561384201, -0.04132124409079552, 0.05885987728834152]], [[0.12511931359767914, -0.04957085847854614, -0.1729234755039215], [0.08088171482086182, 0.062163449823856354, -0.04061145335435867], [-0.06482735276222229, 0.13603797554969788, 0.13925085961818695]]], [[[0.04637617990374565, -0.008019961416721344, -0.042903050780296326], [0.08926662057638168, 0.00654607592150569, -0.09992735832929611], [0.06848986446857452, 0.07104724645614624, -0.05979413539171219]], [[0.07614311575889587, 0.03090701997280121, -0.12911614775657654], [0.20311668515205383, 0.04645812511444092, -0.1809869408607483], [0.025674063712358475, -0.016015198081731796, -0.2138786017894745]], [[-0.009875073097646236, 0.034270476549863815, 0.0049950722604990005], [0.12573876976966858, 0.047544024884700775, -0.03313416615128517], [0.15820541977882385, 0.04723198711872101, -0.015122676268219948]], [[-0.01670440472662449, -0.02569739706814289, -0.17609016597270966], [-0.10857158899307251, -0.008431557565927505, -0.10914550721645355], [-0.177272766828537, -0.10477109998464584, 0.0026993651408702135]], [[-0.07495762407779694, -0.1575983315706253, -0.1886889636516571], [-0.0578802227973938, -0.1105126440525055, 0.0823725014925003], [-0.15289552509784698, -0.1298898458480835, -0.275604784488678]], [[-0.0304607804864645, 0.03463719040155411, 0.022610202431678772], [0.06794919073581696, 0.07125697284936905, 0.05131891742348671], [0.05332330986857414, 0.05983434617519379, -0.003794275224208832]], [[-0.006750709377229214, -0.03155019134283066, -0.1798010617494583], [0.0639154389500618, 0.04877891391515732, -0.18422169983386993], [0.006422984413802624, 0.12073788046836853, -0.007141715381294489]], [[-0.06583580374717712, -0.08887611329555511, 0.034603118896484375], [-0.04780636355280876, -0.0683828815817833, -0.01844244822859764], [0.06389995664358139, -0.014247993938624859, -0.04809996858239174]], [[-0.07241585850715637, -0.08009888231754303, -0.014551875181496143], [-0.034913308918476105, -0.0687563419342041, 0.10493945330381393], [-0.05784734711050987, -0.0312669575214386, -0.11679399013519287]], [[-0.10196428745985031, 0.05000441521406174, 0.06790070980787277], [-0.10594679415225983, 0.011967415921390057, -0.04817527160048485], [0.043828025460243225, -0.036541897803545, -0.0895514190196991]], [[-0.12458304315805435, -0.09207311272621155, 0.05265577882528305], [-0.0015304269036278129, 0.026021122932434082, 0.027443651109933853], [0.025169793516397476, 0.07578647136688232, -0.060234665870666504]], [[-0.02559252269566059, -0.11417558044195175, -0.22278159856796265], [-0.09888767451047897, -0.053919509053230286, 0.01928308606147766], [-0.2169729620218277, -0.10590241104364395, -0.01991431787610054]], [[-0.07845235615968704, -0.09007122367620468, -0.030873199924826622], [0.07711004465818405, -0.020016441121697426, -0.05335640162229538], [0.14019551873207092, 0.04754653945565224, 0.00926390290260315]], [[-0.03289768099784851, -0.12622377276420593, 0.03358668088912964], [0.055430687963962555, -0.009146936237812042, 0.041014350950717926], [0.10359466820955276, -0.03082231990993023, -0.07522951811552048]], [[0.08162329345941544, 0.12798139452934265, -0.11778400838375092], [0.07802363485097885, 0.022401083260774612, -0.22354300320148468], [0.02642088383436203, -0.09813494235277176, -0.26469850540161133]], [[-0.10073680430650711, -0.07763892412185669, -0.11483567953109741], [0.056964464485645294, -0.0108460932970047, -0.04862460494041443], [0.14942553639411926, 0.057829003781080246, 0.04174547269940376]], [[0.08358467370271683, 0.06780366599559784, -0.16398687660694122], [-0.07784900069236755, -0.09162069112062454, -0.16810119152069092], [-0.05294717848300934, -0.09330708533525467, 0.023102357983589172]], [[-0.008776422590017319, 0.020175684243440628, 0.07063040882349014], [-0.053385134786367416, -0.03957206755876541, -0.121504046022892], [0.030912622809410095, -0.07746926695108414, -0.06821347028017044]], [[0.1251513510942459, 0.16903100907802582, 0.007995011284947395], [0.11024679243564606, 0.07291370630264282, -0.17326705157756805], [0.102538101375103, -0.018011294305324554, -0.2747710049152374]], [[-0.010823172517120838, 0.018750276416540146, 0.09901130199432373], [-0.06809583306312561, -0.038260288536548615, 0.06134077534079552], [0.04210611432790756, 0.01616855151951313, -0.06944770365953445]], [[-0.03778690844774246, -0.09464877098798752, -0.35116294026374817], [-0.14515911042690277, -0.043746497482061386, 0.08100240677595139], [-0.20900973677635193, -0.1554783284664154, -0.22247526049613953]], [[0.013779555447399616, -0.0646522119641304, -0.17117097973823547], [-0.1325540989637375, -0.09357521682977676, -0.01696758344769478], [-0.11215604096651077, -0.19867777824401855, -0.06299196928739548]], [[0.06149671971797943, 0.019655806943774223, -0.02906435914337635], [0.05154655501246452, 0.0258950125426054, -0.10799168795347214], [0.001454908517189324, 0.1098017618060112, -0.03687851503491402]], [[0.028495263308286667, -0.10548777878284454, -0.06812331825494766], [0.06581312417984009, 0.013032037764787674, 0.076289102435112], [0.16464973986148834, -0.010905735194683075, -0.01081311609596014]], [[0.15053273737430573, 0.20584163069725037, 0.13244129717350006], [0.1187235563993454, 0.12051831185817719, 0.020590081810951233], [0.04321017116308212, -0.039634887129068375, -0.20091529190540314]], [[-0.03780466318130493, -0.134796604514122, -0.11953254044055939], [0.07419224828481674, -0.03468862175941467, -0.06717704236507416], [0.19814980030059814, 0.06116208806633949, 0.016076942905783653]], [[0.023248042911291122, 0.008107740432024002, -0.10430663824081421], [0.18152688443660736, 0.08123215287923813, -0.12663230299949646], [0.0742967501282692, 0.03384670987725258, -0.13930954039096832]], [[-0.054735299199819565, -0.07494556158781052, 0.058299869298934937], [0.016484888270497322, -0.058784276247024536, -0.0356607660651207], [0.06784237176179886, -0.020114703103899956, -0.0523793064057827]], [[0.029649624601006508, -0.04808983951807022, -0.1300591230392456], [-0.06687970459461212, -0.012539328075945377, 0.01161789707839489], [-0.1486922949552536, -0.1425119787454605, -0.02881535515189171]], [[-0.18758367002010345, -0.09818320721387863, -0.06940550357103348], [0.04518895968794823, -0.056997399777173996, 0.0026630654465407133], [0.1286228448152542, 0.0772310420870781, 0.11495660245418549]], [[0.03597947582602501, -0.04392656683921814, -0.06074485182762146], [0.07503290474414825, -0.001238185097463429, -0.24098072946071625], [0.030482804402709007, 0.050103895366191864, -0.1088750809431076]], [[-0.07253491133451462, -0.13767701387405396, -0.07695060968399048], [0.051945511251688004, 0.019688349217176437, -0.09734739363193512], [0.1756696105003357, 0.025218887254595757, -0.02541346289217472]], [[-0.014060579240322113, 0.046636633574962616, -0.042199358344078064], [0.15597383677959442, 0.025993864983320236, -0.06672756373882294], [0.16402806341648102, 0.03232676535844803, -0.0955883041024208]], [[0.03770233318209648, -0.0673496425151825, -0.06472422927618027], [0.07298870384693146, 0.0030398478265851736, -0.09672646224498749], [-0.019177911803126335, 0.0757506936788559, -0.0635729506611824]], [[0.014030732214450836, -0.001830522553063929, -0.24050097167491913], [0.03125542774796486, -0.01827884092926979, -0.19316840171813965], [0.06526421010494232, 0.00932870153337717, 0.045100435614585876]], [[-0.07527585327625275, -0.08125172555446625, -0.034815020859241486], [-0.06889141350984573, -0.09716693311929703, -0.024386638775467873], [0.09876053780317307, -0.03382132574915886, -0.059581976383924484]], [[-0.07837668061256409, 0.06526374816894531, 0.06000196188688278], [-0.10130439698696136, -0.04882746934890747, 0.07316042482852936], [0.18630169332027435, 0.0817771926522255, 0.05022532865405083]], [[-0.22381851077079773, -0.11194858700037003, -0.11053833365440369], [-0.0036663305945694447, -0.036307502537965775, -0.0481395460665226], [0.12235338240861893, 0.013278445228934288, 0.0530930794775486]], [[-0.18658232688903809, -0.11142600327730179, -0.09157966822385788], [-0.00788901001214981, 0.0037312768399715424, -0.019796030595898628], [0.1294027864933014, 0.05439871549606323, 0.10178663581609726]], [[-0.04790227487683296, -0.041491735726594925, 0.02250361070036888], [-0.018964705988764763, -0.06110718101263046, -0.11589040607213974], [0.12273886799812317, 0.033328842371702194, 0.0012886888580396771]], [[0.0647871345281601, -0.040739960968494415, -0.06750030815601349], [0.14235004782676697, -0.006608209572732449, -0.1657089740037918], [0.1730990707874298, 0.12274053692817688, -0.11403733491897583]], [[0.044117577373981476, 0.058126095682382584, -0.12580808997154236], [0.08941186219453812, 0.03969544917345047, -0.14248189330101013], [0.06917624175548553, -0.05322195217013359, -0.20787164568901062]], [[-0.1440483033657074, -0.09976156055927277, -0.022611910477280617], [0.030637389048933983, 0.013407987542450428, 0.04593866690993309], [0.16004423797130585, 0.07124496251344681, 0.12073848396539688]], [[0.06024186313152313, 0.0029967534355819225, -0.06898660212755203], [-0.02785436250269413, -0.05220385640859604, 0.006936751306056976], [0.12876027822494507, -0.03698405250906944, -0.052619848400354385]], [[-0.11582201719284058, -0.044893551617860794, -0.03736662119626999], [0.09491268545389175, 0.0020712779369205236, -0.062457796186208725], [0.1866099238395691, 0.10773064196109772, -0.01427982747554779]]], [[[-0.008982624858617783, -0.0384061373770237, 0.010633992031216621], [0.02668031118810177, 0.013231976889073849, -0.057145167142152786], [-0.04463598504662514, 0.02430061437189579, -0.017059922218322754]], [[0.023693060502409935, 0.02872277796268463, -0.02043955773115158], [-0.037132225930690765, -0.05603530630469322, 0.013349214568734169], [0.017778592184185982, -0.018261630088090897, -0.05344204604625702]], [[-0.038058552891016006, -0.009827501140534878, 0.02424643561244011], [-0.024154815822839737, -0.0364820621907711, -0.03887498378753662], [0.035597410053014755, 0.012213666923344135, -0.041124891489744186]], [[-0.0359792485833168, -0.045404039323329926, -0.0001764634798746556], [-0.02812882699072361, -0.012441643513739109, -0.014782031998038292], [-0.048968784511089325, -0.05367989465594292, -0.04906010255217552]], [[-0.03026873804628849, -0.0003252869064453989, -0.02794157713651657], [-0.009726079180836678, -0.015382072888314724, 0.03585946187376976], [-0.0270282793790102, 0.03915811702609062, -0.04801296070218086]], [[-0.047249555587768555, 0.009965804405510426, -0.02978014573454857], [0.016956277191638947, -0.033957019448280334, 0.036211803555488586], [0.038585104048252106, -0.0023383796215057373, 0.008192499168217182]], [[0.03985581919550896, 0.020702263340353966, -0.05218252167105675], [-0.011259890161454678, -0.05448941886425018, 0.031099995598196983], [-0.01780061051249504, -0.011109843850135803, -0.03980208560824394]], [[-0.032033998519182205, 0.0008878525113686919, 0.04019881412386894], [-0.03468916565179825, -0.0033688757102936506, 0.04093609005212784], [0.033697228878736496, -0.0171018335968256, 0.04307836294174194]], [[0.0123556237667799, 0.038949962705373764, -0.002834255574271083], [-0.05003407597541809, -0.02235911227762699, 0.006216526962816715], [0.012972879223525524, -0.05899839103221893, 0.03100859932601452]], [[-0.05300218611955643, 0.02223053015768528, 0.04281585291028023], [0.004086615517735481, -0.017887571826577187, 0.01761927828192711], [-0.024461550638079643, -0.047124411910772324, -0.04446497559547424]], [[0.01590433157980442, 0.03065815381705761, -0.004417634569108486], [-0.05629688501358032, -0.05766168236732483, -0.019953208044171333], [0.015360353514552116, -0.04286801815032959, 0.0052053676918148994]], [[-0.03522652015089989, 0.03280635178089142, -0.019642820581793785], [-0.01919962652027607, -0.053845684975385666, -0.05159424617886543], [-0.001164252869784832, -0.00031066819792613387, 0.016750985756516457]], [[-0.049818333238363266, 0.0029001429211348295, -0.01034175418317318], [0.018494131043553352, -0.03094274364411831, 0.007078869733959436], [0.013251966796815395, 0.014393164776265621, -0.024938488379120827]], [[0.005762381013482809, -0.01811504177749157, 0.008330830372869968], [-0.03965090587735176, -0.04991814121603966, -0.04999694228172302], [-0.040597252547740936, -0.030469872057437897, -0.0026005064137279987]], [[-0.01718514785170555, -0.03502323105931282, -0.005284938495606184], [-0.02432801015675068, 0.022352606058120728, -0.045708075165748596], [-0.025710443034768105, -0.041856277734041214, 0.0017028760630637407]], [[-0.0028251574840396643, -0.009022360667586327, 0.0517771951854229], [-0.027125298976898193, -0.013196634128689766, 0.009653163142502308], [0.03150361403822899, 0.03118428960442543, 0.003371839877218008]], [[-0.02485012449324131, 0.01177503727376461, 0.026939135044813156], [-0.008908988907933235, 0.01604054681956768, 0.03420734032988548], [-0.034972481429576874, -0.019018419086933136, -0.0525878444314003]], [[0.004565244074910879, 0.024007806554436684, -0.015704985707998276], [-0.0016181664541363716, 0.006209164392203093, -0.00827830471098423], [0.033507950603961945, -0.0033603522460907698, -0.05931251496076584]], [[-0.047452524304389954, -0.056020498275756836, -0.003732600249350071], [0.01805899664759636, -0.013030835427343845, 0.04043087363243103], [-0.01668963022530079, -0.0002691533009056002, 0.040235064923763275]], [[0.01727248542010784, -0.007719025947153568, 0.04221155866980553], [-0.03855161368846893, 0.010306480340659618, 0.02348603866994381], [-0.041147131472826004, -0.05170556530356407, 0.006663453299552202]], [[-0.02367607317864895, -0.030651818960905075, 0.009690516628324986], [-0.044190969318151474, 0.036546219140291214, -0.013120520859956741], [-0.027627699077129364, 0.03357888385653496, 0.006135216448456049]], [[0.0013741609873250127, -0.03133698180317879, 0.042056068778038025], [-0.02128077857196331, 0.03284630551934242, -0.01202788669615984], [0.023034371435642242, 0.0269252210855484, -0.04544486105442047]], [[-0.038622431457042694, -0.05574334040284157, 0.02838367223739624], [0.0333002507686615, -0.029939735308289528, -0.03140988200902939], [2.6012623493443243e-05, 0.01587832346558571, 0.0025654940400272608]], [[-0.016114016994833946, -0.03730772063136101, 0.04056372866034508], [-0.040804196149110794, -0.055839259177446365, -0.026431454345583916], [0.0008163238526321948, 0.012000614777207375, 0.015612762421369553]], [[-0.03896912932395935, -0.02402627281844616, -0.034844737499952316], [-0.03241393715143204, -0.05267931893467903, 0.005341831594705582], [-0.02178230509161949, -0.05747893452644348, -0.03505951911211014]], [[-0.03758838772773743, -0.02922326885163784, -0.03576181083917618], [-0.017197653651237488, 0.013339568860828876, -0.0443415492773056], [-0.013866200111806393, -0.02181861735880375, -0.027786144986748695]], [[-0.018857544288039207, -0.02853251062333584, -0.006196796894073486], [-0.045897431671619415, 0.0009656206239014864, 0.04196348041296005], [0.03194067254662514, -0.02848616987466812, 0.009972622618079185]], [[-0.05265222489833832, 0.02951379120349884, -0.05626153200864792], [-0.05468327924609184, -0.055495310574769974, -0.05327921360731125], [-0.0018895998364314437, -0.024010639637708664, 0.0018283013487234712]], [[-0.00922671239823103, -0.009954355657100677, -0.023036839440464973], [-0.037892114371061325, -0.05175059661269188, 0.018812818452715874], [-0.03409901261329651, -0.019534381106495857, 0.016789346933364868]], [[-0.017871081829071045, -0.018329448997974396, -0.03487737849354744], [-0.05167662352323532, 0.016679536551237106, -0.014755803160369396], [0.02139086276292801, -0.0029775595758110285, -0.0018625924130901694]], [[-0.049305062741041183, -0.005958568304777145, -0.019399821758270264], [-0.03853265941143036, -0.02398507297039032, -0.004646799527108669], [-0.04622046276926994, -0.0030959059949964285, 0.027229350060224533]], [[0.0029914353508502245, 0.04001249745488167, 0.019515909254550934], [-0.04671885818243027, -0.02587255835533142, -0.016485849395394325], [0.004507534671574831, -0.00885207112878561, 0.03683556616306305]], [[-0.0022481882479041815, -0.04027258977293968, -0.024059275165200233], [-0.051628876477479935, -0.020993061363697052, 0.016410212963819504], [-0.008801775984466076, -0.05699335038661957, -0.048595938831567764]], [[0.011993995867669582, -0.050672497600317, -0.049729060381650925], [-0.03984086215496063, 0.038571976125240326, -0.021567383781075478], [-0.028790093958377838, -0.04281127080321312, 0.02068372257053852]], [[-0.015950292348861694, 0.002297742525115609, 0.006325581576675177], [0.0062348623760044575, 0.024012122303247452, -0.004635482560843229], [-0.0037346086464822292, -0.011080916970968246, -0.04706812649965286]], [[-0.01869489997625351, 0.041228026151657104, -0.037379585206508636], [-0.04073108732700348, -0.05850207060575485, -0.007496303413063288], [-0.05618327856063843, -0.03644837066531181, 0.03728031367063522]], [[0.014835061505436897, 0.020746521651744843, 0.006606746930629015], [-0.05028356611728668, -0.031006917357444763, -0.04750768467783928], [-0.03875526040792465, 0.011423381976783276, -0.01840294897556305]], [[0.04345737397670746, -0.04184378683567047, -0.04004434868693352], [0.039885349571704865, -0.04973215237259865, 0.03888535127043724], [0.0030027683824300766, -0.052317406982183456, 0.04045828431844711]], [[-0.01870436780154705, -0.02587570808827877, -0.03712737560272217], [-0.05118874832987785, 0.0034921597689390182, -0.054750267416238785], [0.010027039796113968, -0.01972310058772564, 0.01387546956539154]], [[-0.017596535384655, 0.011457913555204868, -0.0033415642101317644], [0.004904893226921558, -0.028242427855730057, -0.039093319326639175], [-0.00425341259688139, -0.03926236927509308, -0.033767249435186386]], [[-0.05578172951936722, -0.02256479300558567, -0.04200020805001259], [0.03259085863828659, 0.026642093434929848, 0.0012192431604489684], [0.03101242519915104, 0.013644002377986908, -0.054289720952510834]], [[-0.012758304364979267, -0.015245388261973858, -0.03801053389906883], [0.005192374810576439, -0.023714160546660423, -0.02870744839310646], [-0.008179727010428905, -0.042244669049978256, 0.0366412028670311]], [[0.02588449977338314, 0.04137087240815163, -0.009354515932500362], [0.00749600026756525, -0.008797284215688705, -0.045374542474746704], [0.012972410768270493, -0.040309611707925797, -0.020062603056430817]], [[-0.031563129276037216, -0.057315681129693985, -0.0033492548391222954], [-0.00030396011425182223, -0.013210191391408443, 0.02989756129682064], [-0.005266169086098671, -0.018256643787026405, -0.036188092082738876]], [[-0.035095635801553726, -0.012844313867390156, -0.02652055397629738], [-0.0414101779460907, -0.012808608822524548, -0.013805907219648361], [-0.04043235629796982, 0.02198651432991028, 0.04016192629933357]]], [[[-0.06358597427606583, 0.04284140095114708, -0.22482262551784515], [-0.026650113984942436, 0.0855027288198471, -0.06980952620506287], [-0.10696619749069214, 0.17450812458992004, -0.10889513790607452]], [[0.012390345335006714, 0.09924805164337158, -0.15394484996795654], [-0.019921906292438507, 0.09737768769264221, -0.0535564124584198], [-0.04206718131899834, 0.03379259258508682, -0.12118717283010483]], [[-0.05489129200577736, 0.0763968676328659, -0.2876364588737488], [-0.043236736208200455, 0.0008097418467514217, -0.3301754295825958], [0.0013041839702054858, 0.028323624283075333, -0.16043072938919067]], [[-0.003567087696865201, 0.09272526949644089, -0.0604267492890358], [-0.06839222460985184, 0.022280534729361534, -0.002833387115970254], [-0.10069900751113892, -0.16610364615917206, -0.047512806951999664]], [[0.018916847184300423, 0.030620481818914413, -0.09405458718538284], [-0.11813143640756607, -0.040537893772125244, -0.030776090919971466], [-0.15460693836212158, -0.16961067914962769, -0.10032345354557037]], [[-0.12283390760421753, 0.05635959282517433, -0.2786046266555786], [-0.07739806175231934, -0.07820285856723785, -0.3167828321456909], [0.021966777741909027, -0.08138613402843475, -0.28224366903305054]], [[-0.020879948511719704, 0.13343575596809387, -0.08382746577262878], [-0.06574252992868423, 0.05341719090938568, 0.02502961829304695], [-0.16646617650985718, 0.045271363109350204, -0.044589657336473465]], [[0.00633345078676939, 0.00400115642696619, -0.08469106256961823], [0.10467859357595444, 0.021263571456074715, -0.21203546226024628], [-0.009773864410817623, 0.031096693128347397, -0.20964959263801575]], [[0.1367342472076416, 0.022251417860388756, -0.12208876013755798], [-0.03556961566209793, 0.06972836703062057, 0.005933115724474192], [-0.1534176766872406, -0.12110340595245361, -0.20289358496665955]], [[0.014780327677726746, 0.05187692865729332, -0.07056600600481033], [0.08063171058893204, 0.053557414561510086, -0.06888614594936371], [-0.019574109464883804, 0.04448161646723747, -0.21014519035816193]], [[0.1301918625831604, 0.05575580149888992, -0.16672323644161224], [0.047993648797273636, 0.02056015096604824, -0.050939444452524185], [-0.02584667317569256, 0.0029359019827097654, -0.19210737943649292]], [[0.029434798285365105, 0.03887607157230377, -0.04531339183449745], [-0.11756497621536255, 0.016081035137176514, -0.047514237463474274], [-0.12696759402751923, -0.155513733625412, -0.09547507017850876]], [[0.09893075376749039, -0.025897841900587082, -0.14698342978954315], [0.010242857970297337, -0.013992034830152988, -0.20269018411636353], [-0.09393274784088135, -0.033712174743413925, -0.13688907027244568]], [[0.1092028021812439, 0.06432980298995972, -0.07205545902252197], [-0.07683967053890228, -0.0018674444872885942, -0.07891566306352615], [-0.019102072343230247, -0.08651459962129593, -0.18037472665309906]], [[-0.06047822907567024, 0.05194997787475586, -0.18537068367004395], [0.005449357442557812, -0.003921307623386383, -0.14130312204360962], [0.005615453701466322, -0.12631754577159882, -0.0984991118311882]], [[-0.01042991504073143, 0.08535286039113998, -0.1919495165348053], [0.13782332837581635, -0.0012720227241516113, -0.24689723551273346], [0.04688664525747299, 0.10615468770265579, -0.11676923930644989]], [[9.523340122541413e-05, 0.09880939871072769, -0.07134721428155899], [0.0036105825565755367, 0.03893456235527992, -0.044715434312820435], [-0.09016936272382736, -0.10445278882980347, -0.013035192154347897]], [[-0.01668858528137207, 0.07886746525764465, -0.09355068951845169], [0.13585439324378967, -0.015000246465206146, -0.15479810535907745], [0.0015457008266821504, 0.13353848457336426, -0.20128460228443146]], [[-0.07852906733751297, 0.11695493757724762, -0.1671895533800125], [-0.10446686297655106, -0.022786859422922134, -0.18105068802833557], [-0.03123544529080391, -0.05763928219676018, -0.11949124187231064]], [[-0.1610940396785736, -0.13781337440013885, -0.28499290347099304], [-0.17839069664478302, -0.1694517284631729, -0.298568457365036], [-0.12737353146076202, -0.2986600399017334, -0.37995046377182007]], [[0.006530436687171459, -0.00024859217228367925, -0.021807760000228882], [-0.17949266731739044, -0.0005639722221530974, -0.008493856526911259], [-0.1694524884223938, -0.2315097451210022, -0.04793000593781471]], [[0.040148526430130005, 0.04433748126029968, -0.11967410147190094], [-0.02703157067298889, -0.048757556825876236, -0.052838101983070374], [-0.1336733102798462, -0.25439968705177307, -0.13519717752933502]], [[0.005709854885935783, 0.06036338955163956, -0.11396805197000504], [0.006898952182382345, 0.08602915704250336, -0.10645181685686111], [-0.08114723861217499, 0.08699946850538254, -0.15523025393486023]], [[0.1617228239774704, 0.08021685481071472, -0.16720759868621826], [-0.034274570643901825, -0.04834865406155586, -0.0861806571483612], [-0.026996374130249023, -0.1822294443845749, -0.1855829656124115]], [[-0.14083102345466614, 0.13301578164100647, -0.19760599732398987], [-0.06590377539396286, 0.10691231489181519, -0.27359887957572937], [0.06952670961618423, 0.0022573554888367653, -0.23431827127933502]], [[0.12628482282161713, 0.053667761385440826, -0.18742802739143372], [0.18013420701026917, 0.0009340138058178127, -0.11547122895717621], [0.13879923522472382, 0.20271676778793335, -0.08459850400686264]], [[-0.055238276720047, 0.05632905662059784, -0.2796216905117035], [-0.11693549901247025, -0.04643995687365532, -0.3014414608478546], [-0.07887379825115204, 0.035927120596170425, -0.24053452908992767]], [[0.11267951875925064, 0.07728792726993561, -0.11361517012119293], [0.1346087008714676, 0.0134806577116251, -0.15611998736858368], [0.018563315272331238, 0.07363171130418777, -0.19475401937961578]], [[0.023266421630978584, 0.03451668471097946, -0.03098037652671337], [-0.09252601116895676, -0.030925534665584564, 0.08290264010429382], [-0.13432496786117554, -0.16715073585510254, -0.012025554664433002]], [[0.10150374472141266, 0.027388250455260277, -0.06647897511720657], [0.13160374760627747, 0.05549997463822365, -0.14125607907772064], [0.09373131394386292, 0.06373665481805801, -0.2248688042163849]], [[0.04446035623550415, 0.03922514244914055, -0.15346091985702515], [0.01965170167386532, 0.11972871422767639, -0.10532277077436447], [-0.039850592613220215, 0.20541368424892426, -0.1082528755068779]], [[0.10783062875270844, -0.009812572039663792, -0.1961585134267807], [0.16238534450531006, 0.026121938601136208, -0.11996111273765564], [0.13896067440509796, 0.17582224309444427, -0.07919874787330627]], [[0.0744754821062088, 0.07176153361797333, -0.2729393243789673], [0.08926180005073547, 0.02525993064045906, -0.19499829411506653], [-0.004767158534377813, 0.12325146794319153, -0.05872463807463646]], [[-0.019052445888519287, -0.007101702969521284, -0.0513896569609642], [-0.046879831701517105, -0.03892135992646217, -0.12725625932216644], [-0.18545667827129364, -0.08408434689044952, -0.16680537164211273]], [[0.01930196024477482, 0.09725253283977509, -0.027611026540398598], [-0.09523317962884903, 0.014856012538075447, 0.02453737147152424], [-0.1961403340101242, -0.0883827805519104, -0.11149653047323227]], [[0.014491990208625793, -0.04594573378562927, -0.05801951140165329], [-0.0009388659382238984, -0.14072881639003754, -0.11705265194177628], [-0.04077964648604393, -0.13436178863048553, -0.2385939508676529]], [[0.144020676612854, 0.15055128931999207, -0.2616799771785736], [0.047371409833431244, -0.003005493897944689, -0.1477598249912262], [0.16351313889026642, -0.06108545884490013, -0.31447672843933105]], [[0.05633025988936424, -0.02529972232878208, -0.14778926968574524], [0.13053490221500397, -0.09729649126529694, -0.2201763242483139], [0.026600228622555733, 0.0657314881682396, -0.2077043354511261]], [[0.05467034503817558, 0.03416800871491432, -0.16335557401180267], [0.06908223032951355, -0.06272564828395844, -0.20785583555698395], [0.11260967701673508, 0.07058050483465195, -0.15620994567871094]], [[0.0535222664475441, -0.0694037675857544, -0.09508366882801056], [0.12614412605762482, 0.016014989465475082, -0.13079588115215302], [0.03241180628538132, -0.0025587985292077065, -0.145085871219635]], [[0.11216755956411362, 0.09087688475847244, -0.19896061718463898], [0.11407510191202164, 0.16249296069145203, -0.09529680013656616], [-0.03857423737645149, 0.26094385981559753, 0.018060162663459778]], [[-0.043249279260635376, 0.15038533508777618, -0.11345242708921432], [-0.057342760264873505, 0.028077788650989532, -0.12570352852344513], [-0.053306229412555695, -0.082875095307827, -0.08081293106079102]], [[0.005870380904525518, 0.11721471697092056, -0.05526493489742279], [0.019943729043006897, 0.06588531285524368, -0.16176430881023407], [0.01770176738500595, 0.04121524840593338, -0.24212458729743958]], [[0.059264879673719406, -0.029555879533290863, -0.11854255944490433], [-0.10335445404052734, -0.08188676834106445, -0.03502557426691055], [-0.15955327451229095, -0.26308730244636536, -0.24203608930110931]], [[0.016435137018561363, -0.06498505920171738, -0.30219000577926636], [0.15008039772510529, -0.10011066496372223, -0.15392999351024628], [0.07020172476768494, 0.09300145506858826, -0.19283682107925415]]], [[[0.01573713682591915, -0.03574015945196152, 0.0035645808093249798], [-0.01396288350224495, 0.03261897712945938, -0.025178655982017517], [-0.0396229512989521, -0.014451886527240276, -0.04040791466832161]], [[0.020144712179899216, -0.02473050355911255, 0.012997353449463844], [0.02269791066646576, 0.025297116488218307, -0.012998606078326702], [0.013754788786172867, -0.035182561725378036, -0.06097849830985069]], [[-0.009468772448599339, -0.04132075235247612, -0.034221380949020386], [-0.0005597202107310295, 0.02185205928981304, -0.027587493881583214], [-0.02234116569161415, -0.054105669260025024, 0.0012075379490852356]], [[0.013277675956487656, -0.013707857578992844, 0.0315544568002224], [-0.052087169140577316, -0.015064818784594536, -0.034806277602910995], [0.029682427644729614, 0.030355151742696762, 0.033980708569288254]], [[0.03934444487094879, 0.00980454869568348, -0.04615842178463936], [-0.04406474903225899, -0.000903106527402997, -0.05626682564616203], [0.021740369498729706, 0.007361272815614939, -0.010490188375115395]], [[-0.04796990752220154, 0.0317494198679924, 0.0009338197414763272], [-0.03538261353969574, 0.009429460391402245, 0.0014814812457188964], [-0.041227180510759354, -0.0062475064769387245, -0.04057127982378006]], [[0.044776640832424164, 0.03488722816109657, 0.0143895847722888], [0.01844198815524578, -0.057365577667951584, -0.03307925909757614], [-0.057804178446531296, -0.03730836510658264, -0.055083002895116806]], [[0.03798003867268562, 0.02172739803791046, 0.03338194265961647], [-0.030965188518166542, 0.0231634471565485, -0.011343976482748985], [-0.02926335670053959, 0.008208728395402431, 0.021275823935866356]], [[-0.03850068524479866, 0.03303208202123642, -0.0055438801646232605], [0.013734618201851845, -0.06639771163463593, -0.0007607900188304484], [-0.03431250900030136, -0.051472585648298264, -0.03849437087774277]], [[0.00016492734721396118, -0.030071379616856575, -0.035181090235710144], [0.03501417487859726, -0.002260055160149932, -0.058407727628946304], [0.0025657627265900373, -0.0068048518151044846, -0.019530124962329865]], [[0.009221795946359634, -0.023244088515639305, 0.01467725820839405], [-0.03752777352929115, -0.039565909653902054, 0.023401372134685516], [-0.03544609621167183, 0.011642049998044968, 0.025549957528710365]], [[-0.049170851707458496, -0.028368918225169182, 0.035472411662340164], [-0.014855705201625824, -0.0014299858594313264, -0.0029400489293038845], [0.012308314442634583, -0.032246243208646774, -0.01091533713042736]], [[0.03510748967528343, 0.0008365553803741932, -0.047965243458747864], [0.017730744555592537, -0.013377627357840538, -0.03264195844531059], [0.021291309967637062, 0.005840585101395845, -0.04983234778046608]], [[-0.026870058849453926, -0.017749056220054626, -0.020437905564904213], [-0.019891247153282166, -0.04387588053941727, 0.02572697401046753], [0.016034893691539764, -0.0053780535236001015, -0.010977109894156456]], [[0.005572048481553793, 0.031878720968961716, 0.0052739824168384075], [-0.00035270373336970806, -0.03230883926153183, 0.01035797968506813], [-0.061006177216768265, 0.0056983171962201595, -0.055886298418045044]], [[-0.02318868786096573, 0.019617851823568344, -0.025010578334331512], [0.026900066062808037, -0.04843929409980774, 0.04046059772372246], [-0.0023721824400126934, -0.039891328662633896, 0.01930158957839012]], [[-0.046042654663324356, -0.03766227886080742, -0.03742285072803497], [-0.005620836280286312, -0.004004014190286398, -0.050031665712594986], [0.033921703696250916, -0.011003397405147552, -0.04190828651189804]], [[-0.0010700469138100743, -0.030707981437444687, 0.006163399666547775], [0.00680945347994566, -0.02323967032134533, -0.004079262726008892], [0.02067098394036293, -0.04496403783559799, -0.02714448980987072]], [[-0.006962002255022526, -0.036070238798856735, 0.00018609875405672938], [-0.0058308071456849575, -0.0453176274895668, 0.0061227502301335335], [0.03311661258339882, 0.016505658626556396, -0.03893021121621132]], [[0.03029533475637436, -0.04065661132335663, -0.024592747911810875], [0.01389866042882204, 0.0294840969145298, 0.04044659063220024], [0.031795434653759, -0.03657585009932518, 0.001559183350764215]], [[-0.0319657102227211, -0.0007323860190808773, 0.049399398267269135], [0.02348494529724121, -0.055020637810230255, -0.02044893428683281], [-0.055321402847766876, 0.004462135024368763, -0.017215801402926445]], [[-0.04625154659152031, -0.026437491178512573, -6.247805868042633e-05], [-0.004941897001117468, 0.03016648441553116, -0.02043604478240013], [0.010118380188941956, -0.024484222754836082, -0.012913844548165798]], [[0.00141924771014601, 0.03600555658340454, 0.013954272493720055], [-0.036276232451200485, -0.05218256637454033, -0.053693968802690506], [-0.03180638700723648, -0.005339393392205238, 0.03284280002117157]], [[-0.0053685512393713, 0.015887796878814697, 0.030965685844421387], [-0.04643901810050011, -0.05439523234963417, 0.01692994125187397], [0.009795342572033405, -0.04284107685089111, -0.0007651755586266518]], [[-0.054786454886198044, -0.003927567042410374, 0.006426757201552391], [-0.01371082104742527, -0.014577419497072697, 0.01469557173550129], [-0.03158029541373253, 0.02806365303695202, -0.05740390345454216]], [[-0.027380336076021194, -0.05544028803706169, -0.053196508437395096], [0.033509816974401474, -0.030393633991479874, -0.0559157133102417], [0.0016531944274902344, -0.05237456411123276, -0.012223571538925171]], [[0.02342059090733528, -0.018635651096701622, 0.023253081366419792], [0.007427617441862822, -0.0494510680437088, 0.005069642327725887], [0.02469044364988804, -0.019792424514889717, 0.0009066657512448728]], [[0.007624770049005747, 0.00024039484560489655, 0.009896822273731232], [-0.05567256361246109, 0.03053334169089794, 0.01578766107559204], [-0.004442287143319845, -0.0017495937645435333, -0.053922299295663834]], [[-0.016507040709257126, 