weights['MEYDA'] = {"conv0.weight": [[[[0.7499385476112366, 0.2038424164056778, -0.27659091353416443], [-0.7709930539131165, -0.8432861566543579, 0.36112216114997864], [0.04004491865634918, 0.6343973875045776, 0.049714092165231705]]], [[[0.23332741856575012, -0.1573428362607956, -0.17103973031044006], [-0.79054856300354, -0.7018172740936279, -0.20006993412971497], [0.1716649979352951, 0.718460738658905, 0.8177536725997925]]], [[[-0.01097731664776802, -0.8483392596244812, -0.04967192932963371], [0.4660518765449524, -0.5018752813339233, 0.5368368029594421], [0.35971149802207947, -0.20822931826114655, 0.594917356967926]]], [[[0.09721240401268005, -0.026903890073299408, 0.10814714431762695], [-0.22239209711551666, -0.05801483243703842, -0.3336818218231201], [-0.13690795004367828, -0.32095837593078613, -0.20685017108917236]]], [[[-0.005434893537312746, 0.601890504360199, 0.5832843780517578], [0.36179491877555847, 0.20205488801002502, 0.0546686127781868], [-0.18458597362041473, -0.8119502067565918, -0.6833357214927673]]], [[[-1.0835871696472168, 0.22718428075313568, 0.9471274018287659], [-1.0715909004211426, 0.08811502158641815, 1.054004192352295], [-0.4279232621192932, 0.1648874580860138, 0.5093849301338196]]], [[[0.5177400708198547, 0.38857680559158325, 0.5765958428382874], [-1.015906572341919, -0.890052318572998, -0.5496694445610046], [0.4411601126194, 0.31728440523147583, 0.12370801717042923]]], [[[0.5561290979385376, 0.15910844504833221, -0.6793474555015564], [0.7581513524055481, 0.047896478325128555, -0.7505368590354919], [1.1169824600219727, -0.162302628159523, -0.9107322096824646]]], [[[0.22835911810398102, 0.7799463868141174, 0.0746038481593132], [0.6550390720367432, 0.39772623777389526, -0.6734220385551453], [0.01956856995820999, -0.5081537365913391, -0.8510167002677917]]], [[[0.48823094367980957, 0.7174965739250183, -0.5048829317092896], [0.2662442922592163, 0.29697316884994507, -0.61702561378479], [-0.08114790171384811, 0.12840163707733154, -0.9727908372879028]]], [[[0.05877222120761871, 0.4466385245323181, 0.6271191239356995], [0.07304394245147705, -0.5137422680854797, -0.31545811891555786], [0.4053264260292053, 0.2915573716163635, -0.3955254852771759]]], [[[-0.06577777117490768, 0.6081159114837646, 1.003477692604065], [-0.5375323295593262, -0.14999598264694214, 0.2207108438014984], [-0.5435783267021179, -0.6958001255989075, -0.2928306758403778]]], [[[0.32357141375541687, -0.499746173620224, 0.16885985434055328], [0.5651112198829651, -0.9812034368515015, 0.7515468001365662], [0.5647924542427063, -0.8650854825973511, 0.6484538316726685]]], [[[0.36581605672836304, 0.4588716924190521, -0.04656601697206497], [0.35534945130348206, 0.27343475818634033, -0.5474227666854858], [-0.07620546221733093, -0.5287723541259766, -0.9699118137359619]]], [[[0.6399855017662048, -0.31594228744506836, 0.10624339431524277], [-0.18895626068115234, -0.8439189791679382, 0.1205926239490509], [0.046130191534757614, -0.031134353950619698, 0.5607314705848694]]], [[[-0.6111127138137817, -0.07070775330066681, 0.17555265128612518], [-0.4567130506038666, 0.7430813312530518, 0.4204263389110565], [0.21202878654003143, 0.556462824344635, -0.8679952621459961]]], [[[-0.028756966814398766, 0.22581352293491364, 0.9048124551773071], [-0.26913437247276306, -0.0558028481900692, 0.34991735219955444], [-0.8147410750389099, -0.6980294585227966, 0.02018132247030735]]], [[[0.5454472899436951, 0.4714254140853882, -0.1409827023744583], [0.11699295043945312, -0.8001174926757812, -0.7667142152786255], [-0.06283479928970337, -0.3689213693141937, -0.016870111227035522]]], [[[-0.761019229888916, -0.5320462584495544, -0.04753049835562706], [-0.4808761477470398, -0.16674749553203583, 0.35123804211616516], [-0.26718777418136597, 0.2537153363227844, 0.7390470504760742]]], [[[-0.7969915270805359, 0.7235085964202881, 0.10659326612949371], [-1.0214208364486694, 0.9237914681434631, 0.15400494635105133], [-0.8119328618049622, 1.0293426513671875, 0.060244325548410416]]], [[[0.1498437374830246, 0.09718132019042969, 0.1906524896621704], [0.5275136828422546, 0.7778920531272888, 0.5973377227783203], [-0.5564622282981873, -0.7891120314598083, -0.8257499933242798]]], [[[0.7727275490760803, 0.8945057988166809, 0.7866787314414978], [-0.5101286768913269, -0.32034698128700256, -0.257673442363739], [-0.5259259343147278, -0.7012043595314026, -0.054228127002716064]]], [[[-0.6062758564949036, 0.054099392145872116, 0.6190671920776367], [1.327147126197815, -0.5517631769180298, -0.6535224318504333], [-0.6613260507583618, 0.5669341087341309, 0.12562879920005798]]], [[[-0.16374607384204865, -0.10328841954469681, -0.02227993868291378], [-0.09583798050880432, 0.05600523576140404, 0.2257596105337143], [-0.045962538570165634, 0.280779629945755, 0.23496049642562866]]], [[[-0.6368471384048462, -0.059719886630773544, 0.785977303981781], [-0.44837018847465515, 0.044548310339450836, 0.4218336045742035], [1.1061230897903442, 0.2030024528503418, -1.2079100608825684]]], [[[-0.4942691922187805, -1.0143975019454956, -0.9476464986801147], [-0.09085752815008163, -0.01569553092122078, -0.20216716825962067], [0.858123779296875, 1.0125657320022583, 0.9897582530975342]]], [[[0.37316805124282837, -0.754432737827301, 0.5007167458534241], [-0.6960296034812927, 0.038664866238832474, 0.7484409213066101], [-0.03966699168086052, 1.0443782806396484, -0.7709838151931763]]], [[[0.44003257155418396, 0.22998860478401184, -0.3469122350215912], [0.33888426423072815, -0.8985359072685242, -0.025488371029496193], [-0.24112991988658905, -0.36394792795181274, 0.9459313750267029]]], [[[0.5446681380271912, -5.8591427659848705e-05, 0.24843399226665497], [0.08689374476671219, -0.35171380639076233, 0.20372600853443146], [-0.21148844063282013, -0.7124550342559814, -0.520723283290863]]], [[[0.18925902247428894, 0.5963804125785828, 0.6901987195014954], [0.10276249796152115, -0.2587583661079407, -0.2623218297958374], [-0.18100105226039886, 0.17555877566337585, -0.15232272446155548]]], [[[-0.23542502522468567, -0.7476861476898193, -0.5119390487670898], [0.4186198115348816, -0.26112794876098633, -0.5396065711975098], [0.9111016392707825, 0.30592530965805054, 0.2272275984287262]]], [[[0.4891836941242218, 0.08255693316459656, -0.36914077401161194], [-1.1213395595550537, 0.6275493502616882, 0.6557691693305969], [0.6540890336036682, -0.47882717847824097, -0.0493660569190979]]], [[[0.7376412153244019, 0.2530112862586975, -0.9187876582145691], [0.14026735723018646, 0.13213330507278442, -0.22806625068187714], [-0.7962146401405334, -0.3918001055717468, 1.2456341981887817]]], [[[-0.3090208172798157, 0.035180240869522095, 0.3992476761341095], [0.027403615415096283, -0.43011707067489624, 0.1125713586807251], [0.451908141374588, 0.06838452070951462, -0.13909125328063965]]], [[[0.4050559401512146, 0.6565378904342651, 0.4886040687561035], [-0.8943834900856018, -1.047684669494629, -0.8231087327003479], [0.4665135443210602, 0.46489444375038147, 0.3965185582637787]]], [[[0.94820636510849, -0.5430139899253845, -0.3389423191547394], [1.0503393411636353, -0.529922366142273, -0.420960932970047], [0.9472795128822327, -0.5973719358444214, -0.2484043836593628]]], [[[0.8124094009399414, 0.7604506015777588, 0.2463962733745575], [0.04510625824332237, 0.08533502370119095, -0.25113168358802795], [-0.8157281875610352, -0.8427515029907227, -0.00034274987410753965]]], [[[-0.11507140845060349, -0.6010255813598633, -0.1567666232585907], [0.49499937891960144, 0.857625424861908, 0.8780395984649658], [-0.3255203664302826, -0.6168692111968994, -0.3642866313457489]]], [[[0.22795236110687256, -0.07937110960483551, -1.376827359199524], [0.7521258592605591, 0.9060009121894836, -0.3422852158546448], [0.03829310089349747, 0.8089748024940491, -0.023481683805584908]]], [[[0.789136528968811, -0.5094834566116333, -0.42906954884529114], [1.0127102136611938, -0.2800939083099365, -0.59231036901474], [1.1353079080581665, -0.4056647717952728, -0.2652386724948883]]], [[[-0.5209668874740601, -0.5467627048492432, -0.4912928640842438], [0.7421390414237976, 1.1887764930725098, 1.1064997911453247], [-0.22557762265205383, -0.5186282992362976, -0.5938936471939087]]], [[[0.35533764958381653, 0.11397665739059448, 0.3036472797393799], [-0.8056409358978271, -0.7634803652763367, -0.4673633575439453], [-0.20115835964679718, 0.44243988394737244, 0.7634000182151794]]], [[[0.4617946743965149, 0.6336233615875244, 0.6899511814117432], [0.49967995285987854, 0.7513033747673035, 0.8447420001029968], [0.48152440786361694, 0.5909944176673889, 0.35629329085350037]]], [[[0.27609777450561523, -0.060772109776735306, -0.16292543709278107], [0.5295504927635193, 0.09199342131614685, -0.5453056693077087], [-0.7228168845176697, -0.10959577560424805, 0.8178569674491882]]], [[[0.9462513327598572, -0.10407651960849762, -0.9065719246864319], [0.43656060099601746, 0.7152366042137146, -0.6178617477416992], [-0.7522420883178711, 0.4625146985054016, 0.030138442292809486]]]], "bn1.running_mean": [1.3149805068969727, 1.2907383441925049, 1.6923359632492065, 5.605193857299268e-45, 1.863516092300415, 9.596534729003906, 0.6949475407600403, 5.605193857299268e-45, 5.605193857299268e-45, 9.847187995910645, 3.812407970428467, 11.243803977966309, 30.162418365478516, 2.6558151245117188, 0.6817395091056824, 2.3229970932006836, 7.180279731750488, 0.2558903694152832, 0.8489122986793518, 8.914299964904785, 0.36503976583480835, 5.605193857299268e-45, 0.8550670742988586, 5.5494866371154785, 0.7841779589653015, 5.605193857299268e-45, 4.796089172363281, 1.1683722734451294, 5.605193857299268e-45, 0.8992481231689453, 5.179063320159912, 2.562577247619629, 5.605193857299268e-45, 0.9031386375427246, 14.18159008026123, 0.6185154914855957, 3.6767098903656006, 0.4886725842952728, 0.41821926832199097, 5.605193857299268e-45, 0.9057945609092712, 5.605193857299268e-45, 5.605193857299268e-45, 0.4590916037559509, 0.2858867049217224], "bn1.running_var": [27.22898292541504, 10.49765396118164, 30.571041107177734, 5.605193857299268e-45, 16.749713897705078, 76.84712219238281, 7.786697864532471, 5.605193857299268e-45, 5.605193857299268e-45, 90.1780776977539, 48.354698181152344, 75.67794799804688, 194.61708068847656, 39.987308502197266, 8.706314086914062, 29.496397018432617, 45.93080520629883, 2.045222520828247, 7.926210880279541, 85.3929443359375, 3.192884922027588, 5.605193857299268e-45, 7.327787399291992, 91.93632507324219, 9.97976303100586, 5.605193857299268e-45, 67.44239044189453, 15.884387016296387, 5.605193857299268e-45, 8.48584270477295, 64.8342056274414, 25.272003173828125, 5.605193857299268e-45, 10.573481559753418, 204.29022216796875, 9.609366416931152, 41.32921600341797, 6.515103816986084, 4.278040409088135, 5.605193857299268e-45, 8.459245681762695, 5.605193857299268e-45, 5.605193857299268e-45, 5.2085280418396, 2.6605732440948486], "bn1.num_batches_tracked": 102072, "conv1.weight": [[[[-0.006674107629805803, 0.2931206226348877, 0.1875273585319519], [0.26877427101135254, 0.3228878080844879, -0.4829149842262268], [-0.2981783151626587, -0.6114524602890015, -1.6828510761260986]], [[-0.3341495096683502, 0.06515168398618698, -0.0832396000623703], [-0.2562442719936371, 0.13165557384490967, -0.2768595218658447], [-0.494584321975708, -0.3699468970298767, -1.0850306749343872]], [[-0.4985840320587158, -0.18187527358531952, -0.3966790735721588], [-0.24410048127174377, 0.3147183060646057, -0.15021446347236633], [-0.28619834780693054, -0.10186190903186798, -1.3674856424331665]], [[1.067958950996399, 0.8083997368812561, -0.31793010234832764], [1.0304641723632812, 0.4948723018169403, -0.7050777673721313], [-0.20905499160289764, -0.5599411129951477, -1.707621455192566]], [[-0.35098978877067566, 0.22228951752185822, 0.13698802888393402], [0.43168216943740845, 0.3297634720802307, 0.11742976307868958], [0.192208930850029, -0.1613883525133133, -0.4649263024330139]], [[0.7917814254760742, 0.7409166693687439, 0.08717305213212967], [0.5180380940437317, 0.6306751370429993, -0.9321548342704773], [0.38668978214263916, 0.40015867352485657, -0.9068926572799683]], [[0.06402452290058136, 0.6188821196556091, 0.2641007900238037], [-0.29146695137023926, 0.13192632794380188, -0.1983708143234253], [-0.4224320948123932, -0.4812614917755127, -1.5476707220077515]], [[0.3002912700176239, 0.37811610102653503, 0.30542701482772827], [-0.2709183096885681, 0.0034596333280205727, -0.7510911822319031], [-0.3240765333175659, 0.03265008702874184, -2.207094669342041]], [[-0.8944586515426636, 0.07117239385843277, 0.3544076085090637], [-0.005187549628317356, 0.20689618587493896, 0.33966705203056335], [-0.19391600787639618, -0.20539869368076324, -0.5783687829971313]], [[-0.21088452637195587, -0.1679912656545639, -0.20426255464553833], [0.38578876852989197, 0.32528185844421387, 0.03949638083577156], [-0.3473566770553589, -0.3014037311077118, -1.3216723203659058]], [[-0.38661327958106995, -0.03842984139919281, -0.06068594381213188], [-0.43079397082328796, -0.39677610993385315, -0.33893853425979614], [0.021511420607566833, -0.6784154176712036, -1.4228812456130981]], [[0.9329806566238403, 0.6774513721466064, -0.18163181841373444], [1.017709493637085, 0.5080102682113647, -0.21521475911140442], [-0.18157848715782166, -0.5174153447151184, -1.3596961498260498]], [[-1.1265789270401, 0.0849417895078659, -0.9598600268363953], [-0.251903235912323, 0.5215268135070801, -1.4156227111816406], [0.19926121830940247, 0.6384246945381165, -1.4264562129974365]], [[0.39868760108947754, 0.24079416692256927, -0.37604233622550964], [1.151076316833496, 1.0866600275039673, 0.03962034732103348], [-0.506346583366394, -0.39661163091659546, -1.5392836332321167]], [[-0.06262818723917007, 0.10124922543764114, -0.5703967213630676], [-0.31796181201934814, 0.3648137152194977, -0.9669610857963562], [-0.6303808689117432, -0.17572449147701263, -1.3382216691970825]], [[0.0758340135216713, -0.2655620276927948, -0.35907503962516785], [0.3298538327217102, 0.07916665077209473, -0.21479962766170502], [-0.36389195919036865, -0.9883067011833191, -1.6094324588775635]], [[0.9487869143486023, 0.7018687129020691, -0.26367565989494324], [1.1297247409820557, 0.8094011545181274, -0.2253870964050293], [-0.18333134055137634, -0.1877414733171463, -1.3094522953033447]], [[0.6212500929832458, 0.4019765853881836, -0.2584431767463684], [0.7632235288619995, 0.5734370350837708, -0.45654869079589844], [-0.6133636236190796, -0.5215497016906738, -1.763867735862732]], [[0.30624327063560486, 0.2880975604057312, -0.18413828313350677], [0.3682608902454376, 0.4794638752937317, -0.3762168884277344], [-0.46607550978660583, -0.44456249475479126, -1.4237180948257446]], [[-0.28941941261291504, -0.33107349276542664, -0.8642635941505432], [0.1051265299320221, -0.5706903338432312, -1.3353748321533203], [0.4425002932548523, -0.44399774074554443, -1.4206668138504028]], [[-0.17290617525577545, 0.5366570949554443, 0.4375382661819458], [1.2424323558807373, 0.9376779794692993, 0.49964603781700134], [0.2955642342567444, -0.005010649096220732, -0.029850268736481667]], [[-0.4310758709907532, 0.038519490510225296, -0.018021997064352036], [-0.3197549283504486, -0.11438371241092682, -0.264839768409729], [-0.0003889240324497223, -0.1459631770849228, -1.3211311101913452]], [[0.15203623473644257, 0.9617142677307129, 0.22508014738559723], [1.0713785886764526, 1.3100380897521973, -0.9265450835227966], [1.0881540775299072, -0.002057946752756834, -2.813513994216919]], [[-0.4343067407608032, -0.23390662670135498, -0.5220609903335571], [-0.13592861592769623, 0.22850657999515533, -0.02888127602636814], [-0.33408254384994507, -0.2971441149711609, -0.8887566328048706]], [[0.8339222073554993, 0.9113472104072571, -0.20358431339263916], [0.20660991966724396, 0.3395586609840393, -1.633089303970337], [0.11356957256793976, -0.6755500435829163, -2.54463791847229]], [[-0.32983309030532837, -0.24530458450317383, 0.052135076373815536], [-1.1246696710586548, -0.8381263017654419, -0.590533435344696], [-0.8332133889198303, -1.6535673141479492, -2.042825222015381]], [[0.9679580926895142, 0.9223074913024902, -0.3427344858646393], [1.3252032995224, 0.8017167448997498, -1.8677847385406494], [1.4437148571014404, 0.27902430295944214, -1.9061373472213745]], [[0.17616204917430878, 0.27185186743736267, -0.2203734666109085], [0.12954586744308472, 0.6525239944458008, -0.9072949290275574], [-0.7153359651565552, -0.5549529790878296, -1.8769724369049072]], [[0.37136343121528625, 0.36151960492134094, -0.40153491497039795], [1.2023727893829346, 1.1630210876464844, 0.029129888862371445], [-0.31607744097709656, -0.3255770802497864, -1.5758442878723145]], [[-0.3079654276371002, 0.42541226744651794, 0.12082455307245255], [-0.4337068498134613, -0.43949761986732483, -0.41456472873687744], [0.11082908511161804, -0.48822280764579773, -0.6556695103645325]], [[0.2982681393623352, 0.21545372903347015, 0.014047838747501373], [-0.4017457664012909, -0.27734556794166565, -0.4028371572494507], [-0.8674393892288208, -0.838348925113678, -2.1061010360717773]], [[-0.43876373767852783, 0.681290328502655, 0.19197925925254822], [0.3126177489757538, 0.8603194952011108, -1.1580768823623657], [1.2469053268432617, 0.44242241978645325, -1.4340814352035522]], [[0.487064391374588, 0.7882214784622192, -0.1057383120059967], [0.4847743809223175, 0.26601067185401917, -1.388874888420105], [0.36097684502601624, -0.6539989709854126, -2.1650943756103516]], [[0.07261516153812408, 0.29309117794036865, -0.28908026218414307], [-0.29638516902923584, -0.08288945257663727, -0.5883616209030151], [-0.33000409603118896, -0.14235113561153412, -1.4766288995742798]], [[-0.34196844696998596, 0.5384684205055237, 0.37160634994506836], [-0.19984042644500732, 0.13879728317260742, 0.007456368766725063], [0.008068554103374481, -0.3918426036834717, -0.909609317779541]], [[0.36955615878105164, -0.22346007823944092, -0.5466465353965759], [0.15386079251766205, -0.2627347409725189, -1.3188399076461792], [-0.11546587944030762, -0.19350497424602509, -2.5794546604156494]], [[-0.3328879773616791, 0.1902855485677719, 0.28969401121139526], [0.07104365527629852, 0.29549750685691833, -0.041505515575408936], [0.39532923698425293, 0.11124901473522186, -0.49490129947662354]], [[-0.8653054237365723, 0.10722970217466354, -0.1255137175321579], [0.6825038194656372, 1.0688318014144897, 0.49053287506103516], [-0.13581612706184387, -0.16216148436069489, -0.654242753982544]], [[-0.6716396808624268, -0.27349698543548584, -0.06636779755353928], [-0.5094903707504272, -0.3919088840484619, 0.0991412028670311], [-0.28225216269493103, -0.3895317018032074, -1.1055986881256104]], [[0.12833191454410553, -0.18686486780643463, -0.911731481552124], [-0.052534982562065125, 0.021149227395653725, -0.764599621295929], [-0.37066593766212463, -0.024107614532113075, -2.1448769569396973]], [[-0.3846206068992615, 0.34689199924468994, 0.2675047516822815], [0.7911455631256104, 1.0813006162643433, 0.5299097895622253], [-0.06038832664489746, -0.47260981798171997, -1.10787832736969]], [[0.3579493761062622, 0.49951672554016113, -0.0026462299283593893], [-0.20213262736797333, -0.04051759093999863, -0.8252188563346863], [-0.7551525235176086, -0.5559328198432922, -1.706926941871643]], [[0.3076287806034088, 0.26847347617149353, 0.3300827443599701], [-0.08045489341020584, -0.1579342633485794, -0.16766294836997986], [-0.15388967096805573, -0.10195276141166687, -0.020988211035728455]], [[0.2686420977115631, 0.69589763879776, 0.15723396837711334], [0.2763552963733673, 0.40053126215934753, -0.7185512185096741], [-0.3493862748146057, -0.4632853865623474, -1.1332370042800903]], [[-0.3380586504936218, 0.4409920573234558, -0.06840112805366516], [0.053774259984493256, 0.48596692085266113, -0.2200697660446167], [-0.19470089673995972, -0.05282095819711685, -1.7188172340393066]]], [[[-0.0236351378262043, 0.03979870304465294, 0.5010786652565002], [0.4027858078479767, 0.24523839354515076, -0.012889795936644077], [-0.33237752318382263, 0.20371489226818085, -0.17131982743740082]], [[0.23187664151191711, 0.34262290596961975, -0.17772509157657623], [0.5628525018692017, 0.5772218704223633, -1.254769206047058], [0.48597800731658936, 0.8120453357696533, -0.7335010170936584]], [[-0.13914069533348083, 0.34805333614349365, 0.18863248825073242], [0.26674187183380127, 0.254713773727417, -0.4662141799926758], [0.943967342376709, 0.38369712233543396, -1.089613437652588]], [[0.30472588539123535, 0.4136638939380646, -0.335838258266449], [0.021281648427248, 0.15429645776748657, 0.1863907277584076], [-1.0826568603515625, -0.3668486773967743, 0.7838882803916931]], [[-0.6477090716362, -0.6203578114509583, 0.8347457051277161], [-1.367821455001831, -1.0826326608657837, 0.8063596487045288], [-0.925903856754303, -0.7028791308403015, 0.6422121524810791]], [[0.4890201985836029, 0.11863777786493301, 0.05985517427325249], [1.3847057819366455, 0.6420688629150391, 0.8431224226951599], [0.7689079642295837, 0.2985651195049286, -0.452554315328598]], [[0.5623438358306885, 0.48390039801597595, 0.6591663360595703], [-0.09034103155136108, -0.18178404867649078, 0.04388009384274483], [-1.3379981517791748, -0.4226098656654358, 0.2217491865158081]], [[0.08962305635213852, -0.25702965259552, -1.0407814979553223], [0.7742165923118591, 0.46765372157096863, 0.5505595803260803], [0.7411684393882751, 0.5273026823997498, 1.029127597808838]], [[-1.0055192708969116, -1.2529937028884888, -0.30949845910072327], [-0.9369357824325562, -1.1664537191390991, 0.11207790672779083], [-0.12117290496826172, -0.5437814593315125, 0.6784149408340454]], [[-0.007839909754693508, -0.8653035759925842, -1.0659198760986328], [-0.030625181272625923, -0.11076969653367996, 0.26068106293678284], [0.26819518208503723, -0.1032710000872612, 1.112773060798645]], [[-0.3012096583843231, -0.23334673047065735, 0.33419349789619446], [-0.0498775839805603, 0.15379539132118225, 0.6052235960960388], [-0.04473554715514183, 0.0384443998336792, 0.06739862263202667]], [[0.542270302772522, 0.16817712783813477, 0.3327294886112213], [-0.508704662322998, -0.6678922772407532, 0.28080469369888306], [-1.9551353454589844, -1.475273847579956, 0.06406494975090027]], [[-0.7736920118331909, 0.16578656435012817, -0.040893495082855225], [-0.29300954937934875, 0.1901344507932663, 0.23352421820163727], [0.3070187270641327, -0.07293747365474701, -0.1742461770772934]], [[0.12874029576778412, -0.31443846225738525, -0.5456327795982361], [-0.3183884918689728, -0.591209888458252, 0.43003779649734497], [-0.5349259972572327, -0.49272143840789795, 1.4665967226028442]], [[0.26498138904571533, 0.6375645399093628, -0.169764444231987], [0.09556132555007935, 0.27540892362594604, -0.45886147022247314], [-0.5989933609962463, -0.17802663147449493, -0.06407282501459122]], [[-0.003758553648367524, -0.35520219802856445, -0.44781118631362915], [0.5400852560997009, -0.022584231570363045, -0.48987191915512085], [0.6955524682998657, 0.7919372320175171, -0.5967984199523926]], [[0.6428970694541931, 0.09713172912597656, 0.14760589599609375], [-0.5343683362007141, -0.7778419852256775, -0.051421698182821274], [-1.5116584300994873, -1.2712624073028564, 0.06693325936794281]], [[0.1627500206232071, -0.06420933455228806, -0.427859902381897], [-0.11025130748748779, -0.15106303989887238, 0.3585624098777771], [-0.8347111940383911, -0.6425011157989502, 1.1458083391189575]], [[0.4113031029701233, 0.5828505754470825, -0.46032071113586426], [0.16477935016155243, 0.2601109743118286, -0.6746792793273926], [-0.48045316338539124, -0.23410245776176453, -0.9156982898712158]], [[-0.6613455414772034, -0.4528588652610779, -0.40514954924583435], [0.6958003044128418, 0.2889932692050934, 0.36639460921287537], [0.8565572500228882, 0.3566208779811859, -0.781211256980896]], [[-0.24824906885623932, -0.8015180230140686, 0.9032860398292542], [-2.0019593238830566, -1.4921692609786987, 0.5371401906013489], [-1.150753378868103, -0.4475966691970825, 1.2875555753707886]], [[0.0870191901922226, -0.09446273744106293, 1.508074402809143], [-0.9923865795135498, -0.7185013890266418, 0.9330572485923767], [-2.117187023162842, -1.8391703367233276, -0.3342394530773163]], [[-0.15526975691318512, -0.0702565386891365, 0.25862160325050354], [0.3017721474170685, 0.18104694783687592, 0.3760174512863159], [0.1446739286184311, 0.12172617763280869, -0.4039098620414734]], [[-0.05941589176654816, -0.4082643389701843, 0.7361047267913818], [0.21407246589660645, -0.27787378430366516, 0.046646419912576675], [0.6318174004554749, 0.13237376511096954, -0.45654839277267456]], [[0.09580900520086288, 0.21135403215885162, 0.5164747834205627], [0.577548086643219, 0.09771818667650223, 1.1665666103363037], [0.1254456490278244, 0.3794265389442444, -0.00679418770596385]], [[0.6214497685432434, 0.3271573483943939, -0.44116973876953125], [1.121801495552063, 1.143132209777832, -1.2889631986618042], [1.6327979564666748, 1.9034392833709717, -0.8260625004768372]], [[-0.45033782720565796, -0.32520291209220886, 0.04360879212617874], [0.43758127093315125, -0.15463270246982574, 0.6149885654449463], [0.20103579759597778, 0.40481501817703247, -0.1379675269126892]], [[-0.12263201177120209, 0.076250821352005, -0.5749980211257935], [0.2029305249452591, 0.24003958702087402, -0.14184293150901794], [-0.24014289677143097, -0.15983736515045166, 0.6734604835510254]], [[0.1321660280227661, 0.10034027695655823, -0.2611844837665558], [-1.0343044996261597, -0.6144406199455261, 0.17428669333457947], [-1.292385220527649, -0.4965941607952118, 1.2466710805892944]], [[-0.4450443983078003, -0.290137380361557, 0.7199727296829224], [-0.20103207230567932, -0.04844006523489952, 0.43867403268814087], [-0.0905308797955513, -0.06899063289165497, -0.11446530371904373]], [[0.7150678634643555, 0.30368563532829285, -0.5202190279960632], [0.6290304660797119, 0.20561054348945618, -0.547927975654602], [0.4627175033092499, 0.4970664381980896, -0.0472404919564724]], [[-0.10813362896442413, -0.35177668929100037, 0.559368371963501], [0.33377647399902344, 0.2432360202074051, 0.6124874949455261], [0.10127810388803482, 0.2521563172340393, -0.6526548266410828]], [[0.5097154974937439, -0.1184481829404831, 0.34152817726135254], [0.30386239290237427, 0.18279734253883362, 0.33197247982025146], [-0.005722985602915287, 0.029970301315188408, -0.3031753599643707]], [[0.28692737221717834, 0.35941940546035767, -0.022942878305912018], [0.19663912057876587, 0.12424760311841965, 0.10822555422782898], [-0.28175315260887146, 0.05015803873538971, 0.011164012365043163]], [[-0.05269143730401993, -0.037343211472034454, 0.8592101335525513], [0.00466765696182847, -0.4766511023044586, -0.052483633160591125], [-0.6205881834030151, -0.4744650721549988, -0.06981179863214493]], [[-1.0732529163360596, -0.3283044993877411, -1.3996816873550415], [-0.19109705090522766, 0.2606082260608673, 0.1399640589952469], [0.7216286659240723, 0.6042128205299377, 0.8820875883102417]], [[-0.1888372004032135, -0.508201539516449, 1.0326061248779297], [-1.3955860137939453, -1.1201460361480713, 0.5300321578979492], [-1.6928993463516235, -1.2550159692764282, 0.3162704408168793]], [[-0.2394726425409317, -0.020110568031668663, 1.1154268980026245], [-1.249975562095642, -0.9593595266342163, -0.10579180717468262], [-0.2590351700782776, -0.3190872371196747, -0.17791950702667236]], [[-0.11613431572914124, -0.9126025438308716, -0.41294848918914795], [-0.01234433613717556, -0.20938237011432648, -0.45485585927963257], [0.7014585137367249, 0.5776329636573792, -0.583309531211853]], [[-0.48978039622306824, -0.2496192455291748, -1.3515125513076782], [0.21733348071575165, 0.19281071424484253, -0.21606723964214325], [0.7702949643135071, 0.5509904026985168, 0.29164791107177734]], [[-0.4174787700176239, -0.42765334248542786, 0.9747553467750549], [-1.17392897605896, -1.1351209878921509, -0.3493160307407379], [0.03082108125090599, -0.2907312214374542, -0.4667910933494568]], [[0.13501720130443573, 0.44465330243110657, 0.10800553113222122], [0.05880652740597725, -0.12764157354831696, -0.5599432587623596], [-0.720872700214386, -0.4827721118927002, -0.16817665100097656]], [[-0.5601150393486023, -0.9198207855224609, 1.0573363304138184], [0.1292884796857834, -0.4708240032196045, 0.6263006925582886], [0.689318060874939, 0.14703549444675446, -0.12505578994750977]], [[-0.18894599378108978, -0.07162643224000931, 0.385067880153656], [0.24428656697273254, 0.09722277522087097, 0.29316413402557373], [-0.060041751712560654, -0.01927131414413452, -0.060584656894207]], [[-0.12871767580509186, -0.8751096725463867, -0.893735945224762], [0.05641994625329971, -0.08916109800338745, 0.003063646610826254], [0.09583864361047745, 0.003557495540007949, -0.2780815660953522]]], [[[-0.1325659155845642, 0.40456774830818176, 0.05814404785633087], [-0.42619067430496216, -0.06483080238103867, -0.7726946473121643], [-0.9137516617774963, 0.13933442533016205, -0.7879727482795715]], [[-0.15340924263000488, 0.06771301478147507, 0.20257501304149628], [0.09417647123336792, 0.147724911570549, -0.04520617797970772], [-0.05620964989066124, 0.46721532940864563, 0.08378088474273682]], [[-0.643046498298645, 1.2897005081176758, -0.6971276998519897], [-0.6467623114585876, 1.7858425378799438, -0.9349275231361389], [-0.7081859111785889, 1.3790382146835327, -0.6780750751495361]], [[-0.22663410007953644, 0.42158690094947815, 0.3460495173931122], [-0.39192715287208557, 0.1933305263519287, 0.050286564975976944], [-0.6580430269241333, -0.17246927320957184, -0.31184685230255127]], [[0.1476345956325531, -0.40987086296081543, 0.23728148639202118], [0.742367148399353, -1.3386605978012085, 0.04799409210681915], [0.04161949083209038, -0.444196879863739, -0.06266383826732635]], [[-1.2370222806930542, 0.49020254611968994, -0.07228323817253113], [-0.7112510204315186, 1.7721405029296875, 0.35204002261161804], [-1.5076336860656738, 0.9349666833877563, 0.3831890821456909]], [[-0.015932908281683922, 0.3278805613517761, 0.5419093370437622], [-0.1375579833984375, -0.64024817943573, 0.007720050401985645], [-0.4014207124710083, 0.02614794299006462, -0.22043269872665405]], [[-0.6813873052597046, 0.6523154973983765, 0.7064697742462158], [-0.7921333909034729, 1.2122626304626465, 1.5905566215515137], [-1.2651747465133667, 0.05490326136350632, 0.49094995856285095]], [[-0.3167288303375244, -0.05382205545902252, 0.7736851572990417], [0.12200566381216049, -0.33479854464530945, 0.7700653076171875], [-0.7608727216720581, -0.6482905745506287, 0.058150649070739746]], [[-1.087198257446289, -0.0044676074758172035, -0.0061514913104474545], [-0.6522493958473206, 0.8643134832382202, 0.6031898260116577], [-1.3565946817398071, 0.07051599025726318, -0.18643268942832947]], [[-0.5597710013389587, -0.6463952660560608, 0.3321704566478729], [-0.28651073575019836, -0.4448799788951874, 0.8280094265937805], [-0.8011694550514221, -0.3561314046382904, -0.2749233543872833]], [[-0.44876328110694885, -0.21454930305480957, -0.2092844396829605], [-0.10527916252613068, -0.3826107084751129, 0.15277785062789917], [-0.6908751130104065, -0.5086010694503784, -0.06848984211683273]], [[-1.3979634046554565, 1.0382047891616821, -0.8755106925964355], [-1.1529176235198975, 2.1182162761688232, -0.45983850955963135], [-2.2842843532562256, 0.8033719062805176, -0.7770586013793945]], [[-0.739050030708313, 0.31902310252189636, -0.08400770276784897], [-0.3638678789138794, 0.7398445010185242, 0.2865039110183716], [-0.8850388526916504, -0.24482885003089905, -0.6659185886383057]], [[-0.056888628751039505, 0.815365731716156, 0.18220461905002594], [-0.6234886646270752, 0.7425349354743958, -0.1538325995206833], [-1.1457080841064453, -0.06071234866976738, -0.3787756860256195]], [[-0.019633326679468155, 0.29548534750938416, 0.7023838758468628], [-0.664885401725769, -0.3198555111885071, 0.08333340287208557], [-0.9320672750473022, -0.12722255289554596, -0.06962524354457855]], [[-0.7466351985931396, -0.2760898172855377, -0.42295002937316895], [-0.33783623576164246, 0.38896632194519043, 0.256660521030426], [-1.0245616436004639, -0.2305242419242859, 0.11778970062732697]], [[-0.23734353482723236, 0.6143432855606079, 0.09169969707727432], [-0.3497546911239624, 0.6439938545227051, 0.012229183688759804], [-0.943123459815979, -0.21751900017261505, -0.5794005393981934]], [[-0.396664023399353, 0.7130814790725708, 0.7956834435462952], [-0.6060003638267517, 0.5837833881378174, 0.44215065240859985], [-1.1750320196151733, -0.011714947409927845, 0.18382321298122406]], [[-1.4284796714782715, 0.2932584285736084, 0.5651606917381287], [-1.3905210494995117, 1.1709626913070679, 0.9360831379890442], [-2.4446372985839844, 0.17684276401996613, 0.556140124797821]], [[-0.21439175307750702, -0.9837077260017395, 0.07063590735197067], [1.128283143043518, -0.8369580507278442, 0.14175763726234436], [0.1735096126794815, -0.12101078778505325, 0.14887531101703644]], [[0.3116551339626312, -0.1297646015882492, 0.0668596625328064], [0.7355843186378479, -1.5142565965652466, -0.6071213483810425], [0.4578653573989868, -0.34968632459640503, 0.03418358042836189]], [[-0.8288471698760986, 0.5506219267845154, 0.5131216645240784], [-0.11532226949930191, -0.36416107416152954, -0.36643916368484497], [-0.008321515284478664, 1.2493325471878052, 0.2142501175403595]], [[-0.08099282532930374, 0.3028497099876404, 0.09753995388746262], [-0.04188844934105873, 0.26303717494010925, 0.1635483354330063], [-0.42910319566726685, -0.13051605224609375, 0.013731579296290874]], [[-1.3004581928253174, 0.15555299818515778, 0.4209939241409302], [-1.0293382406234741, 0.026935668662190437, -0.24273568391799927], [-1.2426098585128784, 0.9602013230323792, -0.9121615290641785]], [[0.18148848414421082, 0.13830453157424927, 0.5309824347496033], [0.06033023074269295, -0.8102428913116455, -0.09908907115459442], [0.8464652299880981, 0.807148277759552, 0.11925555765628815]], [[-0.7546530365943909, 1.0911105871200562, 0.640776515007019], [-0.6473374366760254, 0.8983370661735535, -0.3362511098384857], [-1.298526406288147, 1.2660168409347534, -0.8716835379600525]], [[0.1677180975675583, 1.0482865571975708, -0.017770033329725266], [-0.35785651206970215, 0.6085070371627808, -0.7726005911827087], [-1.0575412511825562, -0.04704941064119339, -0.3683397173881531]], [[-0.8621112108230591, 0.22909721732139587, 0.3132062554359436], [-0.06464693695306778, 0.6314796805381775, 0.42289698123931885], [-0.5042954087257385, -0.23119871318340302, -0.3064320683479309]], [[-0.13506299257278442, -0.4055922329425812, 0.23950783908367157], [0.42440155148506165, -0.7180260419845581, 0.24059218168258667], [-0.33886611461639404, -0.4622020423412323, -0.28538256883621216]], [[0.0066625685431063175, 0.26317453384399414, 0.22228974103927612], [-0.5427668690681458, 0.15894757211208344, 0.585152804851532], [-0.3979310095310211, 0.32005774974823, 0.0781819149851799]], [[-0.7431899309158325, 0.4317147135734558, 0.6776306629180908], [-0.18098075687885284, -0.37198933959007263, -0.5924688577651978], [-0.08897149562835693, 1.0872924327850342, 0.5236896872520447]], [[-0.9744266271591187, 0.6106330752372742, 0.22873680293560028], [-0.6792536377906799, 0.18104733526706696, -0.7653384208679199], [-1.031785011291504, 0.42530548572540283, 0.12766771018505096]], [[-0.9136075377464294, 0.17632147669792175, -0.2537200450897217], [-0.40633752942085266, 0.5334414839744568, 0.12622040510177612], [-0.49004048109054565, 0.7228294014930725, -0.5363557934761047]], [[0.4345829486846924, 0.4707297086715698, 0.6347554326057434], [0.2549549341201782, -0.8238962292671204, -0.16552577912807465], [0.3383505344390869, 0.6092824935913086, 0.17416179180145264]], [[-0.3641418218612671, 0.6600360870361328, 0.6831088066101074], [-0.7037748694419861, 1.1118661165237427, 1.4555954933166504], [-1.5702341794967651, -0.05012039840221405, 0.7140027284622192]], [[0.343797504901886, -0.17644837498664856, 0.09485071897506714], [0.9865716695785522, -1.2686265707015991, -0.34172749519348145], [0.35234779119491577, -0.5442709922790527, 0.20641067624092102]], [[0.10926244407892227, 0.059341877698898315, 0.16876336932182312], [0.007936026901006699, -0.7435547113418579, -0.6055947542190552], [-0.39179298281669617, 0.16028225421905518, -0.022171305492520332]], [[-0.6003391146659851, -0.7360891699790955, 0.006210224237293005], [-0.8294730186462402, -0.23696842789649963, 0.4424828588962555], [-1.015805959701538, 0.2362237274646759, 0.42914560437202454]], [[-0.3518122732639313, 0.2760995030403137, 0.6524167656898499], [-0.6230071187019348, 0.5888829231262207, 1.414519190788269], [-1.2986183166503906, -0.647817075252533, 0.5203842520713806]], [[0.5682962536811829, 0.6188461184501648, 1.1368807554244995], [-0.21598924696445465, -1.1251140832901, -0.417207270860672], [-0.038058895617723465, 0.43282216787338257, 0.01193289179354906]], [[-0.2681692838668823, 0.2720554769039154, 0.3061900734901428], [-0.4669429063796997, 0.11266770958900452, 0.08523233979940414], [-0.909932553768158, -0.35772714018821716, -0.276007741689682]], [[-0.4922206997871399, 0.2649344503879547, 0.16397511959075928], [-0.6829535365104675, 0.3390939235687256, 0.16705964505672455], [-1.0829044580459595, 0.22519469261169434, 0.019999021664261818]], [[-0.454097181558609, 0.31276935338974, -0.06829895824193954], [-0.2727243900299072, 0.17822974920272827, -0.6101282238960266], [-1.0643428564071655, 0.21734628081321716, 0.10789169371128082]], [[-1.0609354972839355, -0.5135372281074524, 0.2845141291618347], [-0.6532056927680969, 0.04996315762400627, 0.6291108131408691], [-1.3161271810531616, 0.46357443928718567, 0.603689968585968]]], [[[-0.02256452664732933, -0.04970560967922211, -0.04297521337866783], [0.008994066156446934, 0.00886587705463171, 0.0015686106635257602], [-0.011655829846858978, -0.014415462501347065, 0.0020087750162929296]], [[-0.0029364097863435745, -0.023236164823174477, -0.014477884396910667], [0.004494580905884504, -0.03424147143959999, -0.05448828265070915], [-0.08196945488452911, -0.006573650985956192, 0.012883882038295269]], [[0.005525654647499323, -0.02027171105146408, 0.012242964468896389], [-0.09399999678134918, -0.07992241531610489, -0.10566713660955429], [0.03979998826980591, -0.03620726615190506, -0.044037796556949615]], [[-0.028213094919919968, -0.05611066147685051, -0.04400970786809921], [-0.020181821659207344, -0.031101899221539497, -0.06548091769218445], [-0.07777858525514603, -0.007596154697239399, 0.01116735115647316]], [[-0.04441555216908455, -0.05958002805709839, -0.008857362903654575], [-0.03478527069091797, -0.05536452308297157, -0.06582479923963547], [-0.037471313029527664, 0.019275086000561714, -0.03731418028473854]], [[-0.009015602059662342, -0.05113517865538597, 0.01227500755339861], [0.007581387646496296, -0.02331194095313549, -0.016288090497255325], [0.01731369085609913, -0.05453343316912651, -0.00960996188223362]], [[-0.02754782699048519, -0.03170216083526611, 0.03901055455207825], [-0.050103407353162766, -0.07315351814031601, -0.054124072194099426], [-0.0905587449669838, 0.013649989850819111, -0.052511416375637054]], [[-0.10520760715007782, -0.022387651726603508, -0.07626912742853165], [-0.08227594941854477, -0.025144612416625023, -0.09304787963628769], [0.0022568795830011368, 0.011495599523186684, -0.036015160381793976]], [[-0.03373357653617859, -0.0445839986205101, -0.007539780810475349], [0.005933193489909172, -0.01309140957891941, -0.015901686623692513], [-0.08681881427764893, -0.018555017188191414, -0.02349809929728508]], [[-0.08869046717882156, 0.013108006678521633, -0.05502806976437569], [-0.04317137226462364, -0.04213956743478775, -0.02067737467586994], [-0.0791950598359108, -0.024086203426122665, -0.009025639854371548]], [[0.0416775681078434, 0.019282661378383636, -0.031222667545080185], [-0.0402776375412941, 0.027066919952630997, -0.03372950479388237], [0.004697550553828478, 0.0072759040631353855, 0.007404942065477371]], [[-0.08053222298622131, 0.003330230712890625, -0.034507352858781815], [-0.04859466105699539, -0.02870517410337925, -0.036937080323696136], [-0.036393582820892334, 0.02088582143187523, -0.05498070642352104]], [[-0.008374331519007683, -0.05058381333947182, -0.04872416332364082], [-0.029747623950242996, -0.021991563960909843, -0.013980388641357422], [-0.03186945244669914, -0.033144768327474594, -0.03301192820072174]], [[-0.06781017780303955, 0.012783889658749104, -0.011753800325095654], [-0.08847841620445251, 0.034851063042879105, -0.038771290332078934], [-0.05736522376537323, -0.02475288324058056, -0.03928626328706741]], [[-0.036719292402267456, -0.0554342046380043, -0.057611241936683655], [-0.06657097488641739, -0.05105980485677719, 0.010023434646427631], [-0.009507827460765839, -0.06810054928064346, -0.03126287832856178]], [[-0.059894099831581116, -0.04811004176735878, -0.04453999921679497], [-0.05195841193199158, -0.004620453342795372, -0.06807371973991394], [0.011866404674947262, -0.05245491862297058, -0.039577778428792953]], [[-0.002831788966432214, -0.06504056602716446, -0.01607794687151909], [0.009928456507623196, -0.02000604197382927, -0.05390642210841179], [-0.07623033225536346, -0.0478929802775383, -0.042702555656433105]], [[-0.025095796212553978, -0.04530786722898483, 0.00781297404319048], [-0.06606458127498627, -0.040831271559000015, -0.01828484982252121], [-0.014414390549063683, 0.026824144646525383, -0.02371198497712612]], [[-0.035911742597818375, -0.04241420328617096, 0.015149197541177273], [-0.0714879184961319, -0.05720695108175278, -0.06946796178817749], [-0.09198606014251709, -0.011594084091484547, -0.025972571223974228]], [[0.019108058884739876, 0.05621812492609024, 0.013904261402785778], [-0.006874380633234978, -0.01763928309082985, -0.0035265383776277304], [0.005715508945286274, -0.011880462989211082, -0.014172599650919437]], [[-0.024523675441741943, 0.006629332900047302, -0.07637493312358856], [-0.01943502016365528, -0.07015714794397354, -0.009292875416576862], [-0.024687904864549637, -0.018679820001125336, -0.025364240631461143]], [[0.02761068195104599, -0.04017174616456032, 0.034767162054777145], [-0.02053467556834221, 0.01747780479490757, -0.003927320707589388], [-0.020055655390024185, 0.018160320818424225, -0.013156268745660782]], [[-0.026427501812577248, -0.06620319187641144, -0.02331172488629818], [-0.03132876753807068, -0.02992033027112484, -0.047219280153512955], [-0.091481052339077, -0.04154748097062111, -0.008320627734065056]], [[0.005663520656526089, -0.05816042050719261, -0.011720155365765095], [-0.0887170061469078, -0.08141635358333588, -0.09121211618185043], [-0.01945670135319233, -0.012104962952435017, -0.05602418631315231]], [[-0.006203876342624426, 0.014765426516532898, -0.009097241796553135], [-0.0010791398817673326, -0.06476721167564392, -0.044502075761556625], [-0.053037408739328384, -0.02704690396785736, -0.056830234825611115]], [[-0.07193321734666824, 0.011412113904953003, -0.007413388695567846], [0.030327117070555687, -0.046381719410419464, -0.025804542005062103], [-0.019506972283124924, 0.014664897695183754, -0.011926277540624142]], [[-0.017637133598327637, -0.00941063929349184, 0.009364604018628597], [-0.08137725293636322, -0.10447727143764496, -0.05673972889780998], [-0.11164994537830353, -0.05417004972696304, -0.019498389214277267]], [[0.003016589442268014, -0.056229639798402786, -0.05455859377980232], [-0.03780560940504074, -0.018030401319265366, -0.010930624790489674], [-0.029373684898018837, 0.018569542095065117, -0.04392669349908829]], [[-0.06012984737753868, -0.02505454234778881, -0.011509265750646591], [-0.06486624479293823, -0.027497045695781708, -0.06756086647510529], [-0.06153775006532669, -0.04540765658020973, 0.015171200037002563]], [[-0.06277366727590561, -0.039632655680179596, -0.07935533672571182], [-0.02754230424761772, -0.0693800300359726, -0.02499253861606121], [-0.03733782842755318, -0.06256391108036041, -0.047465644776821136]], [[-0.03305068239569664, 0.02991916425526142, 0.03255975618958473], [-0.04293162748217583, -0.0869414433836937, -0.05038090795278549], [-0.06227748468518257, -0.040269140154123306, -0.012518481351435184]], [[-0.02464752458035946, 0.010246096178889275, -0.025898899883031845], [-0.05783895403146744, -0.031499288976192474, -0.03677518293261528], [-0.021311849355697632, -0.02974763512611389, -0.03363734856247902]], [[-0.059783030301332474, 0.02448667585849762, -0.008618305437266827], [-0.08680522441864014, -0.0006995485164225101, -0.036917850375175476], [-0.01618373766541481, 0.0441802553832531, -0.019991597160696983]], [[-0.029475292190909386, -0.008503060787916183, 0.024777520447969437], [-0.053176768124103546, -0.06471195816993713, -0.03381054103374481], [-0.005883428268134594, -0.028116364032030106, 0.0070398119278252125]], [[0.01643316075205803, 0.032171715050935745, 0.02078009955585003], [-0.02501712739467621, -0.06883086264133453, -0.0609845407307148], [-0.025584496557712555, 2.3107098968466744e-05, 0.006060920190066099]], [[-0.008379925973713398, 0.026983166113495827, -0.018172042444348335], [-0.06305943429470062, -0.04851507395505905, -0.07874295860528946], [-0.034632179886102676, -0.03446093201637268, -0.03914348781108856]], [[-0.03947628289461136, 0.0014528695028275251, -0.017043959349393845], [-0.003784382715821266, -0.00965879112482071, -0.09529826790094376], [-0.03576728329062462, -0.01776343397796154, 0.0171809121966362]], [[-0.05701950937509537, -0.03541633486747742, -0.06881064176559448], [-0.004626335576176643, -0.04668910801410675, -0.06631466746330261], [0.030911656096577644, 0.02964428812265396, -0.014177341014146805]], [[-0.07408024370670319, 0.0365188829600811, -0.054952722042798996], [-0.05021063983440399, -0.06385913491249084, -0.07502603530883789], [-0.04472556710243225, -0.05066888406872749, -0.06625545769929886]], [[-0.03707754984498024, 0.018289869651198387, -0.07041515409946442], [-0.03917570784687996, -0.04487214982509613, -0.022672871127724648], [0.0220550075173378, -0.025141742080450058, -0.04733642563223839]], [[-0.05617162957787514, -0.03588816151022911, 0.005243723746389151], [-0.04712416231632233, -0.02068609558045864, -0.04464779421687126], [-0.02020266093313694, -0.06847091019153595, -0.01489077415317297]], [[0.012227220460772514, -0.05841706693172455, -0.0300142839550972], [-0.0018834741786122322, -0.043228454887866974, -0.0351731963455677], [-0.015324532985687256, -0.03450613096356392, -0.025928817689418793]], [[-0.09298178553581238, -0.01980362832546234, -0.05278180539608002], [-0.07647234201431274, -0.06837011873722076, -0.062351882457733154], [-0.01427473034709692, -0.10884574055671692, -0.09502996504306793]], [[-0.011819221079349518, -0.052635543048381805, 0.02556232549250126], [-0.07443883270025253, -0.010613404214382172, -0.0675746351480484], [-0.03771796450018883, 0.016459738835692406, -0.01985233463346958]], [[-0.044957082718610764, 0.019370652735233307, -0.07381732761859894], [-0.06678102165460587, -0.06331011652946472, -0.07188617438077927], [0.0036431977059692144, -0.04827187582850456, -0.0054668583907186985]]], [[[0.11296682804822922, -0.6599178910255432, -0.15533380210399628], [0.7214160561561584, -0.16826148331165314, 0.4627947211265564], [0.15068434178829193, -1.1783990859985352, -0.7220703363418579]], [[-0.43239668011665344, -0.6249873042106628, -0.06335297226905823], [0.10161992907524109, 0.7020753026008606, 0.23161593079566956], [0.23632954061031342, -0.2482704222202301, -0.4467264413833618]], [[0.1252419501543045, 0.01738341711461544, -0.3034404516220093], [-0.40497276186943054, 0.07244591414928436, -0.33227425813674927], [0.4745851159095764, 0.3405561149120331, 0.15833935141563416]], [[-0.32223671674728394, 0.1328691840171814, -0.24478700757026672], [-0.3236446678638458, 0.3405645489692688, 0.3059370815753937], [-0.8440081477165222, -1.116414189338684, -0.33957624435424805]], [[-0.27882683277130127, 0.0529644675552845, 0.12066763639450073], [0.03470393642783165, 0.02213975228369236, 0.8169498443603516], [-0.3317543864250183, -1.4007034301757812, 0.03580046072602272]], [[0.5200244784355164, 0.6535756587982178, 0.09240125864744186], [0.16847439110279083, 0.7123111486434937, 0.8940105438232422], [0.8074337244033813, 0.5813357830047607, 0.8434509634971619]], [[0.16887855529785156, -0.5111992955207825, -0.2675246596336365], [0.5791463851928711, 0.7055610418319702, 1.2090638875961304], [-0.7014623284339905, -1.887433648109436, -0.8567177057266235]], [[0.6181128025054932, 0.3446345925331116, 0.343654602766037], [0.6465675234794617, 0.5535723567008972, 0.09077118337154388], [0.6401867866516113, 0.09632120281457901, 1.3634520769119263]], [[-0.022642485797405243, -0.15891054272651672, 0.44688212871551514], [0.023670565336942673, -0.27264946699142456, 0.2036249041557312], [0.28491419553756714, -0.7617977261543274, 0.4536612629890442]], [[0.7069772481918335, -0.2467329204082489, 0.051297955214977264], [0.6407365798950195, 0.083904929459095, -0.20276260375976562], [-0.5755665302276611, -0.8837708830833435, 0.46325168013572693]], [[0.23815010488033295, -0.46896713972091675, -0.3955247402191162], [0.06780966371297836, 0.2605192959308624, 0.44390177726745605], [0.12900212407112122, -0.852098286151886, 0.2642940878868103]], [[-0.1695975363254547, 1.0152995586395264, 0.3818194568157196], [-0.21835316717624664, 0.6537467837333679, 0.786062479019165], [-1.4357701539993286, -1.9748104810714722, -0.9643142223358154]], [[-0.15230008959770203, -0.3203103542327881, -1.2378356456756592], [-0.26061058044433594, -0.708964467048645, -0.7841246128082275], [0.6361598372459412, 0.10395965725183487, 1.0479284524917603]], [[0.2393779307603836, 0.41476476192474365, 0.2615036368370056], [-0.11251804977655411, 0.40313464403152466, 0.15982191264629364], [-1.3389573097229004, -1.5281833410263062, -0.09125407040119171]], [[-0.12864044308662415, 0.3328403830528259, 0.1549108326435089], [-0.21652895212173462, 0.33813992142677307, 0.4166380763053894], [-0.21895648539066315, -0.6884172558784485, -0.013398963026702404]], [[0.643212616443634, 0.4970919191837311, 0.5327874422073364], [-0.14778301119804382, -0.1811884641647339, -0.36964643001556396], [0.3934379518032074, 0.5837363004684448, 0.06582503765821457]], [[-0.34114953875541687, 0.7651597857475281, 0.5473995804786682], [-0.3029463589191437, 0.31987711787223816, 0.842445969581604], [-1.1830309629440308, -1.582908272743225, -0.6090269684791565]], [[-0.03603421896696091, 0.07768138498067856, 0.08442869037389755], [0.04760611057281494, 0.47243717312812805, 0.026151657104492188], [-1.1613683700561523, -1.0079983472824097, -0.061601296067237854]], [[-0.41907840967178345, -0.11181757599115372, -0.5068963766098022], [-0.5544937252998352, 0.7346131801605225, 0.3176397383213043], [0.04339542239904404, 0.037359632551670074, 0.10674359649419785]], [[0.5937645435333252, 0.1469007432460785, -1.0727099180221558], [0.17482604086399078, -0.3237316608428955, -0.6574879288673401], [0.9194731712341309, 1.1916682720184326, -0.001966803800314665]], [[0.03111403062939644, 0.590743899345398, 0.8741042017936707], [0.47874391078948975, -0.11086737364530563, 1.204679012298584], [-0.5865777134895325, -1.6619677543640137, -0.8655679225921631]], [[-0.3984605371952057, -0.21082092821598053, -0.21911586821079254], [-0.03826835751533508, 5.033720299252309e-05, 0.9492028951644897], [-0.3620513379573822, -1.4780683517456055, 0.04534053057432175]], [[0.43216031789779663, -0.753091037273407, 0.5202290415763855], [0.1359381079673767, -0.139394611120224, 0.8409961462020874], [-0.3789854049682617, -0.4670136272907257, 0.5027127861976624]], [[0.29573550820350647, -0.30500006675720215, 0.242326021194458], [-0.0446370504796505, -0.4028451144695282, 0.28455913066864014], [0.43636375665664673, -0.16192130744457245, -0.23975840210914612]], [[1.2020660638809204, 0.3451427221298218, 0.340171217918396], [1.0997161865234375, 1.0144394636154175, 1.709617257118225], [0.861136257648468, 0.08743776381015778, 1.2059754133224487]], [[-0.47383612394332886, -0.8197888731956482, -0.7711233496665955], [0.05250361189246178, 1.2055811882019043, -0.44127336144447327], [0.7263773679733276, 1.2243415117263794, -0.03314593806862831]], [[0.6883051991462708, -0.15125495195388794, 0.14242659509181976], [0.1998499184846878, -0.595710277557373, -0.060783449560403824], [0.2680908143520355, -0.42345941066741943, -0.17555318772792816]], [[-0.10862231999635696, 0.050679534673690796, 0.2872005105018616], [0.03964332863688469, 0.3359106183052063, 0.44358769059181213], [-0.4015258252620697, -0.7088366746902466, -0.0029943690169602633]], [[-0.1499658077955246, 0.8565394878387451, 0.2979814410209656], [-0.5213974118232727, 0.30215609073638916, 0.4523584246635437], [-1.5575010776519775, -1.4740660190582275, -0.2581477463245392]], [[-0.3066297173500061, -0.7553742527961731, -0.6005166172981262], [-0.3048747777938843, -0.20719264447689056, 0.32506653666496277], [0.011791459284722805, -0.4437674880027771, 0.3039189577102661]], [[-0.5966759324073792, -0.7659205794334412, -0.992271363735199], [-0.019922873005270958, 1.3178108930587769, -0.1822022795677185], [0.1435825377702713, 0.5662193298339844, 0.6644686460494995]], [[0.2855244576931, -0.7416110038757324, -0.3686690330505371], [0.4082445204257965, -0.3665463924407959, 0.8632442951202393], [-0.3085712790489197, -0.17836102843284607, 0.13859543204307556]], [[0.7883703708648682, 0.1811342090368271, 0.3574068248271942], [0.8111231923103333, 0.908399224281311, 1.3455127477645874], [0.2586837112903595, 0.24371621012687683, 0.3649868071079254]], [[0.10437262058258057, -0.1584937572479248, -0.44893184304237366], [-0.171212300658226, 0.5399979948997498, 0.5478928089141846], [-0.4274848699569702, -0.3575299382209778, 0.5348438024520874]], [[0.2841990292072296, -0.7058097720146179, -0.04117864370346069], [0.4640308916568756, -0.023286420851945877, 0.8193393349647522], [-0.4931318163871765, -2.2658956050872803, -1.4934237003326416]], [[-0.030366068705916405, 0.6918933391571045, -0.41824474930763245], [0.12837611138820648, 0.5547618865966797, -0.8536429405212402], [0.6362771987915039, 0.8334758877754211, 1.1515707969665527]], [[-0.2867851257324219, -0.17561297118663788, 0.09466663002967834], [-0.02104024402797222, -0.33541354537010193, 1.0196621417999268], [-0.42618367075920105, -1.5881155729293823, -0.19192272424697876]], [[0.12532638013362885, 0.129819855093956, 0.9703303575515747], [-0.04897124692797661, -1.3105696439743042, 0.45593202114105225], [-0.11806486546993256, -0.7181105017662048, -0.36569538712501526]], [[0.30154621601104736, -0.5397480726242065, -0.17093582451343536], [0.6497663259506226, 0.23980796337127686, 0.20358389616012573], [0.3854820430278778, 0.7108235955238342, 0.6984968781471252]], [[-0.000908306916244328, 0.43821489810943604, -0.49787622690200806], [0.12088620662689209, 0.746478796005249, -0.7156254053115845], [0.3209899067878723, 0.5421826243400574, 0.8657879829406738]], [[-0.059724681079387665, -0.49544262886047363, 0.412270724773407], [-0.119057796895504, -1.4805189371109009, -0.20109520852565765], [-0.2558995485305786, -0.817599892616272, -1.0500940084457397]], [[-0.23238937556743622, -0.03873845562338829, 0.21414051949977875], [0.14471858739852905, 0.5556358098983765, 0.5869619250297546], [-0.3884323835372925, -1.0620360374450684, -0.6139189600944519]], [[-0.8054575324058533, -1.2563344240188599, -0.7373562455177307], [-0.5493059754371643, -0.9188488125801086, -0.4595702290534973], [-0.3654956817626953, 0.5806694626808167, 0.2568492889404297]], [[0.37333348393440247, -0.18708965182304382, 0.25495585799217224], [-0.11327406018972397, -0.026588240638375282, 0.6844133138656616], [-0.0023247567005455494, -0.4823451340198517, -0.11031411588191986]], [[0.525689423084259, -0.4077322483062744, -0.11506780982017517], [0.7249128818511963, 0.6703072190284729, 0.7561104893684387], [-0.16721661388874054, 0.17308451235294342, 0.6844244003295898]]], [[[0.6712244749069214, -0.15407760441303253, -0.9067443013191223], [1.1980843544006348, -0.1018916517496109, 0.10415417701005936], [0.6268377900123596, -0.18369241058826447, 0.20655345916748047]], [[0.5657981038093567, -0.23978973925113678, -0.8823913931846619], [-0.11436128616333008, -0.29680001735687256, -0.009783389046788216], [-0.0027375987265259027, 0.4607231616973877, 1.087745189666748]], [[-0.18576020002365112, -0.1445452868938446, -0.07933680713176727], [-0.8008889555931091, -0.6576501727104187, 0.804411768913269], [-0.7321875095367432, -0.07381732016801834, 1.110888123512268]], [[-0.18405799567699432, -0.4236828684806824, -0.10954328626394272], [0.27902549505233765, 0.2731534242630005, 0.8143066167831421], [-0.0103145195171237, -0.05396076664328575, 0.5140483975410461]], [[0.3222901523113251, 1.006881833076477, 0.6842820048332214], [0.05800681188702583, -0.08705956488847733, -0.3080939054489136], [0.44978025555610657, -1.0924395322799683, -1.1165428161621094]], [[1.7202380895614624, 1.6201183795928955, 1.1039103269577026], [0.21161499619483948, 0.5495140552520752, 1.2810319662094116], [-0.3451225459575653, -0.31145179271698, 0.19745077192783356]], [[-0.5806571841239929, -0.9217420220375061, -0.5117713809013367], [0.3429555892944336, 0.6693629622459412, 1.3781925439834595], [0.42307987809181213, -0.5977489948272705, 0.202767476439476]], [[1.310531735420227, 1.2981542348861694, 1.3437565565109253], [0.8710874319076538, 1.1582090854644775, 0.06972744315862656], [-0.24026982486248016, -0.3164811134338379, -0.6465047597885132]], [[0.761328399181366, 1.5681958198547363, 1.2852814197540283], [0.6779952645301819, 0.526864767074585, -0.16386595368385315], [0.28566262125968933, -1.0608309507369995, -1.7309460639953613]], [[-0.11914712935686111, -0.04534118250012398, 0.5509520173072815], [0.314328134059906, 0.9958930611610413, 0.49237388372421265], [-0.4102112352848053, -0.10837099701166153, -0.4073632061481476]], [[0.23527221381664276, 0.0923648327589035, -0.009103379212319851], [-0.21454393863677979, 0.4924062490463257, 0.13430273532867432], [0.2912197709083557, 0.17236866056919098, 0.3388676047325134]], [[-0.8305966854095459, -0.5442250370979309, -0.261940598487854], [-0.11289950460195541, 0.4339233636856079, 1.3025379180908203], [-0.05431964620947838, -0.2014865130186081, 0.28047075867652893]], [[0.24815692007541656, -0.07369168102741241, 0.3177395761013031], [-0.08874748647212982, -0.39635804295539856, 0.31356605887413025], [-0.8971479535102844, -1.0897692441940308, -0.0444149449467659]], [[-0.18323519825935364, -0.597699761390686, 0.03875714913010597], [0.42795634269714355, 0.6139363646507263, 0.5405744910240173], [0.020544447004795074, -0.16841880977153778, 0.17294737696647644]], [[-0.1934974640607834, -0.3483296036720276, -0.5220252871513367], [0.11147495359182358, -0.09306541830301285, 0.47613051533699036], [-0.02234993875026703, 0.0448569655418396, 0.5858147144317627]], [[0.6705299019813538, -0.06686894595623016, -0.16814835369586945], [0.09413594752550125, -0.7596699595451355, -0.5543552041053772], [0.08007289469242096, -0.3970591127872467, 0.7028865814208984]], [[-0.47856709361076355, -0.4900144934654236, -0.1650080531835556], [-0.06702446937561035, 0.19892743229866028, 1.1016724109649658], [-0.14804492890834808, -0.04998726770281792, 0.14948469400405884]], [[-0.22294653952121735, -0.8069971799850464, -0.03707093000411987], [0.48348575830459595, 0.5879195928573608, 0.6470267176628113], [0.1877526342868805, 0.22128261625766754, 0.501489520072937]], [[-0.029161935672163963, -0.5820577144622803, -0.42403823137283325], [-0.05521161109209061, -0.3107900619506836, 0.6177873611450195], [-0.04306178539991379, 0.04709245637059212, 0.9550139307975769]], [[0.5018447041511536, 1.19171142578125, 1.0490636825561523], [-0.37077856063842773, 0.4369311034679413, 0.9154545664787292], [-1.1850323677062988, -0.39306795597076416, -0.3242732882499695]], [[0.43774208426475525, 1.0953953266143799, 0.7782660722732544], [0.3264661133289337, -0.3481873571872711, -0.1441459357738495], [0.8390165567398071, -0.6261366605758667, -1.2061173915863037]], [[-0.2698083221912384, 0.43031060695648193, 0.6803346872329712], [0.19242404401302338, 0.28382593393325806, 0.5615227818489075], [0.35800638794898987, -1.1854921579360962, -1.3670477867126465]], [[1.8228367567062378, 1.2243462800979614, 1.4589970111846924], [0.4346838593482971, 0.07879549264907837, 0.4569984972476959], [-0.12935419380664825, -0.3563833236694336, 0.5231579542160034]], [[0.3409285247325897, -0.11886800825595856, -0.2956728935241699], [0.13796086609363556, -0.282564252614975, -0.22946174442768097], [0.18096044659614563, -0.07903706282377243, 0.12210189551115036]], [[2.8967695236206055, 1.958115816116333, 0.7182886600494385], [0.6000087857246399, -0.18822486698627472, 0.12251254916191101], [0.29574882984161377, -1.4869213104248047, 0.5844046473503113]], [[-0.6649748086929321, -1.8453269004821777, -2.1606485843658447], [-1.5292637348175049, -1.7954730987548828, -1.3240373134613037], [-0.7080858945846558, 0.14614783227443695, 1.1804548501968384]], [[2.1905479431152344, 1.4735920429229736, 0.9447364807128906], [0.4764588177204132, -0.6427140235900879, -0.4256725609302521], [0.1493195742368698, -1.3050658702850342, 0.2827706038951874]], [[0.32828277349472046, -0.4041225016117096, 0.5088855624198914], [0.2509709298610687, -0.46292534470558167, 0.16625718772411346], [-0.2599336802959442, -0.33364570140838623, 0.15897051990032196]], [[-0.3794110119342804, -0.655093252658844, 0.02243136055767536], [0.22208353877067566, -0.014488399028778076, 0.9599950313568115], [0.21795590221881866, -0.28388211131095886, 0.04850689694285393]], [[0.17664456367492676, 0.06993017345666885, 0.004734288901090622], [-0.0776633769273758, 0.22955350577831268, 0.0402122400701046], [0.4999277591705322, -0.1942305564880371, -0.3256419599056244]], [[-0.36272624135017395, -1.2878409624099731, -0.7273663878440857], [-0.7245054841041565, -0.24510601162910461, 0.23654460906982422], [-0.1801861971616745, 0.6109490394592285, 1.702659010887146]], [[0.9799747467041016, 1.3391531705856323, 1.0222293138504028], [0.011999299749732018, -0.48529505729675293, 0.6503649950027466], [-0.32519370317459106, 0.18556161224842072, 0.2893509268760681]], [[1.1869510412216187, 0.4949359595775604, 0.3386388123035431], [0.29697108268737793, -1.1397732496261597, -0.11632333695888519], [0.03418080508708954, 0.3287515640258789, 0.0660892054438591]], [[0.8678909540176392, 0.10633627325296402, 0.027289964258670807], [0.1022573933005333, 0.07807265967130661, 0.6371479630470276], [0.49460306763648987, 0.14120334386825562, 0.8355440497398376]], [[-0.3323921859264374, -0.5789284110069275, -0.5673089027404785], [0.2599376440048218, 0.5761585235595703, 0.706926167011261], [0.17591772973537445, -0.8062667846679688, -0.016438327729701996]], [[1.1662474870681763, 0.8726496696472168, 1.0490657091140747], [1.010275959968567, 0.767591118812561, 0.22532202303409576], [-0.1024250015616417, -0.4948057532310486, -0.6619265079498291]], [[-0.1189427524805069, 0.48721909523010254, 0.5822755098342896], [0.3933102786540985, -0.00872226245701313, 0.15655238926410675], [0.5001204013824463, -1.1629668474197388, -1.741173267364502]], [[0.1344161331653595, -0.03511675074696541, -0.22273601591587067], [0.768482506275177, -0.33462968468666077, -0.07662809640169144], [0.671939492225647, 0.2166517972946167, -0.1694093644618988]], [[-0.5089792013168335, -0.14423835277557373, -0.1330573558807373], [-0.43164923787117004, -0.04301026836037636, 0.08603565394878387], [-0.6581888198852539, 0.7305710315704346, 0.3929704427719116]], [[0.8508840799331665, 0.4268058240413666, 0.43020713329315186], [0.683599591255188, 0.5952215790748596, -0.12167750298976898], [-0.12635038793087006, -0.28753161430358887, -0.24904435873031616]], [[0.17856943607330322, -0.08950943499803543, -0.31178125739097595], [0.532535970211029, -0.8878815174102783, -0.6641224026679993], [0.40845566987991333, -0.14644654095172882, 0.0856175348162651]], [[-0.08134565502405167, -0.6056888103485107, -0.9959766268730164], [0.13818109035491943, -0.03766762092709541, 0.6678041815757751], [-0.05809921771287918, -0.19475294649600983, 0.41801804304122925]], [[0.28045904636383057, 0.5165063142776489, 0.3367559611797333], [-0.22053173184394836, -0.6673823595046997, -0.3305022120475769], [-0.03560149669647217, -0.4115436375141144, -0.47485342621803284]], [[0.7307115793228149, 0.047990549355745316, 0.09705248475074768], [0.19119130074977875, -0.8998891711235046, -0.2097952663898468], [0.1304422914981842, 0.14897385239601135, -0.059330422431230545]], [[0.02961384691298008, 0.26186132431030273, -0.08973485231399536], [-0.14290685951709747, -0.26298362016677856, -0.11295244097709656], [-0.2849906086921692, 1.103893518447876, 0.3850752115249634]]], [[[0.08476603776216507, 0.06577202677726746, 0.3703070878982544], [0.5174362659454346, -0.5639196038246155, -0.5393352508544922], [-0.05178792402148247, -0.8217206597328186, -1.1385464668273926]], [[-0.16513308882713318, -0.39253535866737366, -0.2725817859172821], [0.314452588558197, -0.9745850563049316, -0.7934148907661438], [0.5620414614677429, -0.4954712390899658, -0.9587348699569702]], [[-0.18452408909797668, 0.4247846305370331, -0.07031494379043579], [0.008675023913383484, 1.1255086660385132, 0.7022395730018616], [-0.26084965467453003, 0.3851086497306824, -0.3268754184246063]], [[-0.053333766758441925, -0.5128799080848694, -0.03560606762766838], [-0.18610253930091858, -0.9086278676986694, -0.69769686460495], [-0.18120798468589783, -0.7283533811569214, -0.5333313941955566]], [[-0.21488989889621735, -0.4806962013244629, -0.5104056596755981], [-0.285977840423584, -0.8212593197822571, -0.12035854160785675], [-0.5880358815193176, -0.06677630543708801, 0.3923412561416626]], [[0.4185864329338074, -0.09532979875802994, -0.1619638204574585], [0.15937687456607819, 0.9641261696815491, 0.8607445359230042], [-0.09678301215171814, 0.8847713470458984, 1.0313990116119385]], [[-0.17620199918746948, -0.5979434251785278, -0.3985033333301544], [0.7009831666946411, -2.1098551750183105, -1.172983169555664], [0.35949528217315674, -1.7471566200256348, -0.7813974022865295]], [[-0.31696566939353943, 0.5760012269020081, 0.11364709585905075], [-0.3245234787464142, 0.8400768041610718, 0.5786769390106201], [-0.8112419247627258, 0.8291741013526917, 0.22244848310947418]], [[-0.23918545246124268, -0.4245603382587433, -0.6263826489448547], [0.26400381326675415, -0.6728137135505676, 0.009572671726346016], [0.40154901146888733, -0.04061422497034073, -0.051984284073114395]], [[0.028962137177586555, 0.017130868509411812, -0.4087834358215332], [0.45105960965156555, 0.3100050687789917, -0.07959765940904617], [0.5845765471458435, 0.5823143720626831, -0.2770632803440094]], [[-0.5575684905052185, 0.24459640681743622, -0.31487026810646057], [-0.31540918350219727, -0.13911494612693787, 0.32212528586387634], [-0.9398747086524963, -0.21829082071781158, 0.5440751314163208]], [[0.02281305380165577, -0.6402159929275513, -0.0844249501824379], [0.2556208372116089, -0.6432148218154907, -0.3397330939769745], [0.03314782679080963, -0.24642108380794525, 0.17110872268676758]], [[0.11510737985372543, 0.47794950008392334, -0.1589384526014328], [0.6344043016433716, 1.290276050567627, 0.9282421469688416], [-0.351622074842453, 0.2075188308954239, 0.01639697514474392]], [[-0.19090090692043304, -0.5306759476661682, -0.57888263463974], [0.1489969789981842, -0.6245559453964233, -0.7271581292152405], [0.1954856961965561, 0.037880633026361465, -0.8370141386985779]], [[0.09657569974660873, 0.0450388602912426, -0.12310811132192612], [0.32140737771987915, 0.2082674503326416, -0.16628654301166534], [0.2493944615125656, 0.02155785635113716, -0.3903542757034302]], [[0.6150357127189636, 0.46529391407966614, -0.3817176818847656], [0.5355935096740723, 0.268644779920578, -0.12679117918014526], [0.608196496963501, 0.10989194363355637, -0.6305692791938782]], [[0.3397147059440613, -0.5476426482200623, -0.20406286418437958], [0.3484030067920685, -0.3105508089065552, -0.21624641120433807], [0.19939181208610535, -0.08484440296888351, 0.30290552973747253]], [[-0.22723670303821564, -0.4371168613433838, -0.715401828289032], [-0.10474036633968353, -0.8298242092132568, -0.9228373765945435], [-0.04842380806803703, -0.5925349593162537, -1.1449410915374756]], [[-0.04391191527247429, -0.584744930267334, -0.580055832862854], [0.007711924146860838, -0.24727430939674377, -0.3492858111858368], [0.40751710534095764, -0.36381036043167114, -0.5404613614082336]], [[0.33484095335006714, 0.1701003760099411, -0.05045463517308235], [0.6840874552726746, 1.5295618772506714, 1.2014158964157104], [0.21788857877254486, 0.7168222069740295, 0.809749186038971]], [[0.28454768657684326, -0.48590072989463806, -0.7588872313499451], [-0.025441881269216537, -1.7033404111862183, -0.8368896842002869], [-0.0674060583114624, -0.09445636719465256, 0.23339200019836426]], [[0.057883456349372864, -0.1917456090450287, -0.3001437485218048], [-0.12009290605783463, -0.38192063570022583, -0.5153944492340088], [-0.3924977481365204, -1.052854061126709, -0.19067052006721497]], [[0.59320068359375, 0.1689731776714325, 0.10770946741104126], [0.7288368940353394, -2.075924873352051, -0.046876199543476105], [-0.19269540905952454, -1.8913531303405762, 0.1625971794128418]], [[-0.2293747365474701, 0.14061202108860016, 0.16772258281707764], [-0.11759726703166962, 0.3177969455718994, 0.5637137293815613], [-0.17139123380184174, -0.08147214353084564, 0.39091065526008606]], [[0.08193407207727432, -0.00967636238783598, -0.04185717552900314], [-0.5734029412269592, -0.24674904346466064, -0.209688201546669], [-0.8346971869468689, 0.3363712430000305, -0.25782865285873413]], [[-0.9222329258918762, -0.29392382502555847, 0.12712007761001587], [-1.2816269397735596, -0.8733566999435425, 0.35986679792404175], [-0.8423517942428589, -0.8696845173835754, -0.4426078200340271]], [[0.32595959305763245, 0.6235932111740112, 0.6951916217803955], [0.2521325945854187, -0.1425190567970276, 0.35104289650917053], [-0.44716116786003113, 0.2527492046356201, -0.23568812012672424]], [[0.2982674837112427, 0.6152147650718689, -0.27737897634506226], [0.4610022008419037, -0.05253487825393677, -0.32453569769859314], [0.2207585722208023, -0.498134970664978, -0.8341654539108276]], [[0.08926642686128616, -0.6433219313621521, -0.7807167768478394], [-0.04982341080904007, -0.8740617036819458, -1.003629207611084], [0.23918963968753815, -0.3264145851135254, -0.8117096424102783]], [[-0.2732202708721161, 0.27132701873779297, -0.6226873993873596], [0.09005840867757797, -0.45448899269104004, 0.15009845793247223], [-0.2047768384218216, -0.4719277024269104, 0.8188599348068237]], [[-0.1590198427438736, 0.11045223474502563, 0.20078188180923462], [0.3869584798812866, -0.11729665845632553, 0.48848363757133484], [0.23770920932292938, -0.03284154832363129, 0.15540438890457153]], [[0.4329601526260376, 0.3136786222457886, 0.3478828966617584], [0.16120991110801697, -0.9190613627433777, 0.3341708183288574], [-0.2642036974430084, -1.596557378768921, 0.39715224504470825]], [[0.43786734342575073, 1.3058258295059204, 0.5074728727340698], [-0.5186229944229126, 0.1848338395357132, 0.2724694609642029], [-0.7866602540016174, -0.7264545559883118, 0.25599926710128784]], [[-0.2857866585254669, 0.16929562389850616, 0.013295434415340424], [-0.20609423518180847, -0.048443134874105453, 0.09940658509731293], [-0.3874368369579315, 0.11304735392332077, -0.0541951023042202]], [[-0.024833636358380318, -0.5792030096054077, -0.20163147151470184], [0.8319005370140076, -3.9412968158721924, -1.0402874946594238], [0.21627801656723022, -3.5729689598083496, -0.8338667154312134]], [[-0.31448525190353394, 0.7535961270332336, 0.45338475704193115], [-0.28460055589675903, 1.0558446645736694, 1.0716382265090942], [-0.6106228828430176, 1.1993664503097534, 0.6343686580657959]], [[-0.031234921887516975, -0.46962055563926697, -0.7752145528793335], [-0.06510761380195618, -0.7441201210021973, -0.7854909896850586], [-0.07414544373750687, -0.7433188557624817, -0.24086691439151764]], [[0.33735400438308716, 0.21170587837696075, -0.13804024457931519], [0.6157945990562439, -1.5837377309799194, 0.3955947458744049], [0.4794095754623413, -1.910854697227478, -0.05518101155757904]], [[-0.18243126571178436, 0.20981130003929138, -0.3020736277103424], [0.07638101279735565, 0.2651579678058624, 0.5535770058631897], [-0.6157504916191101, -0.33423322439193726, 0.4097365140914917]], [[-0.4196830689907074, 0.6236531734466553, 0.38970649242401123], [-0.45924660563468933, 0.6731336116790771, 0.9988661408424377], [-0.8938169479370117, 0.7448103427886963, 0.7369695901870728]], [[0.42817234992980957, 0.17541208863258362, 0.2919670343399048], [0.4085441529750824, -3.3069798946380615, 0.27021464705467224], [-0.11044039577245712, -3.3081324100494385, -0.6354138255119324]], [[-0.05981333553791046, -0.5683431029319763, -0.3820672631263733], [0.34027594327926636, -0.7577363848686218, -0.7351837158203125], [0.5178012251853943, -0.32243749499320984, -0.8602169752120972]], [[-0.3704690635204315, 0.2997896671295166, 0.173380509018898], [-0.7692969441413879, 0.2919267416000366, 0.7279011607170105], [-1.1205966472625732, -0.16176865994930267, 0.6459061503410339]], [[-0.07518557459115982, 0.20892128348350525, -0.07091772556304932], [-0.5013945698738098, -0.41274493932724, -0.06447282433509827], [-0.46339863538742065, -0.7221501469612122, -0.08311038464307785]], [[-0.04472867771983147, 0.514333963394165, -0.06531678140163422], [-0.22450152039527893, 0.029921116307377815, 0.38472315669059753], [-0.7322819828987122, -0.3421207368373871, 0.4273103177547455]]], [[[-0.010105094872415066, -0.0392255075275898, 0.0030370105523616076], [0.009298092685639858, -0.00992545671761036, -0.07373664528131485], [-0.01656072400510311, 0.023522354662418365, -0.055313244462013245]], [[0.0067515382543206215, 0.02986467070877552, -0.037096790969371796], [-0.053850866854190826, -0.07642800360918045, -0.009151218459010124], [0.03865823149681091, 0.006595616228878498, -0.09308268129825592]], [[-0.06516701728105545, -0.03362346068024635, 0.05034669488668442], [-0.03474757447838783, -0.058328546583652496, -0.047826286405324936], [0.008385741151869297, -0.013381068594753742, -0.049863722175359726]], [[-0.03264245018362999, -0.008484565652906895, -0.014855658635497093], [-0.049703653901815414, -0.03655954450368881, -0.03875601664185524], [-0.05420645326375961, -0.049661628901958466, -0.08246331661939621]], [[-0.03980337455868721, -0.022165805101394653, -0.052220094949007034], [-0.03348786383867264, -0.051511745899915695, 0.006292032077908516], [-0.006070345174521208, 0.07194834202528, -0.07144764065742493]], [[-0.07338644564151764, -0.017631104215979576, -0.05812259390950203], [0.03178570047020912, -0.05342461168766022, 0.06595952808856964], [0.04072962701320648, -0.02625403366982937, -0.0002677574520930648]], [[0.029581118375062943, 0.015870574861764908, -0.0685589462518692], [-0.02416902221739292, -0.08022240549325943, 0.007936658337712288], [-0.013725987635552883, 0.0029246483463793993, -0.07375624030828476]], [[-0.05207768455147743, -0.026854582130908966, 0.007471694145351648], [-0.02412717230618, -0.03708449378609657, 0.031691908836364746], [0.07344787567853928, -0.039459630846977234, 0.023321932181715965]], [[-0.0020313477143645287, 0.013185556046664715, -0.030044015496969223], [-0.09222719073295593, -0.061871595680713654, -0.030043702572584152], [0.06124496087431908, -0.059489283710718155, 0.010938663966953754]], [[-0.002168639563024044, 0.0048765442334115505, 0.019365083426237106], [-0.032192766666412354, -0.0510174036026001, -0.007438682485371828], [0.013662745244801044, -0.024074440822005272, -0.06388203054666519]], [[-0.00415788171812892, 0.007218669634312391, -0.029146580025553703], [-0.0765281692147255, -0.10031682997941971, -0.042727574706077576], [0.05952553451061249, -0.01972445473074913, -0.014424746856093407]], [[-0.0513899140059948, 0.02066865749657154, -0.03858800604939461], [-0.038313716650009155, -0.08509296923875809, -0.0797942653298378], [-0.025354664772748947, 0.013916458003222942, 0.004708095919340849]], [[-0.05019697546958923, -0.01875917613506317, -0.03497114032506943], [0.0406966470181942, -0.07118638604879379, -0.00904584489762783], [0.05293181166052818, 0.02455325238406658, -0.03816534951329231]], [[0.0023732346016913652, -0.036049459129571915, -0.015494376420974731], [-0.0624762624502182, -0.09008413553237915, -0.07657650113105774], [-0.011099903844296932, -0.0006934410776011646, -0.02416190318763256]], [[-0.03345789760351181, 0.020623022690415382, -0.020396023988723755], [-0.04556518420577049, -0.0006475640693679452, -0.06956469267606735], [-0.015653252601623535, -0.021664569154381752, -0.017037542536854744]], [[-0.031147414818406105, -0.035868674516677856, 0.00966840423643589], [-0.009648787789046764, -0.03548872470855713, -0.007116459775716066], [0.04525456950068474, 0.005008922889828682, -0.010803340934216976]], [[-0.042793966829776764, 0.0350981242954731, 0.008477317169308662], [-0.03106250800192356, -0.012126659974455833, 0.008232032880187035], [-0.03562132269144058, -0.014149460941553116, -0.07127588242292404]], [[0.05455906689167023, 0.02288583107292652, -0.03560229763388634], [-0.02218656986951828, -0.025169748812913895, -0.03515659645199776], [0.05112430080771446, 0.01683885045349598, -0.08455904573202133]], [[-0.06338925659656525, 0.0037133763544261456, -0.017990050837397575], [-0.0032671981025487185, -0.03730376437306404, 0.017030686140060425], [-0.046124182641506195, 0.014454759657382965, 0.003744599875062704]], [[-0.00040108649409376085, -0.03435242921113968, 0.020402055233716965], [-0.08000905066728592, -0.012542917393147945, 0.008627411909401417], [-0.07915347069501877, -0.08049619942903519, 0.05903668329119682]], [[-0.04208986088633537, -0.0579935759305954, -0.021708054468035698], [-0.10147634148597717, 0.011730748228728771, 0.014041807502508163], [0.003941376693546772, 0.01911020278930664, 0.0014487472362816334]], [[-0.013783115893602371, -0.05623042955994606, 0.01685219816863537], [-0.04852134734392166, 0.005903668701648712, -0.04389850050210953], [-0.01861456222832203, 0.06132328137755394, -0.01245141588151455]], [[-0.03242678940296173, -0.03193134814500809, 0.013639767654240131], [0.013722075149416924, -0.052552275359630585, -0.054143764078617096], [0.002566013252362609, 0.02563842199742794, -0.031949833035469055]], [[-0.0365217886865139, -0.06490372121334076, 0.008927618153393269], [-0.08053731173276901, -0.08217578381299973, 0.005603150464594364], [0.027851371094584465, -0.00833488255739212, -0.0030958959832787514]], [[-0.0617852583527565, 0.010535129345953465, -0.03648608922958374], [-0.05377139896154404, -0.0690252035856247, -0.01268829870969057], [-0.10633816570043564, -0.02118980512022972, -0.020992573350667953]], [[-0.062109049409627914, -0.05001183971762657, -0.03314509615302086], [-0.0075872247107326984, -0.007602273020893335, -0.06581622362136841], [-0.008954353630542755, -0.054685451090335846, -0.0485043004155159]], [[-0.04673464223742485, -0.05176407843828201, -0.03205607086420059], [-0.05236433446407318, -0.014585726894438267, 0.026958884671330452], [0.04503205418586731, -0.04851358011364937, 0.00847158208489418]], [[-0.004546039272099733, 0.044733162969350815, -0.07377862930297852], [-0.07273311167955399, -0.08219464123249054, -0.07746218144893646], [0.016425982117652893, -0.0061729648150503635, -0.026973415166139603]], [[-0.012754227966070175, -0.0030799948144704103, -0.042627643793821335], [-0.05803374946117401, -0.08193250000476837, -0.009015144780278206], [-0.03172912821173668, -0.009300151839852333, -0.018107272684574127]], [[-0.044888004660606384, -0.04606340453028679, -0.06843490898609161], [-0.03839844837784767, -0.00898441020399332, 0.011780800297856331], [0.0479087308049202, -0.02775888331234455, -0.018730200827121735]], [[-0.010378323495388031, 0.01755380444228649, -0.03344574198126793], [-0.052585963159799576, -0.04484006017446518, -0.02593383565545082], [-0.053718797862529755, -0.0126789640635252, -0.00776465330272913]], [[0.005831706803292036, 0.018854208290576935, -0.01951827108860016], [-0.017364326864480972, -0.04640919342637062, -0.0365416593849659], [0.02056179568171501, -0.039492975920438766, 0.015483757480978966]], [[0.03854527696967125, 0.013405251316726208, -0.029784446582198143], [-0.07079532742500305, -0.039985064417123795, -0.0025631722528487444], [-0.045668862760066986, -0.08635067194700241, -0.08557635545730591]], [[0.026488618925213814, -0.025401940569281578, -0.06047976389527321], [-0.05639259144663811, 0.01261408906430006, -0.043224774301052094], [-0.03224031627178192, -0.05245786905288696, -0.011857222765684128]], [[-0.03941233083605766, -0.02395009808242321, -0.019778504967689514], [-0.01937260851264, -0.00610844511538744, -0.01395033486187458], [-0.02864765375852585, -0.008762004785239697, -0.051772937178611755]], [[-0.0028194680344313383, 0.02118588797748089, -0.06557276099920273], [-0.025545598939061165, -0.10307176411151886, -0.035177458077669144], [-0.017852790653705597, -0.013827824033796787, 0.02019769325852394]], [[-0.0014665983617305756, -0.006744281854480505, -0.023320645093917847], [-0.09960018843412399, -0.05559727922081947, -0.01112561859190464], [-0.06526606529951096, -0.010699516162276268, -0.03961983695626259]], [[0.01642579212784767, -0.06941842287778854, -0.07873626798391342], [0.0479968786239624, -0.07614084333181381, 0.02463175542652607], [0.03176054731011391, -0.07687598466873169, 0.024901242926716805]], [[-0.03634863346815109, -0.052809566259384155, -0.07174578309059143], [-0.05773968622088432, -0.02412135899066925, -0.07403721660375595], [0.04146625101566315, -0.043773502111434937, -0.004538584500551224]], [[-0.03656722232699394, -0.015996985137462616, -0.03568866848945618], [0.0033199540339410305, -0.06247652322053909, -0.01940864510834217], [0.035478923469781876, -0.06257292628288269, -0.05259346961975098]], [[-0.01725277304649353, 0.0021570888347923756, -0.04832940921187401], [0.017585234716534615, 0.005541461985558271, -0.014345278032124043], [-0.002970872214064002, -0.01952056959271431, -0.07876516133546829]], [[-0.037241436541080475, -0.022445563226938248, -0.052483927458524704], [-0.011900410987436771, -0.043923381716012955, -0.0514136478304863], [0.005273131653666496, -0.009208894334733486, 0.01877957582473755]], [[0.0007547835120931268, 0.01339837908744812, -0.04466318339109421], [0.012774637900292873, -0.032086219638586044, -0.0019671134650707245], [0.02199809066951275, -0.06417129188776016, -0.033534642308950424]], [[-0.04439686983823776, -0.07186772674322128, -0.026044119149446487], [-0.02085873857140541, -0.04079943150281906, -0.004093069117516279], [-0.012941226363182068, 0.006202845834195614, -0.026968760415911674]], [[-0.051669660955667496, -0.03853413462638855, -0.06459245830774307], [-0.03298428654670715, -0.03682159632444382, -0.03238055482506752], [-0.018538694828748703, -0.004894845653325319, 0.023279989138245583]]], [[[-0.06804794818162918, -0.03131086751818657, -0.09448958933353424], [-0.09383242577314377, -0.03778228163719177, -0.09697926044464111], [-0.13185685873031616, -0.048912182450294495, -0.10618076473474503]], [[-0.05704948306083679, -0.07668185234069824, -0.016464577987790108], [-0.08279623091220856, -0.05100404843688011, -0.04222702234983444], [-0.10193663090467453, -0.07843483239412308, -0.11102408170700073]], [[0.013823874294757843, -0.09074047952890396, 0.020634926855564117], [-0.026669016107916832, -0.01558469608426094, -0.062454208731651306], [-0.04334724321961403, -0.03882550075650215, -0.04493115842342377]], [[-0.04329831898212433, 0.0037178518250584602, -0.10400792956352234], [-0.0729086771607399, -0.024759190157055855, -0.04355672746896744], [-0.02041790820658207, -0.06572238355875015, -0.06515209376811981]], [[-0.1292184293270111, -0.07932206243276596, -0.08116905391216278], [-0.05332459509372711, -0.05752985551953316, -0.06237537041306496], [-0.09442479908466339, -0.07834374159574509, -0.06813711673021317]], [[-0.023015398532152176, -0.06648198515176773, -0.004650245886296034], [-0.03283456712961197, -0.06900505721569061, 0.02909286692738533], [-0.038753338158130646, -0.05472376197576523, -0.08791293203830719]], [[-0.09131189435720444, -0.004910615272819996, -0.09053902328014374], [-0.10195999592542648, -0.0728558599948883, -0.039648886770009995], [-0.09903600066900253, -0.021878546103835106, -0.038526974618434906]], [[-0.06917335838079453, -0.0004251242207828909, -0.02580617181956768], [0.025396106764674187, -0.012989142909646034, -0.06367842108011246], [-0.02905820868909359, -0.025960499420762062, -0.05720432847738266]], [[-0.0581054650247097, -0.09392513334751129, -0.05298195779323578], [-0.02049017883837223, 0.006643250584602356, -0.0324983075261116], [-0.1057799831032753, -0.0946996808052063, -0.09162922948598862]], [[-0.08771032094955444, 0.007533643394708633, -0.052602436393499374], [-0.07355087250471115, 0.036979708820581436, -0.03359939530491829], [-0.08161743730306625, -0.03224435821175575, -0.058543432503938675]], [[-0.08754438906908035, -0.030887708067893982, -0.042637743055820465], [-0.06740732491016388, -0.04890657216310501, -0.05951447784900665], [-0.09245027601718903, -0.012275001965463161, -0.0407605916261673]], [[-0.08395235985517502, -0.05344099923968315, -0.04717597737908363], [-0.10361908376216888, -0.035376012325286865, -0.10522695630788803], [-0.040110304951667786, -0.03771251067519188, -0.07378440350294113]], [[-0.05153905972838402, -0.08028864860534668, -0.054495669901371], [-0.0799909383058548, -0.062471795827150345, -0.04255225136876106], [-0.12542445957660675, -0.08839241415262222, -0.0191453006118536]], [[-0.10100779682397842, -0.01793782040476799, -0.047143254429101944], [-0.1215050145983696, -0.041415855288505554, -0.09601414203643799], [-0.07545105367898941, -0.07921193540096283, -0.09219713509082794]], [[-0.04593021050095558, -0.08234953880310059, -0.08219501376152039], [-0.03925956040620804, -0.05094598978757858, -0.0921274721622467], [-0.07119130343198776, -0.0589451789855957, -0.09961923956871033]], [[-0.05930032208561897, 0.003848335240036249, -0.018096420913934708], [0.02406338043510914, -0.0642610415816307, -0.04100492224097252], [-0.03659922257065773, -0.06824774295091629, -0.022621994838118553]], [[-0.00912349484860897, 0.026857025921344757, -0.10228171199560165], [-0.0323464497923851, -0.009282109327614307, -0.08857230842113495], [-0.06072520092129707, -0.027428915724158287, -0.03878072649240494]], [[-0.11209531873464584, 0.03964539244771004, -0.09453627467155457], [-0.055584799498319626, -0.039259493350982666, -0.11741814017295837], [-0.1023784950375557, 0.01756894774734974, -0.09007472544908524]], [[-0.007623571902513504, -0.02188124880194664, -0.02149071916937828], [-0.08713206648826599, -0.06288808584213257, -0.07792922854423523], [-0.09615519642829895, -0.007144899573177099, -0.08423997461795807]], [[-0.05888587236404419, -0.10904612392187119, -0.045349251478910446], [-0.08014953881502151, -0.05262935534119606, -0.021180996671319008], [-0.06454519182443619, -0.014029843732714653, -0.07079023122787476]], [[-0.10291479527950287, -0.11190510541200638, -0.01116845104843378], [-0.0749727189540863, -0.0376485139131546, -0.03330385312438011], [-0.029395727440714836, -0.0949055477976799, 0.00014974005171097815]], [[-0.12498027831315994, -0.12799708545207977, -0.005260965321213007], [-0.08812112361192703, -0.11284042149782181, -0.06893621385097504], [-0.11929018050432205, -0.15105368196964264, -0.06996528804302216]], [[-0.001262033823877573, 0.006428173743188381, -0.0566554069519043], [-0.08573071658611298, 0.022827448323369026, -0.07095149159431458], [-0.05593182519078255, -0.04871223866939545, -0.06946273893117905]], [[-0.0032943207770586014, -0.0016814948758110404, 0.016748525202274323], [-0.013455084525048733, -0.021486420184373856, -0.049852676689624786], [0.0031810051295906305, -0.029642397537827492, -0.0010553321335464716]], [[-0.0691114142537117, -0.08189766108989716, -0.029185248538851738], [-0.041326720267534256, -0.02288653701543808, -0.018244560807943344], [-0.05150330066680908, -0.00798286497592926, -0.06222822889685631]], [[0.0015210876008495688, -0.06624959409236908, -0.02485179342329502], [-0.04335964843630791, -0.14157991111278534, -0.056902188807725906], [-0.028701607137918472, -0.15644066035747528, -0.07571996748447418]], [[-0.06427571177482605, -0.06504933536052704, -0.02794838510453701], [-0.028245046734809875, -0.08261352777481079, -0.08628824353218079], [-0.025030557066202164, -0.018658485263586044, -0.06077027693390846]], [[-0.0064245895482599735, 0.032017599791288376, -0.08532258868217468], [-0.05998903512954712, 0.00787651538848877, -0.08890525251626968], [-0.0807768702507019, -0.02916903793811798, -0.10714346915483475]], [[-0.025575218722224236, -0.0348074808716774, -0.09841888397932053], [-0.012193146161735058, -0.01729738526046276, -0.030159972608089447], [-0.016152728348970413, -0.04413843899965286, -0.05240828916430473]], [[0.033602338284254074, -0.046994633972644806, -0.024090511724352837], [-0.00783183891326189, -0.026779653504490852, -0.0014151516370475292], [0.001051301253028214, -0.046795185655355453, -0.04748891294002533]], [[0.011796833015978336, -0.04237019270658493, -0.0992828756570816], [-0.11287055164575577, 0.010067082941532135, -0.11694540083408356], [-0.09716486930847168, -0.01626300998032093, -0.10597355663776398]], [[0.020795928314328194, -0.0823039710521698, -0.05479243025183678], [-0.052773334085941315, -0.056342750787734985, -0.041509959846735], [-0.025841297581791878, -0.0965115949511528, -0.05360977351665497]], [[-0.027543462812900543, -0.04317402467131615, -0.09857159107923508], [-0.08194232732057571, -0.027777209877967834, -0.139551043510437], [-0.13844090700149536, -0.12376546859741211, -0.07957378774881363]], [[-0.05045662447810173, -0.027802804484963417, -0.025150492787361145], [-0.08608265966176987, -0.07824801653623581, -0.06788944453001022], [-0.09947090595960617, -0.07120266556739807, -0.05415628105401993]], [[-0.030163101851940155, -0.10218583047389984, 0.017617899924516678], [-0.029580146074295044, -0.13343863189220428, -0.0370786152780056], [-0.014154575765132904, -0.09994532912969589, -0.08253010362386703]], [[-0.14098995923995972, -0.027903961017727852, -0.07378333061933517], [-0.049141887575387955, -0.049195434898138046, -0.03576520457863808], [-0.08705981820821762, -0.0778084397315979, -0.058507755398750305]], [[-0.01774704083800316, -0.0677020251750946, -0.0207841657102108], [-0.06002861633896828, -0.11102046072483063, 0.003989021759480238], [-0.06235543265938759, -0.06159083917737007, -0.06428255140781403]], [[-0.019481945782899857, -0.06971456110477448, -0.03320194408297539], [0.021877838298678398, -0.06874240189790726, 0.010500522330403328], [-0.07512380927801132, -0.026700334623456, -0.10276529937982559]], [[-0.07803311198949814, -0.06273950636386871, -0.04237024113535881], [-0.02881365269422531, -0.061724644154310226, -0.009239871054887772], [-0.02152312360703945, 0.004135528579354286, 0.0010445686057209969]], [[0.005784822627902031, -0.043004028499126434, -0.020426368340849876], [0.0170294102281332, -0.006064859218895435, -0.027661457657814026], [0.0006344960420392454, -0.07957868278026581, 0.010293610394001007]], [[-0.01073331106454134, -0.0822032019495964, -0.10359949618577957], [-0.05114074796438217, -0.02630072832107544, -0.08900745213031769], [-0.12000086903572083, -0.05399920418858528, -0.06523075699806213]], [[-0.047894593328237534, -0.02300184965133667, -0.018593810498714447], [-0.07954752445220947, -0.05776866525411606, -0.10710172355175018], [-0.11881999671459198, -0.07898309826850891, -0.072206512093544]], [[-0.023102814331650734, 0.0007620417163707316, 0.004474539775401354], [-0.06535417586565018, -0.008309317752718925, -0.01736709289252758], [-0.06419598311185837, -0.028046732768416405, -0.06271775811910629]], [[-0.10319751501083374, -0.09678702801465988, 0.00894411001354456], [-0.09977368265390396, -0.03637329861521721, -0.010729532688856125], [-0.09148969501256943, -0.10154067724943161, -0.099450021982193]], [[-0.016547098755836487, -0.045271847397089005, -0.015276131220161915], [-0.01608123630285263, -0.03932952135801315, 0.014733810909092426], [-0.04999374970793724, -0.05523901805281639, -0.08786553144454956]]], [[[0.2798554301261902, -0.22143402695655823, -0.03420848399400711], [0.2678280472755432, 0.42299672961235046, -0.22355732321739197], [0.6369748115539551, 0.05408771336078644, 0.1446298211812973]], [[0.07466444373130798, 0.9013737440109253, 0.5009037852287292], [0.12946081161499023, 0.2773621678352356, -0.5942328572273254], [0.5296387672424316, -0.17754340171813965, -0.620864987373352]], [[0.20580290257930756, 0.2539292871952057, 0.21858060359954834], [0.008760563097894192, 0.5052749514579773, -0.30945107340812683], [0.5329692363739014, 0.026015328243374825, -0.043071333318948746]], [[0.6587468385696411, 0.6487176418304443, 0.299139142036438], [0.2592754662036896, 0.01288636215031147, -0.5206179618835449], [0.05993233993649483, 0.3135219216346741, -0.1481151133775711]], [[-0.25879764556884766, -0.48378729820251465, 0.0614691786468029], [-0.5976830124855042, 0.15176431834697723, 0.20151790976524353], [-0.12713122367858887, 0.6502147316932678, 0.7019637227058411]], [[0.008128693327307701, 0.21112847328186035, 0.15335462987422943], [-0.012841585092246532, 0.5579644441604614, -0.0031158614438027143], [-0.004176231566816568, 0.6322325468063354, 0.2800476551055908]], [[0.6738284826278687, 0.018913349136710167, 0.29396671056747437], [-0.20532630383968353, -0.6019196510314941, -0.3044620454311371], [0.06412940472364426, 0.2030579149723053, 0.2822493016719818]], [[-0.7353571057319641, -0.7733129858970642, -0.1934005469083786], [-0.22189325094223022, -0.9539532661437988, -0.316307008266449], [0.19734421372413635, 0.014310792088508606, 0.5645818114280701]], [[-1.0756316184997559, -0.366130530834198, 0.29870179295539856], [-0.4342924654483795, -0.17938022315502167, -0.04830073565244675], [0.5360304117202759, -0.41323015093803406, 0.5323218107223511]], [[-0.0008579181740060449, 0.1216135025024414, -0.009492489509284496], [0.35155510902404785, -0.3878481388092041, -0.47780150175094604], [0.6370278596878052, 0.21981008350849152, 0.5096244812011719]], [[0.3137071430683136, -1.211207628250122, -0.4213702976703644], [-0.6418170928955078, -1.2941936254501343, 0.37815800309181213], [-0.6704691648483276, 0.07408315688371658, 0.7399445176124573]], [[1.1818139553070068, 0.17287828028202057, -0.3336017429828644], [0.12048845738172531, -0.9593219757080078, -1.1628886461257935], [0.02380216494202614, 0.27351129055023193, -0.46694639325141907]], [[-0.2869935929775238, -0.5772160291671753, 0.19361135363578796], [-0.5613345503807068, 0.009857479482889175, 0.6998255252838135], [0.6506527066230774, 0.9607086777687073, 1.1037604808807373]], [[0.6397462487220764, 0.8899540901184082, -0.23592355847358704], [0.49417299032211304, -0.42695072293281555, -0.9113166332244873], [0.21263283491134644, 0.025558773428201675, -0.06414605677127838]], [[1.042920708656311, 0.8854825496673584, -0.21695305407047272], [0.8022976517677307, 0.258590966463089, -1.2077008485794067], [0.8945391178131104, -0.2583165764808655, -0.8024182915687561]], [[1.2791435718536377, 1.361563801765442, 0.3971807360649109], [1.1816169023513794, 0.9255052208900452, -0.7671918272972107], [0.3962847590446472, -0.30604496598243713, -0.4125954508781433]], [[0.8944913744926453, 0.27036193013191223, -0.09145539253950119], [0.13442637026309967, -0.9728994369506836, -0.9721553325653076], [-0.04386083781719208, 0.06334877014160156, -0.4285908341407776]], [[1.0363130569458008, 1.1506885290145874, 0.09191683679819107], [0.7796568274497986, -0.2427709549665451, -0.9368093013763428], [0.6461014747619629, -0.29981377720832825, -0.34511128067970276]], [[0.7552174925804138, 1.05066978931427, 0.008394132368266582], [1.3499785661697388, 0.7724186778068542, -0.6894755959510803], [0.6449185013771057, -0.30560144782066345, -0.7496944665908813]], [[-0.1435312032699585, -0.5653212666511536, 0.8444170355796814], [-0.7866629958152771, 0.4237845242023468, 0.7470302581787109], [0.023107195273041725, 0.9575532674789429, 1.153377652168274]], [[-0.3396453559398651, -0.4786987602710724, 0.4910822808742523], [-0.6969442367553711, 0.09011484682559967, 0.28841277956962585], [-0.2809625566005707, 0.21131615340709686, 0.5873590111732483]], [[-0.13765905797481537, -0.5240367650985718, 0.11425676941871643], [-0.8915671706199646, -0.3460228145122528, 0.20471079647541046], [-0.18753433227539062, 0.5633466839790344, 0.9018452763557434]], [[-0.7218993902206421, -1.5310591459274292, 0.8210402727127075], [-0.906425952911377, 0.7078267335891724, 1.4040586948394775], [-0.21282973885536194, 0.5599952340126038, 1.1429235935211182]], [[-0.18174105882644653, 0.14952534437179565, 0.6406898498535156], [-0.5299535393714905, -0.3656201958656311, 0.36036908626556396], [-0.20884861052036285, 0.18502163887023926, 0.29622775316238403]], [[0.3241320550441742, 0.16882562637329102, 0.5009976029396057], [0.6822800636291504, 1.1745504140853882, 0.5756362676620483], [0.4500255584716797, 0.8910120725631714, 1.0612224340438843]], [[-0.3026552200317383, 0.7627992630004883, 0.9794039130210876], [-0.3589053452014923, 0.16762878000736237, -0.1855107694864273], [0.3526586592197418, 0.03269381821155548, -0.3832000195980072]], [[-0.6859678626060486, 0.6343361735343933, 1.0650242567062378], [-0.3860149383544922, 1.2700687646865845, 1.0292218923568726], [-0.07834763079881668, 0.7889766097068787, 1.4308303594589233]], [[0.8100069165229797, 0.9438745975494385, 0.20392584800720215], [0.7566015720367432, 0.6839476227760315, -0.7804655432701111], [1.6153509616851807, 0.6955990791320801, -0.3615875244140625]], [[0.572411835193634, 0.7596715092658997, -0.10003376752138138], [0.14018574357032776, -0.47189924120903015, -0.8962763547897339], [0.4206957519054413, 0.15913569927215576, -0.24240580201148987]], [[-0.32106631994247437, -0.6564865708351135, 0.0033327145501971245], [-0.5931662917137146, -0.16849058866500854, 0.39428776502609253], [-0.39653536677360535, 0.16071155667304993, 0.9312477707862854]], [[0.6855853199958801, 0.18926377594470978, -0.3935779631137848], [0.6182239055633545, -0.38803157210350037, -0.8085089325904846], [0.5131270289421082, -0.2768803834915161, -0.6765540242195129]], [[-1.2493761777877808, -1.3913195133209229, 0.8604824542999268], [-0.8074122071266174, 0.3546164929866791, 1.5289924144744873], [-0.49314209818840027, 0.25564277172088623, 1.1952348947525024]], [[-0.25380486249923706, 0.32626375555992126, 0.9315719604492188], [-0.4236079156398773, 0.6729845404624939, 0.5008226037025452], [0.1030535027384758, 1.0371381044387817, 0.6687541604042053]], [[0.659887969493866, 0.48186326026916504, 0.23199236392974854], [0.1755155324935913, -0.22483478486537933, 0.09441649168729782], [-0.025202525779604912, 0.3555290997028351, 0.36973607540130615]], [[0.0022052759304642677, -0.42885300517082214, 0.44531023502349854], [-0.6872622966766357, -0.07246321439743042, 0.4654718041419983], [-0.0765233039855957, 0.47552087903022766, 1.1057299375534058]], [[-0.7585232257843018, -0.5521156787872314, -0.3539066016674042], [0.08395349234342575, -0.2201898694038391, -0.05900522693991661], [1.147363305091858, 0.30659639835357666, 0.6326864957809448]], [[-0.23217405378818512, -0.5560611486434937, 0.1521964967250824], [-0.9040383100509644, -0.5341899394989014, 0.19858045876026154], [-0.1429539918899536, 0.30043917894363403, 0.8892084956169128]], [[-0.2518405020236969, -0.7957646250724792, 0.46475687623023987], [-0.3183411657810211, 0.441617876291275, 0.003280847566202283], [0.1410694569349289, -0.009160728193819523, 0.16288599371910095]], [[-0.16768932342529297, -1.8976372480392456, 0.41697385907173157], [-1.3774360418319702, -2.1397545337677, -0.14904242753982544], [-0.481283575296402, -0.5137434601783752, 0.231143057346344]], [[-0.5296037197113037, -0.3266599476337433, -0.31349068880081177], [-0.05947653949260712, -0.7085201144218445, -0.308200478553772], [0.5563449263572693, 0.1968284249305725, 0.44807207584381104]], [[-0.22312787175178528, -0.2549644410610199, 1.160617470741272], [-0.33337822556495667, 1.0483068227767944, 0.7167247533798218], [0.24870337545871735, 0.37057608366012573, 0.7342517375946045]], [[0.7422420382499695, 0.7523473501205444, -0.1123833879828453], [0.7004010081291199, 0.09746004641056061, -0.8898078799247742], [0.7560688853263855, 