weights['MEYDA'] = {"conv0.weight": [[[[-0.015649380162358284, 0.17473673820495605, -0.38858354091644287], [-0.2575792074203491, -0.11184191703796387, -0.029852112755179405], [0.0702202320098877, 0.4113270342350006, 0.03581180423498154]]], [[[0.1748429834842682, -0.08966296911239624, -0.0018433270743116736], [-0.3073232173919678, -0.2657386064529419, -0.14641408622264862], [0.137267604470253, 0.22427885234355927, 0.31424468755722046]]], [[[-0.3912915289402008, -0.26606008410453796, 0.0747016966342926], [0.08428806066513062, -0.12564599514007568, 0.2977842092514038], [-0.16856954991817474, 0.08883785456418991, 0.4430926740169525]]], [[[-0.14024443924427032, -0.021426653489470482, 0.08294354379177094], [0.03734883666038513, 0.47454729676246643, -0.04572117328643799], [-0.07816395163536072, -0.11512193828821182, -0.20157280564308167]]], [[[-0.17115318775177002, 0.3988524079322815, 0.2617672085762024], [0.21852461993694305, 0.09132222831249237, -0.09828341752290726], [0.013617199845612049, -0.3846729099750519, -0.307107537984848]]], [[[-0.3794187307357788, 0.1082795038819313, 0.12130551040172577], [-0.2939089834690094, -0.005229657050222158, 0.2403527945280075], [0.1797415018081665, 0.1380470246076584, 0.018019355833530426]]], [[[0.34027841687202454, -0.08315658569335938, 0.18377098441123962], [-0.3152160942554474, -0.29820114374160767, -0.24462522566318512], [0.21059401333332062, 0.18374066054821014, -0.16641145944595337]]], [[[-0.04893014207482338, 0.22302134335041046, -0.09892614930868149], [0.004941448103636503, 0.1621665060520172, 0.21381962299346924], [0.2283322960138321, -0.36658334732055664, -0.2652198374271393]]], [[[0.11970204859972, 0.3556203842163086, 0.33748525381088257], [0.34219369292259216, 0.12554191052913666, -0.2679584324359894], [-0.06347323209047318, -0.33616572618484497, -0.4396744966506958]]], [[[0.30088257789611816, 0.22116754949092865, -0.5321313142776489], [0.18508227169513702, 0.001783094834536314, -0.1370241641998291], [-0.01810023933649063, 0.1975315511226654, -0.20747387409210205]]], [[[0.11288119107484818, 0.2751743793487549, 0.3098156452178955], [0.10755594074726105, -0.3180443048477173, -0.23370929062366486], [0.12005314230918884, 0.0006854016683064401, -0.34975510835647583]]], [[[-0.13241665065288544, 0.4549895226955414, 0.37159463763237], [-0.10576318949460983, 0.008915770798921585, -0.2310400903224945], [0.00817058514803648, -0.2050483524799347, -0.23601745069026947]]], [[[0.03273170813918114, 0.03803056478500366, -0.15232141315937042], [0.2290639728307724, -0.26184743642807007, 0.3151249289512634], [0.199192076921463, -0.380854994058609, -0.047411996871232986]]], [[[0.006700857542455196, 0.1513618677854538, 0.08388110250234604], [0.22729581594467163, 0.13552163541316986, -0.12336520105600357], [0.17507418990135193, -0.3493827283382416, -0.238579660654068]]], [[[-0.03198014199733734, -0.10233764350414276, -0.05434885248541832], [-0.26516780257225037, -0.025835378095507622, 0.15709401667118073], [-0.2119608223438263, 0.0725974291563034, 0.37734442949295044]]], [[[-0.2066439390182495, -0.19117556512355804, -0.22608457505702972], [0.02717331424355507, 0.16779425740242004, 0.27198895812034607], [0.24318978190422058, 0.342693030834198, -0.013031994923949242]]], [[[-0.12916363775730133, 0.044412244111299515, 0.444375604391098], [0.11425605416297913, -0.03680248558521271, -0.1053345799446106], [-0.2508396804332733, -0.22275948524475098, 0.01810358464717865]]], [[[0.1964980661869049, 0.2216559648513794, -0.37534794211387634], [0.2913464903831482, -0.19525547325611115, -0.0025958754122257233], [-0.12336289882659912, -0.04251088201999664, 0.050462447106838226]]], [[[-0.27133893966674805, -0.25565579533576965, -0.009696790017187595], [0.02294815704226494, -0.1210518330335617, 0.1696600317955017], [-0.20063309371471405, 0.08919426798820496, 0.41507312655448914]]], [[[-0.3243502676486969, 0.28651756048202515, 0.07922906428575516], [-0.38908690214157104, 0.3265306055545807, 0.042220588773489], [-0.21797382831573486, 0.4089081585407257, -0.1791876256465912]]], [[[0.06786195188760757, -0.02059181220829487, 0.30667608976364136], [0.1459628939628601, 0.20282356441020966, 0.16485005617141724], [-0.17452196776866913, -0.2047489881515503, -0.4069754481315613]]], [[[0.20975187420845032, 0.3232383728027344, 0.31569984555244446], [-0.2612774670124054, 0.00405153026804328, -0.21524178981781006], [-0.29361453652381897, -0.2984501123428345, 0.020232219249010086]]], [[[-0.09392429143190384, 0.06199248135089874, 0.0728103369474411], [0.24302345514297485, -0.26668789982795715, -0.26425042748451233], [-0.10299409925937653, 0.3053653836250305, -0.07480928301811218]]], [[[0.2851894497871399, 0.1293599158525467, 0.04477165266871452], [-0.03443944826722145, -0.05756612867116928, 0.0932227149605751], [-0.2322997897863388, -0.11196988075971603, 0.006442530546337366]]], [[[-0.3517642617225647, -0.17081797122955322, 0.3457489013671875], [-0.353685200214386, 0.056756556034088135, 0.44890502095222473], [0.10357551276683807, 0.18059618771076202, -0.18734033405780792]]], [[[0.029446305707097054, -0.4271247684955597, -0.2900777757167816], [-0.11441397666931152, -0.11704782396554947, -0.08727604895830154], [0.45519179105758667, 0.20486508309841156, 0.43481576442718506]]], [[[0.11321888864040375, -0.3300424814224243, 0.08270829170942307], [-0.292511522769928, -0.19993917644023895, 0.07723084092140198], [0.18815872073173523, 0.38742172718048096, 0.015964996069669724]]], [[[0.1097652018070221, 0.2471042275428772, -0.38784465193748474], [0.354650616645813, -0.2582787275314331, -0.035647474229335785], [0.04012986645102501, -0.15731263160705566, 0.11035759001970291]]], [[[0.40981325507164, -0.023137791082262993, -0.062107205390930176], [-0.018756890669465065, -0.2607603967189789, 0.29961562156677246], [-0.0848810076713562, -0.16936001181602478, -0.08083504438400269]]], [[[0.04171201214194298, 0.03413674607872963, 0.12064088881015778], [0.15360219776630402, -0.06733620166778564, -0.036465276032686234], [0.09861189126968384, 0.29377657175064087, 0.13445641100406647]]], [[[-0.08259740471839905, -0.11437489837408066, -0.28655996918678284], [0.17221355438232422, -0.12421364337205887, -0.283891499042511], [0.47031205892562866, -0.05365968495607376, 0.04701247066259384]]], [[[0.013959904201328754, -0.10362841188907623, -0.41502246260643005], [-0.23517844080924988, 0.25508326292037964, -0.05904490500688553], [0.4335485100746155, 0.07465246319770813, 0.19227199256420135]]], [[[-0.09758798778057098, -0.12324338406324387, -0.3111147880554199], [0.13387957215309143, 0.08958474546670914, 6.873161328257993e-05], [0.044791825115680695, -0.0677255317568779, 0.4156864285469055]]], [[[-0.19974417984485626, 0.23234544694423676, 0.037812571972608566], [-0.14032414555549622, 0.06386231631040573, -0.14250610768795013], [0.20116543769836426, 0.1244845911860466, -0.19926853477954865]]], [[[0.10754502564668655, 0.05151606723666191, 0.16824325919151306], [-0.10487278550863266, -0.4504384696483612, -0.1339678168296814], [0.20396803319454193, -0.15365372598171234, 0.19759447872638702]]], [[[0.2471601963043213, -0.24238939583301544, -0.06525423377752304], [0.18127016723155975, -0.02985658310353756, 0.054251912981271744], [0.03946712240576744, -0.33341914415359497, 0.1159835010766983]]], [[[0.16011609137058258, 0.3374737501144409, 0.22112056612968445], [-0.033993981778621674, 0.18551720678806305, -0.08871753513813019], [-0.5093322396278381, -0.42911624908447266, 0.2581741213798523]]], [[[-0.028271865099668503, -0.3791470229625702, -0.0776219516992569], [0.12330292910337448, 0.2883663475513458, 0.13719160854816437], [0.22444890439510345, -0.03564271330833435, -0.18819434940814972]]], [[[0.19412365555763245, 0.10619902610778809, -0.39612460136413574], [0.30927401781082153, 0.16991132497787476, 0.08793666958808899], [-0.27144211530685425, 0.061461810022592545, -0.1932874321937561]]], [[[0.20716935396194458, -0.12444408982992172, -0.11205147951841354], [0.14050202071666718, 0.14737914502620697, -0.2755459249019623], [0.2464212030172348, -0.19667084515094757, -0.022247090935707092]]], [[[-0.2948862910270691, -0.4240970015525818, -0.28199008107185364], [0.28072497248649597, 0.17503321170806885, 0.3474447429180145], [0.4082528054714203, -0.13764026761054993, -0.06258238106966019]]], [[[-0.016409948468208313, -0.14676542580127716, 0.2795372009277344], [-0.3023562431335449, -0.18067477643489838, -0.3440134525299072], [-0.1463717371225357, 0.34460994601249695, 0.35676395893096924]]], [[[0.013025724329054356, 0.035021763294935226, 0.1289217174053192], [-0.1792868673801422, 0.07804178446531296, 0.30454662442207336], [0.029224341735243797, 0.26016560196876526, 0.17396266758441925]]], [[[0.32908084988594055, -0.08462247997522354, 0.2388411909341812], [0.10376513004302979, -0.08926019817590714, -0.15191172063350677], [-0.20298171043395996, -0.33375391364097595, 0.18243668973445892]]], [[[0.14155636727809906, -0.20908913016319275, -0.4791582226753235], [0.25134092569351196, 0.18003515899181366, -0.1362890601158142], [-0.12589608132839203, 0.3795243203639984, 0.1094222292304039]]]], "bn1.running_mean": [5.605193857299268e-45, 0.7931295037269592, 0.19474530220031738, 0.02893058955669403, 0.030777739360928535, 0.1204482689499855, 0.8997507095336914, 5.605193857299268e-45, 0.21746346354484558, 0.8498865365982056, 0.175259068608284, 5.605193857299268e-45, 5.605193857299268e-45, 5.605193857299268e-45, 0.03722970932722092, 0.11961778998374939, 0.05098147317767143, 5.605193857299268e-45, 0.6081762313842773, 0.041186701506376266, 5.605193857299268e-45, 0.055663127452135086, 0.06739094853401184, 0.23624305427074432, 0.10653211921453476, 0.3332749009132385, 0.03686089441180229, 0.04028843715786934, 0.1269274652004242, 0.13073468208312988, 0.03897082433104515, 0.043889325112104416, 0.058000292629003525, 5.605193857299268e-45, 0.07297833263874054, 0.13651996850967407, 0.031018922105431557, 3.509058296913281e-05, 0.06702379137277603, 5.605193857299268e-45, 0.40949660539627075, 0.027521587908267975, 5.605193857299268e-45, 5.605193857299268e-45, 0.058662671595811844], "bn1.running_var": [5.605193857299268e-45, 0.6290395259857178, 0.123989038169384, 0.0228192787617445, 0.023766372352838516, 0.09104519337415695, 0.7482468485832214, 5.605193857299268e-45, 0.21922148764133453, 0.9067549705505371, 0.12590382993221283, 5.605193857299268e-45, 5.605193857299268e-45, 5.605193857299268e-45, 0.02879229001700878, 0.12394347041845322, 0.05252380296587944, 5.605193857299268e-45, 0.7568975687026978, 0.03377406671643257, 5.605193857299268e-45, 0.06589951366186142, 0.047438062727451324, 0.2852645516395569, 0.08474007993936539, 0.2061462253332138, 0.037182651460170746, 0.0324108824133873, 0.0939951092004776, 0.16099873185157776, 0.02644488401710987, 0.04318958520889282, 0.0720553994178772, 5.605193857299268e-45, 0.08952701091766357, 0.10975415259599686, 0.01834702305495739, 6.334866156976204e-06, 0.06873980909585953, 5.605193857299268e-45, 0.3258378207683563, 0.02188367396593094, 5.605193857299268e-45, 5.605193857299268e-45, 0.08267387002706528], "bn1.num_batches_tracked": 31616, "conv1.weight": [[[[-0.0954090803861618, -0.0006194998859427869, 0.018516162410378456], [-0.008496087975800037, 0.009580343030393124, -0.07754969596862793], [-0.13582932949066162, -0.055266015231609344, -0.04094700887799263]], [[-0.07165627181529999, -0.02202117070555687, -0.020660053938627243], [0.05024923384189606, 0.037111714482307434, 0.028927840292453766], [-0.10199186950922012, -0.1194794550538063, -0.013881193473935127]], [[-0.0170575100928545, -0.07433512061834335, -0.06403041630983353], [-0.006161119788885117, -0.1071624830365181, -0.12564127147197723], [-0.009552393108606339, -0.06189816817641258, -0.04667164012789726]], [[0.040402211248874664, -0.010968228802084923, -0.027650507166981697], [-0.06558239459991455, -0.045655205845832825, -0.0363205224275589], [-0.032744210213422775, -0.11787111312150955, -0.050183236598968506]], [[-0.1165911927819252, -0.07881845533847809, -0.07996941357851028], [-0.2873695194721222, -0.20515930652618408, -0.1409156173467636], [-0.14248451590538025, -0.22337087988853455, -0.2211347222328186]], [[-0.01340541336685419, -0.06164020299911499, 0.04873012378811836], [-0.06117815524339676, -0.08196484297513962, -0.02310338243842125], [-0.08518142253160477, 0.0010082692606374621, -0.1163681373000145]], [[-0.0067118071019649506, -0.03927309811115265, -0.002820085734128952], [-0.00438008364289999, -0.07599536329507828, 0.04014725983142853], [-0.03605653718113899, -0.08431647717952728, -0.021812153980135918]], [[-0.09903920441865921, -0.09809838980436325, -0.024995803833007812], [-0.006088658235967159, -0.03801651671528816, 0.0042771752923727036], [-0.0035530489403754473, -0.10118953138589859, -0.06824490427970886]], [[-0.004608495160937309, -0.07886698842048645, -0.060442544519901276], [-0.13362358510494232, -0.13751108944416046, -0.12887592613697052], [-0.04341031610965729, -0.1120133325457573, -0.0967722088098526]], [[-0.020150408148765564, -0.054435908794403076, -0.0003260929079260677], [-0.08271926641464233, -0.08505620062351227, 0.07508362829685211], [0.028287746012210846, -0.03840942680835724, 0.045882951468229294]], [[0.027526775375008583, -0.038158517330884933, -0.04912788048386574], [-0.018076296895742416, -0.048614200204610825, -0.04555965214967728], [0.04861431196331978, -0.02220647595822811, -0.00821538083255291]], [[0.06484334915876389, -0.018618399277329445, -0.010489845648407936], [-0.13564787805080414, -0.1444058120250702, -0.02758098766207695], [-0.1060456708073616, -0.09908588975667953, -0.09686131775379181]], [[-0.0189453586935997, -0.09284138679504395, -0.023982100188732147], [0.022802114486694336, -0.0065234205685555935, 0.08668158948421478], [0.05328502878546715, -0.029749292880296707, 0.011789180338382721]], [[-0.021260878071188927, -0.13663479685783386, -0.07808554917573929], [-0.06604810059070587, -0.03861650824546814, 0.02319539524614811], [-0.017738113179802895, -0.10332504659891129, 0.017201444134116173]], [[0.07255334407091141, -0.02668853849172592, -0.01017799973487854], [0.011310523375868797, 0.01243906281888485, -0.0512596070766449], [-0.06330496072769165, -0.04330353066325188, -0.04409874603152275]], [[-0.1830008178949356, 0.006379813887178898, -0.015566731803119183], [-0.1638088822364807, -0.06423479318618774, -0.08898786455392838], [-0.10640593618154526, -0.015194716863334179, -0.0664297416806221]], [[0.07421086728572845, -0.05274191126227379, -0.06179485097527504], [0.006444000173360109, -0.11277877539396286, -0.00401081470772624], [-0.07032138109207153, -0.11484700441360474, -0.04766074940562248]], [[0.006255467887967825, -0.01006422657519579, -0.015345108695328236], [-0.1022329330444336, -0.10784846544265747, 0.08766630291938782], [-0.054526444524526596, 0.004044081084430218, -0.012776458635926247]], [[-0.006854045670479536, 0.02860509604215622, 0.02522076852619648], [0.064796082675457, 0.008321555331349373, -0.07345360517501831], [-0.09210024029016495, -0.08069305866956711, 0.0028660562820732594]], [[-0.035086456686258316, -0.11412926018238068, -0.05864451080560684], [0.032939162105321884, -0.0011916151270270348, -0.025023628026247025], [-0.0779302790760994, 0.007749529089778662, -0.09840897470712662]], [[-0.07797010987997055, -0.03687068447470665, -0.13551846146583557], [-0.20561592280864716, -0.21179376542568207, -0.19561949372291565], [-0.21481108665466309, -0.3155113756656647, -0.22545520961284637]], [[-0.003515888936817646, -0.04476478323340416, -0.16749748587608337], [-0.13772445917129517, -0.18747252225875854, -0.11575998365879059], [-0.18303531408309937, -0.2556970417499542, -0.252122163772583]], [[0.037302516400814056, -0.04242731258273125, -0.01647486537694931], [-0.02253521792590618, -0.08119635283946991, -0.028526782989501953], [-0.06985145807266235, -0.07756119966506958, -0.01770256832242012]], [[0.030734991654753685, -0.03376581519842148, -0.03530057147145271], [-0.11940241605043411, -0.11254040151834488, -0.12412025779485703], [-0.03450087457895279, -0.08900327980518341, -0.19106486439704895]], [[0.07446069270372391, -0.07970329374074936, -0.033131424337625504], [-0.004272134508937597, -0.06628868728876114, 0.046401042491197586], [-0.04574088752269745, -0.09955477714538574, -0.09663347154855728]], [[-0.10901587456464767, -0.04757242277264595, -0.029853595420718193], [0.017444709315896034, 0.009362393990159035, -0.12692423164844513], [-0.07455642521381378, -0.08260984718799591, -0.056394945830106735]], [[-0.09258852899074554, -0.06430064141750336, -0.013668936677277088], [-0.017533261328935623, -0.03618398308753967, -0.15112686157226562], [-0.03541330248117447, -0.06627695262432098, -0.010728225111961365]], [[-0.08167663961648941, -0.0714893490076065, 0.03672300651669502], [-0.07322728633880615, -0.017991602420806885, 0.01844364032149315], [-0.021922990679740906, -0.05462334677577019, 0.04641081392765045]], [[0.06862066686153412, -0.003720632754266262, 0.03648117557168007], [-0.09083405882120132, -0.1669776737689972, -0.004157935734838247], [-0.07081501185894012, -0.13302165269851685, -0.01934308186173439]], [[-0.07097626477479935, 0.003796572331339121, -0.08161328732967377], [-0.13114096224308014, -0.1423502266407013, -0.11430392414331436], [-0.10320167988538742, -0.0102162417024374, -0.03288545459508896]], [[0.02119843289256096, -0.025547021999955177, 0.015323476865887642], [0.023539114743471146, -0.04727454110980034, 0.042358770966529846], [-0.0949840173125267, -0.08864645659923553, 0.033556126058101654]], [[-0.17537620663642883, -0.05092839524149895, -0.061937522143125534], [-0.09834979474544525, 0.002616395941004157, -0.07926273345947266], [-0.04336227476596832, -0.045973483473062515, 0.03296519070863724]], [[0.007868150249123573, 0.028631607070565224, 0.001679393695667386], [0.01836755871772766, -0.05182841420173645, -0.07267004251480103], [-0.05617806315422058, -0.0882074311375618, -0.04642528295516968]], [[-0.012325657531619072, 0.04208038002252579, 0.042246121913194656], [-0.015430599451065063, 0.013300213031470776, 0.11061256378889084], [-0.1020675003528595, -0.012897944077849388, 0.014818503521382809]], [[-0.010196764022111893, -0.09075674414634705, -0.07590026408433914], [0.08327287435531616, -0.1008974239230156, -0.02460278943181038], [-0.008954417891800404, -0.08551815897226334, -0.05020127817988396]], [[0.04154076427221298, -0.15749657154083252, -0.05546536296606064], [0.0038807482924312353, -0.08202571421861649, 0.07627997547388077], [0.1230284720659256, -0.08318540453910828, 0.04778070002794266]], [[-0.04997989535331726, -0.05909774824976921, -0.020015764981508255], [-0.15438728034496307, -0.12550906836986542, -0.15417513251304626], [-0.008077173493802547, -0.08369355648756027, -0.17127472162246704]], [[-0.09901227802038193, -0.1309531033039093, -0.07599638402462006], [-0.12857918441295624, -0.03323919326066971, -0.09704679995775223], [-0.03197450935840607, -0.006144530605524778, -0.015245742164552212]], [[-0.12735459208488464, -0.12497293204069138, -0.08855247497558594], [-0.16663740575313568, -0.08155825734138489, 0.011271029710769653], [-0.01731022447347641, -0.02984403260052204, -0.050627805292606354]], [[-0.13125142455101013, -0.10714747756719589, -0.0843646302819252], [-0.15181753039360046, -0.07982282340526581, 0.027643505483865738], [-0.08262593299150467, -0.014363395981490612, 0.0023328859824687243]], [[-0.06945696473121643, -0.0212132278829813, 0.11606743186712265], [-0.051191069185733795, -0.009708838537335396, 0.023460818454623222], [-0.07853228598833084, -0.015203581191599369, 0.08088719099760056]], [[0.027400899678468704, -0.041438035666942596, 0.02229844592511654], [0.018584448844194412, 0.042504891753196716, -0.10730817914009094], [-0.11002042144536972, -0.05393710359930992, -0.056512344628572464]], [[-0.06055163964629173, -0.07391151040792465, -0.0785779058933258], [-0.17801892757415771, -0.09937547147274017, -0.10465715825557709], [-0.0775192528963089, -0.025835836306214333, -0.05920809134840965]], [[0.0743226483464241, -0.0328969769179821, -0.023862550035119057], [-0.07717323303222656, -0.22299188375473022, -0.0927174836397171], [-0.013459715060889721, -0.1485702097415924, -0.09295202791690826]], [[-0.15911506116390228, -0.03368955850601196, -0.08568974584341049], [-0.14805375039577484, -0.030200406908988953, -0.06859708577394485], [-0.09052161872386932, -0.016162876039743423, -0.024037130177021027]]], [[[-0.01405737642198801, -0.03205478936433792, -0.02228529565036297], [-0.005488632712513208, 0.08702825754880905, 0.10216767340898514], [-0.1885007619857788, 0.12243758887052536, 0.11862655729055405]], [[0.09216510504484177, 0.05033319443464279, 0.02365480177104473], [0.12502048909664154, -0.0015640637138858438, 0.12006036192178726], [-0.04620712995529175, -0.07207557559013367, 0.039749689400196075]], [[0.2763446569442749, 0.042462967336177826, 0.02194863185286522], [0.2597382366657257, -0.16723330318927765, -0.12647418677806854], [0.0845661610364914, -0.31500622630119324, -0.10617262870073318]], [[-0.038496460765600204, 0.054378338158130646, 0.10717377066612244], [-0.05366690456867218, 0.05815177410840988, 0.08229897916316986], [0.06664331257343292, 0.06399466842412949, -0.011180507950484753]], [[0.01781001128256321, 0.08180797100067139, 0.056486599147319794], [0.0639035776257515, 0.04641702398657799, 0.0868283063173294], [0.19178248941898346, -0.024816716089844704, -0.2145317643880844]], [[0.06570403277873993, 0.05390040576457977, -0.06373698264360428], [0.2657904624938965, -0.1172654926776886, -0.041746288537979126], [0.190444216132164, -0.19470396637916565, -0.07221705466508865]], [[-0.05987011641263962, 0.006322575267404318, 0.02126336097717285], [-0.036879658699035645, 0.1727818250656128, 0.2605682909488678], [-0.08479579538106918, 0.05460743606090546, 0.09152719378471375]], [[0.10106781870126724, 0.127161905169487, 0.011295613832771778], [0.21996575593948364, 0.1516745686531067, -0.18963241577148438], [0.12406372278928757, -0.06523757427930832, -0.4188683032989502]], [[0.00405178451910615, 0.12759481370449066, 0.03632976487278938], [0.13585466146469116, 0.10226266831159592, -0.11842142045497894], [0.10896378755569458, -0.03283960744738579, -0.43989893794059753]], [[0.18162640929222107, 0.10830532014369965, -0.04400373995304108], [0.2851833701133728, 0.2727656960487366, -0.2233244627714157], [0.08534275740385056, 0.0663670152425766, -0.364878386259079]], [[0.04194604232907295, 0.10461942851543427, 0.01968705654144287], [0.1950790286064148, 0.20965023338794708, 0.005372141487896442], [-0.024734998121857643, -0.13478872179985046, -0.3948075771331787]], [[-0.12338000535964966, 0.026799127459526062, 0.10163436084985733], [-0.01917007379233837, 0.07423277944326401, 0.21210843324661255], [0.10362217575311661, -0.045383911579847336, -0.1316961646080017]], [[0.272295206785202, 0.1671140342950821, 0.043244171887636185], [0.17091543972492218, 0.11547712236642838, -0.1154652014374733], [0.017056183889508247, -0.06831540912389755, -0.31104776263237]], [[0.024228746071457863, 0.09728734940290451, 0.004109138157218695], [0.21717295050621033, 0.014482440426945686, -0.18997840583324432], [0.04872230067849159, -0.09840080887079239, -0.40136104822158813]], [[0.1722886562347412, 0.02104763314127922, 0.08138326555490494], [0.0860922560095787, -0.1006140410900116, -0.05158485844731331], [-0.01047507207840681, -0.3034469187259674, -0.14539340138435364]], [[0.06307286769151688, -0.02228815294802189, -0.08556652069091797], [0.23749350011348724, -0.00141355418600142, -0.10252340883016586], [0.05800686776638031, -0.006246817298233509, 0.02486640214920044]], [[-0.14221955835819244, 0.006169076077640057, 0.1011296957731247], [-0.19656331837177277, 0.013258165679872036, 0.16011615097522736], [-0.07284403592348099, 0.034393999725580215, 0.1408853530883789]], [[0.031624626368284225, 0.04262576252222061, 0.0723794549703598], [0.26544511318206787, 0.15366238355636597, -0.033017367124557495], [0.13039256632328033, 0.08033424615859985, -0.2372913509607315]], [[0.04178410768508911, 0.046711597591638565, 0.06085849180817604], [-0.0711326152086258, -0.05727669224143028, 0.1290149688720703], [-0.1421370953321457, -0.10282633453607559, 0.06285367906093597]], [[0.09890873730182648, 0.2519059479236603, -0.10735321044921875], [0.19730176031589508, 0.10674189031124115, -0.2308017611503601], [0.018167506903409958, -0.12296837568283081, -0.4073244333267212]], [[-0.08901634812355042, -0.01251398865133524, 0.01619063876569271], [-0.07442959398031235, -0.06103042513132095, -0.09357383102178574], [0.25293663144111633, -0.0004521674127317965, -0.2633382976055145]], [[-0.14059436321258545, -0.007243242580443621, 0.08124980330467224], [-0.09926648437976837, 0.007709352765232325, 0.2226773351430893], [0.018295077607035637, -0.01764744520187378, 0.031778380274772644]], [[-0.12283305078744888, -0.035383716225624084, -0.0593673512339592], [-0.06124621257185936, 0.11326928436756134, 0.028068136423826218], [-0.12044107913970947, 0.06866125017404556, 0.07610868662595749]], [[-0.006541573442518711, -0.038975790143013, 0.043965552002191544], [0.1798137128353119, -0.003196371253579855, -0.004315569531172514], [0.3286275565624237, 0.07157827168703079, -0.22009718418121338]], [[0.22560462355613708, 0.12197817862033844, -0.09669461846351624], [0.29386770725250244, -0.06739123165607452, -0.21630996465682983], [0.18320171535015106, -0.3251171410083771, -0.2988136410713196]], [[0.21744157373905182, -0.09650419652462006, -0.09287784993648529], [0.20212800800800323, 0.03646497055888176, -0.08185804635286331], [0.00911751575767994, 0.013859624043107033, 0.03314877673983574]], [[0.2487463653087616, -0.05152084678411484, -0.040789905935525894], [0.3135811984539032, -0.10920114070177078, -0.02963542938232422], [0.1007934957742691, -0.11397760361433029, -0.003135089995339513]], [[0.15565355122089386, -0.011125681921839714, -0.06312306225299835], [0.34041574597358704, 0.2147321254014969, -0.13139134645462036], [0.0537908636033535, 0.010639619082212448, -0.2775077521800995]], [[-0.0029431739822030067, 0.10033220052719116, 0.09970176964998245], [-0.033838655799627304, 0.049693744629621506, 0.08843284100294113], [0.09263817220926285, 0.08735284954309464, -0.03324147313833237]], [[-0.006124165374785662, 0.03224651888012886, -0.13555502891540527], [0.2577977478504181, 0.01693965308368206, -0.13005737960338593], [0.12668484449386597, 0.11408116668462753, 0.044855862855911255]], [[-0.041960202157497406, -0.027627836912870407, -0.02248646318912506], [-0.03557533025741577, 0.15216045081615448, 0.12328784167766571], [-0.06765690445899963, 0.13294154405593872, 0.1667661964893341]], [[0.1338007152080536, -0.057882729917764664, -0.11173433065414429], [0.23146763443946838, 0.07969502359628677, -0.14920759201049805], [-0.022123388946056366, 0.06588039547204971, -0.039628930389881134]], [[0.20174209773540497, 0.02327166125178337, 0.013955571688711643], [0.15400288999080658, -0.00361433532088995, -0.03342519327998161], [-0.01929435320198536, 0.024233579635620117, -0.027521274983882904]], [[0.03758499026298523, 0.07745612412691116, -0.07334614545106888], [0.09120514988899231, 0.09291764348745346, 0.014755118638277054], [-0.023617811501026154, -0.011834455654025078, -0.04126915708184242]], [[-0.04510580375790596, -0.02079191617667675, 0.012332635931670666], [0.07530449330806732, 0.1533345729112625, 0.2157711684703827], [-0.14671462774276733, -0.11858323961496353, -0.08102455735206604]], [[0.22540870308876038, 0.105486199259758, 0.04709295183420181], [0.301858127117157, 0.16256020963191986, -0.10387948900461197], [0.10734681040048599, 0.05401429533958435, -0.2697104513645172]], [[-0.2139667123556137, -0.19656753540039062, -0.10584331303834915], [-0.018994906917214394, -0.14782112836837769, -0.1764143705368042], [0.19964449107646942, -0.09574936330318451, -0.29275327920913696]], [[-0.0631161779165268, -0.03046536073088646, -0.07240352779626846], [0.12925589084625244, -0.010375827550888062, -0.08182144165039062], [-0.03413432836532593, 0.07599010318517685, -0.08832687884569168]], [[-0.06605188548564911, 0.024480478838086128, 0.004638597834855318], [0.10058514773845673, 0.09352757036685944, -0.12977509200572968], [0.054476842284202576, 0.1363731026649475, -0.2641606628894806]], [[0.026296639814972878, 0.015771184116601944, -0.007250837050378323], [0.25240322947502136, 0.21584779024124146, -0.16632625460624695], [-0.01674858294427395, 0.03643631935119629, -0.35445982217788696]], [[0.12752246856689453, 0.03544118255376816, -0.06363797932863235], [0.0641302764415741, 0.013194476254284382, -0.07093258202075958], [-0.07493599504232407, 0.051039502024650574, 0.005035765469074249]], [[-0.04514038935303688, 0.03238320350646973, 0.07862572371959686], [-0.006073643919080496, -0.012797517701983452, 0.15806332230567932], [-0.1591658592224121, -0.059392161667346954, 0.16268746554851532]], [[0.04698824882507324, -0.03751825541257858, -0.14386320114135742], [0.23483668267726898, 0.05068838596343994, -0.06485534459352493], [0.16040316224098206, 0.015247452072799206, 0.060874685645103455]], [[-0.0006218222551979125, 0.022547461092472076, 0.07543282210826874], [0.1204710379242897, 0.02237827703356743, 0.13623152673244476], [0.08342497795820236, -0.14649344980716705, -0.23120294511318207]], [[0.014907050877809525, -0.027185821905732155, -0.1396218240261078], [0.16226914525032043, 0.0060592228546738625, -0.23314611613750458], [0.030782461166381836, 0.04646415635943413, -0.14389315247535706]]], [[[0.011643832549452782, -0.06368418782949448, 0.2772103548049927], [0.09489860385656357, -0.12970314919948578, 0.028778165578842163], [0.14973139762878418, -0.07310694456100464, -0.20391812920570374]], [[0.0732947364449501, -0.14329251646995544, 0.14901280403137207], [0.07934979349374771, -0.2116774469614029, -0.07641848921775818], [0.09996228665113449, -0.15929175913333893, -0.11293097585439682]], [[0.050705406814813614, 0.06392950564622879, -0.18609024584293365], [-0.1267755627632141, -0.0858263149857521, 0.09210339188575745], [-0.20333674550056458, -0.2615020275115967, 0.0090821897611022]], [[0.04155915975570679, -0.028126904740929604, -0.10070541501045227], [-0.0020987680181860924, -0.03244398161768913, -0.11140377819538116], [0.07663747668266296, -0.0457967147231102, -0.014410671778023243]], [[0.11177743971347809, 0.07677842676639557, -0.15341156721115112], [0.033017847687006, 0.0011153960367664695, -0.13638992607593536], [0.014851890504360199, -0.034406501799821854, 0.06510619074106216]], [[0.12666822969913483, 0.048279378563165665, -0.11425255984067917], [0.017291981726884842, -0.07757780700922012, 0.06764183193445206], [-0.03519091382622719, -0.15977373719215393, 0.07880765944719315]], [[0.20523914694786072, -0.08831188827753067, 0.16293476521968842], [0.016744527965784073, -0.14180810749530792, -0.22409258782863617], [0.17951790988445282, 0.10882098227739334, -0.03586806729435921]], [[-0.07474520802497864, 0.15026649832725525, 0.010242938064038754], [-0.003633844666182995, -0.016949642449617386, 0.03318816423416138], [0.0644843652844429, -0.16104254126548767, -0.04161551967263222]], [[-0.04524748772382736, 0.08225352317094803, -0.07027481496334076], [0.006596138700842857, -0.01383921131491661, -0.09881673008203506], [0.08586660027503967, -0.14679951965808868, 0.022095268592238426]], [[-0.17018885910511017, -0.027725793421268463, 0.1692836880683899], [-0.12818486988544464, -0.12305659055709839, 0.06760754436254501], [0.14986065030097961, 0.009972349740564823, 0.06105457991361618]], [[-0.044546786695718765, 0.11104338616132736, -0.007453182712197304], [-0.16925188899040222, -0.1222352385520935, -0.10454912483692169], [0.12463834136724472, -0.0528748482465744, 0.00759528111666441]], [[0.07874583452939987, 0.1482880711555481, -0.13642935454845428], [-0.11355338245630264, 0.02897518500685692, -0.17782062292099], [0.061162982136011124, 0.04028644040226936, 0.03943881019949913]], [[-0.14369139075279236, -0.05553915351629257, 0.06806336343288422], [-0.07888483256101608, -0.0444258376955986, -0.06236780434846878], [0.01860315352678299, 0.12010417133569717, -0.0425320602953434]], [[-0.07982277125120163, 0.10592888295650482, -0.013641069643199444], [-0.052378542721271515, -0.033027417957782745, -0.09273774176836014], [0.12019116431474686, -0.05494212359189987, -0.0328512042760849]], [[0.008267691358923912, 0.10069170594215393, -0.07969940453767776], [-0.08286024630069733, -0.009937336668372154, 0.15695928037166595], [0.017767151817679405, 0.009082476608455181, 0.19203807413578033]], [[0.02653537131845951, 0.0018213934963569045, 0.18092527985572815], [0.05556512624025345, -0.2346704751253128, 0.141119122505188], [-0.1116669774055481, -0.30251505970954895, -0.15497523546218872]], [[0.0589757040143013, 0.08043280243873596, -0.08970515429973602], [-0.04916801676154137, 0.06978867948055267, -0.15657101571559906], [0.0896771103143692, 0.11391429603099823, -0.05423669144511223]], [[-0.1215442419052124, 0.10492006689310074, 0.07030052691698074], [0.003305476624518633, -0.12651553750038147, -0.04548037797212601], [0.1542215347290039, -0.032387614250183105, -0.10839645564556122]], [[0.006182463839650154, -0.018680568784475327, -0.10038267076015472], [0.036178383976221085, -0.055943798273801804, -0.0636621043086052], [0.06605919450521469, 0.035568371415138245, 0.027998924255371094]], [[-0.047432366758584976, 0.14025716483592987, -0.2485320121049881], [-0.03605033457279205, 0.006211170926690102, 0.12665946781635284], [0.09401826560497284, 0.12450531125068665, 0.39661410450935364]], [[-0.038332320749759674, 0.1713174283504486, -0.14831578731536865], [0.056787896901369095, 0.14398013055324554, -0.01464497484266758], [-0.03953559324145317, -0.034309495240449905, 0.14926281571388245]], [[0.10360035300254822, 0.12510345876216888, -0.07449744641780853], [-0.03139147534966469, 0.07729297876358032, -0.22298218309879303], [0.13421110808849335, 0.1453055888414383, 0.07665526866912842]], [[0.1404106467962265, -0.04856802523136139, 0.1655321568250656], [0.09191399812698364, -0.14577189087867737, -0.1553250104188919], [0.14238625764846802, 0.011184665374457836, -0.11870881915092468]], [[-0.061724912375211716, 0.09408988803625107, -0.04139534384012222], [-0.08865562826395035, 0.017188463360071182, 0.025991057977080345], [-0.048324935138225555, -0.12488706409931183, 0.056988269090652466]], [[0.08931992202997208, 0.13270743191242218, -0.3781445026397705], [-0.05648861080408096, 0.024803467094898224, -0.00432492233812809], [-0.07128306478261948, -0.05378241837024689, 0.2355697602033615]], [[0.0038735903799533844, -0.23119235038757324, 0.3353319764137268], [-0.047132622450590134, -0.30833715200424194, 0.08139456808567047], [-0.27976444363594055, -0.468258261680603, -0.5028474926948547]], [[0.11187144368886948, -0.16876736283302307, 0.21183918416500092], [0.07873643934726715, -0.3450361490249634, 0.030420314520597458], [-0.24464993178844452, -0.4660162329673767, -0.23803898692131042]], [[-0.1998613029718399, -0.06176178157329559, 0.14127793908119202], [-0.14840400218963623, -0.21877935528755188, -0.07422266155481339], [0.02641092613339424, -0.07397966831922531, -0.10035431385040283]], [[0.04462027922272682, 0.018412385135889053, -0.11989385634660721], [-0.04856697469949722, -0.08722288906574249, -0.16870373487472534], [0.12314911931753159, -0.07326047867536545, -0.15473853051662445]], [[-0.026307592168450356, 0.0687023475766182, 0.13016802072525024], [0.02247554622590542, -0.004647832363843918, 0.1707838773727417], [-0.07487636059522629, -0.2064540982246399, 0.04102950915694237]], [[0.1512630581855774, -0.15875720977783203, 0.1537819355726242], [0.16464099287986755, -0.08710552752017975, -0.06757694482803345], [0.15221501886844635, 0.04702717438340187, -0.17861799895763397]], [[-0.04921035096049309, -0.1353999227285385, 0.3659972548484802], [-0.014914684928953648, -0.2319098711013794, 0.0744568333029747], [-0.03600737452507019, -0.2704269289970398, -0.4221639931201935]], [[0.018526341766119003, -0.10555284470319748, 0.2965870499610901], [-0.03179781138896942, -0.29211902618408203, 0.15363967418670654], [-0.05122795328497887, -0.4068268835544586, -0.3618415892124176]], [[0.011150985024869442, -0.14292170107364655, 0.021358834579586983], [-0.016084633767604828, -0.17889930307865143, -0.23876044154167175], [0.157733753323555, -0.024628927931189537, -0.0608845129609108]], [[0.19187405705451965, -0.012976029887795448, -0.08117452263832092], [0.001585418009199202, -0.0504884198307991, -0.31391221284866333], [0.20179978013038635, 0.15911965072155, 0.026472020894289017]], [[-0.10326442867517471, -0.06555946171283722, 0.07581725716590881], [-0.11291133612394333, -0.08634193241596222, -0.08264544606208801], [-0.019756201654672623, 0.05471772328019142, 0.0006813438376411796]], [[0.03456678241491318, 0.2925983965396881, -0.02039058692753315], [-0.019211597740650177, 0.2228056937456131, 0.1935315877199173], [0.03162459656596184, 0.07964731007814407, 0.2736569344997406]], [[-0.03424889221787453, 0.09182573109865189, 0.15083883702754974], [0.052932772785425186, 0.05257323384284973, 0.15615203976631165], [-0.020412079989910126, 0.01741877757012844, -0.13115395605564117]], [[-0.22894583642482758, 0.06470371782779694, 0.10279205441474915], [-0.034931205213069916, -0.006612703204154968, 0.16620026528835297], [-0.025631945580244064, -0.06885926425457001, -0.00908467173576355]], [[-0.1528225988149643, 0.03728339448571205, 0.20496374368667603], [-0.10987229645252228, -0.09045056998729706, 0.028606653213500977], [0.020276252180337906, 0.031075777485966682, -0.06507428735494614]], [[-0.021936975419521332, -0.1412806361913681, 0.26966848969459534], [0.08552756160497665, -0.13648459315299988, 0.09823238849639893], [0.10398424416780472, 0.0760563313961029, -0.11395255476236343]], [[0.05077110975980759, 0.00835096463561058, -0.10289892554283142], [0.02889803610742092, 0.03353142738342285, -0.13413850963115692], [0.15085631608963013, 0.07850725948810577, -0.0453374870121479]], [[0.06178570166230202, 0.1237281858921051, 0.04056804999709129], [0.005694313906133175, -0.06760498881340027, 0.1763065904378891], [-0.06269975751638412, -0.21689404547214508, 0.07326190918684006]], [[0.03861751779913902, 0.05653834715485573, -0.18018220365047455], [-0.11448294669389725, -0.008751113899052143, -0.22983723878860474], [0.02478114701807499, 0.02396020106971264, -0.015952156856656075]], [[-0.10042090713977814, -0.049967970699071884, 0.37349605560302734], [-0.09473080933094025, -0.08920533210039139, 0.2721744179725647], [-0.04574970528483391, -0.03309536352753639, -0.14587263762950897]]], [[[-0.13168080151081085, -0.127812922000885, 0.007348095066845417], [-0.15797384083271027, -0.11860544979572296, -0.04253808408975601], [0.031478770077228546, 0.024737194180488586, 0.24130205810070038]], [[0.01572793535888195, -0.08481750637292862, -0.07482241094112396], [-0.10356348752975464, -0.18954432010650635, -0.18277165293693542], [0.0020200808066874743, -0.05566498637199402, 0.22489678859710693]], [[-0.13407692313194275, 0.09390603750944138, 0.14180870354175568], [-0.08081867545843124, -0.01600435934960842, -0.07558206468820572], [-0.05727846547961235, -0.15502777695655823, -0.00036190805258229375]], [[0.023973049595952034, -0.1042431890964508, -0.01869087852537632], [0.023561565205454826, 0.015750275924801826, 0.049783069640398026], [-0.027544263750314713, 0.03264861926436424, 0.12954597175121307]], [[-0.04428057372570038, -0.03486991673707962, 0.07171978056430817], [-0.04778430610895157, 0.06890648603439331, 0.13708338141441345], [-0.035206109285354614, 0.07713326066732407, 0.035088252276182175]], [[-0.32205694913864136, -0.042835138738155365, 0.059192556887865067], [-0.0746150091290474, 0.04917847737669945, -0.010012305341660976], [-0.09560685604810715, -0.159661665558815, -0.05048363655805588]], [[-0.020995179191231728, -0.09960412234067917, -0.08393822610378265], [-0.22279533743858337, -0.16250921785831451, -0.20762325823307037], [0.02287912555038929, 0.2789457142353058, 0.11249294131994247]], [[-0.24703507125377655, -0.030562007799744606, 0.026467788964509964], [-0.12708324193954468, 0.16095992922782898, 0.05166977271437645], [-0.16308413445949554, 0.02783309482038021, -0.2091105431318283]], [[-0.1492498368024826, -0.11982181668281555, 0.06104815751314163], [-0.11156745254993439, 0.04421696439385414, 0.14084665477275848], [-0.1415686160326004, -0.022650688886642456, -0.11687041074037552]], [[-0.09479877352714539, 0.10892201960086823, 0.13139568269252777], [-0.009222368709743023, 0.21575133502483368, 0.21666182577610016], [-0.16716910898685455, 0.3181116580963135, -0.060324862599372864]], [[-0.07833654433488846, -0.10546664148569107, -0.053571563214063644], [-0.319092720746994, -0.05905430391430855, -0.04759933426976204], [0.016210226342082024, 0.12364868819713593, -0.03723910078406334]], [[-0.09323284775018692, -0.01759336143732071, -0.04482327401638031], [-0.15399935841560364, -0.058605391532182693, 0.03317335620522499], [0.005723454058170319, 0.08887162059545517, 0.09343472123146057]], [[-0.1607188582420349, -0.1731409728527069, 0.22506625950336456], [-0.0870390236377716, 0.016887258738279343, 0.22981300950050354], [-0.20958887040615082, -0.030939742922782898, 0.031581271439790726]], [[-0.2047477811574936, -0.03205670788884163, 0.09226400405168533], [-0.16705544292926788, 0.14355698227882385, 0.09206277877092361], [-0.14612840116024017, 0.0399589017033577, -0.18250280618667603]], [[-0.03264359012246132, 0.08565413951873779, -0.0008130803471431136], [-0.07989496737718582, -0.027960700914263725, -0.007561639416962862], [0.013243875466287136, -0.08747821301221848, 0.07692677527666092]], [[-0.3616745173931122, -0.11863049119710922, 0.1642376333475113], [-0.04878072440624237, 0.03536052629351616, -0.029588133096694946], [-0.10609690845012665, -0.14550523459911346, -0.011964533478021622]], [[0.048431266099214554, 0.006519180256873369, -0.03918446600437164], [-0.010478416457772255, 0.025741489604115486, -0.021410740911960602], [0.0010408989619463682, 0.10030936449766159, 0.13555923104286194]], [[-0.10627026110887527, -0.10830609500408173, 0.03632548823952675], [-0.07532405108213425, 0.052195124328136444, 0.0998702347278595], [-0.04937181621789932, 0.23096726834774017, -0.12656931579113007]], [[-0.006120758596807718, -0.024590348824858665, -0.041668567806482315], [-0.09506037086248398, -0.10376612097024918, -0.1598910689353943], [0.02416899800300598, 0.0313512347638607, 0.13383665680885315]], [[-0.2205827832221985, 0.056969404220581055, 0.15642094612121582], [-0.2042292356491089, 0.016554541885852814, 0.21679256856441498], [-0.21555881202220917, -0.09438738971948624, 0.06499059498310089]], [[-0.17229405045509338, -0.031075434759259224, 0.016698407009243965], [0.0026390021666884422, 0.13600638508796692, 0.28629037737846375], [-0.1237521544098854, -0.07154946774244308, -0.0029121350962668657]], [[-0.03160841017961502, -0.029182089492678642, 0.047792285680770874], [-0.1474779099225998, -0.028912760317325592, 0.06643233448266983], [0.037952542304992676, 0.15006156265735626, 0.24158397316932678]], [[-0.02475189045071602, -0.060144249349832535, -0.0653056800365448], [-0.1352883130311966, -3.318826202303171e-05, -0.11038456112146378], [-0.02346639148890972, 0.21916325390338898, 0.12610529363155365]], [[-0.14530785381793976, -0.12565438449382782, 0.01933271437883377], [-0.27686357498168945, -0.19781963527202606, 0.0741664320230484], [-0.05102725699543953, -0.10250595211982727, -0.024591239169239998]], [[-0.13466525077819824, 0.11951228231191635, 0.018955204635858536], [0.02520672418177128, 0.10511227697134018, 0.01496826857328415], [-0.11292599886655807, -0.08050737529993057, -0.06211378425359726]], [[-0.19310931861400604, -0.16325968503952026, 0.16984966397285461], [-0.08008502423763275, -0.28679171204566956, -0.039312172681093216], [-0.05198824405670166, -0.09689707309007645, 0.15062938630580902]], [[-0.19767659902572632, -0.12766671180725098, 0.021609827876091003], [-0.10257606208324432, -0.13387557864189148, -0.08404223620891571], [-0.09496340155601501, -0.1365191489458084, 0.16668084263801575]], [[-0.07942906022071838, -0.07226093113422394, 0.069045789539814], [-0.03224833309650421, 0.1851070523262024, 0.20811669528484344], [-0.23066365718841553, 0.2662407159805298, -0.12638314068317413]], [[0.004044624976813793, -0.07640210539102554, 0.049668483436107635], [-0.0678105428814888, -0.0569763146340847, 0.08227484673261642], [-0.013807414099574089, 0.029882559552788734, 0.14675456285476685]], [[-0.43432000279426575, -0.17658992111682892, 0.051529575139284134], [-0.12715469300746918, -0.07858091592788696, 0.11712044477462769], [-0.10412927716970444, -0.09093780070543289, -0.042221799492836]], [[-0.07725096493959427, -0.06370873004198074, -0.10266277194023132], [-0.1547660380601883, -0.10806393623352051, -0.19484616816043854], [0.008116770535707474, 0.16055448353290558, 0.02805728279054165]], [[-0.22278690338134766, -0.054827068001031876, 0.10934986919164658], [-0.10666356235742569, 0.01694464311003685, -0.14380253851413727], [-0.1019984632730484, -0.00398230692371726, 0.005586699116975069]], [[-0.1455027163028717, -0.0175833348184824, 0.12821520864963531], [-0.0939580574631691, -0.10610723495483398, -0.11004378646612167], [-0.01499530766159296, -0.0852450281381607, 0.10167533159255981]], [[0.0138786556199193, -0.09042508155107498, -0.04038252308964729], [-0.10997118055820465, -0.08571135997772217, -0.06350137293338776], [0.037851620465517044, 0.07731599360704422, 0.07649318128824234]], [[-0.09309232234954834, -0.11126155406236649, -0.02867181785404682], [-0.2685193717479706, -0.2588058412075043, -0.13990071415901184], [0.11403755098581314, 0.2060045599937439, 0.380641907453537]], [[-0.205910325050354, -0.16688942909240723, 0.1864878386259079], [-0.14708280563354492, -0.045720212161540985, 0.19889122247695923], [-0.23402462899684906, -0.0483875535428524, -0.028871843591332436]], [[-0.28841957449913025, 0.032495543360710144, 0.04879755526781082], [-0.15292087197303772, -0.0013968341518193483, 0.09728007018566132], [-0.0966334119439125, -0.19174359738826752, 0.011032902635633945]], [[-0.38775303959846497, -0.2541677951812744, 0.11098001152276993], [-0.08628150820732117, 0.0036123134195804596, 0.018514903262257576], [-0.18857061862945557, 0.03146439418196678, -0.05084029585123062]], [[-0.3051081895828247, -0.07889940589666367, 0.055338140577077866], [-0.07615961879491806, 0.017999451607465744, 0.06348266452550888], [-0.17554254829883575, 0.039661705493927, -0.24705049395561218]], [[-0.2358199954032898, -0.057416729629039764, 0.06378775089979172], [-0.17372272908687592, 0.0983123630285263, 0.10261796414852142], [-0.3305279016494751, 0.13492745161056519, -0.22720852494239807]], [[-0.24399004876613617, -0.24297969043254852, 0.15926098823547363], [-0.1370321810245514, -0.059379495680332184, -0.09615744650363922], [-0.13971646130084991, -0.11126944422721863, 0.023490900173783302]], [[0.050595253705978394, -0.10989425331354141, -0.15515029430389404], [-0.11470797657966614, -0.21612022817134857, -0.21652752161026], [0.15148219466209412, 0.09133238345384598, 0.23188216984272003]], [[-0.384725958108902, -0.033677853643894196, 0.10169587284326553], [-0.06338966637849808, 0.0049065216444432735, 0.10571709275245667], [0.03871280699968338, -0.09077227860689163, -0.04400535300374031]], [[-0.0556722953915596, -0.13711492717266083, 0.11148786544799805], [-0.20296117663383484, -0.10379933565855026, 0.1355132758617401], [-0.024376830086112022, -0.009539858438074589, 0.17080189287662506]], [[-0.2958945035934448, -0.024156633764505386, 0.12474420666694641], [-0.061916280537843704, 0.04391445964574814, -0.010642929933965206], [-0.14295676350593567, 0.05652602016925812, 0.00796324759721756]]], [[[-0.06962195783853531, 0.042359985411167145, 0.08264021575450897], [-0.1530459076166153, -0.07446542382240295, 0.09154640883207321], [-0.04741371423006058, -0.08951559662818909, -0.1287456601858139]], [[-0.0166108887642622, 0.05169042944908142, 0.13735921680927277], [-0.13265176117420197, -0.1340421736240387, -0.07027585804462433], [-0.0970439612865448, -0.20306949317455292, -0.02163137122988701]], [[0.07101759314537048, 0.03399182856082916, -0.18910737335681915], [0.0821031928062439, 0.06912887096405029, 0.021865567192435265], [-0.03134734556078911, -0.21904107928276062, 0.1142338216304779]], [[0.017901789397001266, 0.08688545972108841, -0.06396707147359848], [-0.07095539569854736, 0.07660815119743347, -0.22190377116203308], [-0.08144329488277435, 0.0481472872197628, -0.0898481085896492]], [[0.06311662495136261, 0.12716667354106903, 0.016833610832691193], [-0.07953052967786789, -0.020160142332315445, -0.4654140770435333], [-0.09567376226186752, -0.11864715814590454, -0.15100927650928497]], [[0.10299290716648102, 0.052908360958099365, -0.23151163756847382], [0.05932134762406349, 0.12998677790164948, -0.002897238591685891], [0.023676998913288116, -0.1475931853055954, 0.12692244350910187]], [[0.06045416370034218, 0.023837052285671234, 0.14571431279182434], [-0.19686181843280792, -0.12123744934797287, -0.23843836784362793], [-0.07091457396745682, 0.0760817751288414, -0.2569009065628052]], [[0.001974462764337659, 0.1485772281885147, -0.0642613098025322], [-0.0935446172952652, 0.016593780368566513, -0.08021555840969086], [-0.053173549473285675, -0.04569622129201889, 0.04084058105945587]], [[0.034459371119737625, 0.1380666196346283, -0.12656067311763763], [-0.06907457858324051, -0.03520151227712631, -0.24951204657554626], [0.0013303108280524611, -0.054484885185956955, -0.02970178611576557]], [[0.027266278862953186, 0.14228098094463348, 0.026364963501691818], [-0.14068801701068878, -0.2561914920806885, -0.006528287660330534], [-0.051776520907878876, -0.11841052025556564, -0.09032242745161057]], [[0.01207237783819437, 0.13624908030033112, -0.1492510885000229], [0.03557378053665161, 0.022850822657346725, -0.1529332548379898], [0.05154860019683838, -0.07902121543884277, -0.05309029296040535]], [[0.029756048694252968, 0.10790327191352844, 0.09883793443441391], [-0.072673000395298, 0.10424617677927017, -0.4284721612930298], [-0.08017006516456604, -0.011182799935340881, -0.15158067643642426]], [[0.014484438113868237, 0.0562993586063385, 0.12554331123828888], [0.015018317848443985, -0.030143151059746742, 0.07839514315128326], [0.014677410013973713, -0.03732572868466377, -0.05699069797992706]], [[0.0076675089076161385, 0.18489624559879303, -0.10008297860622406], [-0.015404329635202885, 0.009423846378922462, -0.07615821808576584], [-0.03733614832162857, -0.04980810359120369, -0.020564505830407143]], [[0.09256251156330109, 0.13771545886993408, -0.22853070497512817], [0.018974319100379944, 0.018563924357295036, -0.06368793547153473], [-0.03224661201238632, -0.19405262172222137, 0.03599701449275017]], [[-0.07311008125543594, -0.05834668502211571, -0.04881327599287033], [-0.005223105661571026, -0.07540299743413925, 0.32304713129997253], [0.012311947531998158, -0.1265421211719513, 0.058575622737407684]], [[0.04681664705276489, 0.028199249878525734, -0.05504101514816284], [0.039451777935028076, 0.1661052405834198, -0.17237123847007751], [0.05506596714258194, 0.04082208871841431, -0.14654619991779327]], [[0.09780120849609375, 0.2255735546350479, 0.05291374400258064], [-0.08645868301391602, -0.145269975066185, -0.03785311430692673], [-0.03190528228878975, -0.02994493395090103, -0.03440956026315689]], [[-0.0004220119444653392, 0.04920612648129463, -0.19336867332458496], [-0.026422204449772835, 0.03382646664977074, -0.17401725053787231], [-0.04361899197101593, -0.1772843450307846, -0.0280456580221653]], [[0.05547274649143219, 0.12225186079740524, -0.21739378571510315], [-0.010975928045809269, 0.18178069591522217, -0.14869703352451324], [0.18943409621715546, 0.08008074015378952, 0.015405247919261456]], [[-0.033468279987573624, -0.011776811443269253, -0.034778594970703125], [-0.15755468606948853, -0.0449354313313961, -0.4775140881538391], [-0.045581668615341187, 0.009893747977912426, -0.11042940616607666]], [[-0.04799935221672058, -0.03837158903479576, -0.052574582397937775], [-0.09050943702459335, -0.04367901757359505, -0.40633276104927063], [0.021714624017477036, -0.08230838179588318, -0.267619252204895]], [[0.0012109746458008885, -0.0430239737033844, 0.022645626217126846], [-0.058939140290021896, -0.1575743556022644, 0.0376722514629364], [-0.04151562228798866, 0.09732845425605774, -0.2035607248544693]], [[-0.04176534339785576, -0.005900511052459478, -0.1270829290151596], [-0.07795445621013641, 0.13301879167556763, -0.03268709406256676], [-0.02221260778605938, -0.05417000502347946, 0.1273345798254013]], [[0.06951718032360077, 0.05685264989733696, -0.27928903698921204], [0.014041652902960777, 0.15243321657180786, -0.1869221329689026], [0.057264357805252075, -0.10109630972146988, 0.05493127554655075]], [[-0.09345103800296783, -0.010198201052844524, 0.31946155428886414], [-0.09378962218761444, -0.17019478976726532, 0.3064308762550354], [-0.2016126662492752, -0.23670698702335358, -0.10190250724554062]], [[0.04488468915224075, -0.028917979449033737, 0.16136734187602997], [-0.03495490178465843, -0.1647452861070633, 0.1756608486175537], [-0.10128328949213028, -0.19176998734474182, 0.06357214599847794]], [[-0.00024153153935912997, 0.12038201093673706, 0.17061977088451385], [-0.10779468715190887, -0.1957104653120041, 0.1342831254005432], [-0.0458843931555748, -0.00887154508382082, -0.07411772012710571]], [[0.0072875251062214375, 0.19338250160217285, 0.07400252670049667], [0.013990036211907864, 0.08364295959472656, -0.17735333740711212], [0.007010084576904774, 0.04447362199425697, -0.13046523928642273]], [[-0.10493099689483643, 0.04784361645579338, -0.11268918961286545], [-0.03851374611258507, 0.04726965352892876, 0.22340622544288635], [0.033269792795181274, -0.0652342140674591, 0.12062033265829086]], [[-0.043874237686395645, -0.13490453362464905, 0.12123347073793411], [-0.09025891125202179, -0.18603448569774628, 0.05384272336959839], [-0.24422845244407654, 0.09109164029359818, -0.22974751889705658]], [[-0.17845560610294342, -0.14947952330112457, 0.22840330004692078], [-0.15601232647895813, -0.15015104413032532, 0.3552090525627136], [-0.0927526205778122, -0.15095515549182892, -0.12237237393856049]], [[-0.035963140428066254, -0.01709529012441635, 0.04311797395348549], [-0.010805591009557247, -0.0806690976023674, 0.2648200988769531], [-0.2181791365146637, -0.3084186315536499, -0.047083962708711624]], [[0.0035345598589628935, -0.047944966703653336, 0.02919214777648449], [-0.17524881660938263, -0.12066901475191116, -0.002364843152463436], [-0.02204725332558155, 0.10981488227844238, -0.15479545295238495]], [[0.06110503897070885, 0.0030157435685396194, 0.026637181639671326], [-0.041184209287166595, 0.008420064114034176, -0.23290039598941803], [0.0848320946097374, 0.0480835847556591, -0.11378428339958191]], [[0.047394029796123505, 0.13790830969810486, 0.08594778180122375], [0.03297129273414612, -0.04428209364414215, 0.07735586911439896], [0.056658726185560226, -0.037026308476924896, -0.03843031823635101]], [[-0.04389861971139908, -0.0586838535964489, -0.16478829085826874], [-0.014555981382727623, 0.11630146950483322, -0.049500688910484314], [-0.030013106763362885, -0.031404584646224976, 0.19176389276981354]], [[-0.12865304946899414, -0.026722485199570656, 0.001956914085894823], [-0.07417336851358414, -0.028987780213356018, 0.2424582988023758], [-0.07049334049224854, -0.07920631766319275, -0.022644171491265297]], [[-0.02473553642630577, 0.168893501162529, -0.03228651359677315], [-0.18783244490623474, -0.16412490606307983, 0.18471546471118927], [-0.08338828384876251, -0.13684016466140747, 0.06168455630540848]], [[-0.11179755628108978, -0.06017765402793884, 0.1635625660419464], [-0.10933439433574677, -0.15467628836631775, 0.19924814999103546], [-0.04398224130272865, -0.05375850945711136, -0.02579498663544655]], [[-0.12455829232931137, -0.12107446044683456, 0.07485262304544449], [-0.041653476655483246, -0.011163239367306232, 0.30185550451278687], [-0.21299050748348236, -0.2592076361179352, -0.17356304824352264]], [[0.05223375931382179, 0.07920365035533905, 0.02316446229815483], [-0.060727689415216446, -0.06261680275201797, -0.26818081736564636], [0.03308189660310745, -0.12685532867908478, -0.0658743679523468]], [[0.014429209753870964, -0.01195175014436245, -0.14091522991657257], [-0.029075998812913895, 0.013536977581679821, 0.15649916231632233], [0.013054655864834785, -0.1348867267370224, 0.18180173635482788]], [[0.0006601587519980967, -0.0037995008751749992, 0.005886720027774572], [-0.05382192134857178, 0.12109334021806717, -0.0992753654718399], [0.00856779981404543, 0.07951861619949341, -0.021902116015553474]], [[-0.21291226148605347, -0.09207633137702942, 0.13873548805713654], [-0.09250102937221527, -0.14666113257408142, 0.37205424904823303], [-0.10645050555467606, -0.1337842345237732, 0.002895388286560774]]], [[[0.2347426861524582, -0.01648877188563347, -0.04309777915477753], [0.05935340374708176, 0.0900183692574501, 0.06056056171655655], [-0.259178102016449, 0.04210232198238373, -0.02272266522049904]], [[0.25548267364501953, 0.060210712254047394, -0.035766053944826126], [-0.013694101013243198, -0.042077843099832535, 0.0471121110022068], [-0.20098158717155457, -0.08533090353012085, -0.0779726654291153]], [[0.04257209226489067, -0.0016373192192986608, -0.09329113364219666], [0.17462334036827087, -0.2796189486980438, -0.16678087413311005], [0.000972062349319458, -0.2128073275089264, -0.1345365196466446]], [[-0.02614935301244259, 0.08902917057275772, 0.09378965944051743], [-0.1266953945159912, -0.2025723159313202, -0.002253069542348385], [-0.014007837511599064, -0.023084420710802078, 0.022050349041819572]], [[0.20036430656909943, 0.13983066380023956, 0.09428727626800537], [0.17046184837818146, -0.07201298326253891, 0.08763723820447922], [0.1975300908088684, -0.09736765921115875, 0.06491425633430481]], [[-0.049867209047079086, 0.11319092661142349, -0.06693755090236664], [0.05452931672334671, -0.07808362692594528, -0.09932763129472733], [-0.026718657463788986, -0.06029089167714119, 0.0305430106818676]], [[-0.1095409244298935, -0.0345105417072773, -0.10049600154161453], [-0.15767519176006317, 0.0647478997707367, 0.10748083889484406], [-0.15352576971054077, -0.0524442084133625, 0.10762056708335876]], [[0.07773251086473465, -0.10160620510578156, 0.09087437391281128], [0.14642219245433807, -0.1376814991235733, -0.12998086214065552], [0.08627098798751831, -0.20978637039661407, -0.10433103144168854]], [[0.11166199296712875, 0.0716777890920639, 0.04534963518381119], [0.12011407315731049, -0.18665018677711487, 0.013201199471950531], [0.14009542763233185, -0.20308616757392883, -0.22396859526634216]], [[-0.014755572192370892, -0.08771884441375732, -0.16615109145641327], [0.023234805092215538, 0.04927092790603638, -0.12458128482103348], [0.013861267827451229, 0.048364706337451935, -0.10286026448011398]], [[0.037250589579343796, -0.02279762737452984, -0.04953068122267723], [0.040466275066137314, -0.10712457448244095, -0.006061505060642958], [0.13488711416721344, -0.2909688949584961, -0.14608784019947052]], [[0.07554210722446442, 0.14438700675964355, 0.042180147022008896], [0.0224455539137125, 0.012812245637178421, 0.21099603176116943], [0.15206167101860046, -0.06551580876111984, 0.11980628967285156]], [[-0.05082300305366516, -0.14234274625778198, -0.0857255756855011], [0.08833352476358414, -0.04820570349693298, -0.09893153607845306], [0.022830933332443237, -0.12247734516859055, 0.036603543907403946]], [[0.03211889788508415, -0.09137799590826035, 0.006084159482270479], [0.10316232591867447, -0.09586826711893082, -0.07596218585968018], [0.06319258362054825, -0.16951420903205872, -0.1114552840590477]], [[-0.03467641770839691, 0.03607765957713127, -0.0030238027684390545], [0.005438699387013912, -0.3661617636680603, 0.03913784772157669], [-0.017809126526117325, -0.17492201924324036, -0.10350652039051056]], [[-0.01757783070206642, -0.1635499745607376, -0.08002299070358276], [0.2392323613166809, 0.02782297320663929, -0.0980018749833107], [-0.13120034337043762, 0.1508166640996933, 0.16338135302066803]], [[-0.1953054666519165, 0.009011661633849144, -0.04621027782559395], [-0.1576949954032898, -0.013105691410601139, 0.11001850664615631], [0.0783870592713356, -0.036129482090473175, 0.08586608618497849]], [[-0.035164762288331985, -0.09324800223112106, -0.030614694580435753], [0.018853796645998955, -0.03524962440133095, -0.10921312868595123], [0.029179519042372704, -0.018104370683431625, -0.07326415926218033]], [[-0.00429399311542511, -0.03978905826807022, -0.057918909937143326], [-0.11204402893781662, -0.26432934403419495, 0.007765010464936495], [-0.14075106382369995, -0.24053169786930084, -0.010787326842546463]], [[-0.1941113919019699, -0.003124295035377145, 0.027896294370293617], [-0.09986963123083115, -0.1331969052553177, 0.06687023490667343], [-0.026051493361592293, 0.05414127930998802, -0.06459994614124298]], [[0.20392750203609467, 0.1909649819135666, 0.14977040886878967], [0.18963094055652618, -0.1737692505121231, 0.08040092885494232], [0.3128124475479126, -0.09620537608861923, 0.05222891643643379]], [[-0.1046614870429039, 0.028545694425702095, -0.009335767477750778], [-0.036110132932662964, 0.018616700544953346, 0.15856915712356567], [0.09565919637680054, 0.009369018487632275, 0.0938338041305542]], [[0.01632571406662464, -0.04974093660712242, -0.1370200365781784], [-0.06930556148290634, 0.11141236871480942, 0.0451560840010643], [-0.0625951886177063, 0.0728965476155281, 0.016530614346265793]], [[0.05794462189078331, 0.09329123049974442, 0.03219026327133179], [0.15067976713180542, -0.1580628603696823, -0.03025525063276291], [0.32078054547309875, 0.05845766142010689, -0.08694504201412201]], [[-0.024816446006298065, 0.0880470797419548, -0.0800972506403923], [-0.011335373856127262, -0.21511675417423248, -0.09701961278915405], [0.09593669325113297, -0.21764905750751495, -0.034217797219753265]], [[0.30608025193214417, -0.04070180654525757, -0.1791919767856598], [0.2542344331741333, 0.2018386870622635, -0.08520562946796417], [-0.20455855131149292, 0.15155822038650513, 0.12422732263803482]], [[0.24518387019634247, 0.04250184819102287, -0.14069350063800812], [0.09306272864341736, 0.041876621544361115, -0.05532725527882576], [-0.2192901223897934, -0.02373545430600643, 0.02362753450870514]], [[-0.04988408088684082, -0.25310689210891724, -0.1597883254289627], [0.06977575272321701, 0.025739377364516258, -0.11043251305818558], [0.018870292231440544, -0.06482689827680588, -0.07575023919343948]], [[-0.03313387930393219, 0.13200120627880096, 0.10039316117763519], [0.029242077842354774, -0.17396092414855957, 0.09203576296567917], [0.18661431968212128, -0.12581954896450043, 0.04732508584856987]], [[-0.08533614128828049, -0.19076992571353912, 0.04155914857983589], [0.21387159824371338, 0.029497886076569557, 0.025902485474944115], [-0.013358058407902718, 0.11741352081298828, 0.10375246405601501]], [[-0.014858609065413475, -0.051221925765275955, -0.14714840054512024], [-0.16309206187725067, 0.11325976252555847, -0.04420257359743118], [-0.1449919492006302, 0.12298247218132019, 0.1236129179596901]], [[0.25480878353118896, -0.13922134041786194, -0.26832178235054016], [0.20953211188316345, 0.1744946986436844, -0.15203121304512024], [-0.2544313073158264, 0.10684450715780258, 0.07843922823667526]], [[0.28100520372390747, -0.0671459212899208, -0.0834769606590271], [0.30319058895111084, 0.02107744663953781, -0.06962773203849792], [-0.18224522471427917, 0.13752169907093048, 0.05913093686103821]], [[0.03450627624988556, -0.0928482711315155, -0.08316285908222198], [-0.026871338486671448, 0.11450713127851486, 0.07349084317684174], [-0.08855079114437103, -0.017999369651079178, 0.045505229383707047]], [[-0.11904241889715195, -0.019018517807126045, 0.006127667613327503], [0.01974315382540226, 0.04932303726673126, 0.13773542642593384], [0.05894811078906059, -0.17134058475494385, 0.05461287125945091]], [[-0.0825672447681427, -0.1641598343849182, -0.08158288896083832], [0.10001135617494583, -0.05872563645243645, -0.09951570630073547], [0.06432052701711655, -0.112914077937603, -0.09553743898868561]], [[-0.13366195559501648, 0.2029293179512024, 0.0631570816040039], [0.20669278502464294, -0.08016863465309143, -0.009855614975094795], [0.46244195103645325, 0.13389554619789124, -0.0629742294549942]], [[-0.13203847408294678, -0.22267216444015503, -0.06749148666858673], [0.1743900179862976, 0.08107349276542664, -0.12688341736793518], [-0.03298785910010338, 0.07478468120098114, 0.13913409411907196]], [[-0.08689825236797333, -0.16125832498073578, -0.07901518791913986], [0.12649200856685638, -0.0652356967329979, -0.1856880635023117], [0.0034003197215497494, 0.08562354743480682, -0.10561209917068481]], [[-0.11477179825305939, -0.2478211224079132, -0.22749973833560944], [0.02291354164481163, 0.08578979223966599, -0.09011210501194], [-0.02245100773870945, -0.02646459825336933, 0.009062951430678368]], [[0.20744115114212036, -0.05209844559431076, -0.13265074789524078], [0.08594931662082672, 0.11811144649982452, -0.07521933317184448], [-0.21405349671840668, 0.1853644996881485, 0.25597482919692993]], [[0.07272278517484665, -0.05450006574392319, -0.11657295376062393], [-0.13410179316997528, -0.1902649998664856, 0.071040578186512], [-0.15406283736228943, -0.25519052147865295, -0.10160863399505615]], [[-0.10231272876262665, -0.12019357830286026, 0.040849413722753525], [0.2027760148048401, -0.019341761246323586, 0.03527604788541794], [0.03555949404835701, 0.1151016429066658, 0.03379642963409424]], [[-0.036229077726602554, 0.06466568261384964, 0.09076050668954849], [0.1168655976653099, -0.15350987017154694, 0.07633228600025177], [0.3546665608882904, -0.030778206884860992, -0.04802629351615906]], [[0.005526755470782518, -0.29144224524497986, -0.24898114800453186], [0.21302126348018646, 0.08452887833118439, -0.16150419414043427], [-0.10113182663917542, 0.24587510526180267, 0.12224089354276657]]], [[[-0.0719963014125824, 0.007849793881177902, 0.09331966191530228], [-0.044143274426460266, 0.09475921839475632, 0.1439097374677658], [-0.07923944294452667, -0.005730293225497007, 0.009761575609445572]], [[-0.0547921359539032, -0.1388522833585739, 0.022978994995355606], [0.06994985044002533, 0.015129661187529564, 0.11588824540376663], [-0.0021764033008366823, 0.03596945479512215, -0.06346545368432999]], [[0.013295046053826809, -0.244965061545372, 0.04338155686855316], [-0.04644114896655083, -0.25460952520370483, 0.12951667606830597], [0.1153322383761406, 0.2263716608285904, 0.41958409547805786]], [[0.07521477341651917, 0.10429955273866653, 0.17724192142486572], [-0.0038896272890269756, -0.033060818910598755, -0.10170701146125793], [0.038409847766160965, -0.07796496152877808, -0.13747727870941162]], [[0.08329589664936066, 0.07162780314683914, 0.15168927609920502], [0.06767606735229492, -0.2620263397693634, -0.26732340455055237], [0.055355463176965714, -0.25724732875823975, -0.3267780542373657]], [[0.01693466119468212, -0.17254172265529633, -0.02351849153637886], [-0.037066906690597534, -0.13929863274097443, 0.12057452648878098], [-0.025366168469190598, 0.17190685868263245, 0.36489200592041016]], [[-0.11937827616930008, -0.025138475000858307, 0.05698831006884575], [0.06162048131227493, 0.06391926854848862, 0.07726124674081802], [0.07708276808261871, -0.10894691944122314, -0.11379718780517578]], [[0.1971694380044937, 0.13818542659282684, 0.06018359214067459], [0.00958303827792406, -0.16263505816459656, -0.11320092529058456], [0.012941509485244751, -0.1510026752948761, 0.06850695610046387]], [[0.062270063906908035, 0.06487910449504852, -0.05372491478919983], [-0.0011855976190418005, -0.32990843057632446, -0.2980046272277832], [-0.1214439868927002, -0.32617536187171936, -0.1767411082983017]], [[0.08379098773002625, 0.264016330242157, 0.05686236172914505], [0.13881230354309082, 0.08805716037750244, 0.007835593074560165], [0.22380752861499786, -0.055374063551425934, 0.1328459531068802]], [[0.05596713349223137, 0.058676134794950485, 0.0287844929844141], [0.20575088262557983, -0.06541255116462708, -0.0708862692117691], [0.007191628683358431, -0.19202911853790283, -0.050359729677438736]], [[-0.03251301124691963, -0.0015027009649202228, 0.13766947388648987], [0.10613683611154556, -0.00820832047611475, -0.10873403400182724], [0.05617144703865051, -0.10203996300697327, -0.25176697969436646]], [[0.14375102519989014, 0.2119957059621811, 0.18893788754940033], [0.07508622109889984, -0.004311857279390097, 0.03792218491435051], [0.06764131039381027, -0.056574128568172455, 0.10406437516212463]], [[0.1807589828968048, 0.10580746084451675, 0.07974046468734741], [0.1020326018333435, -0.18137431144714355, -0.15608280897140503], [0.07207675278186798, -0.23954138159751892, 0.06596530973911285]], [[-0.011211392469704151, -0.1357865333557129, 0.005038111004978418], [0.03501519188284874, -0.029316581785678864, 0.15741874277591705], [0.1574326753616333, 0.2599584460258484, 0.184483602643013]], [[0.03133583813905716, -0.06388913094997406, -0.1354902982711792], [-0.11974292993545532, -0.14910820126533508, -0.028354566544294357], [-0.09178095310926437, 0.0489271879196167, 0.3392469584941864]], [[0.026715431362390518, 0.08940062671899796, 0.1462804079055786], [0.035223282873630524, -0.015179714187979698, -0.05543617531657219], [0.11547873169183731, 0.024793842807412148, -0.11909270286560059]], [[0.1065593883395195, 0.20263558626174927, 0.11133887618780136], [0.06760742515325546, -0.007835524156689644, -0.07457773387432098], [0.16091719269752502, -0.12475298345088959, 0.09470675885677338]], [[0.008161631412804127, -0.04481342062354088, 0.057137634605169296], [-0.02889804169535637, -0.04773407429456711, 0.03662171959877014], [0.12297483533620834, 0.15425324440002441, 0.021718386560678482]], [[0.09384417533874512, 0.07172626256942749, 0.15718255937099457], [0.01759173907339573, 0.076175257563591, 0.08306589722633362], [0.07491683214902878, 0.22352688014507294, 0.12144942581653595]], [[0.15315768122673035, 0.14531578123569489, 0.06317710131406784], [0.02260938473045826, -0.2678587734699249, -0.456111878156662], [0.0011134219821542501, -0.3186388611793518, -0.4483683109283447]], [[0.0034588449634611607, 0.04778332635760307, 0.18644346296787262], [0.03644811734557152, 0.04475904628634453, -0.0659320205450058], [0.038741834461688995, -0.09850932657718658, -0.22878125309944153]], [[0.05883779376745224, 0.058721333742141724, 0.1285572350025177], [0.11383494734764099, 0.04829661548137665, 0.12512120604515076], [0.12429821491241455, -0.003001025877892971, 0.03314444422721863]], [[0.00516866147518158, 0.013657007366418839, -0.054459188133478165], [0.014192716218531132, 0.001942950882948935, -0.23979251086711884], [-0.021752212196588516, -0.11017009615898132, -0.25332820415496826]], [[0.10164286196231842, -0.18680256605148315, 0.1462809294462204], [0.03947356343269348, -0.19693432748317719, 0.15043868124485016], [0.1645129770040512, 0.09738664329051971, 0.33538272976875305]], [[-0.10424385219812393, -0.038796957582235336, 0.10317690670490265], [-0.11000899225473404, 0.05825112760066986, 0.26343944668769836], [-0.03561193123459816, 0.14275385439395905, 0.34671953320503235]], [[-0.06513702869415283, -0.15186721086502075, 0.08247176557779312], [-0.029901770874857903, -0.03353635221719742, 0.16303503513336182], [-0.12231278419494629, 0.07102155685424805, 0.2123088389635086]], [[0.09534335881471634, 0.15348781645298004, 0.1181459128856659], [0.06102237477898598, 0.009969312697649002, 0.06770524382591248], [0.12872660160064697, 0.0020806770771741867, 0.21903909742832184]], [[0.012006698176264763, 0.05344898998737335, 0.1716032326221466], [0.0462765097618103, 0.021624043583869934, -0.05251370742917061], [0.1341206431388855, -0.10302850604057312, -0.13537444174289703]], [[0.05310254916548729, -0.05156898498535156, -0.2007479965686798], [0.04531600698828697, -0.09714793413877487, -0.041930194944143295], [-0.008046080358326435, 0.0943949893116951, 0.34892815351486206]], [[-0.0258196871727705, 0.016475701704621315, 0.11017876863479614], [0.020486481487751007, 0.06392408907413483, 0.05067507177591324], [0.038540318608284, -0.018989648669958115, 0.08430521190166473]], [[-0.10700841248035431, -0.030892275273799896, -0.004701174329966307], [-0.12345531582832336, 0.07753676921129227, 0.09014177322387695], [-0.08349304646253586, 0.03007095493376255, 0.2781386375427246]], [[-0.05943698063492775, -0.04286626726388931, 0.03946596756577492], [-0.08441688865423203, -0.15903215110301971, 0.06856232136487961], [0.02295312099158764, 0.03817261755466461, 0.17565958201885223]], [[0.037241142243146896, 0.0206504724919796, 0.13598360121250153], [0.03325555473566055, 0.04542732238769531, 0.13798180222511292], [-0.03641722723841667, 0.004446644801646471, 0.08710481226444244]], [[0.041844822466373444, 0.058163031935691833, 0.22657836973667145], [0.14145512878894806, 0.08191050589084625, 0.1888050138950348], [0.099664106965065, -0.09109535068273544, -0.12928958237171173]], [[0.10790068656206131, 0.23276165127754211, 0.12861816585063934], [-0.034077852964401245, -0.016442567110061646, 0.002352524548768997], [0.08118905127048492, -0.04129578918218613, 0.042090218514204025]], [[-0.026509560644626617, 0.0028369170613586903, -0.10346485674381256], [0.04778948798775673, -0.03560901805758476, -0.2961421608924866], [0.062381818890571594, -0.021783193573355675, -0.32464808225631714]], [[-0.015278675593435764, 0.07976952195167542, -0.03540479764342308], [-0.08681672066450119, -0.07228011637926102, -0.053414490073919296], [-0.05054968222975731, -0.03065435215830803, 0.2632015347480774]], [[0.06345127522945404, 0.15677499771118164, -0.02976243942975998], [-0.022034902125597, -0.007836692035198212, -0.11558734625577927], [0.02014080062508583, -0.0005330601125024259, 0.19383646547794342]], [[0.020779341459274292, 0.14396026730537415, -0.018183469772338867], [0.014618586748838425, 0.05715901777148247, 0.005422409623861313], [0.10895002633333206, 0.07424814254045486, 0.31469419598579407]], [[0.018970975652337074, 0.03816520795226097, 0.1516643613576889], [-0.14473912119865417, -0.17978627979755402, -0.01281603891402483], [-0.05516086891293526, -0.0590546652674675, 0.1179007887840271]], [[-0.09774263948202133, -0.07109595835208893, 0.05447600409388542], [-0.039870355278253555, 0.04516666382551193, 0.14017365872859955], [0.0749327763915062, 0.11404471099376678, -0.044798292219638824]], [[0.07309972494840622, -0.12117207795381546, -0.1801120787858963], [0.03148603066802025, -0.067494697868824, -0.006622258573770523], [0.047064315527677536, 0.09005247801542282, 0.33665698766708374]], [[0.030332233756780624, 0.06354467570781708, 0.09647426009178162], [0.06179271638393402, 0.01917666383087635, -0.09147368371486664], [0.14282537996768951, -0.06267963349819183, -0.22530995309352875]], [[0.009558805264532566, 0.15696746110916138, 0.027779152616858482], [0.011521761305630207, 0.07357314229011536, 0.05659875273704529], [0.018557840958237648, 0.14091090857982635, 0.29472050070762634]]], [[[-0.01050743367522955, -0.03622811660170555, 0.01247891504317522], [0.01957416720688343, 0.004730081185698509, -0.060057345777750015], [-0.039567623287439346, 0.02865477278828621, -0.01255587488412857]], [[0.020147034898400307, 0.029084600508213043, -0.02537250705063343], [-0.042083192616701126, -0.05480028688907623, 0.012267290614545345], [0.021816831082105637, -0.01188595686107874, -0.046818654984235764]], [[-0.04213359206914902, -0.012608478777110577, 0.013725857250392437], [-0.02082366682589054, -0.03889080137014389, -0.04379011318087578], [0.0340607687830925, 0.004613465629518032, -0.0504281260073185]], [[-0.04098647087812424, -0.052364882081747055, -0.004375266842544079], [-0.030971597880125046, -0.007562105543911457, -0.008770224638283253], [-0.0472591407597065, -0.04557757079601288, -0.03468432277441025]], [[-0.030794555321335793, -0.002765135606750846, -0.034297965466976166], [-0.01102916058152914, -0.013890717178583145, 0.04165145382285118], [-0.030622944235801697, 0.035624440759420395, -0.04079892858862877]], [[-0.05160442739725113, 0.006133809685707092, -0.03766337409615517], [0.01856899820268154, -0.034954965114593506, 0.03043474070727825], [0.03820132836699486, -0.0077026523649692535, 0.0009091313113458455]], [[0.037528663873672485, 0.01790287159383297, -0.05516982451081276], [-0.014258741401135921, -0.05353058502078056, 0.03929714113473892], [-0.011806119233369827, -0.004177199676632881, -0.02654724381864071]], [[-0.03705607354640961, -0.0036909226328134537, 0.03240427374839783], [-0.033994972705841064, -0.002853529993444681, 0.03509141132235527], [0.0329781249165535, -0.01877184957265854, 0.03711194545030594]], [[0.007964635267853737, 0.03507025167346001, -0.0056576780043542385], [-0.05266939476132393, -0.02421221323311329, 0.004668216686695814], [0.015875108540058136, -0.05710437521338463, 0.029492830857634544]], [[-0.055168990045785904, 0.018214164301753044, 0.03816444054245949], [0.0012775672366842628, -0.020746370777487755, 0.024002917110919952], [-0.026735249906778336, -0.04354400560259819, -0.0366167388856411]], [[0.013024070300161839, 0.02707487717270851, -0.008316283114254475], [-0.05884451046586037, -0.060460519045591354, -0.014372173696756363], [0.015217148698866367, -0.03986290842294693, 0.014550622552633286]], [[-0.04011952131986618, 0.029920242726802826, -0.024966135621070862], [-0.021720925346016884, -0.05081550031900406, -0.04584908112883568], [0.007406025193631649, 0.00518401525914669, 0.03001205064356327]], [[-0.05403044819831848, -0.002283040201291442, -0.016967715695500374], [0.017041940242052078, -0.030367126688361168, 0.0047998446971178055], [0.007277447730302811, 0.014220534823834896, -0.025742080062627792]], [[0.00491351867094636, -0.02098837122321129, 0.0019497082103043795], [-0.0403466671705246, -0.05129411071538925, -0.0416407473385334], [-0.03341088443994522, -0.029767503961920738, 0.011819579638540745]], [[-0.02160242386162281, -0.03648001328110695, -0.010780302807688713], [-0.01906932331621647, 0.023519622161984444, -0.04685389623045921], [-0.016789371147751808, -0.03465607017278671, 0.006710707675665617]], [[-0.007296404801309109, -0.012857054360210896, 0.040285613387823105], [-0.025483636185526848, -0.012874963693320751, 0.004266627132892609], [0.03017476201057434, 0.026816317811608315, -0.003981977701187134]], [[-0.0303103718906641, 0.0086385952308774, 0.01942250318825245], [-0.011085194535553455, 0.02037644200026989, 0.03987038508057594], [-0.02913389913737774, -0.012365547940135002, -0.04101648926734924]], [[-0.0010809246450662613, 0.02390284463763237, -0.021604718640446663], [-0.003010569605976343, 0.0047080074436962605, 0.0010546529665589333], [0.04098623991012573, -0.002929047215729952, -0.04571905732154846]], [[-0.05206511169672012, -0.05739544704556465, -0.00888680201023817], [0.023929061368107796, -0.013645293191075325, 0.03818487748503685], [-0.006622860208153725, 0.00631760573014617, 0.04399237781763077]], [[0.01708071306347847, -0.012684272602200508, 0.038084931671619415], [-0.031723279505968094, 0.007450626697391272, 0.020207470282912254], [-0.030266406014561653, -0.043919458985328674, 0.0054397922940552235]], [[-0.028737954795360565, -0.03210480511188507, 0.0034056396689265966], [-0.04558180645108223, 0.03326602652668953, -0.014404433779418468], [-0.026229597628116608, 0.03203347325325012, 0.004344763699918985]], [[0.0018409915501251817, -0.031193239614367485, 0.037171680480241776], [-0.021212294697761536, 0.03482275456190109, -0.004584839567542076], [0.033166129142045975, 0.025172315537929535, -0.045260582119226456]], [[-0.043322354555130005, -0.060569148510694504, 0.024192487820982933], [0.03171941637992859, -0.02618960663676262, -0.02470732107758522], [0.0053466372191905975, 0.022774359211325645, 0.015366301871836185]], [[-0.020564120262861252, -0.0412997230887413, 0.033633042126894], [-0.04131770879030228, -0.057493433356285095, -0.02945905737578869], [-0.00021234084852039814, 0.010701810009777546, 0.010032380931079388]], [[-0.035078760236501694, -0.02859211526811123, -0.03303990140557289], [-0.02652241475880146, -0.05284485965967178, 0.0008278070599772036], [-0.00875641405582428, -0.05109883472323418, -0.03252585604786873]], [[-0.03973637893795967, -0.03125800937414169, -0.0403398796916008], [-0.01803917996585369, 0.010229968465864658, -0.04951780289411545], [-0.016774510964751244, -0.026361612603068352, -0.03669458627700806]], [[-0.022126512601971626, -0.03191714733839035, -0.008283698931336403], [-0.047077495604753494, -0.0029271473176777363, 0.035078905522823334], [0.03209991008043289, -0.03203568607568741, 0.0039772046729922295]], [[-0.05917353555560112, 0.030315082520246506, -0.06140890344977379], [-0.056471068412065506, -0.05584272742271423, -0.044376857578754425], [0.003531514899805188, -0.02277914434671402, 0.01476510614156723]], [[-0.015672175213694572, -0.011400830000638962, -0.029942067340016365], [-0.040081966668367386, -0.04915504902601242, 0.026078887283802032], [-0.026553120464086533, -0.013246644288301468, 0.027918731793761253]], [[-0.02243760973215103, -0.0225253626704216, -0.04201729968190193], [-0.05136324092745781, 0.01661517284810543, -0.019893113523721695], [0.02055331878364086, -0.0054825684055686, -0.009593627415597439]], [[-0.053318142890930176, -0.010236191563308239, -0.022275397554039955], [-0.04108274728059769, -0.022700630128383636, 0.0029775614384561777], [-0.04386170208454132, 0.0029239451978355646, 0.037726398557424545]], [[-3.4257365769008175e-05, 0.037215784192085266, 0.013751196675002575], [-0.04704049602150917, -0.02685842476785183, -0.02126292698085308], [0.002140510594472289, -0.012219062075018883, 0.029567396268248558]], [[-0.0019148432184010744, -0.041174884885549545, -0.02899353951215744], [-0.044006023555994034, -0.023194847628474236, 0.019305210560560226], [-0.009669221006333828, -0.055383745580911636, -0.05034756287932396]], [[0.007671403232961893, -0.054992251098155975, -0.05121023580431938], [-0.04169834777712822, 0.038853537291288376, -0.016174394637346268], [-0.022172898054122925, -0.03591715544462204, 0.03510856628417969]], [[-0.018634406849741936, -0.0008294468279927969, 0.0017495715292170644], [0.003294627647846937, 0.02039208635687828, -0.0003465260087978095], [-0.002649130066856742, -0.008201627992093563, -0.047815773636102676]], [[-0.021877828985452652, 0.03695940598845482, -0.04491996765136719], [-0.043230459094047546, -0.05859583988785744, -0.00863878894597292], [-0.058625657111406326, -0.03456001728773117, 0.038691215217113495]], [[0.010429720394313335, 0.01924336887896061, -0.0004251115315128118], [-0.05071902275085449, -0.03348540887236595, -0.050255149602890015], [-0.03983522206544876, 0.008491861633956432, -0.023087944835424423]], [[0.038524601608514786, -0.046239785850048065, -0.051185742020606995], [0.04143265634775162, -0.04890435189008713, 0.033660441637039185], [0.0017800695495679975, -0.055424101650714874, 0.03377966210246086]], [[-0.023594966158270836, -0.030460171401500702, -0.047453299164772034], [-0.050100263208150864, 0.0038476469926536083, -0.05806791037321091], [0.0089015644043684, -0.021119361743330956, 0.008015025407075882]], [[-0.022299546748399734, 0.007079337723553181, -0.01022360473871231], [0.004811677150428295, -0.027895977720618248, -0.044056955724954605], [-0.005124102812260389, -0.04012950509786606, -0.04038213938474655]], [[-0.052272163331508636, -0.02551410160958767, -0.043200280517339706], [0.03179298713803291, 0.025718891993165016, 0.01045460905879736], [0.031892020255327225, 0.01124992873519659, -0.04815300554037094]], [[-0.018113551661372185, -0.015248729847371578, -0.041217077523469925], [0.001998503692448139, -0.02304892987012863, -0.03304874151945114], [0.0017982887802645564, -0.03606221079826355, 0.04068925604224205]], [[0.02133025974035263, 0.037223927676677704, -0.01747390627861023], [0.009031430818140507, -0.009534765966236591, -0.04966482147574425], [0.012193278409540653, -0.04432680457830429, -0.027413390576839447]], [[-0.03459803760051727, -0.05609610304236412, -0.010076911188662052], [-0.0023707908112555742, -0.01059533841907978, 0.03467461094260216], [0.006906343623995781, -0.017466353252530098, -0.02835921011865139]], [[-0.03953881189227104, -0.017104271799325943, -0.03825969249010086], [-0.040072567760944366, -0.01211151946336031, -0.017202898859977722], [-0.04214290529489517, 0.01913086511194706, 0.03244733810424805]]], [[[0.030874814838171005, 0.10943174362182617, -0.05216687172651291], [0.07149343192577362, 0.16193214058876038, 0.027247149497270584], [0.002792254788801074, 0.08639176934957504, -0.04223140329122543]], [[-0.0495498888194561, 0.09438673406839371, 0.0229358933866024], [0.05263904482126236, 0.1609947830438614, 0.039074596017599106], [0.03854671120643616, 0.08346018195152283, -0.12532205879688263]], [[-0.09888393431901932, 0.03042697161436081, -0.0687241181731224], [-0.009108268655836582, 0.08566410094499588, -0.1977468729019165], [0.1506233811378479, 0.2349308878183365, -0.07307007163763046]], [[0.20603695511817932, 0.19686071574687958, 0.06628010421991348], [0.03525865450501442, -0.0029064444825053215, -0.0128629757091403], [0.05173831433057785, -0.11965516954660416, -0.1200287938117981]], [[-0.025245996192097664, 0.03198200836777687, 0.0886099562048912], [-0.14106720685958862, -0.2456880509853363, -0.04956857115030289], [-0.16320891678333282, -0.26608389616012573, -0.15964122116565704]], [[-0.1391904205083847, -0.03671586886048317, -0.1956040859222412], [-0.08962078392505646, -0.10732543468475342, -0.2521393597126007], [0.10532160848379135, 0.08691878616809845, -0.17027796804904938]], [[0.12073369324207306, 0.17258146405220032, 0.04567698761820793], [0.09375544637441635, 0.011873581446707249, 0.06539135426282883], [-0.10015320032835007, -0.16309784352779388, -0.12590563297271729]], [[0.07002690434455872, 0.0885428935289383, 0.024473683908581734], [-0.06661911308765411, -0.05747409909963608, -0.07116332650184631], [-0.08515039086341858, -0.06717600673437119, -0.011021562851965427]], [[-0.010014441795647144, -0.0703616663813591, -0.006612360943108797], [-0.1801353543996811, -0.1993115246295929, -0.12139833718538284], [-0.2309817671775818, -0.2056930810213089, -0.19390183687210083]], [[-0.06547308713197708, 0.06052713096141815, 0.045573640614748], [-0.09890387952327728, 0.027906429022550583, 0.12713734805583954], [-0.08220367133617401, -0.016629651188850403, 0.12955091893672943]], [[0.08949167281389236, 0.0849079042673111, 0.08702101558446884], [-0.10250574350357056, -0.15532521903514862, -0.09225413203239441], [-0.1932028830051422, -0.12940841913223267, -0.10675249993801117]], [[0.03939748927950859, 0.027577852830290794, 0.0905698910355568], [-0.1434355527162552, -0.20302368700504303, -0.18999503552913666], [-0.10425251722335815, -0.2395700067281723, -0.22200587391853333]], [[0.23542533814907074, 0.07810863852500916, 0.043464288115501404], [0.10367757827043533, 0.0634680911898613, 0.05558830127120018], [0.031583089381456375, 0.04608003422617912, 0.08172139525413513]], [[0.0892375186085701, 0.07279840111732483, 0.0851949155330658], [-0.1314782053232193, -0.049524515867233276, 0.03623146563768387], [-0.04160308837890625, -0.06830066442489624, -0.014135640114545822]], [[-0.0021640807390213013, 0.08446072787046432, -0.10507465153932571], [0.1693614274263382, 0.16919805109500885, -0.12119951844215393], [0.1871812492609024, 0.18120123445987701, -0.14699840545654297]], [[-0.2918759286403656, -0.142213836312294, -0.3221539556980133], [-0.25327807664871216, -0.22620943188667297, -0.3701567053794861], [-0.02629774808883667, -0.003069148398935795, -0.04152781516313553]], [[0.1781604140996933, 0.21266165375709534, 0.025657381862401962], [0.055082764476537704, -0.02240869402885437, -0.1478298008441925], [-0.02495827153325081, -0.1262986660003662, -0.19222095608711243]], [[-0.04530966281890869, 0.09096406400203705, 0.0037555652670562267], [-0.06176584213972092, -0.11129763722419739, -0.03923264145851135], [-0.1386784464120865, -0.05621587112545967, -0.008747869171202183]], [[0.135489359498024, 0.24741871654987335, 0.05349263921380043], [0.09253857284784317, 0.15298356115818024, -0.06849183887243271], [0.044051848351955414, 0.09574321657419205, -0.2093256562948227]], [[0.07334202527999878, -0.03503701463341713, -0.06201174855232239], [0.08773371577262878, 0.06920933723449707, -0.049835894256830215], [0.2514492869377136, 0.20326055586338043, -0.07335178554058075]], [[-0.17895521223545074, -0.14975622296333313, -0.0001128503936342895], [-0.28022316098213196, -0.2427629679441452, -0.13027210533618927], [-0.1399911642074585, -0.23368893563747406, -0.13538944721221924]], [[-0.016106490045785904, 0.014819332398474216, 0.011704890057444572], [-0.06579457968473434, -0.19907088577747345, -0.24300852417945862], [-0.1505712866783142, -0.28529092669487, -0.3115840256214142]], [[0.15434300899505615, 0.16108438372612, 0.08470257371664047], [0.0728241354227066, 0.12821966409683228, 0.0700642392039299], [-0.05231689289212227, -0.13976114988327026, -0.09774384647607803]], [[-0.05101706087589264, 0.08305669575929642, 0.12628264725208282], [-0.15389281511306763, -0.2122334986925125, -0.05949551612138748], [-0.13991297781467438, -0.21987062692642212, -0.10004464536905289]], [[-0.09486024081707001, 0.08806471526622772, -0.00045113227679394186], [0.03383742272853851, 0.12527580559253693, -0.0946587547659874], [0.1909169852733612, 0.23004786670207977, -0.16194668412208557]], [[-0.1715776026248932, -0.09776125103235245, -0.11526519805192947], [-0.07903794944286346, -0.024321140721440315, 0.015475635416805744], [0.02643280290067196, 0.044641781598329544, 0.030094828456640244]], [[-0.18631863594055176, -0.06548493355512619, -0.14203505218029022], [-0.060973383486270905, -0.03505680710077286, -0.15931232273578644], [0.034965094178915024, 0.10452531278133392, -0.07944216579198837]], [[0.12628690898418427, 0.14642192423343658, 0.025572769343852997], [-0.004914014600217342, 0.06647610664367676, 0.0661870539188385], [-0.012407304719090462, 0.024832066148519516, 0.06770952045917511]], [[0.13930875062942505, 0.0727655366063118, -0.0007393179112114012], [0.07090796530246735, -0.1264645904302597, -0.13595755398273468], [-0.012935958802700043, -0.2012314647436142, -0.16798438131809235]], [[0.06874976307153702, -0.1017482727766037, -0.16806641221046448], [-0.2515522837638855, -0.08333518356084824, -0.333666056394577], [-0.10203030705451965, -0.03749188035726547, -0.198312908411026]], [[0.18602900207042694, 0.14989136159420013, 0.04500264674425125], [0.03690765053033829, 0.13576056063175201, 0.036444973200559616], [-0.08884957432746887, -0.05775506794452667, -0.10173846781253815]], [[-0.18342283368110657, -0.08987187594175339, -0.10577131807804108], [-0.1663355976343155, -0.006829060614109039, 0.005510702729225159], [0.026034235954284668, 0.050681859254837036, 0.1116923838853836]], [[-0.08245369791984558, 0.0434291698038578, -0.09602151811122894], [-0.07254397124052048, 0.07613904774188995, -0.1300150603055954], [-0.04946783185005188, 0.015041717328131199, -0.04473848268389702]], [[0.1554434895515442, 0.15269841253757477, 0.1539720594882965], [0.08277393132448196, 0.05645753815770149, 0.06724007427692413], [-0.024339234456419945, -0.07088497281074524, -0.022911768406629562]], [[0.1848953515291214, 0.09635210782289505, 0.09840983897447586], [0.1800038069486618, 0.05512118712067604, -0.01140875369310379], [0.0400720052421093, -0.052810169756412506, -0.21553581953048706]], [[0.18740881979465485, 0.08611108362674713, 0.014006951823830605], [0.14383594691753387, 0.0009092533146031201, 0.036105189472436905], [0.0790179967880249, 0.045915938913822174, 0.05181332305073738]], [[-0.08687438815832138, 0.05831878259778023, 0.08308304101228714], [-0.2622314393520355, -0.1946755349636078, -0.11153832823038101], [-0.06252069771289825, -0.0506255142390728, -0.13200253248214722]], [[0.03686002269387245, -0.045254528522491455, -0.10284891724586487], [-0.18523277342319489, -0.1538347750902176, -0.1350061148405075], [-0.14059394598007202, -0.041136257350444794, -0.07544799894094467]], [[-0.021015740931034088, 0.03330739215016365, -0.004492131527513266], [-0.1045331209897995, -0.0636930912733078, -0.026094956323504448], [-0.029915006831288338, 0.05109525844454765, 0.09600375592708588]], [[0.16455934941768646, 0.042126260697841644, -0.01383946742862463], [0.025233538821339607, 0.06741571426391602, 0.042874667793512344], [0.035427726805210114, 0.044398095458745956, 0.20487727224826813]], [[0.03523233160376549, 0.03839908540248871, 0.03116035833954811], [-0.0626068189740181, 0.08921899646520615, 0.037006035447120667], [-0.06667609512805939, 0.06546340882778168, 0.057434193789958954]], [[0.09670238196849823, 0.23762856423854828, 0.04038405790925026], [0.15607237815856934, 0.20511768758296967, -0.08007816225290298], [0.049682989716529846, 0.010561145842075348, -0.21449783444404602]], [[0.10054288804531097, 0.00936293974518776, -0.12419116497039795], [-0.1844962239265442, -0.049107328057289124, -0.39737337827682495], [-0.11566904187202454, -0.02553306147456169, -0.28674229979515076]], [[0.0570538267493248, 0.034559741616249084, 0.14649498462677002], [-0.032773006707429886, -0.1039247140288353, -0.10155843943357468], [-0.014247086830437183, -0.10834336280822754, -0.16890239715576172]], [[-0.13236846029758453, -0.014654639177024364, -0.07503427565097809], [-0.18230903148651123, -0.06693433225154877, -0.05439002811908722], [-0.01885538548231125, 0.06096643581986427, 0.06189362332224846]]], [[[-0.12432652711868286, -0.10495179891586304, -0.022228481248021126], [-0.10448430478572845, 0.03324186056852341, 0.02073417603969574], [-0.05249560624361038, 0.13436292111873627, 0.11315656453371048]], [[-0.0883447676897049, -0.0835409089922905, -0.10007163882255554], [0.022152675315737724, 0.06011256203055382, -0.028215285390615463], [0.04823281243443489, 0.10121618211269379, 0.030243899673223495]], [[0.1508733332157135, -0.0692504495382309, -0.026184791699051857], [0.05219061300158501, 0.002826923504471779, -0.06167510524392128], [-0.1397450566291809, -0.11829005181789398, -0.07483498752117157]], [[-0.09129096567630768, -0.13846275210380554, -0.1080838069319725], [-0.03771323338150978, 0.03430616110563278, -0.009485126473009586], [0.19962333142757416, 0.2699712812900543, 0.25578081607818604]], [[0.09094557911157608, -0.020421553403139114, -0.20434777438640594], [0.04788869991898537, 0.0778777152299881, -0.09190107136964798], [0.246256023645401, 0.29826676845550537, 0.2681213319301605]], [[0.08917802572250366, 0.015078702941536903, 0.04632902517914772], [0.030179692432284355, -0.004268794320523739, 0.005549979861825705], [-0.10465174168348312, -0.029773259535431862, -0.05982249602675438]], [[-0.0034720441326498985, -0.03664625808596611, -0.04396041855216026], [-0.04219523444771767, -0.17054703831672668, -0.1084577664732933], [0.11815109103918076, 0.12474421411752701, 0.14695826172828674]], [[0.10453598201274872, 0.005060761235654354, -0.07276928424835205], [0.1705978810787201, 0.05750926211476326, -0.03506093844771385], [0.04401099681854248, -0.05659822002053261, 0.056149765849113464]], [[0.15843047201633453, 0.1521715521812439, -0.05075769126415253], [0.30959588289260864, 0.09656209498643875, 0.028874235227704048], [0.17479288578033447, 0.0806182473897934, 0.13105623424053192]], [[0.07838288694620132, -0.008167929947376251, 0.055839985609054565], [0.22330576181411743, -0.030263887718319893, -0.04541175439953804], [0.08255872875452042, -0.13941915333271027, -0.04912424087524414]], [[0.2001602202653885, 0.09397624433040619, -0.0014267666265368462], [0.1286274939775467, -0.09018454700708389, -0.10258139669895172], [0.1774308979511261, 0.056440386921167374, 0.12111015617847443]], [[-0.01905844919383526, -0.03915891796350479, -0.0067380317486822605], [-0.10276623070240021, -0.024235745891928673, -0.0383024625480175], [0.2074449211359024, 0.3304210603237152, 0.34495899081230164]], [[0.20343834161758423, -0.0036236648447811604, -0.09693208336830139], [0.2914321720600128, 0.03161481022834778, 0.048529002815485], [0.22924795746803284, 7.233604264911264e-05, 0.09271826595067978]], [[0.08949387818574905, -0.02977333404123783, -0.10492391884326935], [0.23461408913135529, -0.05664680898189545, -0.04027187451720238], [0.1600910723209381, -0.08784115314483643, -0.0005793175660073757]], [[0.09023977071046829, 0.023324524983763695, 0.03968028724193573], [0.06428690254688263, -0.0230154599994421, -0.051497932523489], [-0.06145081669092178, 0.0089840954169631, -0.12722842395305634]], [[0.022578872740268707, 0.025145873427391052, 0.026855917647480965], [-0.03433806076645851, -0.14490225911140442, 0.0577116385102272], [-0.10918469727039337, -0.13209018111228943, 0.07888992130756378]], [[-0.08429409563541412, -0.10623051226139069, -0.05562933534383774], [-0.029109127819538116, -0.029026765376329422, -0.017977280542254448], [0.2293279469013214, 0.1949736326932907, 0.2135588824748993]], [[0.03135393187403679, -0.08009480684995651, -0.01249770075082779], [0.19275851547718048, -0.08506114035844803, -0.023992542177438736], [0.15585672855377197, -0.14488989114761353, -0.029395069926977158]], [[-0.052510086447000504, -0.11941435188055038, -0.06348098814487457], [0.04379597678780556, -0.04101407527923584, -0.007470481097698212], [0.11267395317554474, 0.07183025777339935, 0.009566848166286945]], [[0.1926007866859436, -0.030605794861912727, 0.14048704504966736], [0.12491845339536667, 0.12902818620204926, 0.2022741287946701], [0.033401843160390854, 0.11614425480365753, 0.19360195100307465]], [[-0.02644706517457962, -0.03447528928518295, -0.13268759846687317], [0.09635046124458313, 0.09630696475505829, 0.023279521614313126], [0.11840768158435822, 0.2833399176597595, 0.2385023534297943]], [[-0.0758388489484787, -0.08232781291007996, -0.02545972727239132], [-0.07816019654273987, 0.0240967757999897, 0.02948090061545372], [0.2922089993953705, 0.40102678537368774, 0.4803977608680725]], [[-0.030960820615291595, -0.00317364651709795, -0.004139692988246679], [-0.027616949751973152, -0.0787430927157402, -0.07290183752775192], [0.08984435349702835, 0.10595182329416275, 0.13461194932460785]], [[0.1345444768667221, 0.17166273295879364, 0.09358720481395721], [-0.022660773247480392, 0.04351098835468292, 0.07687503099441528], [0.03176030516624451, 0.11047135293483734, 0.19109664857387543]], [[0.161014124751091, -0.052575886249542236, 0.12913934886455536], [0.19601596891880035, 0.01428209338337183, 0.10429207235574722], [0.007523208390921354, -0.0008948995964601636, -0.06503261625766754]], [[-0.30810678005218506, -0.2937837541103363, -0.22036133706569672], [-0.31176987290382385, -0.29523369669914246, -0.16827936470508575], [-0.39558786153793335, -0.2991022765636444, -0.12627583742141724]], [[0.021034590899944305, -0.08464853465557098, -0.027917971834540367], [-0.012947033159434795, -0.09766729921102524, 0.016477087512612343], [-0.06562928855419159, -0.019887343049049377, 0.03999503329396248]], [[0.060733456164598465, -0.061293069273233414, 0.04654110595583916], [0.176328644156456, -0.03784973919391632, 0.016052860766649246], [0.10215260088443756, -0.20618245005607605, -0.14986665546894073]], [[0.04844936355948448, -0.03155698999762535, -0.10270459949970245], [0.02674773894250393, -0.00851139985024929, -0.05590575560927391], [0.2055211365222931, 0.1318778246641159, 0.24634265899658203]], [[0.1646876484155655, 0.05945942923426628, 0.13739651441574097], [0.05233963206410408, -0.03138107806444168, 0.03619701787829399], [-0.07333914935588837, -0.193877175450325, 0.003767511108890176]], [[-0.08725347369909286, -0.0891481563448906, -0.0007253785734064877], [-0.01587069407105446, -0.04753837361931801, 0.07291875779628754], [0.11597742885351181, -0.02173071913421154, 0.09065957367420197]], [[-0.1331639289855957, -0.04009304940700531, 0.09970118850469589], [-0.22968852519989014, -0.1804443597793579, 0.06175169348716736], [-0.17233046889305115, -0.18699777126312256, 0.06183865666389465]], [[-0.04135867580771446, -0.04993512108922005, -0.024000519886612892], [-0.029115945100784302, 0.04593835026025772, 