weights['MEYDA'] = {"conv0.weight": [[[[-0.26507893204689026, -0.25284695625305176, -0.9761464595794678], [-0.19841518998146057, -0.2595593333244324, -0.3996652662754059], [0.6215741038322449, 0.8620302677154541, 0.22868011891841888]]], [[[0.21981105208396912, -0.5121402144432068, -0.12136610597372055], [-0.40372806787490845, -0.8447827100753784, -0.3742377758026123], [0.8453723788261414, 0.4676397740840912, 0.9641007781028748]]], [[[-1.1449286937713623, -0.6205958127975464, 0.8250333070755005], [-0.8413894176483154, -0.44362878799438477, 1.164692997932434], [-0.7368952631950378, 0.33523669838905334, 1.6214523315429688]]], [[[-0.5543370246887207, 0.16815350949764252, -0.25364381074905396], [-0.07544086873531342, 0.9732025861740112, -0.1632968783378601], [-0.14168380200862885, 0.4013337194919586, -0.3524893522262573]]], [[[0.3566143214702606, 0.6617315411567688, 0.38008615374565125], [0.6503266096115112, 0.14986737072467804, -0.21414661407470703], [-0.2715473473072052, -1.0070264339447021, -1.0181587934494019]]], [[[-1.137494444847107, 0.11423114687204361, 0.5828842520713806], [-1.1132253408432007, 0.20299899578094482, 1.0031121969223022], [-0.5236645340919495, 0.4160929024219513, 0.708981990814209]]], [[[0.8795589804649353, 0.27161121368408203, 0.5326577425003052], [-1.0760536193847656, -1.2854669094085693, -1.1362991333007812], [0.8085008859634399, 0.53719562292099, 0.337501585483551]]], [[[0.5890545845031738, 0.28082528710365295, -0.8346194624900818], [0.7842702865600586, -0.0003590915002860129, -0.742853045463562], [1.2265962362289429, -0.3182721436023712, -0.7889490723609924]]], [[[0.8183308839797974, 0.5796366930007935, 0.3157651126384735], [0.7285750508308411, 0.08512868732213974, -0.5426603555679321], [-0.38764387369155884, -0.9913351535797119, -1.2918405532836914]]], [[[0.9667844772338867, 0.48658522963523865, -1.4863452911376953], [1.0023084878921509, 0.20875510573387146, -1.1817172765731812], [0.6947746872901917, 0.3571307957172394, -1.0165115594863892]]], [[[0.6464741826057434, 1.0530823469161987, 0.9120197892189026], [0.3380017876625061, -0.28000304102897644, -0.36361822485923767], [-0.10384558886289597, -0.5755539536476135, -1.0215299129486084]]], [[[0.0776614397764206, 0.6561483144760132, 0.6962634325027466], [-0.5107682943344116, -0.5642762780189514, -0.722292423248291], [0.33264273405075073, -0.08456147462129593, 0.03585349768400192]]], [[[0.07865726202726364, 0.3965223729610443, -0.08888143301010132], [0.6669951677322388, 0.44665107131004333, 0.525010347366333], [0.8829056024551392, 0.48710522055625916, 0.2947317957878113]]], [[[0.29047152400016785, 0.5773356556892395, 0.9183527231216431], [0.2777114808559418, 0.09894333779811859, 0.16476166248321533], [-0.39626890420913696, -1.1550952196121216, -0.7548238635063171]]], [[[-0.6857803463935852, -0.32102909684181213, 0.33434903621673584], [-1.0069719552993774, -0.14377184212207794, 0.6277909874916077], [-0.5620393753051758, 0.4990401268005371, 1.177603006362915]]], [[[-0.6265350580215454, -0.33815303444862366, -0.4940944015979767], [0.20174983143806458, 0.6564794778823853, 0.36835142970085144], [0.6039353609085083, 1.0367436408996582, 0.33108386397361755]]], [[[-0.5931475758552551, -0.5029729604721069, 0.36896073818206787], [-0.6004550457000732, -0.8203834891319275, -0.41111406683921814], [-0.02264988422393799, -0.08119753003120422, 0.5760570764541626]]], [[[0.4862470030784607, 0.1510128527879715, -0.07417111843824387], [-0.2111760973930359, -0.9705355167388916, -0.5022724270820618], [0.274730384349823, 0.07468236982822418, 0.36771246790885925]]], [[[-0.7186328172683716, -1.012741208076477, -0.07855435460805893], [-0.18047557771205902, -0.4346417486667633, 0.595671534538269], [0.16585347056388855, 0.47979336977005005, 1.3859363794326782]]], [[[-0.8818025588989258, 0.8423517942428589, 0.6913031935691833], [-1.1773115396499634, 0.7250730991363525, 0.5276307463645935], [-1.1903239488601685, 0.5292832255363464, -0.13206163048744202]]], [[[0.48523154854774475, 0.23407037556171417, 0.5449076890945435], [0.46826785802841187, 0.31190332770347595, 0.2224760204553604], [-0.7520389556884766, -0.9346354603767395, -1.1595219373703003]]], [[[0.7456039786338806, 0.7034652233123779, 0.7872326374053955], [-0.3479098677635193, -0.29390600323677063, -0.52445387840271], [-0.738882839679718, -0.9042685627937317, -0.563994288444519]]], [[[-0.2684735059738159, -0.3623588979244232, -0.41858652234077454], [0.27473872900009155, -0.37550806999206543, -0.50562584400177], [0.6207115650177002, 1.0590147972106934, 0.5421504378318787]]], [[[0.06779048591852188, 0.18380692601203918, -0.17647160589694977], [-0.5059298872947693, 0.16533903777599335, 0.40659740567207336], [-0.8304181098937988, 0.23593434691429138, 0.6997795104980469]]], [[[-0.8910239934921265, -0.6873515248298645, 0.23614300787448883], [-0.7114250063896179, -0.14075444638729095, 0.6702630519866943], [0.22436189651489258, 0.5420700907707214, 0.4284864664077759]]], [[[0.007720561698079109, -1.1068440675735474, -1.0061193704605103], [0.1302187144756317, -0.5496153831481934, -0.6637745499610901], [1.6268298625946045, 0.865948498249054, 0.8801659941673279]]], [[[-0.12502656877040863, -0.21812176704406738, 0.02813001535832882], [-0.1277136206626892, 0.320604145526886, 0.2749776840209961], [0.24336178600788116, 0.6187056303024292, -0.07435192912817001]]], [[[0.44087812304496765, -0.20235496759414673, -0.38487404584884644], [0.6911047697067261, -0.6261869668960571, -0.024256877601146698], [0.2435636669397354, -0.3071961998939514, 0.4609363079071045]]], [[[0.7247300744056702, -0.08913177251815796, 0.585530161857605], [-0.10424670577049255, -0.757102370262146, 0.6364597082138062], [-0.16067694127559662, -0.7378984689712524, 0.19703981280326843]]], [[[0.11620171368122101, 0.28302887082099915, 0.3257123529911041], [0.4495493173599243, 0.355224072933197, 0.2614598870277405], [0.2160061001777649, 0.4503495991230011, 0.1850193738937378]]], [[[-0.06158427521586418, -0.45627561211586, -0.31962889432907104], [0.15912039577960968, -0.44988885521888733, -0.42345499992370605], [0.8927242159843445, 0.27359339594841003, 0.43466466665267944]]], [[[-0.4095943868160248, -0.4207979738712311, -0.9145468473434448], [-0.04705429822206497, 0.6344117522239685, -0.011400395072996616], [0.9766291975975037, 1.0241519212722778, 0.7295291423797607]]], [[[-0.1797056943178177, -0.733864963054657, -0.41362231969833374], [0.23059625923633575, -0.26110512018203735, 0.23685836791992188], [0.4020918011665344, -0.020961448550224304, 1.034065842628479]]], [[[-0.31579357385635376, 0.7849051356315613, -0.5154085159301758], [0.13108935952186584, 0.7556599974632263, -0.8824031352996826], [0.5637702941894531, 0.7311612963676453, -0.8817359805107117]]], [[[-0.25086331367492676, 0.09653080254793167, -0.08882755041122437], [0.19197078049182892, 0.23118790984153748, 0.05356453359127045], [0.17274826765060425, 0.11776217818260193, 0.026389172300696373]]], [[[0.7284001111984253, -0.16578322649002075, 0.5549242496490479], [0.7075085639953613, -0.049150921404361725, 0.8121302723884583], [-0.7149540781974792, -1.5647993087768555, -0.20517335832118988]]], [[[-0.14107748866081238, 0.9324488043785095, 0.3356247842311859], [-0.4940069019794464, 0.6258176565170288, 0.4013274610042572], [-1.4279786348342896, -0.6306701302528381, 0.38514232635498047]]], [[[0.48696598410606384, -0.2556515336036682, -0.6638763546943665], [0.8086072206497192, 0.17074574530124664, -0.9796955585479736], [1.3380528688430786, 0.2944827675819397, -0.8057461977005005]]], [[[0.7661640644073486, 0.45796316862106323, -1.2832647562026978], [0.8902605175971985, 0.2628788352012634, -1.1073096990585327], [0.5735940337181091, 0.3882679343223572, -0.908440351486206]]], [[[0.8931418061256409, 0.019272668287158012, -0.925530195236206], [0.9616673588752747, 0.18051694333553314, -1.1767826080322266], [1.0315176248550415, -0.20251654088497162, -0.7298456430435181]]], [[[-0.28084465861320496, -0.9493436217308044, -0.3883894085884094], [0.5444509387016296, -0.08098559826612473, 0.4553409516811371], [0.8021100163459778, -0.12134460359811783, 0.28711414337158203]]], [[[0.0747891366481781, -0.1578817367553711, 0.5297736525535583], [-0.7095440626144409, -0.5787255167961121, -0.4402133822441101], [0.09144822508096695, 0.6475746631622314, 0.7597696185112]]], [[[-0.3556241989135742, 0.059433840215206146, 0.01844732277095318], [-0.5208072066307068, 0.3095734715461731, 0.4295162856578827], [-0.31791314482688904, 0.43586036562919617, 0.22184552252292633]]], [[[0.6932315826416016, 0.3634062111377716, 0.9255051016807556], [0.12876008450984955, -0.22715093195438385, -0.11205144971609116], [-0.6229091882705688, -1.062390923500061, -0.24691061675548553]]], [[[-0.06017975136637688, 0.08011012524366379, -0.8236379623413086], [0.1011861264705658, 0.7801676392555237, -0.42844825983047485], [-0.5902532339096069, 0.9957454204559326, 0.07706253230571747]]]], "bn1.running_mean": [5.605193857299268e-45, 5.605193857299268e-45, 1.1338356733322144, 5.605193857299268e-45, 5.605193857299268e-45, 9.394671440124512, 0.5393146276473999, 5.605193857299268e-45, 5.605193857299268e-45, 13.629554748535156, 5.605193857299268e-45, 2.3644821643829346, 1.4406049251556396, 9.293676376342773, 1.8383675813674927, 5.605193857299268e-45, 4.314425468444824, 1.7803345918655396, 5.605193857299268e-45, 1.1016409397125244, 0.9422263503074646, 1.2492536306381226, 6.498782634735107, 2.278778314590454, 1.9836699962615967, 5.605193857299268e-45, 5.605193857299268e-45, 5.605193857299268e-45, 22.302879333496094, 0.8353196382522583, 1.6251583099365234, 1.4624338150024414, 1.9985857009887695, 5.726995468139648, 1.2397111654281616, 0.23654904961585999, 12.97061824798584, 5.605193857299268e-45, 5.605193857299268e-45, 0.44613996148109436, 1.596678614616394, 5.605193857299268e-45, 5.605193857299268e-45, 5.605193857299268e-45, 12.396890640258789], "bn1.running_var": [5.605193857299268e-45, 5.605193857299268e-45, 31.427217483520508, 5.605193857299268e-45, 5.605193857299268e-45, 234.16055297851562, 10.247447967529297, 5.605193857299268e-45, 5.605193857299268e-45, 222.11231994628906, 5.605193857299268e-45, 41.154361724853516, 25.161643981933594, 159.11659240722656, 34.94384002685547, 5.605193857299268e-45, 85.35454559326172, 24.65174674987793, 5.605193857299268e-45, 17.907840728759766, 14.776335716247559, 19.746936798095703, 139.08287048339844, 53.3768310546875, 28.208751678466797, 5.605193857299268e-45, 5.605193857299268e-45, 5.605193857299268e-45, 424.2940368652344, 10.629254341125488, 27.216529846191406, 23.603601455688477, 33.55393600463867, 140.5256805419922, 24.497827529907227, 2.594029664993286, 372.5168151855469, 5.605193857299268e-45, 5.605193857299268e-45, 5.619839668273926, 25.731168746948242, 5.605193857299268e-45, 5.605193857299268e-45, 5.605193857299268e-45, 152.43057250976562], "bn1.num_batches_tracked": 99840, "conv1.weight": [[[[0.018996475264430046, 0.0412939079105854, 0.00292038731276989], [-0.09908770024776459, -0.09203605353832245, -0.17963576316833496], [-0.13707329332828522, -0.10460187494754791, -0.1502375602722168]], [[0.023352617397904396, -0.01718956232070923, -0.057008374482393265], [-0.062466852366924286, -0.06887365132570267, -0.08165572583675385], [-0.08364852517843246, -0.12469647824764252, -0.1051328256726265]], [[-0.12290859967470169, -0.1322074830532074, -0.10098515450954437], [-0.04311663284897804, -0.01180589571595192, -0.015897085890173912], [0.032974276691675186, 0.0015086955390870571, 0.06786905229091644]], [[0.06916388124227524, -0.029493743553757668, -0.06751473993062973], [-0.0008546902099624276, 0.015902508050203323, -0.07713552564382553], [0.009978693909943104, -0.06926576048135757, -0.08336988836526871]], [[-0.2913692593574524, -0.23542708158493042, -0.23617307841777802], [-0.17258119583129883, -0.07558146864175797, -0.14590677618980408], [-0.09822237491607666, -0.09692955017089844, -0.1783635914325714]], [[-0.08066679537296295, -0.02244945429265499, -0.01532349456101656], [0.005710912868380547, -0.00525302579626441, 0.035479072481393814], [-0.011660346761345863, 0.02322891354560852, -0.032877884805202484]], [[-0.055279992520809174, -0.14767508208751678, -0.12855355441570282], [-0.015329376794397831, -0.073920838534832, -0.06149253621697426], [-0.0034382310695946217, -0.04338105022907257, -0.11356157064437866]], [[-0.27141818404197693, -0.233923077583313, -0.13356193900108337], [-0.030056122690439224, 0.022019149735569954, -0.018369309604167938], [0.008647075854241848, -0.014748134650290012, -0.016097601503133774]], [[-0.285898357629776, -0.32451048493385315, -0.2749050259590149], [-0.15541402995586395, -0.15235589444637299, -0.1914179027080536], [-0.04797658696770668, -0.06194009631872177, -0.0815616250038147]], [[-0.3937503695487976, -0.3737403452396393, -0.34438085556030273], [-0.14619037508964539, -0.05592793971300125, -0.07387370616197586], [0.04194521903991699, 0.009286344051361084, 0.05411876365542412]], [[-0.23485194146633148, -0.22935166954994202, -0.21218517422676086], [-0.056818343698978424, -0.04771812632679939, -0.17926348745822906], [-0.022342734038829803, -0.011497563682496548, -0.03893342986702919]], [[-0.02002287656068802, -0.12623527646064758, -0.09725760668516159], [-0.04446415975689888, -0.0729864090681076, -0.09045778959989548], [-0.08887884020805359, -0.04516534134745598, -0.10331572592258453]], [[-0.293430894613266, -0.21127980947494507, -0.2589365243911743], [-0.05718317627906799, -0.024002600461244583, -0.03136672452092171], [0.012460323050618172, 0.040233682841062546, 0.02546902745962143]], [[-0.2009309083223343, -0.21788917481899261, -0.22648659348487854], [-0.10796070843935013, -0.04192740470170975, -0.12296629697084427], [-0.03879586234688759, -0.06362202763557434, -0.03252343460917473]], [[0.12030763924121857, -0.07758257538080215, -0.0303482748568058], [0.004446237348020077, 0.015842638909816742, -0.02915663830935955], [-0.06968045234680176, -0.07714804261922836, -0.01705024018883705]], [[-0.17443712055683136, -0.06571360677480698, -0.11613085120916367], [-0.06524520367383957, 0.014431433752179146, 0.014909135177731514], [-0.05539226159453392, -0.005941683426499367, -0.020515264943242073]], [[0.05178070813417435, -0.09994781762361526, -0.12195879966020584], [-0.009333431720733643, -0.1083972305059433, -0.1145881786942482], [-0.0862773135304451, -0.103278249502182, -0.11039533466100693]], [[0.004526570904999971, -0.07643963396549225, -0.1391727477312088], [-0.1293978989124298, -0.1470787227153778, -0.13652156293392181], [-0.1232089176774025, -0.06359851360321045, -0.14845414459705353]], [[0.03645998612046242, 0.030165215954184532, -0.003424610709771514], [0.017353903502225876, -0.05030076578259468, -0.13688485324382782], [-0.17328563332557678, -0.1753169298171997, -0.11486228555440903]], [[-0.2248697578907013, -0.3172053396701813, -0.29660630226135254], [-0.010895521380007267, -0.16938617825508118, -0.19581301510334015], [-0.09042010456323624, -0.013784600421786308, -0.08067663758993149]], [[-0.3483840525150299, -0.31544622778892517, -0.3222258388996124], [-0.14689859747886658, -0.15259027481079102, -0.18541502952575684], [-0.16058485209941864, -0.14699363708496094, -0.0874759629368782]], [[-0.2977311313152313, -0.28948432207107544, -0.39824366569519043], [-0.0753893330693245, -0.08933210372924805, -0.06805490702390671], [-0.14401088654994965, -0.12050189822912216, -0.15411464869976044]], [[0.06171860173344612, -0.09395117312669754, -0.07268397510051727], [0.04741521552205086, -0.042925018817186356, -0.08792436867952347], [-0.04901124909520149, -0.09471622109413147, -0.14181673526763916]], [[-0.22521351277828217, -0.18726348876953125, -0.13249793648719788], [-0.01776808127760887, 0.04626421630382538, 0.0069010257720947266], [0.06016560643911362, 0.08291992545127869, 0.0485672652721405]], [[0.08249129354953766, -0.017996245995163918, -0.1321241855621338], [0.026194889098405838, -0.029571382328867912, -0.02536233887076378], [-0.027894439175724983, -0.0789806917309761, -0.07387125492095947]], [[-0.13465404510498047, -0.14597733318805695, -0.1015995442867279], [-0.011922652833163738, 0.08325869590044022, 0.039769697934389114], [-0.03523605316877365, -0.04984287917613983, -0.019937708973884583]], [[-0.23535165190696716, -0.15495288372039795, -0.15914250910282135], [-0.008766780607402325, 0.056153811514377594, -0.03460348770022392], [0.044554032385349274, -0.01582251861691475, 0.07103637605905533]], [[-0.056718047708272934, -0.1283852607011795, -0.11499486118555069], [0.008532153442502022, 0.031027277931571007, -0.10375256091356277], [-0.05118080973625183, -0.08197841793298721, -0.08062805980443954]], [[0.00975318718701601, -0.10036525130271912, -0.08161317557096481], [-0.05988219007849693, -0.07395748794078827, -0.07060495764017105], [-0.10955876857042313, -0.08310232311487198, -0.052464716136455536]], [[-0.23349395394325256, -0.11053100973367691, -0.15344922244548798], [-0.022700367495417595, -0.05895746126770973, -0.043955352157354355], [-0.036382634192705154, 0.006517620291560888, 0.014889124780893326]], [[0.0778597742319107, -0.032622430473566055, -0.04948905482888222], [-0.025293640792369843, -0.09906157851219177, -0.08665595948696136], [-0.11609385907649994, -0.10373924672603607, -0.12281911075115204]], [[-0.12872596085071564, -0.04290562495589256, -0.11503197997808456], [-0.07893481850624084, 0.04843089357018471, 0.0015856821555644274], [-0.004449209664016962, -0.04187498614192009, 0.03570584952831268]], [[0.09096906334161758, -0.033820733428001404, -0.11625844240188599], [-0.03927452862262726, -0.17544451355934143, -0.14218169450759888], [-0.15630117058753967, -0.22548037767410278, -0.19379788637161255]], [[-0.03127620741724968, -0.041604917496442795, -0.10826003551483154], [0.0022627622820436954, -0.018514594063162804, -0.044496089220047], [-0.06399639695882797, -0.06988527625799179, -0.15971706807613373]], [[-0.26554638147354126, -0.18371252715587616, -0.2419562041759491], [0.030371330678462982, -0.04533054679632187, -0.04374852403998375], [0.013220804743468761, 0.028655489906668663, 0.05455675348639488]], [[-0.1604052484035492, -0.3227350413799286, -0.38523638248443604], [-0.06917358189821243, -0.13142874836921692, -0.15453971922397614], [0.07862213253974915, -0.05036716163158417, -0.05402630195021629]], [[-0.3616028428077698, -0.23733121156692505, -0.15408256649971008], [-0.08398139476776123, 0.021270669996738434, -0.03005215711891651], [0.07156079262495041, 0.08269935846328735, 0.043762221932411194]], [[-0.1664908081293106, -0.15329444408416748, -0.15760396420955658], [-0.0524011105298996, 0.0460590198636055, -0.029979156330227852], [0.0014907910954207182, 0.04882431402802467, 0.03696528077125549]], [[-0.29078251123428345, -0.2613537907600403, -0.2036825716495514], [-0.12497201561927795, -0.010198730044066906, 0.028358090668916702], [0.029908262193202972, 0.045027848333120346, 0.04392842575907707]], [[-0.21723145246505737, -0.14372631907463074, -0.1779041588306427], [-0.09142906963825226, 0.018948925659060478, 0.03615155071020126], [-0.03557023033499718, 0.10746078193187714, 0.05517737939953804]], [[0.057758696377277374, 0.023476390168070793, 0.028779232874512672], [-0.059906940907239914, -0.07096609473228455, -0.09071168303489685], [-0.13370443880558014, -0.08774392306804657, -0.15129977464675903]], [[0.12146805971860886, 0.010678508318960667, 0.03770572319626808], [0.026535380631685257, 0.07551021128892899, -0.1139562726020813], [-0.10227213054895401, -0.051877401769161224, -0.10762684047222137]], [[-0.20079083740711212, -0.1651725023984909, -0.14000819623470306], [-0.07101443409919739, -0.053356777876615524, -0.025108976289629936], [-0.011057143099606037, -0.0003552781417965889, 0.024292774498462677]], [[-0.19669318199157715, -0.285849392414093, -0.3642522394657135], [0.012329040095210075, -0.032421015202999115, -0.05671154335141182], [0.08468087017536163, 0.08150029927492142, 0.06271487474441528]], [[-0.1941676139831543, -0.04976391792297363, -0.14060790836811066], [-0.04918432980775833, 0.047527629882097244, 0.029411666095256805], [-0.05566553771495819, 0.0015907773049548268, 0.005383653566241264]]], [[[-0.04860452562570572, -0.03303563594818115, -0.0011096978560090065], [-0.03717247024178505, 0.03183615207672119, 0.03821980208158493], [-0.006159153301268816, 0.07873719930648804, 0.010201100260019302]], [[-0.035545554012060165, 0.08079841732978821, 0.014857655391097069], [-0.06477266550064087, -0.033895839005708694, -0.007708705961704254], [-0.07783160358667374, -0.0241031926125288, -0.04332102835178375]], [[-0.008488780818879604, -0.1122966855764389, -0.1726910024881363], [-0.047124870121479034, -0.07199078053236008, -0.167799174785614], [-0.07519528269767761, 0.004650598391890526, -0.09487334638834]], [[0.007228351663798094, 0.03547520563006401, 0.02488628216087818], [0.021841881796717644, 0.08303765207529068, 0.020540129393339157], [0.048053078353405, 0.08378753066062927, 0.013876608572900295]], [[-0.11005173623561859, -0.07531332224607468, -0.015431445091962814], [-0.14522023499011993, -0.12382520735263824, -0.009003154002130032], [-0.18989765644073486, -0.1561131477355957, -0.05421914532780647]], [[-0.04878683760762215, -0.07031252235174179, -0.12071011960506439], [0.010320354253053665, -0.08566832542419434, -0.029714901000261307], [-0.019763562828302383, -0.04698822274804115, -0.11513132601976395]], [[0.0062967888079583645, -0.030857805162668228, 0.002147604711353779], [-0.09033720195293427, -0.04379604756832123, -0.0011498820967972279], [-0.04898829013109207, -0.03578329458832741, -0.05839500203728676]], [[0.020184015855193138, -0.08058643341064453, -0.03470385819673538], [0.03496832773089409, -0.012854241766035557, -0.06540174782276154], [-0.02372651733458042, -0.05641026422381401, -0.07802165299654007]], [[-0.19616051018238068, -0.16099971532821655, -0.07092482596635818], [-0.15974989533424377, -0.20839963853359222, -0.15524634718894958], [-0.2012014538049698, -0.1766962707042694, -0.16129080951213837]], [[0.044522061944007874, -0.09342559427022934, -0.04789577051997185], [-0.01150584314018488, -0.0684717521071434, -0.08993187546730042], [-0.0006056194542907178, -0.023258140310645103, -0.0005882538389414549]], [[-0.07721512764692307, -0.09354890137910843, 0.018755342811346054], [-0.08664142340421677, -0.11613703519105911, -0.044214293360710144], [-0.18608711659908295, -0.1821184605360031, -0.086256243288517]], [[-0.08673925697803497, 0.045257020741701126, 0.05371927469968796], [-0.06142876297235489, 0.008736257441341877, 0.0638517364859581], [-0.03231785446405411, -0.048612553626298904, -0.03164026886224747]], [[0.020881695672869682, -0.02725141867995262, -0.04813450202345848], [-0.06241050362586975, -0.046987537294626236, -0.014183116145431995], [-0.04263757914304733, -0.07114361971616745, -0.04262677952647209]], [[-0.17357328534126282, -0.08454031497240067, 0.020041946321725845], [-0.147627592086792, -0.23749928176403046, -0.0993327647447586], [-0.2257935106754303, -0.1782790720462799, -0.09637125581502914]], [[0.0016467430396005511, -0.045920901000499725, -0.02380204387009144], [-0.04502953961491585, 0.025577018037438393, -0.07676650583744049], [-0.011192791163921356, 0.06916604936122894, -0.0181206576526165]], [[-0.008405589498579502, -0.12090658396482468, -0.13993805646896362], [-0.008614059537649155, -0.06705450266599655, -0.08994405716657639], [-0.09691095352172852, -0.10063692927360535, -0.14093327522277832]], [[-0.038099173456430435, -0.0055370633490383625, -0.0039060646668076515], [-0.12114056944847107, -0.05040373280644417, -0.0376858115196228], [-0.13874061405658722, -0.04936710372567177, -0.002073502168059349]], [[-0.030971869826316833, -0.01999603398144245, 0.07002882659435272], [0.021732771769165993, -0.045708540827035904, 0.05881771445274353], [-0.010620491579174995, 0.0052226223051548, 0.047836530953645706]], [[0.014680671505630016, 0.05610354617238045, -0.04922542721033096], [-0.001463395426981151, 0.05596297234296799, 0.03915693238377571], [-0.041385747492313385, 0.08053762465715408, -0.0280557032674551]], [[-0.10636544227600098, -0.11128159612417221, -0.11804210394620895], [0.005148096941411495, -0.0968058854341507, -0.09438817203044891], [0.02051265724003315, -0.006822509691119194, 0.041338395327329636]], [[-0.16507159173488617, -0.12135285884141922, -0.09683959186077118], [-0.22163242101669312, -0.163344144821167, -0.1328195482492447], [-0.1600927710533142, -0.17654621601104736, -0.1336665153503418]], [[-0.18985888361930847, -0.16780586540699005, -0.09861910343170166], [-0.1615474969148636, -0.1638273447751999, -0.09007890522480011], [-0.12103047221899033, -0.15046434104442596, -0.12073315680027008]], [[0.006680724676698446, 0.05235912278294563, 0.03643381968140602], [0.025041639804840088, 0.09099491685628891, 7.203876975836465e-06], [0.011786465533077717, 0.08531421422958374, 0.06601699441671371]], [[-0.009331904351711273, -0.09009851515293121, -0.06557610630989075], [-0.0013188498560339212, -0.09470199793577194, -0.10711655765771866], [-0.04171481728553772, -0.06970884650945663, -0.1367228776216507]], [[-0.12365321815013885, -0.054370295256376266, -0.1294710338115692], [-0.04019089415669441, -0.04954230412840843, -0.14044004678726196], [-0.08770401030778885, -0.0718158483505249, -0.12448757141828537]], [[-0.016077036038041115, -0.11250117421150208, -0.06790237873792648], [-0.09122420102357864, -0.042387377470731735, -0.07467077672481537], [-0.058627650141716, -0.09334835410118103, -0.1214839518070221]], [[0.0024722404778003693, -0.05513520538806915, -0.07945670187473297], [0.011122619733214378, -0.05749118700623512, -0.026291970163583755], [-0.07559573650360107, -0.07332880795001984, -0.08041287213563919]], [[0.09401801228523254, 0.028032561764121056, 0.07939057797193527], [0.021235020831227303, 0.03155484050512314, 0.09037178754806519], [-0.08666878193616867, -0.043797314167022705, 0.05061575397849083]], [[-0.0350833386182785, 0.03765561431646347, 0.012831088155508041], [-0.10712258517742157, -0.04085793346166611, -0.030590875074267387], [-0.08247948437929153, -0.01582327112555504, -0.009107162244617939]], [[-0.006111861206591129, -0.05134744197130203, -0.14153358340263367], [0.028363527730107307, -0.09922055900096893, -0.11754106730222702], [-0.08386490494012833, -0.02338499389588833, -0.10281122475862503]], [[0.009016890078783035, -0.01013032253831625, 0.045229244977235794], [-0.032847534865140915, 0.019465608522295952, 0.06350627541542053], [0.0055374084040522575, 0.007707135286182165, 0.018062837421894073]], [[-0.03690381348133087, -0.09868579357862473, -0.07350347191095352], [-0.048956822603940964, -0.016311010345816612, -0.07643835246562958], [-0.11174406856298447, -0.07698928564786911, -0.15564507246017456]], [[0.011751437559723854, -0.023910997435450554, -0.05207642912864685], [-0.006063256878405809, 0.01062445156276226, -0.00972314178943634], [-0.0287387203425169, 0.06658133119344711, -0.03928609937429428]], [[-0.005858576390892267, 0.08295508474111557, 0.02470814436674118], [0.03054114803671837, 0.024422550573945045, 0.020307399332523346], [0.04911409690976143, 0.01116933487355709, -0.021663356572389603]], [[-0.007291857153177261, -0.09295563399791718, -0.15161119401454926], [-0.02756563015282154, -0.004091113805770874, -0.1268567591905594], [-0.09979087859392166, -0.019392460584640503, -0.1521540731191635]], [[-0.06256835907697678, -0.16389480233192444, -0.11019370704889297], [-0.021778393536806107, -0.143946573138237, -0.0883895680308342], [0.04007651284337044, 0.0063219512812793255, 0.04145342484116554]], [[-0.029950406402349472, -0.09915470331907272, -0.11354764550924301], [-0.03409682959318161, -0.03568146750330925, -0.14935128390789032], [-0.059530049562454224, -0.035899288952350616, -0.11759322881698608]], [[-0.0136121129617095, -0.05091116577386856, -0.1093217208981514], [-0.00444172415882349, -0.09076067060232162, -0.023419510573148727], [-0.09750049561262131, -0.020211312919855118, -0.11979825049638748]], [[-0.031180957332253456, -0.07575435191392899, -0.028273887932300568], [-0.05628082901239395, -0.08852719515562057, -0.014814510010182858], [-0.04371025413274765, -0.01731475070118904, -0.10181694477796555]], [[-0.02359132096171379, -0.18900121748447418, -0.0727517381310463], [0.010272353887557983, -0.16182956099510193, -0.05928494781255722], [-0.012708205729722977, -0.08327005058526993, -0.07464079558849335]], [[-0.02401001937687397, -0.0060198199935257435, -0.06735921651124954], [-0.04991775006055832, -0.05970734730362892, -0.010762418620288372], [0.006503564305603504, 0.014502684585750103, 0.013754813000559807]], [[-0.10573714971542358, -0.06763366609811783, -0.11881788074970245], [0.03125031664967537, -0.0562131330370903, -0.1030116081237793], [-0.07171554863452911, 0.014283246360719204, 0.0043756370432674885]], [[0.04266587272286415, -0.10879377275705338, -0.09670130908489227], [0.006848276127129793, -0.02434493601322174, -0.0220638457685709], [-0.06275610625743866, -0.08530692756175995, -0.06603142619132996]], [[-0.2532503604888916, -0.21582545340061188, -0.2969057261943817], [-0.2307724803686142, -0.18588891625404358, -0.23993682861328125], [-0.31055012345314026, -0.25089529156684875, -0.2779313623905182]], [[-0.029018811881542206, -0.027392813935875893, -0.10551533102989197], [-0.05885341390967369, -0.0742439404129982, -0.0919611006975174], [-0.058449529111385345, -0.1098528727889061, -0.14688073098659515]]], [[[-0.2192206084728241, -0.645891547203064, 0.06101056560873985], [-0.5845780968666077, 0.44256505370140076, 0.47854098677635193], [-1.2756493091583252, 0.5132377743721008, -0.4265761375427246]], [[-0.011915632523596287, -0.09699750691652298, 0.016565833240747452], [-0.47048863768577576, 0.30920660495758057, 0.10977883636951447], [-1.025887131690979, -0.3667655885219574, -1.0431851148605347]], [[-1.2443472146987915, 0.6639952659606934, 0.07442178577184677], [-1.215822458267212, 0.148347869515419, 0.8898370862007141], [-1.744198203086853, 0.023007528856396675, 0.16744418442249298]], [[-0.38079720735549927, 0.3535557687282562, 0.16144953668117523], [-0.22139881551265717, 1.1120179891586304, 0.5686944127082825], [-0.839239776134491, 0.86614590883255, -0.2520573139190674]], [[-1.0824064016342163, -0.4818694591522217, -0.7852576971054077], [-0.3441813290119171, -0.5902827978134155, -1.686087727546692], [0.20117080211639404, -0.03266596049070358, -1.2049671411514282]], [[-0.180158331990242, 0.6513376235961914, 0.22953669726848602], [-0.11803893744945526, 0.2801762521266937, 0.8610875606536865], [-0.8507073521614075, -0.025942165404558182, 0.11666694283485413]], [[0.12679532170295715, 0.17118407785892487, -0.1089208573102951], [-0.9652470946311951, -0.07175277173519135, -0.5714070796966553], [-1.1807481050491333, -0.7346397638320923, -1.0442663431167603]], [[-0.11431064456701279, -0.07333080470561981, 0.6970688104629517], [-1.0575358867645264, -0.814812421798706, -0.2892563045024872], [-1.689030647277832, 0.0839037224650383, -0.004664180334657431]], [[-1.2697035074234009, 0.10924358665943146, -0.9984093308448792], [-0.5165265202522278, -0.06159406155347824, -2.0273146629333496], [-0.07715316116809845, -0.09457433223724365, -1.6862585544586182]], [[0.2065117508172989, 0.01160754356533289, 0.9435872435569763], [-0.8095057010650635, -0.7843648791313171, -0.32886257767677307], [-1.4117079973220825, 0.2793714106082916, -0.09758386760950089]], [[-0.3650701642036438, -0.82880038022995, -0.3463369905948639], [-0.22204852104187012, -0.2038453370332718, 0.04252338409423828], [0.05523674190044403, 0.164613738656044, -0.05102560669183731]], [[-0.4155352711677551, -0.49338406324386597, 0.19378675520420074], [0.04093977436423302, -0.30267590284347534, 0.5076378583908081], [0.41086503863334656, -0.5366889834403992, -0.12921421229839325]], [[0.29107314348220825, -0.33753156661987305, 0.7071216702461243], [0.26972946524620056, 0.01838471181690693, 1.2368611097335815], [-0.6111083030700684, -0.5009913444519043, 0.2491864562034607]], [[-0.9628304839134216, -0.8726153373718262, -0.07677377015352249], [-0.15866364538669586, -0.6320871114730835, 0.041337478905916214], [0.24385495483875275, -0.31712213158607483, 0.231770321726799]], [[-1.3026732206344604, 0.6163678169250488, -0.15832847356796265], [-1.5643266439437866, 0.2886813282966614, 0.37432295083999634], [-1.9856475591659546, 0.21079698204994202, -0.29125580191612244]], [[0.08709961920976639, -0.34800222516059875, 0.43693676590919495], [0.31846189498901367, 0.11999170482158661, 1.265411615371704], [-0.695564866065979, -0.2702362537384033, 0.16000153124332428]], [[-1.1691533327102661, 1.0610533952713013, -0.15338779985904694], [-1.981174111366272, 1.1572967767715454, -0.3417965769767761], [-1.557712197303772, 0.30488818883895874, -1.231671929359436]], [[0.15978015959262848, 0.11456304788589478, 0.40752312541007996], [-0.5129222869873047, 0.09933561831712723, -0.1550983041524887], [-1.086401104927063, -0.7398645281791687, -0.6215550899505615]], [[-0.4948664903640747, 0.024762801826000214, -0.0446394607424736], [-0.43223443627357483, 0.4285223186016083, 0.7544364333152771], [-1.378532886505127, 0.2895946204662323, -0.4701134264469147]], [[-1.3816614151000977, 0.7144782543182373, 0.012728538364171982], [-0.852318286895752, 0.0939786285161972, 0.41147053241729736], [-0.9484890699386597, 0.07395627349615097, 0.08128392696380615]], [[-1.8738633394241333, -0.5822635293006897, -1.1586848497390747], [-0.3300303816795349, -0.7710215449333191, -2.1340274810791016], [0.06265627592802048, -0.8104833960533142, -1.869284749031067]], [[-1.7395505905151367, -0.10501685738563538, -0.37639865279197693], [-0.7470324635505676, -0.30155348777770996, -1.8354651927947998], [-0.3273656666278839, -0.5435613393783569, -2.155177116394043]], [[0.20050004124641418, -0.8207601308822632, 0.3194608986377716], [0.053362421691417694, -0.1340976506471634, 0.48309215903282166], [-1.0666857957839966, -0.16790808737277985, -0.6783120036125183]], [[0.12135060131549835, 0.09138475358486176, 0.20447911322116852], [0.01515094842761755, 0.05204448848962784, 0.5563570857048035], [-0.6460433006286621, -0.12798911333084106, -0.2965008318424225]], [[-0.9627858400344849, 0.7394294738769531, -0.5041307210922241], [-1.4619191884994507, 0.6575904488563538, 0.35667476058006287], [-2.1748292446136475, 0.28875720500946045, -0.3786468803882599]], [[-0.06542234122753143, -1.1669656038284302, 0.277739554643631], [-0.32026585936546326, -0.35613515973091125, 0.319052129983902], [-1.3981833457946777, -0.3901413381099701, -0.5006328821182251]], [[0.07808087766170502, -0.306391179561615, 0.42434823513031006], [0.2092425674200058, -0.03493637964129448, 1.1711392402648926], [-0.6332046985626221, -0.4078217148780823, 0.22350870072841644]], [[0.10897897928953171, -0.30054810643196106, 0.801054835319519], [-0.3023566007614136, -0.12295053899288177, 0.5426827669143677], [-1.610803484916687, -0.4321282207965851, 0.3428567051887512]], [[-0.6850781440734863, 0.0052482192404568195, 0.5951476097106934], [-0.3856578469276428, -0.0005386504926718771, 1.0716361999511719], [-0.13936805725097656, 0.17018720507621765, 0.4604555666446686]], [[0.17665810883045197, -0.32212284207344055, 0.699370801448822], [0.2661609649658203, 0.05318306386470795, 1.2928270101547241], [-0.4889800548553467, -0.4831244647502899, 0.3572022318840027]], [[-0.020422354340553284, -0.49344557523727417, 0.19360294938087463], [-0.5748871564865112, 0.09879405051469803, 0.13674311339855194], [-1.827455997467041, 0.15795132517814636, -0.721705973148346]], [[0.14627596735954285, -0.6333808898925781, 0.5064266324043274], [0.23152968287467957, 0.07236775755882263, 1.1925618648529053], [-0.7185693383216858, -0.2828160226345062, -0.03484052047133446]], [[0.11874538660049438, -0.4921448230743408, 0.3722046911716461], [0.5112072825431824, 0.19838130474090576, 0.8058086037635803], [-0.5449984669685364, -0.5513743162155151, -0.38740628957748413]], [[-0.002329928567633033, 0.05590284988284111, 0.7790278196334839], [-0.5103790163993835, 0.024315916001796722, 0.25493210554122925], [-1.4552249908447266, -0.002842644229531288, -0.19160610437393188]], [[-0.025763673707842827, -0.3837012052536011, 0.10719067603349686], [-0.07373148947954178, 0.06823308020830154, 0.688027560710907], [-0.9774863719940186, -0.36631906032562256, -0.1146942526102066]], [[-0.007043800316751003, -0.6233899593353271, 0.3945417106151581], [0.10035239905118942, -0.6167557835578918, 0.830983579158783], [-0.022077802568674088, -0.35222649574279785, 0.6748413443565369]], [[-0.5921375155448914, 0.09699616581201553, -0.07486668229103088], [-0.13247422873973846, -0.16468942165374756, 0.512140691280365], [-0.32128241658210754, -0.07173671573400497, 0.026859208941459656]], [[-0.03268832713365555, -0.51301109790802, 0.3854621648788452], [-0.7288376688957214, -0.8671531677246094, -0.15271618962287903], [-1.6746419668197632, -0.12404859811067581, 0.02230053022503853]], [[0.054042644798755646, -0.15694653987884521, 0.7786651253700256], [-0.7320393919944763, -0.6727119088172913, -0.27069827914237976], [-1.409825086593628, 0.43200311064720154, -0.07356426864862442]], [[0.037802986800670624, -0.1113659143447876, 0.7425526976585388], [-0.7955945134162903, -0.8361550569534302, -0.3924163281917572], [-1.3897225856781006, 0.08227529376745224, -0.06423863768577576]], [[-0.03943493962287903, -0.7506673336029053, 0.07965335249900818], [-0.0344562791287899, 0.25585296750068665, 0.6484509706497192], [-1.558387041091919, -0.06840991228818893, -0.047347839921712875]], [[0.13501377403736115, 0.33966097235679626, -0.11995115131139755], [-0.30742505192756653, 0.18778197467327118, 0.38655340671539307], [-1.1759388446807861, -0.30905425548553467, -0.6660652160644531]], [[0.14792373776435852, 0.16782720386981964, 0.2622646987438202], [0.07578928768634796, 0.06297750771045685, 0.722710371017456], [-0.690532922744751, -0.32711121439933777, -0.07436756044626236]], [[-1.2935940027236938, -1.0545684099197388, -0.12021147459745407], [-0.24566079676151276, -0.6778965592384338, -0.17537014186382294], [0.18117211759090424, -0.3196154236793518, -0.28675341606140137]], [[0.08495531976222992, -0.4907117187976837, 0.49255263805389404], [-0.12926536798477173, 0.019408687949180603, 0.6501533389091492], [-1.0770304203033447, -0.11733931303024292, -0.17215226590633392]]], [[[-0.10234229266643524, -0.1527080535888672, -0.1528168022632599], [-0.10067708045244217, -0.0968572199344635, -0.14141379296779633], [-0.0056922961957752705, 0.006987561006098986, -0.05674032121896744]], [[-0.03667490556836128, -0.08443985879421234, -0.10455302149057388], [-0.05404595658183098, -0.07262806594371796, -0.15257178246974945], [-0.04441555216908455, 0.018617575988173485, 0.014688698574900627]], [[0.0041735535487532616, -0.03199214115738869, -0.07618606090545654], [-0.0868530347943306, -0.008922402746975422, -0.1462738960981369], [-0.03213402256369591, -0.04696763679385185, -0.09031228721141815]], [[0.012222652323544025, -0.02143716998398304, -0.06036333367228508], [0.028224734589457512, 0.027780981734395027, -0.029502542689442635], [0.008037488907575607, 0.07106484472751617, 0.07747496664524078]], [[-0.1251199096441269, -0.13442771136760712, -0.09257222712039948], [-0.0929822251200676, -0.035596080124378204, -0.03982556238770485], [-0.0408548079431057, 0.02885768935084343, -0.026401996612548828]], [[-0.02612065151333809, -0.14389629662036896, -0.06340320408344269], [0.0047720265574753284, -0.07749003916978836, -0.06896689534187317], [-0.028649238869547844, -0.1272067278623581, -0.08535396307706833]], [[-0.02701723575592041, -0.056658729910850525, -0.029178602620959282], [-0.055169977247714996, -0.07350627332925797, -0.09146988391876221], [-0.03136741742491722, 0.052367255091667175, -0.015814071521162987]], [[-0.04009927809238434, -0.07884489744901657, -0.11271727830171585], [-0.02163369208574295, -0.013778786174952984, -0.050596632063388824], [-0.008168147876858711, -0.024757610633969307, -0.11414077132940292]], [[-0.07785775512456894, -0.1623634696006775, -0.04265576973557472], [-0.04167823866009712, -0.028218261897563934, 0.019367672502994537], [-0.13434889912605286, -0.06270521879196167, -0.01721336506307125]], [[0.009541302919387817, -7.776737766107544e-05, -0.0013018379686400294], [0.0691671073436737, -0.02913147211074829, 0.09177427738904953], [-0.021230068057775497, -0.05609144642949104, 0.015446465462446213]], [[-0.056505877524614334, -0.11802711337804794, -0.12916211783885956], [-0.15324674546718597, -0.104292131960392, -0.14032383263111115], [-0.06775379925966263, -0.06102192774415016, -0.08947629481554031]], [[-0.12646600604057312, -0.03610355779528618, -0.12568894028663635], [-0.08254355192184448, -0.02598254196345806, -0.07165131717920303], [0.007856134325265884, 0.044034671038389206, -0.04661571979522705]], [[0.0055673206225037575, -0.1481715738773346, -0.09172260761260986], [0.0800018459558487, -0.006538548041135073, -0.03509490191936493], [-0.003821507329121232, -0.0982312336564064, -0.1013609766960144]], [[-0.13320088386535645, -0.08153373748064041, -0.12316640466451645], [-0.16667278110980988, -0.04337712377309799, -0.14421522617340088], [-0.08516979962587357, -0.05764438956975937, -0.08471056073904037]], [[-0.008975240401923656, -0.023272501304745674, -0.0927385613322258], [-0.07766105234622955, -0.002107840497046709, -0.001219096826389432], [0.034561194479465485, 0.0035329977981746197, 0.03469670191407204]], [[-0.04896146059036255, -0.16046330332756042, -0.13515247404575348], [-0.03289385512471199, -0.052415091544389725, -0.10386184602975845], [-0.03965911641716957, -0.13336493074893951, -0.11574278771877289]], [[-0.06890058517456055, -0.11505651473999023, -0.1260441392660141], [-0.072895348072052, -0.06525610387325287, -0.17553609609603882], [-0.07268266379833221, -0.03767641633749008, -0.06760301440954208]], [[-0.0846942588686943, -0.11505308002233505, -0.08087131381034851], [-0.15375247597694397, -0.11182823032140732, -0.12562295794487], [-0.018119504675269127, 0.04826641455292702, -0.016828112304210663]], [[-0.04211924970149994, -0.04808788001537323, -0.045805223286151886], [-0.09894774109125137, -0.03012428618967533, -0.1089104413986206], [-0.05935339257121086, 0.04526292532682419, 0.005875279661267996]], [[-0.08964329212903976, -0.03793466091156006, -0.015122130513191223], [-0.10116855800151825, -0.04462903365492821, 0.015210427343845367], [-0.05426182970404625, -0.009459374472498894, 0.00751873292028904]], [[-0.1189841479063034, -0.10348565876483917, -0.13655711710453033], [-0.1038442850112915, -0.05950549617409706, 0.023052502423524857], [-0.0683245062828064, 0.03198523819446564, 0.018055276945233345]], [[-0.09920226037502289, -0.15204830467700958, -0.10439484566450119], [-0.08562813699245453, 0.0518789067864418, -0.013981897383928299], [0.018941150978207588, 0.046702880412340164, 0.017533911392092705]], [[0.007194926496595144, -0.0515311025083065, -0.05091039091348648], [-0.011044355109333992, 0.005719057749956846, -0.03519633039832115], [-0.01981724612414837, 0.03174297511577606, 0.05888013169169426]], [[0.02006305381655693, -0.16981486976146698, -0.047334954142570496], [-0.06745308637619019, -0.15824493765830994, -0.13382238149642944], [-0.032734472304582596, -0.0791243240237236, -0.10061575472354889]], [[-0.0777873694896698, -0.025168325752019882, -0.09419084340333939], [-0.10024955123662949, -0.07898157835006714, -0.0844770222902298], [-0.1167852059006691, -0.00010859192843781784, -0.05020253360271454]], [[-0.05657457187771797, -0.09839018434286118, -0.1425563395023346], [-0.007170397788286209, -0.11563587188720703, -0.08053608983755112], [-0.09785745292901993, -0.09061111509799957, -0.05912758409976959]], [[0.03230058774352074, -0.06685885787010193, -0.021400952711701393], [0.04020792990922928, -0.06192677840590477, -0.028861703351140022], [-0.07634331285953522, -0.028475705534219742, -0.04634946584701538]], [[0.006613573990762234, -0.04260987043380737, -0.042588163167238235], [-0.07335462421178818, 0.01813739351928234, 0.06952586024999619], [-0.007658605929464102, 0.10525497794151306, 0.06532689929008484]], [[-0.11555147916078568, -0.06340274214744568, -0.10303311049938202], [-0.13608714938163757, -0.043202850967645645, -0.1559053659439087], [-0.057165518403053284, -0.030629483982920647, 0.005325658712536097]], [[-0.07899650931358337, -0.15309922397136688, -0.15983988344669342], [0.001792298979125917, -0.1325938105583191, -0.0796671211719513], [-0.06920744478702545, -0.12419849634170532, -0.13367977738380432]], [[-0.0533907487988472, -0.02032773569226265, -0.04601982235908508], [-0.06731253862380981, -0.11342566460371017, -0.13277719914913177], [-0.026736630126833916, -0.004485113080590963, -0.009334291331470013]], [[0.015751637518405914, -0.11792795360088348, -0.1224658265709877], [-0.04967183992266655, -0.09641518443822861, -0.08919895440340042], [-0.08241645991802216, -0.12534546852111816, -0.08722399175167084]], [[-0.08783240616321564, -0.024309981614351273, -0.11269436776638031], [-0.0895548164844513, 0.0035147257149219513, -0.13102182745933533], [0.016094613820314407, 0.06865406781435013, -0.038075074553489685]], [[0.025732794776558876, 0.022075554355978966, 0.041755788028240204], [-0.006793756037950516, -0.020116260275244713, 0.018818069249391556], [0.07285229861736298, 0.04151192680001259, 0.08277786523103714]], [[-0.0006163916550576687, -0.06876284629106522, -0.07272721827030182], [-0.003253025934100151, -0.1250452995300293, -0.16761359572410583], [-0.01388612575829029, -0.051362115889787674, -0.055790022015571594]], [[-0.03538165241479874, -0.006670751608908176, -0.0824415385723114], [-0.018904637545347214, 0.046157293021678925, 0.006010290235280991], [-0.0349167175590992, -0.027756385505199432, -0.06847165524959564]], [[-0.051455628126859665, -0.11011096090078354, -0.04881715029478073], [0.02233065292239189, -0.031400568783283234, -0.11369214206933975], [-0.034781232476234436, -0.09403520822525024, -0.026660902425646782]], [[-0.04220515862107277, -0.13672558963298798, -0.14684337377548218], [0.02718122862279415, -0.07081440091133118, -0.07663276791572571], [-0.00638602627441287, -0.049529753625392914, -0.12016188353300095]], [[-0.03942636400461197, -0.052261389791965485, -0.10031241178512573], [-0.003805396147072315, -0.0709724947810173, -0.025555714964866638], [-0.06789126247167587, -0.12251070141792297, -0.14809873700141907]], [[-0.022927820682525635, -0.06035478040575981, -0.11870183050632477], [0.0016955018509179354, -0.07443149387836456, -0.009777417406439781], [0.009741701185703278, -0.09256383776664734, -0.11558318138122559]], [[-0.11043661087751389, -0.10623864829540253, -0.09786900877952576], [-0.0470658577978611, -0.04071299731731415, -0.10134613513946533], [-0.015299543738365173, -0.08568369597196579, -0.07154723256826401]], [[-0.002072836272418499, -0.09456567466259003, -0.06925569474697113], [-0.07055347412824631, -0.06360592693090439, -0.08829719573259354], [-0.01617712713778019, -0.007009477820247412, 0.008228509686887264]], [[-0.06337723881006241, -0.08075778931379318, -0.07564669847488403], [-0.00806341040879488, -0.06984777003526688, -0.06414349377155304], [-0.0024133564438670874, -0.11054977774620056, -0.09678851068019867]], [[-0.010035905055701733, -0.021850861608982086, 0.0237346813082695], [-0.0756508857011795, 0.07936607301235199, -0.0019703402649611235], [-0.010310942307114601, 0.03201855346560478, -0.0008700023754499853]], [[-0.022790994495153427, -0.10022977739572525, -0.15468567609786987], [-0.04202340915799141, -0.12551113963127136, -0.09575778245925903], [-0.03626704216003418, -0.12452119588851929, -0.08728963136672974]]], [[[-0.23505568504333496, -0.23777788877487183, -0.18987557291984558], [0.16276492178440094, 0.2550334930419922, 0.22262103855609894], [-0.6104269027709961, -0.6262384057044983, -0.5798304080963135]], [[-0.6640705466270447, -0.5668718814849854, -0.6900246739387512], [0.3430776298046112, 0.29860907793045044, 0.28460627794265747], [-0.5664548277854919, -0.586839497089386, -0.5795378088951111]], [[-0.15196214616298676, -0.5946391820907593, -1.159981608390808], [-0.2966552972793579, -0.7187435030937195, -0.6291046738624573], [-0.8253347277641296, -0.973294198513031, -0.9692844748497009]], [[0.2857930660247803, 0.3836093544960022, 0.2842821180820465], [0.4772910475730896, 0.6840653419494629, 0.5029444694519043], [-0.1237727627158165, -0.23925355076789856, 0.0754610151052475]], [[-0.22685739398002625, -0.3122906982898712, -0.12019652873277664], [-0.5049419403076172, -0.6790430545806885, -0.4170282185077667], [-1.086303949356079, -0.9310641884803772, -0.5820467472076416]], [[0.344200998544693, 0.02838747575879097, -0.6131362915039062], [-0.34022465348243713, -0.7338505387306213, -0.5881293416023254], [-0.41361960768699646, -0.7254965305328369, -0.42302027344703674]], [[-0.6196519136428833, -0.568571150302887, -0.5537860989570618], [0.5659401416778564, 0.5833975672721863, 0.4287305176258087], [-0.45728427171707153, -0.4561401903629303, -0.271342933177948]], [[-0.5940470099449158, -1.0167983770370483, -0.47019463777542114], [-0.9587450623512268, -0.8506254553794861, -0.5446247458457947], [-0.9104135036468506, -1.122739315032959, -1.0046061277389526]], [[-0.09985657781362534, -0.24427242577075958, 0.035610467195510864], [-0.7055821418762207, -0.7213150858879089, -0.2996615171432495], [-1.1024731397628784, -0.8891695141792297, -0.6215157508850098]], [[-0.6273135542869568, -1.1036261320114136, -0.34741613268852234], [-1.3701050281524658, -1.3987576961517334, -0.8530462980270386], [-1.2220299243927002, -1.165450096130371, -1.0736933946609497]], [[-0.6728208661079407, -0.6028923392295837, -0.278785765171051], [-0.2302611917257309, -0.2918262779712677, -0.044481780380010605], [-0.6036502718925476, -0.6291231513023376, -0.269877165555954]], [[-0.1378217339515686, -0.021552283316850662, 0.05763646215200424], [0.09351000934839249, -0.02661612443625927, 0.07786519825458527], [-0.797523558139801, -0.716752827167511, -0.36518338322639465]], [[-0.17858019471168518, -0.2130609154701233, -0.10170672088861465], [0.1704624444246292, 0.039319898933172226, -0.13820286095142365], [-0.9754272103309631, -0.6573294401168823, -0.3898981809616089]], [[-0.3408590853214264, -0.2553831934928894, -0.06817838549613953], [-0.013765777461230755, 0.017024558037519455, 0.16844110190868378], [-0.5279578566551208, -0.3694421648979187, -0.05410109832882881]], [[-0.23825441300868988, -0.6848685145378113, -0.9851481914520264], [0.04378143697977066, -0.5174140334129333, -0.35106778144836426], [-0.7674542665481567, -0.778210461139679, -0.7541248202323914]], [[-0.3954032063484192, -0.3687410056591034, -0.42841318249702454], [-0.3509625792503357, -0.47753772139549255, -0.3804074227809906], [-0.6357260942459106, -0.6615031361579895, -0.39478766918182373]], [[-0.06551187485456467, -0.16411961615085602, -0.1159847155213356], [0.12003745138645172, 0.04432205110788345, 0.0630190521478653], [-0.8594682216644287, -0.775596559047699, -0.700674295425415]], [[-0.600976288318634, -0.4933185875415802, -0.2933889627456665], [-0.06677350401878357, -0.03452330455183983, -0.03524630889296532], [-0.5531041026115417, -0.4922020435333252, -0.44310423731803894]], [[-0.6344666481018066, -0.745621919631958, -0.9351726770401001], [0.051474861800670624, -0.06893221288919449, -0.0011090115876868367], [-0.24049296975135803, -0.23632608354091644, -0.27047035098075867]], [[0.35970252752304077, 0.4980607032775879, 0.4248373508453369], [0.041460245847702026, -0.03091224655508995, -0.10502653568983078], [-0.36688172817230225, -0.4373053312301636, -0.599996030330658]], [[0.0682302862405777, -0.07652045041322708, 0.04910224676132202], [-0.6864162683486938, -0.7570809125900269, -0.3851979970932007], [-0.990214467048645, -0.8017706274986267, -0.5905970931053162]], [[-0.06650853902101517, 0.0007074621971696615, 0.05871805548667908], [-0.4873924255371094, -0.46784237027168274, -0.2122519463300705], [-0.9902670383453369, -0.885491669178009, -0.5621892809867859]], [[-0.6894552707672119, -0.808211088180542, -0.7863883972167969], [0.014878219924867153, -0.05171428620815277, 0.040497008711099625], [-0.5678647756576538, -0.6307486891746521, -0.6632154583930969]], [[-0.30614250898361206, -0.2897133529186249, -0.39326855540275574], [-0.25793495774269104, -0.8788757920265198, -0.2900395691394806], [-0.6423898935317993, -0.8250288963317871, -0.5469046235084534]], [[0.15480878949165344, 0.12271453440189362, 0.21970346570014954], [0.26429012417793274, 0.2463453710079193, 0.3253639340400696], [-0.762859046459198, -0.7272440791130066, -0.7086372971534729]], [[-1.1943720579147339, -1.225448727607727, -1.2099651098251343], [0.01788277179002762, -0.09688236564397812, -0.10430226475000381], [-0.8309452533721924, -0.83453768491745, -0.8205512762069702]], [[-0.19268962740898132, -0.10729051381349564, -0.165970578789711], [0.0805283933877945, -0.1650124192237854, -0.061353109776973724], [-0.8797208070755005, -0.710673987865448, -0.37951338291168213]], [[-0.6925239562988281, -0.8856156468391418, -0.5955990552902222], [-0.8520526885986328, -0.8832998871803284, -0.47575098276138306], [-0.6634370684623718, -0.6815066933631897, -0.5737531185150146]], [[-0.1448448896408081, -0.23694638907909393, -0.16187985241413116], [-0.2133997529745102, -0.32579106092453003, -0.3683617413043976], [-0.3397836685180664, -0.14555494487285614, -0.02720075473189354]], [[-0.2737167179584503, -0.14513945579528809, -0.18303339183330536], [0.14805777370929718, -0.015212230384349823, -0.22908633947372437], [-0.7782717347145081, -0.5975094437599182, -0.47102585434913635]], [[-0.7477912306785583, -0.879539966583252, -0.9268258213996887], [-0.009956794790923595, -0.07849953323602676, -0.05652235448360443], [-0.6279645562171936, -0.6696822047233582, -0.6601122617721558]], [[-0.4683898985385895, -0.3959570527076721, -0.41599467396736145], [-0.5224347710609436, -0.4954349100589752, -0.5045479536056519], [-0.5884827375411987, -0.6875710487365723, -0.718928337097168]], [[-0.5377589464187622, -0.5997724533081055, -0.8985968232154846], [-0.09924513846635818, -0.19560280442237854, -0.2059779018163681], [-0.6340764760971069, -0.6697664260864258, -0.6215397715568542]], [[-0.47166791558265686, -0.7320793271064758, -0.5301251411437988], [-0.6243898272514343, -0.3220653533935547, -0.7510820031166077], [-0.4871498644351959, -0.7331364154815674, -0.6316767930984497]], [[0.2056119441986084, 0.36943382024765015, 0.35121890902519226], [-0.035503096878528595, -0.020263513550162315, -0.04909432679414749], [-0.6362240314483643, -0.6598218083381653, -0.5136959552764893]], [[-0.5143648386001587, -0.5866974592208862, -0.4875974655151367], [-0.5325722694396973, -0.5747730731964111, -0.22108907997608185], [-0.9412672519683838, -0.8774394392967224, -0.5547075867652893]], [[-0.4222809374332428, -0.290071964263916, -0.37884321808815], [-0.03569750487804413, 0.10602641850709915, -0.8290473818778992], [-0.6738010048866272, -0.7265880703926086, -0.68971186876297]], [[-0.2296120971441269, -0.9321030974388123, -0.2972499132156372], [-0.7366575002670288, -0.5560925602912903, -0.5174350738525391], [-0.916989803314209, -1.0621064901351929, -0.9628247618675232]], [[-0.7546431422233582, -0.9975465536117554, -0.3297620713710785], [-1.5464098453521729, -1.3297944068908691, -0.8076579570770264], [-1.2590166330337524, -1.359959363937378, -1.1099921464920044]], [[-0.6336396336555481, -0.9777867794036865, -0.3756241202354431], [-1.2973967790603638, -1.1559014320373535, -0.6690167784690857], [-1.293867588043213, -1.413689136505127, -1.191704273223877]], [[-0.6536855101585388, -0.8321827054023743, -0.7849949598312378], [-0.36674657464027405, -0.3431110680103302, -0.30245643854141235], [-0.26476073265075684, -0.4393260180950165, -0.3587024211883545]], [[-0.39328038692474365, -0.5222063660621643, -0.5262162685394287], [0.10400541871786118, -0.2731509804725647, -0.030215725302696228], [-0.4930303692817688, -0.5063323378562927, -0.18314191699028015]], [[-0.01896853744983673, 0.47026216983795166, -0.05299047380685806], [-0.2740927040576935, -0.5791465640068054, -0.44070303440093994], [-0.4647979736328125, -0.49470067024230957, -0.11995542794466019]], [[-0.2771870195865631, -0.3721292316913605, -0.21207097172737122], [-0.7367932796478271, -0.8001691102981567, -0.5301190614700317], [-1.0378061532974243, -0.7225640416145325, -0.3799588680267334]], [[-0.30037540197372437, -0.28898879885673523, -0.2519526183605194], [-0.3487345278263092, -0.4178810715675354, -0.45428645610809326], [-0.7548816204071045, -0.7307875752449036, -0.39365410804748535]]], [[[-0.39789512753486633, -0.013215305283665657, -0.4582075774669647], [0.08071812242269516, 0.6646779775619507, 0.44427549839019775], [-0.7403830885887146, -0.13576990365982056, -0.6369872093200684]], [[-0.06896711140871048, 0.41845837235450745, 0.2089313566684723], [0.40957149863243103, 0.6619560122489929, 0.6405857801437378], [-0.7052129507064819, -0.43349412083625793, -0.7643312215805054]], [[0.15653467178344727, -0.6234896779060364, 0.3275592029094696], [-0.24562625586986542, -0.8623453974723816, 0.42979514598846436], [-0.9547109007835388, -1.871373176574707, 0.26604634523391724]], [[0.25793367624282837, 0.7850234508514404, -0.18006646633148193], [0.24784767627716064, 0.8188679218292236, 0.3087214529514313], [-0.7153916954994202, 0.07638169080018997, -0.6072620153427124]], [[0.6855542063713074, 0.8353085517883301, 0.3646751046180725], [0.16560013592243195, 0.13338567316532135, -0.20089170336723328], [-0.6283470988273621, -0.3414630889892578, -0.6239592432975769]], [[0.22968778014183044, 0.2537214159965515, 0.1257033348083496], [-0.09946425259113312, -0.07488708198070526, 0.01642714999616146], [-0.9165735244750977, -1.0405962467193604, -0.43422627449035645]], [[0.36707207560539246, 0.3151123523712158, -0.35226768255233765], [0.7059966921806335, 1.231489896774292, 0.5771923661231995], [-0.633323609828949, -0.11380906403064728, -0.5905020833015442]], [[0.678646445274353, 0.8448357582092285, -0.5658758878707886], [-0.4469655156135559, 0.49857112765312195, -1.4143824577331543], [-0.8031177520751953, 0.4230557382106781, -0.9103078842163086]], [[0.7387147545814514, 0.9957514405250549, 0.4306892156600952], [0.09702803939580917, 0.2679961919784546, -0.00012905157927889377], [-0.7118700742721558, -0.2360631674528122, -0.5979331731796265]], [[0.490494966506958, 0.6703546643257141, -0.863571047782898], [-0.6879855990409851, 0.19334009289741516, -1.5754501819610596], [-1.1118671894073486, 0.22779729962348938, -1.2515770196914673]], [[0.35642778873443604, 0.5318344235420227, -0.17556609213352203], [0.2321660965681076, 0.2951219975948334, -0.2637343406677246], [-0.7837495803833008, -0.3410148024559021, -0.845683217048645]], [[0.11488466709852219, 0.050850920379161835, -0.22347447276115417], [0.32692787051200867, 0.19139082729816437, 0.07637061923742294], [-0.5246221423149109, -0.6109838485717773, -0.6320145130157471]], [[0.7223800420761108, 1.0180652141571045, -0.9253866672515869], [-0.23741258680820465, 0.4658944606781006, -0.18854480981826782], [-2.809887647628784, -0.8369498252868652, -2.0313186645507812]], [[0.0839761272072792, 0.281109482049942, -0.09662371128797531], [-0.2155248373746872, -0.25685131549835205, -0.3970571458339691], [-1.0895124673843384, -0.938089907169342, -1.1106626987457275]], [[-0.06905762851238251, 0.09319154173135757, 0.429720014333725], [-0.07378841936588287, 0.06521885097026825, 0.7178890109062195], [-0.7210763096809387, -0.7348384261131287, 0.510817289352417]], [[0.16833128035068512, 0.24401868879795074, -0.9168514013290405], [-0.10297755897045135, 0.5528144836425781, 0.6876802444458008], [-2.866807222366333, -0.7518200278282166, -2.06109356880188]], [[0.3981488347053528, 0.9014427065849304, 0.6471461653709412], [0.39653387665748596, 0.906535267829895, 0.7100045680999756], [-0.35173124074935913, 0.19292713701725006, 0.21956278383731842]], [[-0.09824483096599579, 0.22237546741962433, -0.21100708842277527], [-0.14444024860858917, 0.6028294563293457, 0.13181066513061523], [-0.6525698900222778, -0.007967705838382244, -0.28371840715408325]], [[0.038676079362630844, -0.7926697134971619, -0.5792096853256226], [0.4936445653438568, 0.037120621651411057, 0.5768046379089355], [-0.9415751695632935, -1.526185154914856, -0.2566473186016083]], [[-0.4371793270111084, 0.6679906249046326, -0.3037818670272827], [-0.5209736824035645, 0.28918805718421936, -0.5938119888305664], [-0.9154080152511597, -0.4613178074359894, -0.5921589732170105]], [[0.49204790592193604, 0.8448659181594849, 0.5037287473678589], [0.04739004001021385, 0.10267208516597748, -0.031333185732364655], [-0.5795052647590637, -0.3515406847000122, -0.398202121257782]], [[0.42824140191078186, 0.8303788900375366, 0.6654312610626221], [0.1235654428601265, 0.4763069450855255, 0.30804136395454407], [-0.5120071768760681, -0.03175317868590355, -0.08704320341348648]], [[-0.8386334180831909, -0.26209354400634766, -0.43065589666366577], [-0.22628015279769897, 0.31100475788116455, 0.5108538269996643], [-1.5238029956817627, -0.7041721940040588, -1.0119528770446777]], [[0.4601351022720337, 0.4030616283416748, -0.02817230485379696], [0.2781530022621155, 0.12868675589561462, -0.002604258246719837], [-0.6927868723869324, -0.7369899749755859, -0.5490337610244751]], [[-0.05093174800276756, -0.1316663920879364, -0.20102733373641968], [0.38723355531692505, 0.49822884798049927, 0.7135367393493652], [-0.8009201884269714, -0.7307228446006775, -0.05661876127123833]], [[-0.77823406457901, -0.22373957931995392, -0.6629471778869629], [-0.23379747569561005, 0.43549075722694397, 0.16984282433986664], [-2.3867387771606445, -0.941166877746582, -2.086355209350586]], [[0.6370372772216797, 0.3956466317176819, -1.0426145792007446], [-0.20563346147537231, 0.11180747300386429, -0.02130669169127941], [-2.4982645511627197, -1.2023324966430664, -2.130103826522827]], [[0.5568267703056335, 1.203043818473816, -0.5005155801773071], [0.3262462615966797, 1.5224348306655884, -0.1646977812051773], [-0.5411168336868286, 0.8901946544647217, -1.1983602046966553]], [[-0.08830466121435165, 0.04934234544634819, -0.30360105633735657], [0.18491379916667938, -0.095766581594944, -0.12738379836082458], [-0.4471510946750641, -0.709536612033844, -0.3874609172344208]], [[0.7165022492408752, 0.39856839179992676, -1.1232843399047852], [-0.32993370294570923, -0.38635125756263733, -0.8089231252670288], [-2.5043013095855713, -1.2976534366607666, -2.225238561630249]], [[-0.22285248339176178, 0.27382370829582214, -0.31477341055870056], [-0.14161285758018494, 0.5547281503677368, 0.23190119862556458], [-0.9649577140808105, -0.027785424143075943, -1.2411128282546997]], [[-0.18922798335552216, 0.12828867137432098, -0.6859402060508728], [-0.4315457344055176, 0.38763105869293213, 0.5030406713485718], [-3.465485095977783, -1.3060228824615479, -2.3306610584259033]], [[-0.36722755432128906, -0.620826780796051, -0.7970081567764282], [0.14886081218719482, 0.052233364433050156, 0.2670213282108307], [-1.085549235343933, -0.9047831296920776, -0.9369498491287231]], [[0.4804922044277191, 0.8191586136817932, -0.4477981626987457], [-0.25895318388938904, 0.6553638577461243, -0.61295086145401], [-0.3824720084667206, 0.4267147183418274, -0.4775775671005249]], [[-0.2196476310491562, -0.2064962536096573, -0.9120964407920837], [-0.1703391820192337, 0.06850685179233551, 0.2590714395046234], [-1.8430638313293457, -1.0661863088607788, -1.031528353691101]], [[0.452633261680603, 0.9977198243141174, 0.07019724696874619], [0.133763387799263, 0.2192438691854477, -0.5069701075553894], [-1.1005955934524536, -0.5474132299423218, -1.0883336067199707]], [[-0.30280452966690063, 0.16907113790512085, 0.12203290313482285], [0.1006232425570488, -0.010707579553127289, 0.10486328601837158], [-0.8422332406044006, -1.2278690338134766, -0.48088914155960083]], [[0.23905520141124725, 0.9660856127738953, -1.1933950185775757], [-0.48826825618743896, 0.8713585734367371, -1.1527529954910278], [-1.574982762336731, 0.07213767617940903, -2.2038519382476807]], [[0.5170783996582031, 1.0603491067886353, -0.4776366949081421], [-0.44930899143218994, 0.7066925168037415, -0.9194390177726746], [-1.2480653524398804, 0.31309598684310913, -0.953572154045105]], [[0.47081470489501953, 0.8483006358146667, -0.6530914902687073], [-0.7657767534255981, 0.29310721158981323, -1.6590254306793213], [-1.01116144657135, 0.3330625593662262, -1.3076778650283813]], [[-0.10899240523576736, 0.3542567789554596, -0.5350332260131836], [0.12979073822498322, 0.8139528036117554, 0.5001385807991028], [-1.2021431922912598, 0.07607337087392807, -1.1849844455718994]], [[0.10160928219556808, -0.027675636112689972, 0.003756146179512143], [0.8003884553909302, 0.8117177486419678, 0.753006637096405], [-0.3198402225971222, -0.5664370059967041, 0.0757889598608017]], [[0.4472942352294922, 0.5187005400657654, -0.6552130579948425], [0.08774790167808533, -0.0953231081366539, -0.7410563826560974], [-1.165279507637024, -1.0313754081726074, -1.183937430381775]], [[0.20050343871116638, 0.4019021689891815, 0.052312221378088], [-0.06842900812625885, -0.07404904067516327, -0.22973014414310455], [-0.6493200063705444, -0.5729496479034424, -0.5632750988006592]], [[-0.2065901756286621, 0.3904663324356079, -1.0407346487045288], [-0.034932252019643784, 0.6838359236717224, 0.31137627363204956], [-2.0211832523345947, -0.25826260447502136, -1.0913324356079102]]], [[[0.6534265875816345, 0.8534679412841797, -0.519294023513794], [0.5892599821090698, 1.0676796436309814, -1.2631763219833374], [0.09054911136627197, 0.5389806628227234, -1.4740283489227295]], [[0.5890651941299438, 0.7355745434761047, -0.374133825302124], [0.1860858052968979, 0.5080258250236511, -1.2790031433105469], [-0.45121410489082336, 0.02467719092965126, -1.023116946220398]], [[-0.6263296008110046, 1.1150010824203491, -0.37394002079963684], [0.12848329544067383, 0.362762451171875, -1.0134390592575073], [1.1139642000198364, -0.010823968797922134, -1.0444797277450562]], [[0.25852692127227783, -0.13499586284160614, -0.8111207485198975], [0.08466660976409912, -0.261109322309494, -0.8776550889015198], [-0.40388816595077515, -0.7404173016548157, -1.0958499908447266]], [[0.3789284825325012, 0.019994590431451797, -0.3691047728061676], [-0.8777075409889221, -0.4844032824039459, -0.6490190625190735], [-1.301567554473877, -0.9537227749824524, -1.1827298402786255]], [[-0.9090097546577454, 0.6984395980834961, -0.6063079833984375], [0.012055482715368271, -0.08468267321586609, -1.087654709815979], [0.36982932686805725, -0.13016481697559357, -0.7443079948425293]], [[1.2430486679077148, 1.4059412479400635, -0.25560444593429565], [-0.32609573006629944, -0.2502075731754303, -2.0797603130340576], [-0.6279968023300171, -0.4480625092983246, -1.0121039152145386]], [[-0.4203054904937744, -0.7246982455253601, -1.8712375164031982], [-0.17816360294818878, 0.09909728169441223, -1.937291145324707], [0.2501857578754425, 0.3175433874130249, -1.1791701316833496]], [[0.43344900012016296, 0.5050077438354492, -0.6075946688652039], [-0.9042783379554749, -0.4722612500190735, -0.9137580990791321], [-1.6854296922683716, -0.9855707883834839, -1.2312055826187134]], [[-0.5565159320831299, -0.62980055809021, -2.097198486328125], [-0.149960458278656, 0.12815997004508972, -2.0602078437805176], [0.25849467515945435, 0.44581276178359985, -1.3867851495742798]], [[0.32198888063430786, 0.02845086343586445, -0.07122436910867691], [-0.23661142587661743, -0.29509979486465454, -1.250380277633667], [-0.4303947687149048, -0.7381822466850281, -0.8977673649787903]], [[0.5577566623687744, 0.3588224947452545, -0.4551981985569], [-0.6149142384529114, -0.6796108484268188, -0.8746482133865356], [-0.8746153712272644, -1.1071228981018066, -1.2833726406097412]], [[-0.18930499255657196, 0.02782239019870758, -0.8620195984840393], [0.24228747189044952, -0.061280086636543274, -1.3980463743209839], [0.30417460203170776, 0.013158844783902168, -0.32756608724594116]], [[0.13642829656600952, -0.3247714042663574, -0.4345814287662506], [-0.24061617255210876, -0.46619081497192383, -0.9870843291282654], [-0.3827742636203766, -1.3332650661468506, -1.2269294261932373]], [[-0.20573106408119202, 1.0842317342758179, -0.4492602050304413], [-0.01249146182090044, 0.08332492411136627, -1.1105831861495972], [0.7571069598197937, -0.4203696548938751, -1.3494547605514526]], [[0.11469317227602005, 0.0797383040189743, -0.6081061363220215], [0.25939708948135376, 0.043009672313928604, -0.8069784045219421], [-0.24444159865379333, -0.25300246477127075, -0.2995029091835022]], [[0.7445208430290222, 1.1398279666900635, -0.6265724301338196], [0.07734502106904984, 0.3315848708152771, -1.1050130128860474], [-0.11861872673034668, -0.16837932169437408, -1.3811371326446533]], [[0.7570563554763794, 0.6360653638839722, -0.2938128411769867], [-0.27591150999069214, -0.09138180315494537, -1.4570221900939941], [-0.665279746055603, -0.3285938501358032, -0.7573737502098083]], [[0.3706096112728119, 1.0702797174453735, -0.2293051928281784], [0.14360952377319336, 0.4333324730396271, -0.8652197122573853], [-0.10905927419662476, 0.12527917325496674, -0.940895676612854]], [[-0.025020916014909744, -0.7299732565879822, -0.08202098309993744], [0.43083375692367554, -1.091982126235962, -1.393320918083191], [0.9026418328285217, -1.4497032165527344, -1.3358612060546875]], [[0.6233396530151367, 0.5010963082313538, -0.48842325806617737], [-0.7169408202171326, -0.49944427609443665, -0.5480793118476868], [-1.339504599571228, -1.2208722829818726, -1.1028333902359009]], [[0.5137059092521667, 0.5475890636444092, -1.007836103439331], [-0.4279398024082184, -0.3114008605480194, -1.1532549858093262], [-1.0234121084213257, -1.1294033527374268, -1.1755048036575317]], [[0.5354418754577637, 0.3539620637893677, -0.06616226583719254], [0.30004510283470154, -0.23085173964500427, -1.0821882486343384], [-0.1923353374004364, -0.3532690107822418, -0.9669808745384216]], [[-0.0878133550286293, 0.39276379346847534, -1.0572868585586548], [0.39820396900177, 0.1732022911310196, -1.4124250411987305], [-0.05123923718929291, 0.2183622121810913, -0.6703829765319824]], [[0.02396460250020027, 0.8244072794914246, -0.5947637557983398], [-0.07056943327188492, 0.3651902377605438, -1.1893129348754883], [0.40873491764068604, 0.028334269300103188, -1.3330285549163818]], [[0.4785747230052948, 0.49619799852371216, -0.14074204862117767], [0.17229917645454407, 0.11464311182498932, -1.1993945837020874], [-0.03407227620482445, -0.08567304909229279, -1.0820096731185913]], [[-0.23078376054763794, 0.1462596207857132, -0.8398439884185791], [0.006009080447256565, 0.0397704541683197, -1.3771566152572632], [-0.3545770049095154, -0.025242730975151062, -0.2836538553237915]], [[0.11523319780826569, -0.37637630105018616, -0.589698076248169], [-0.06727726757526398, -0.14920949935913086, -1.250002145767212], [-0.3843816816806793, -0.32127517461776733, -1.3088183403015137]], [[0.18480859696865082, 0.6110513210296631, -0.20744222402572632], [-0.5044846534729004, 0.10698831081390381, -1.0589478015899658], [-0.3905008137226105, -0.43125811219215393, -1.2838783264160156]], [[-0.36995717883110046, 0.038381826132535934, -0.5509028434753418], [-0.06550084799528122, -0.08345898240804672, -1.3368475437164307], [0.010698799043893814, 0.22161485254764557, -0.2504650056362152]], [[0.5746018290519714, 0.5881426930427551, -0.17314057052135468], [0.45612087845802307, 0.9085403680801392, -0.969275951385498], [0.12906166911125183, 0.4858945608139038, -1.1696481704711914]], [[0.3189356029033661, 0.16668342053890228, -0.3872818350791931], [0.397720068693161, 0.18634790182113647, -0.71471107006073], [-0.19882377982139587, -0.26612579822540283, -0.45734384655952454]], [[0.6168486475944519, 0.7796581387519836, -0.22888007760047913], [0.2503189444541931, 0.1359756886959076, -0.6830750107765198], [-0.389303594827652, -0.08237291127443314, -0.847078263759613]], [[-0.07577575743198395, -0.4179311990737915, -0.9002237915992737], [0.09694159775972366, 0.04556556046009064, -1.7185229063034058], [0.0784701257944107, 0.15844902396202087, -1.5298765897750854]], [[-0.3243408501148224, 0.10013934969902039, -0.6535167694091797], [-0.005180699285119772, 0.14033976197242737, -1.184159278869629], [-0.28456225991249084, -0.08030813932418823, -0.4525364935398102]], [[0.02858915738761425, 0.044776275753974915, -0.5867416858673096], [-0.46230801939964294, -0.28140774369239807, -0.9020349383354187], [-0.6172488331794739, -0.9435060620307922, -0.8270127177238464]], [[-0.24960194528102875, 0.022419743239879608, -0.657582700252533], [-0.20376333594322205, -0.6561051607131958, -1.4283981323242188], [0.2412780523300171, -0.8561357855796814, -0.8190209269523621]], [[0.12396086007356644, -0.00694075133651495, -0.8389400839805603], [0.21127744019031525, 0.07126745581626892, -1.472211241722107], [0.19996307790279388, -0.0784115344285965, -1.0311602354049683]], [[-0.14798010885715485, -0.6243715882301331, -2.0647969245910645], [-0.037661269307136536, -0.176115483045578, -2.0896573066711426], [0.17357073724269867, 0.08488243818283081, -1.2288401126861572]], [[-0.09723915904760361, -0.3990095853805542, -2.0186054706573486], [-0.01372744981199503, 0.1116960421204567, -2.019529104232788], [0.2565074563026428, 0.29917025566101074, -1.1966181993484497]], [[0.401313841342926, 0.23399822413921356, -0.27528083324432373], [0.49962693452835083, 0.4869638979434967, -0.4911345839500427], [-0.07311882823705673, 0.007906249724328518, -0.8648256063461304]], [[0.27727314829826355, 0.962277889251709, -0.2141561210155487], [-0.5642154812812805, -0.2986276149749756, -1.462576985359192], [-0.1220935732126236, -0.24513795971870422, -0.7538824081420898]], [[-0.4065733551979065, 0.0862778052687645, -0.5533504486083984], [-0.41220030188560486, -0.31937143206596375, -1.1723837852478027], [-0.574800431728363, 0.10296185314655304, -0.4121507406234741]], [[0.36537227034568787, 0.2116675078868866, -0.600835919380188], [-0.7865275740623474, -0.6426796913146973, -0.7616456747055054], [-1.0099447965621948, -1.1484390497207642, -1.174025297164917]], [[0.21691985428333282, -0.07273469120264053, -0.49247270822525024], [0.23987622559070587, 0.07166996598243713, -0.8546848893165588], [-0.19863775372505188, 0.0020180372521281242, -0.5805975198745728]]], [[[-0.005480801686644554, -0.031146638095378876, -0.0069969394244253635], [-0.035522669553756714, -0.05084964632987976, -0.07798527181148529], [-0.05998721718788147, 0.04426579549908638, -0.03707280382514]], [[-0.033583249896764755, 0.03133062273263931, -0.04451962560415268], [-0.10168257355690002, -0.11045709997415543, -0.01100371778011322], [-0.02855820581316948, 0.0540129616856575, -0.07813100516796112]], [[-0.06200625002384186, -0.04113499075174332, -0.007340156007558107], [-0.0464346669614315, -0.07295210659503937, -0.0644960105419159], [0.014716566540300846, -0.011715677566826344, -0.07024767994880676]], [[-0.039761416614055634, -0.04992907494306564, -0.022806556895375252], [-0.08658032864332199, -0.0068770344369113445, -0.03782565891742706], [-0.06608903408050537, 0.0375824049115181, -0.06812724471092224]], [[-0.08992316573858261, 0.0025137108750641346, -0.05333199352025986], [-0.04241769015789032, -0.035656943917274475, 0.0154022928327322], [-0.05091015249490738, 0.02404884248971939, -0.008128550834953785]], [[-0.07138661295175552, -0.013852700591087341, -0.058884553611278534], [-0.0044424389488995075, -0.05756402388215065, 0.009087031707167625], [0.018298417329788208, -0.026815205812454224, -0.019376467913389206]], [[0.03812500461935997, -0.035307545214891434, -0.0732811689376831], [-0.07258215546607971, -0.10966816544532776, 0.00791552010923624], [-0.043456096202135086, 0.010039769113063812, -0.06047782674431801]], [[-0.05699026212096214, -0.0235473420470953, 0.01095577236264944], [-0.054947029799222946, -0.0256461501121521, 0.014938410371541977], [0.01471381913870573, -0.03966675326228142, 0.016514811664819717]], [[-0.011141774244606495, 0.016101162880659103, -0.028521623462438583], [-0.07317531108856201, -0.04562143608927727, -0.015107481740415096], [-0.010466641746461391, -0.08344434201717377, 0.008609808050096035]], [[-0.07296431809663773, -0.0009113250998780131, 0.018970569595694542], [-0.014288070611655712, -0.04100919887423515, -0.0026623441372066736], [0.07229319214820862, -0.06750351190567017, -0.065163254737854]], [[-0.006353623233735561, 0.008195076137781143, -0.0279831625521183], [-0.08009443432092667, -0.07999277114868164, -0.041184939444065094], [-0.02384883165359497, -0.06959043443202972, -0.016599703580141068]], [[-0.032934561371803284, 0.03330449014902115, -0.04298469051718712], [-0.08378057181835175, -0.10300934314727783, -0.07441002130508423], [-0.019614659249782562, 0.06649092584848404, -0.003144080750644207]], [[-0.07335270196199417, -0.021288828924298286, -0.03714153915643692], [0.0004938712809234858, -0.05421053618192673, -0.015204844065010548], [-0.00799486692994833, -0.00505729578435421, -0.04700670763850212]], [[-0.0009814170189201832, -0.03731464594602585, -0.01661447435617447], [-0.0680454894900322, -0.07400801032781601, -0.07054802030324936], [-0.020005542784929276, -0.0772714763879776, 0.03735421225428581]], [[-0.0821460485458374, -0.036838095635175705, -0.029578235000371933], [-0.08827841281890869, 0.02070205844938755, -0.07082771509885788], [-0.02694173902273178, 0.019701439887285233, -0.023839544504880905]], [[-0.02730259671807289, -0.032823845744132996, 0.019244514405727386], [-0.04875281825661659, -0.03735167533159256, -0.017158200964331627], [0.011653629131615162, 0.007628947962075472, -0.02431981824338436]], [[-0.02386532723903656, 0.009823254309594631, 0.0012356191873550415], [-0.07392045110464096, 0.022076375782489777, 0.010625275783240795], [-0.0600866861641407, 0.04923573508858681, -0.014705739915370941]], [[-0.053062938153743744, -0.031449709087610245, -0.03961353376507759], [-0.06161584332585335, -0.04706113785505295, -0.031055128201842308], [0.0742938369512558, 0.002743885386735201, -0.01879035122692585]], [[-0.11238253861665726, -0.056155797094106674, -0.027947822585701942], [-0.04584010690450668, -0.01574748568236828, 0.01463512796908617], [-0.05034269019961357, 0.06236257031559944, 0.014770695939660072]], [[-0.04394054412841797, -0.07050824165344238, 0.017806246876716614], [-0.07523401826620102, -0.029630031436681747, 0.0013539876090362668], [-0.06784431636333466, -0.08213826268911362, -0.014109493233263493]], [[-0.07333314418792725, -0.08552035689353943, -0.020111439749598503], [-0.06903907656669617, 0.009097677655518055, -0.034424155950546265], [-0.054488565772771835, 0.004888876806944609, -0.01615862175822258]], [[-0.06234828010201454, -0.028063977137207985, 0.01730327121913433], [-0.06742678582668304, 0.007806697394698858, -0.033617060631513596], [-0.04423493146896362, -0.011791424825787544, -0.06688261777162552]], [[-0.040911536663770676, -0.052957724779844284, 0.005806169006973505], [-0.02697649411857128, -0.02467932365834713, -0.054301727563142776], [0.0013383510522544384, 0.11173231899738312, -0.017713245004415512]], [[-0.04032119736075401, -0.06157183647155762, 0.012456421740353107], [-0.062047023326158524, -0.07826794683933258, -0.049803853034973145], [-0.019717799499630928, -0.011542253196239471, -0.010797739960253239]], [[-0.05908624827861786, -0.026710227131843567, -0.05206054076552391], [-0.05525049939751625, -0.04997911676764488, -0.019823256880044937], [-0.03537675738334656, 0.01962907984852791, -0.05897367373108864]], [[-0.059647031128406525, -0.051399387419223785, -0.060667965561151505], [-0.038108546286821365, -0.012287501245737076, -0.07011806219816208], [-0.03404996544122696, -0.044265564531087875, -0.055369745939970016]], [[-0.041007500141859055, -0.05102347210049629, -0.028394455090165138], [-0.06575408577919006, -0.02091175876557827, 0.015581009909510612], [0.012355813756585121, -0.052243463695049286, -0.014694463461637497]], [[0.0038653924129903316, 0.013248572126030922, -0.07942161709070206], [-0.05413090065121651, -0.06536262482404709, -0.07604727894067764], [0.0956801101565361, 0.0010018645552918315, 0.04184829443693161]], [[-0.007996161468327045, -0.007077650632709265, -0.04791682958602905], [-0.10345971584320068, -0.04245823621749878, -0.004946012515574694], [-0.05356418713927269, 0.04434554651379585, 0.05409565940499306]], [[-0.0422736257314682, -0.042493999004364014, -0.06302911788225174], [-0.07233529537916183, -0.0063189249485731125, -0.04117598757147789], [0.001434431178495288, -0.026725968345999718, -0.030059438198804855]], [[-0.05198025330901146, -0.06417569518089294, -0.04119483381509781], [-0.09739811718463898, -0.014202411286532879, -0.027398308739066124], [-0.06265322864055634, 0.08599541336297989, 0.00454377057030797]], [[-0.020161062479019165, 0.017374519258737564, -0.006830200552940369], [-0.06824980676174164, -0.04981987178325653, -0.04192186892032623], [-0.014582095667719841, -0.03138236701488495, 0.009943275712430477]], [[-0.060111645609140396, -0.09477618336677551, -0.048180144280195236], [-0.11247720569372177, -0.07709424197673798, -0.0055858297273516655], [-0.04445536062121391, -0.03973756730556488, -0.07289348542690277]], [[0.009631539694964886, -0.05066866800189018, -0.06953611969947815], [-0.09173448383808136, 0.04007992148399353, -0.04409350827336311], [0.007694714702665806, 0.057246338576078415, 0.0017792719881981611]], [[-0.037987589836120605, -0.020411698147654533, -0.0181211419403553], [-0.015906935557723045, 0.0013305299216881394, -0.027415907010436058], [-0.02396285906434059, -0.03344009444117546, -0.06851235777139664]], [[-0.07425715029239655, -0.008328274823725224, -0.06511806696653366], [-0.06644074618816376, -0.079278863966465, -0.02697998657822609], [-0.09351012110710144, -0.0533171072602272, 0.015732837840914726]], [[-0.009431814774870872, -0.0035495860502123833, -0.021487388759851456], [-0.07208260893821716, -0.05424150452017784, -0.07012978196144104], [-0.06037057563662529, -0.013242607936263084, -0.04374684765934944]], [[0.01850181445479393, -0.06612557172775269, -0.0723094716668129], [0.019064204767346382, -0.07310663908720016, 0.012240665033459663], [-0.01651831902563572, -0.07519382238388062, 0.013236429542303085]], [[-0.043499015271663666, -0.050454482436180115, -0.06866653263568878], [-0.07176321744918823, -0.019534388557076454, -0.07871153205633163], [-0.009342263452708721, -0.04227888211607933, -0.012573111802339554]], [[-0.04215121641755104, -0.012674626894295216, -0.0313221774995327], [-0.015345798805356026, -0.05058780685067177, -0.06408138573169708], [-0.023364173248410225, -0.06161094084382057, -0.060768574476242065]], [[0.0003284956037532538, -0.0414101742208004, -0.06310506165027618], [-0.03073524869978428, -0.03243003413081169, -0.018205607309937477], [-0.0022123735398054123, 0.000646513479296118, -0.07671167701482773]], [[-0.030134785920381546, -0.015119095332920551, -0.06013428792357445], [-0.05400339886546135, -0.08429406583309174, -0.05372563377022743], [-0.0209996085613966, 0.02156047895550728, 0.011093945242464542]], [[0.001409993157722056, 0.016978226602077484, -0.03876646235585213], [-0.013735663145780563, -0.03210093453526497, -0.07102099806070328], [-0.007361354306340218, -0.06461190432310104, -0.047902707010507584]], [[-0.05129121243953705, -0.05363299697637558, -0.02821064181625843], [-0.032521892338991165, -0.04144445061683655, 0.0065115527249872684], [-0.06344308704137802, 0.027430618181824684, 0.002909075701609254]], [[-0.05948644503951073, -0.037029825150966644, -0.0591285340487957], [-0.06242761388421059, -0.03675035387277603, -0.038738563656806946], [-0.0600644126534462, -0.0009918895084410906, 0.012098440900444984]]], [[[-0.13857141137123108, -0.10482960939407349, -0.115780308842659], [-0.11615169793367386, -0.07860881835222244, -0.09816454350948334], [-0.015113669447600842, 0.046017713844776154, 0.0020900198724120855]], [[-0.143224835395813, -0.15139450132846832, -0.010269316844642162], [-0.22286035120487213, -0.20443454384803772, -0.11002326011657715], [-0.038118913769721985, -0.05242376774549484, -0.011416192166507244]], [[-0.20186734199523926, -0.26544731855392456, -0.11577276140451431], [-0.1888924092054367, -0.17324019968509674, -0.07311347872018814], [-0.20848733186721802, -0.171891987323761, -0.12109605967998505]], [[-0.18514284491539001, -0.15781325101852417, -0.1971556842327118], [-0.16967719793319702, -0.1635228544473648, -0.12264970690011978], [0.04729488119482994, -0.02675931341946125, 0.00451981695368886]], [[-0.05099503695964813, -0.08682918548583984, -0.09374766051769257], [-0.09224133938550949, -0.22655944526195526, -0.23295141756534576], [0.11160984635353088, -0.013348526321351528, 0.0016194679774343967]], [[-0.07106977701187134, -0.14827170968055725, 0.006140195298939943], [-0.11294133216142654, -0.16587911546230316, 0.029711147770285606], [-0.20254115760326385, -0.1710851937532425, -0.21118596196174622]], [[-0.19080621004104614, -0.11349330097436905, -0.06494471430778503], [-0.2819322347640991, -0.32421231269836426, -0.139072984457016], [-0.1031569242477417, -0.06366080790758133, 0.06999556720256805]], [[-0.23953422904014587, -0.1499841958284378, -0.08013945817947388], [-0.12698739767074585, -0.18439622223377228, -0.13291281461715698], [-0.1508701741695404, -0.08620107173919678, -0.10348055511713028]], [[-0.16414880752563477, -0.23745085299015045, -0.1725284606218338], [-0.19253294169902802, -0.226384699344635, -0.1760852336883545], [-0.07645711302757263, -0.11967583745718002, -0.008373337797820568]], [[-0.20881839096546173, -0.24620679020881653, -0.11668724566698074], [-0.24661396443843842, -0.24349598586559296, -0.07149463146924973], [-0.19016501307487488, -0.1334349662065506, -0.003608791157603264]], [[-0.09087873250246048, -0.15942297875881195, -0.10751604288816452], [-0.14203208684921265, -0.2507341802120209, -0.11331827938556671], [-0.08574219048023224, -0.11340070515871048, -0.02661268785595894]], [[-0.13825832307338715, -0.16573019325733185, -0.11630022525787354], [-0.21877986192703247, -0.26912781596183777, -0.30962830781936646], [0.05573241412639618, -0.01233272347599268, -0.026930002495646477]], [[-0.013481476344168186, -0.12901702523231506, -0.034075912088155746], [-0.0688658356666565, -0.10664251446723938, -0.045576732605695724], [-0.15844620764255524, -0.15157710015773773, -0.12842388451099396]], [[-0.03524325415492058, -0.14862197637557983, -0.050088778138160706], [-0.206381157040596, -0.3122589886188507, -0.24027439951896667], [-0.03091634251177311, -0.20317591726779938, -0.10678654164075851]], [[-0.20764775574207306, -0.27277225255966187, -0.21188288927078247], [-0.16397930681705475, -0.18887756764888763, -0.15283271670341492], [-0.03633156791329384, -0.0728943720459938, -0.05465517193078995]], [[-0.10418668389320374, -0.08497019112110138, -0.024473173543810844], [-0.05313980579376221, -0.17772039771080017, -0.08223449438810349], [-0.19071030616760254, -0.16786901652812958, -0.14166176319122314]], [[-0.07032500207424164, -0.0983850434422493, -0.13791345059871674], [-0.08892232179641724, -0.2051662653684616, -0.20523416996002197], [0.011032409965991974, -0.07459434866905212, -0.00015507494390476495]], [[0.01455936674028635, 0.05805916711688042, 0.0004886363749392331], [0.05156126245856285, -0.14531965553760529, -0.10413923859596252], [-0.06827192008495331, -0.08228232711553574, -0.10905633866786957]], [[-0.09008292853832245, -0.1383984088897705, -0.0976485088467598], [-0.1340174525976181, -0.18315279483795166, -0.10138112306594849], [-0.012570410966873169, -0.02554311603307724, -0.0493793785572052]], [[-0.10635140538215637, -0.17930443584918976, -0.0569879375398159], [-0.2509077191352844, -0.22489316761493683, 0.014886021614074707], [-0.061600297689437866, 0.026231786236166954, 0.03595755994319916]], [[-0.14512833952903748, -0.17000670731067657, -0.08000965416431427], [-0.2011657953262329, -0.19242103397846222, -0.22601927816867828], [0.12855762243270874, -0.03585178405046463, 0.10819641500711441]], [[-0.29367440938949585, -0.3146198093891144, -0.1848757416009903], [-0.21762044727802277, -0.36695626378059387, -0.3233487606048584], [0.008215595036745071, -0.06713622063398361, -0.001756812445819378]], [[-0.14603382349014282, -0.17633230984210968, -0.16762953996658325], [-0.21899355947971344, -0.1543877273797989, -0.22603967785835266], [-0.02815144881606102, -0.060004912316799164, -0.08623296022415161]], [[-0.04019053280353546, -0.08401267975568771, -0.026577549055218697], [-0.027505680918693542, -0.04479790851473808, -0.004052026197314262], [-0.07440336793661118, -0.04687807708978653, -0.04937024787068367]], [[-0.04050557687878609, -0.18195855617523193, -0.08745964616537094], [0.005221286788582802, -0.029666302725672722, -0.035183511674404144], [0.06082417443394661, -0.02478793077170849, -0.03435012325644493]], [[-0.15487538278102875, -0.18134039640426636, -0.10443013161420822], [-0.21764934062957764, -0.30879461765289307, -0.2346234768629074], [-0.1667625457048416, -0.14827272295951843, -0.17911171913146973]], [[-0.047812387347221375, -0.08691848814487457, 0.025285564363002777], [-0.02738647721707821, -0.11642710119485855, -0.09985404461622238], [-0.16532692313194275, -0.12827712297439575, -0.20171603560447693]], [[-0.02380957640707493, -0.11029871553182602, -0.18612664937973022], [-0.11210057139396667, -0.2412617802619934, -0.20341812074184418], [-0.16339409351348877, -0.2648109495639801, -0.22389401495456696]], [[-0.004495417699217796, -0.08789335936307907, -0.06376183032989502], [-0.04900910332798958, -0.22047485411167145, -0.15268629789352417], [0.04791296273469925, -0.11019321531057358, -0.04571537673473358]], [[-0.0038036475889384747, -0.15053628385066986, -0.043792616575956345], [-0.04477204754948616, -0.1018529087305069, 0.003956163767725229], [-0.13485439121723175, -0.1520160585641861, -0.1627594381570816]], [[-0.04927727207541466, -0.1347249448299408, -0.10839703679084778], [-0.20046724379062653, -0.1719297170639038, -0.18879404664039612], [-0.07218486815690994, -0.05684630945324898, -0.06712538748979568]], [[-0.14576461911201477, -0.23012009263038635, -0.10905391722917557], [-0.11319904029369354, -0.1828380525112152, -0.08414916694164276], [-0.18597178161144257, -0.18936856091022491, -0.18952542543411255]], [[-0.09052928537130356, -0.1522582322359085, -0.1922600269317627], [-0.03201545029878616, -0.04916637763381004, -0.17293709516525269], [-0.018228961154818535, -0.11998333781957626, -0.07149254530668259]], [[-0.17514076828956604, -0.1765265017747879, -0.06640643626451492], [-0.26307904720306396, -0.312552273273468, -0.17862598598003387], [-0.10336366295814514, -0.046924956142902374, -0.0019697698298841715]], [[-0.0761091560125351, -0.1706390380859375, -0.022152911871671677], [-0.04046216607093811, -0.1644362211227417, -0.051301948726177216], [-0.0865950807929039, -0.139056995511055, -0.2078179121017456]], [[-0.22034355998039246, -0.19553732872009277, -0.18983545899391174], [-0.11063095182180405, -0.24091173708438873, -0.04750312864780426], [-0.00799464713782072, -0.11059045046567917, 0.0684807300567627]], [[-0.04866834357380867, -0.1252003163099289, -0.07550080120563507], [-0.0946129709482193, -0.10612500458955765, 0.05264619365334511], [-0.11417672038078308, -0.00015801672998350114, -0.07443363964557648]], [[-0.2079763114452362, -0.30121979117393494, -0.19823700189590454], [-0.12330389767885208, -0.2738969326019287, -0.07671818882226944], [-0.20595788955688477, -0.0962895005941391, -0.18044745922088623]], [[-0.13327188789844513, -0.18121376633644104, -0.1044691801071167], [-0.14769648015499115, -0.24664388597011566, -0.066840760409832], [-0.10791373997926712, -0.04422925412654877, -0.0421939454972744]], [[-0.2085360437631607, -0.31490659713745117, -0.23080319166183472], [-0.15490314364433289, -0.19755244255065918, -0.0689205527305603], [-0.1926800161600113, -0.16413614153862, 0.012324707582592964]], [[-0.06956302374601364, -0.16782082617282867, -0.1412297487258911], [-0.027509411796927452, -0.060595154762268066, -0.07045655697584152], [-0.10939835757017136, -0.07178211957216263, -0.0052221184596419334]], [[-0.07636727392673492, -0.020012972876429558, -0.015856824815273285], [-0.023262444883584976, -0.0123740890994668, -0.039133261889219284], [0.004438066389411688, 0.03623688220977783, 0.04114658385515213]], [[-0.0654802918434143, -0.10090533643960953, -0.005714192986488342], [-0.10010702908039093, -0.07978226989507675, -0.0008257582085207105], [-0.1798005849123001, -0.11918135732412338, -0.15686212480068207]], [[-0.3259580731391907, -0.4042970538139343, -0.10469788312911987], [-0.32490646839141846, -0.3930647373199463, -0.23661166429519653], [-0.08209234476089478, -0.19963940978050232, -0.01724626123905182]], [[-0.05282518267631531, -0.1393122375011444, -0.03128065541386604], [-0.07366879284381866, -0.14376267790794373, -0.012967090122401714], [-0.19863955676555634, -0.14997299015522003, -0.20939306914806366]]], [[[0.3593941628932953, 0.23324868083000183, 0.7233503460884094], [0.1520136147737503, 0.42477986216545105, 0.47315287590026855], [-0.6111964583396912, -0.32760998606681824, -0.7642921209335327]], [[0.35919591784477234, -0.05230514705181122, 0.9527044296264648], [0.18969088792800903, 0.2293274700641632, 0.8266087770462036], [-0.6828426718711853, -0.5625864863395691, -0.8545284867286682]], [[-0.007826847955584526, -1.151505708694458, 0.7154158353805542], [-0.34560972452163696, -0.9964590072631836, 0.9894452691078186], [1.0798542499542236, 0.6044377684593201, 0.7672106623649597]], [[0.28815528750419617, -0.3005421757698059, 0.5158856511116028], [-0.2215898036956787, -0.7527925968170166, 0.1769331693649292], [-0.09698301553726196, -0.13286860287189484, 0.20004960894584656]], [[0.861702024936676, 0.5966135859489441, 0.37091320753097534], [0.05946207046508789, -0.5976747870445251, -0.9198349714279175], [0.372844934463501, -0.882525622844696, -0.9925752878189087]], [[-0.018582910299301147, -0.9078317284584045, 0.11177238821983337], [-0.2736780643463135, -0.6719397902488708, 0.4625473916530609], [0.6846561431884766, 0.7247205376625061, 0.5021787285804749]], [[0.1279846727848053, 0.10407859832048416, 0.5416293740272522], [1.1590076684951782, 0.9836971759796143, 1.0814448595046997], [-1.1347298622131348, -1.7275457382202148, -1.6706457138061523]], [[-0.23188868165016174, 0.35569554567337036, -0.387748658657074], [0.14454999566078186, -0.20991995930671692, 0.13343848288059235], [0.3442858159542084, -0.7649827003479004, 1.612693190574646]], [[0.906817615032196, 0.9871870279312134, 0.9105067253112793], [-0.14709708094596863, -0.6509090662002563, -0.8467580676078796], [0.35465577244758606, -0.8752411603927612, -1.2261825799942017]], [[-0.2969575524330139, 0.6207040548324585, -0.447993665933609], [0.2644541561603546, 0.05716787651181221, -0.041413430124521255], [0.6915608048439026, -0.3232584297657013, 1.6313014030456543]], [[0.5605370998382568, -0.4219946563243866, -1.1168105602264404], [0.7455388307571411, -0.5385598540306091, 0.009734776802361012], [0.4068598449230194, -0.8405068516731262, 0.06294775754213333]], [[0.19017809629440308, -0.3265625834465027, -0.39768117666244507], [0.8996644616127014, 0.4197634756565094, 0.45615002512931824], [0.1801290512084961, -0.8889053463935852, -0.9303951263427734]], [[0.015175404027104378, -0.6250602602958679, -0.8080235123634338], [0.16239173710346222, -0.6032347083091736, 0.008164695464074612], [0.4623956084251404, 0.29444751143455505, 1.1877139806747437]], [[0.9491493105888367, 0.006869593169540167, -0.24953877925872803], [1.0672565698623657, -0.2680076062679291, -0.6567674875259399], [0.8496059775352478, -0.6455250382423401, -1.1106356382369995]], [[0.24302908778190613, -0.6895821690559387, 0.893000602722168], [-0.3037378489971161, -0.847846508026123, 1.067105770111084], [0.7588570713996887, 0.23278726637363434, 0.13572077453136444]], [[-0.0012259272625669837, -0.7655917406082153, -0.20176169276237488], [-0.09164279699325562, -0.7979626655578613, 0.0854206532239914], [0.44543835520744324, 0.42884159088134766, 0.8617498874664307]], [[0.6071666479110718, 0.73899245262146, 1.1266239881515503], [0.084003746509552, 0.3255285322666168, 0.6876553297042847], [-0.23779329657554626, -0.4260554015636444, -0.3206709027290344]], [[-0.1892874538898468, -0.0349249467253685, 0.2055721879005432], [0.2188216596841812, 0.3275075852870941, 0.31708064675331116], [-0.6335033774375916, -0.9964534044265747, -0.9619970321655273]], [[0.5595703721046448, -0.6452945470809937, 1.126175880432129], [-0.5683191418647766, -0.9879074096679688, 0.8660857677459717], [-0.0472550168633461, 0.20675452053546906, -0.1704830378293991]], [[0.26508310437202454, -0.5815011858940125, -0.211797833442688], [0.45305386185646057, -0.10115332156419754, -0.04954459145665169], [1.324813961982727, 0.29044607281684875, -0.42981499433517456]], [[1.4166409969329834, 1.2313414812088013, 1.3073726892471313], [-0.015450114384293556, -0.7164697647094727, -1.1441540718078613], [0.3311153054237366, -0.803897500038147, -1.433889627456665]], [[0.7354233264923096, 0.8104168772697449, 1.0883281230926514], [-0.06955786049365997, -0.0764552429318428, -0.19135302305221558], [0.0046503678895533085, -0.9321990013122559, -1.1839591264724731]], [[0.6121341586112976, 0.312206506729126, 0.6318859457969666], [0.4910251796245575, -0.04904672130942345, 0.06299108266830444], [-0.38036373257637024, -0.3911307454109192, -0.12811046838760376]], [[0.19122706353664398, -0.024015842005610466, 0.19176802039146423], [0.12407425045967102, 0.08604565262794495, 0.3438724875450134], [0.5407818555831909, 0.6959460973739624, 0.12884987890720367]], [[0.6384130120277405, -0.5270295143127441, 0.8889783024787903], [-0.430623322725296, -0.8949689269065857, 1.1387145519256592], [-0.12289108335971832, -0.1506049484014511, -0.07948116958141327]], [[1.035260558128357, 0.575577974319458, 0.7810777425765991], [1.323318600654602, 0.4437251389026642, 0.22592513263225555], [0.21401073038578033, -0.185367152094841, -0.15269996225833893]], [[-0.019832540303468704, -0.8489705920219421, -0.465660959482193], [-0.0729253813624382, -0.7130074501037598, 0.06499601155519485], [0.4473781883716583, 0.40958136320114136, 0.8840826153755188]], [[0.32951509952545166, 0.3319961726665497, 0.6432385444641113], [0.35487043857574463, -0.25151559710502625, 0.11204375326633453], [0.1487080454826355, -0.6992785334587097, 0.32307931780815125]], [[0.5102000832557678, -0.3790060877799988, 0.3061428666114807], [0.9038102030754089, -0.1723206490278244, 0.2757932245731354], [0.6056461334228516, -0.7819792628288269, -0.9929223656654358]], [[-0.011814271099865437, -0.7780997157096863, -0.7889859080314636], [0.11411352455615997, -0.5513601303100586, 0.023512177169322968], [0.43546003103256226, 0.34866419434547424, 1.1389636993408203]], [[0.4134413003921509, 0.3176138997077942, 0.6171145439147949], [0.5713198184967041, 0.21118080615997314, 0.39457544684410095], [0.005014515481889248, -0.2967502474784851, -0.1271035075187683]], [[0.047882452607154846, -0.5187870264053345, 0.09045310318470001], [-0.15739168226718903, -0.7643024921417236, -0.06200605258345604], [0.37367868423461914, 0.30616769194602966, 0.6868642568588257]], [[0.6308146119117737, -0.15899568796157837, 1.14432954788208], [-0.1915394514799118, -0.6097679138183594, 0.11105078458786011], [-0.16076737642288208, 0.17509882152080536, -0.2915993928909302]], [[-0.5757240653038025, 0.042519088834524155, -0.3637203574180603], [-0.1398768424987793, -0.33036407828330994, 0.27817752957344055], [0.09856496006250381, -0.4921301305294037, 1.3809534311294556]], [[0.14893457293510437, -0.5861748456954956, -0.4417642652988434], [0.09701373428106308, -0.5686917304992676, -0.07551708072423935], [0.42965778708457947, 0.23149974644184113, 0.5921770334243774]], [[1.1483906507492065, -0.4525536000728607, -0.15630829334259033], [0.8557984232902527, -1.3003863096237183, -1.0500612258911133], [0.7320360541343689, -1.0282829999923706, -1.046950101852417]], [[0.20685726404190063, -0.3996898829936981, -0.7357127070426941], [0.9058901071548462, 0.4544624090194702, -0.5315575003623962], [0.6276451945304871, 0.33863627910614014, -0.8323793411254883]], [[-0.1466786116361618, 0.5949214100837708, -0.08984652161598206], [0.48995357751846313, -0.023420697078108788, 