weights['TFJS'] = {
"conv0.weight": [[[[0.4306700527667999, 0.07132832705974579, -0.262469083070755], [-0.4923243224620819, -0.5298047661781311, 0.6493140459060669], [-0.0095841558650136, 0.5229604840278625, 0.01355728693306446]]], [[[0.05832774192094803, -0.26638978719711304, -0.24522769451141357], [-0.7648544907569885, -0.6050593852996826, -0.03888238966464996], [0.13554097712039948, 0.6829057931900024, 0.802297830581665]]], [[[-0.3522547781467438, -0.4932726323604584, 0.06848450005054474], [0.13075041770935059, -0.15319818258285522, 0.6115787029266357], [0.04656975343823433, 0.17170350253582, 0.6746315956115723]]], [[[0.043624356389045715, -0.05044558644294739, 0.11082611978054047], [-0.013635378330945969, 0.19539478421211243, -0.09754529595375061], [0.04381674528121948, -0.13421839475631714, 0.001495641190558672]]], [[[-0.0815863311290741, 0.5039783716201782, 0.5336253046989441], [0.29170501232147217, 0.17981228232383728, 0.02960832230746746], [-0.0597282350063324, -0.7014370560646057, -0.6069899797439575]]], [[[-0.871880054473877, 0.06791629642248154, 0.672748863697052], [-0.8071428537368774, -0.06117388233542442, 0.7744329571723938], [-0.1363869607448578, 0.04826073721051216, 0.2826344072818756]]], [[[0.3425394892692566, 0.27307817339897156, 0.42072683572769165], [-0.8834563493728638, -0.6872763633728027, -0.4649660885334015], [0.4682045578956604, 0.4424988627433777, 0.14363907277584076]]], [[[0.4212632477283478, 0.12815406918525696, -0.5566031336784363], [0.5618796348571777, 0.05137557163834572, -0.6129615902900696], [0.8855872750282288, -0.10734289139509201, -0.7049667239189148]]], [[[0.19704805314540863, 0.6364268660545349, 0.08742213994264603], [0.6508767008781433, 0.404954195022583, -0.6055474877357483], [0.09398607164621353, -0.35206088423728943, -0.6672775745391846]]], [[[0.34926000237464905, 0.4740488827228546, -0.559947669506073], [0.2880959212779999, 0.2936802804470062, -0.4581013023853302], [0.07381252944469452, 0.32913699746131897, -0.6163563132286072]]], [[[-0.1621137261390686, 0.039189886301755905, 0.5762448310852051], [0.06224696710705757, -0.7708998918533325, -0.33109572529792786], [0.577504575252533, 0.31582462787628174, -0.3461003601551056]]], [[[-0.011341409757733345, 0.4856663644313812, 0.5858285427093506], [-0.27306777238845825, -0.009717184118926525, 0.03050709329545498], [-0.2619049549102783, -0.5181618332862854, -0.4280591607093811]]], [[[0.062002792954444885, -0.40544071793556213, 0.09555341303348541], [0.5038522481918335, -0.9031796455383301, 0.7457187175750732], [0.46496036648750305, -0.8805392384529114, 0.4312730133533478]]], [[[0.170413538813591, 0.18441987037658691, -0.08009056746959686], [0.3724737763404846, 0.24991056323051453, -0.3488733768463135], [0.07737763226032257, -0.4040199816226959, -0.6313072443008423]]], [[[0.2701869010925293, -0.20219716429710388, 0.07620372623205185], [-0.31265711784362793, -0.4592810273170471, 0.27332672476768494], [-0.3129412829875946, 0.08748572319746017, 0.3958510756492615]]], [[[-0.5123417973518372, -0.20434631407260895, 0.22550749778747559], [-0.38355255126953125, 0.5413253307342529, 0.4106753468513489], [0.27452683448791504, 0.39360854029655457, -0.7735353708267212]]], [[[0.08993945270776749, 0.11137932538986206, 0.551937460899353], [-0.03131336346268654, 0.0020504549611359835, 0.10509233921766281], [-0.6257030963897705, -0.5663160085678101, -0.10172095149755478]]], [[[0.27467426657676697, 0.4101175367832184, -0.22584013640880585], [0.25376084446907043, -0.4287092387676239, -0.4060210585594177], [-0.13140492141246796, -0.16359420120716095, 0.20794814825057983]]], [[[-0.5569524765014648, -0.4388425052165985, -0.07865576446056366], [-0.311092734336853, -0.10399410873651505, 0.31138908863067627], [-0.20730626583099365, 0.23130260407924652, 0.5998103618621826]]], [[[-0.34613677859306335, 0.7497737407684326, -0.04565586522221565], [-0.7522265315055847, 0.7625533938407898, -0.08027855306863785], [-0.7218560576438904, 0.7238110303878784, -0.22793303430080414]]], [[[0.17443735897541046, 0.0760737955570221, 0.1675879806280136], [0.41574934124946594, 0.5948102474212646, 0.48128741979599], [-0.3320564329624176, -0.6059150099754333, -0.6941438317298889]]], [[[0.6760721802711487, 0.6995376944541931, 0.5377488136291504], [-0.24723052978515625, -0.16778725385665894, -0.24043519794940948], [-0.23032371699810028, -0.5029805898666382, -0.03377240151166916]]], [[[-0.46741798520088196, 0.00031918802415020764, 0.475185364484787], [1.1789312362670898, -0.4898765981197357, -0.5526772737503052], [-0.57139652967453, 0.4981744587421417, 0.07574549317359924]]], [[[0.135197713971138, 0.08339417725801468, 0.012789125554263592], [-0.00032820287742652, -0.05814826115965843, 0.01707279309630394], [-0.10428787767887115, -0.043327026069164276, -0.09253662824630737]]], [[[-0.5280358195304871, -0.1810743361711502, 0.6917877197265625], [-0.3967007100582123, -0.031026067212224007, 0.43259397149086], [0.9782963991165161, 0.140351340174675, -1.0428699254989624]]], [[[-0.3454136550426483, -0.8087401390075684, -0.6910656094551086], [-0.11508406698703766, 0.014752736315131187, -0.15275831520557404], [0.5801439881324768, 0.7804071307182312, 0.7467144727706909]]], [[[0.5234704613685608, -0.6397151947021484, 0.41172710061073303], [-0.28236737847328186, 0.11590500175952911, 0.5982581377029419], [0.2440909594297409, 1.0324015617370605, -0.6839754581451416]]], [[[0.4766613245010376, 0.44697296619415283, -0.5567629933357239], [0.4451456367969513, -0.6481539607048035, -0.12709547579288483], [-0.38469380140304565, -0.23329667747020721, 0.7771926522254944]]], [[[0.41790905594825745, 0.005341425072401762, 0.013422531075775623], [0.16410820186138153, -0.125635027885437, 0.2096625417470932], [-0.14067043364048004, -0.4470253884792328, -0.44587957859039307]]], [[[-0.14029188454151154, 0.37899091839790344, 0.4758148193359375], [-0.09045077860355377, -0.3327871859073639, -0.3310546576976776], [-0.060653217136859894, 0.3347831964492798, -0.03674369305372238]]], [[[-0.23298272490501404, -0.6492873430252075, -0.46369439363479614], [0.3639749586582184, -0.2911624014377594, -0.6248548626899719], [0.7927669286727905, 0.19338205456733704, 0.11158101260662079]]], [[[0.5275542140007019, 0.02652468904852867, -0.4995895028114319], [-0.7930775284767151, 0.6326819062232971, 0.6040106415748596], [0.6383253335952759, -0.3652488589286804, 0.12508761882781982]]], [[[0.6071979999542236, 0.28653907775878906, -0.8507676720619202], [0.1423110067844391, 0.1810287982225418, -0.2238653153181076], [-0.7302553653717041, -0.383463054895401, 1.0923502445220947]]], [[[-0.24057728052139282, 0.05804877728223801, 0.4724569022655487], [-0.058805130422115326, -0.668996274471283, -0.03793620318174362], [0.5551798939704895, -0.025596532970666885, -0.20388245582580566]]], [[[0.2509852647781372, 0.4841175675392151, 0.3196546733379364], [-0.7547445297241211, -0.9251341223716736, -0.7251477837562561], [0.48176655173301697, 0.480315625667572, 0.40844497084617615]]], [[[0.5759603977203369, -0.45092275738716125, -0.10650667548179626], [0.6876020431518555, -0.39572787284851074, -0.17096292972564697], [0.49916625022888184, -0.4876813292503357, -0.04180628061294556]]], [[[0.6477435827255249, 0.5898768305778503, 0.09844803065061569], [0.1257677674293518, 0.11913099139928818, -0.26165273785591125], [-0.585551381111145, -0.6872434616088867, 0.07903897762298584]]], [[[-0.12145505845546722, -0.5866816639900208, -0.20063605904579163], [0.5236284732818604, 0.8376849889755249, 0.8534932732582092], [-0.23001804947853088, -0.5249994397163391, -0.28580179810523987]]], [[[0.2652234733104706, 0.0336461178958416, -0.9168550372123718], [0.3989570736885071, 0.8046049475669861, -0.03506181761622429], [-0.7573797702789307, 0.38037195801734924, 0.025901872664690018]]], [[[0.4175664186477661, -0.31230640411376953, -0.029802074655890465], [0.45884814858436584, -0.1865769773721695, -0.29432928562164307], [0.4329926371574402, -0.36680033802986145, -0.018790118396282196]]], [[[-0.4872409999370575, -0.49320295453071594, -0.4081061780452728], [0.6388219594955444, 1.0541656017303467, 1.0050429105758667], [-0.23235276341438293, -0.5432143807411194, -0.5907918214797974]]], [[[0.308030366897583, 0.10007066279649734, 0.19670920073986053], [-0.5894399285316467, -0.515252947807312, -0.31152230501174927], [-0.14545604586601257, 0.5054208636283875, 0.7058079838752747]]], [[[0.32369714975357056, 0.4578615427017212, 0.542674720287323], [-0.13182565569877625, 0.05513804405927658, 0.2169172465801239], [-0.27587130665779114, -0.19399699568748474, -0.29055556654930115]]], [[[0.2801666259765625, 0.010793045163154602, -0.1964084655046463], [0.47713539004325867, 0.10380976647138596, -0.5535996556282043], [-0.6377124786376953, -0.11609388142824173, 0.7409548163414001]]], [[[0.7482149600982666, -0.37333616614341736, -0.8227120637893677], [0.34375402331352234, 0.6717691421508789, -0.2977764904499054], [-0.9411925673484802, 0.410388320684433, 0.3646276295185089]]]],
"bn1.running_mean": [1.340883493423462, 0.18174989521503448, 0.309268593788147, 5.605193857299268e-45, 0.6058500409126282, 1.6750106811523438, 0.18898500502109528, 5.605193857299268e-45, 5.605193857299268e-45, 1.0412068367004395, 2.894791841506958, 0.09747884422540665, 16.13482666015625, 3.7992093563079834, 0.3908925950527191, 1.546555757522583, 1.0033891201019287, 5.441483497619629, 1.133977894224314e-11, 0.8521548509597778, 0.5281573534011841, 0.14923550188541412, 0.9374601244926453, 0.3379778563976288, 0.6876370310783386, 5.605193857299268e-45, 0.6341757774353027, 0.0969901829957962, 0.295673668384552, 0.019094742834568024, 1.625823736190796, 1.521140456199646, 5.605193857299268e-45, 0.05871928110718727, 16.3754940032959, 0.5589947700500488, 0.5209595561027527, 0.4066181480884552, 0.3649374544620514, 5.605193857299268e-45, 0.5912176370620728, 5.605193857299268e-45, 5.605193857299268e-45, 0.33881404995918274, 0.678290069103241],
"bn1.running_var": [9.325448036193848, 0.897490918636322, 2.8960397243499756, 5.605193857299268e-45, 2.563117504119873, 10.55215835571289, 0.740948498249054, 5.605193857299268e-45, 5.605193857299268e-45, 7.347986221313477, 14.16176700592041, 0.4833427965641022, 46.06120300292969, 29.82924461364746, 2.9040496349334717, 8.877199172973633, 5.992144584655762, 26.230989456176758, 2.80871593344445e-11, 6.330726623535156, 3.6644906997680664, 0.6185253858566284, 5.189197063446045, 1.8971734046936035, 6.138974189758301, 5.605193857299268e-45, 4.651515483856201, 0.5246652364730835, 1.8517171144485474, 0.06016524136066437, 13.19169807434082, 10.620474815368652, 5.605193857299268e-45, 0.2676231861114502, 74.6407470703125, 3.5035295486450195, 2.83642315864563, 3.565361261367798, 3.403024435043335, 5.605193857299268e-45, 3.899199962615967, 5.605193857299268e-45, 5.605193857299268e-45, 3.3606226444244385, 3.526569366455078],
"bn1.num_batches_tracked": 67046,
"conv1.weight": [[[[-0.6463338136672974, -0.11499166488647461, -0.30732494592666626], [0.5853644609451294, 0.5841773152351379, -0.6173340678215027], [0.602541983127594, 0.203575998544693, -0.34890538454055786]], [[-0.09741578996181488, 0.24473829567432404, 0.03197663649916649], [0.04378574341535568, 0.187896266579628, -0.27856138348579407], [-0.1302032172679901, -0.2676749527454376, 0.22287066280841827]], [[-0.712327778339386, -0.17434602975845337, -0.2678728401660919], [-0.027901586145162582, 0.37228497862815857, -0.17357848584651947], [-0.136495441198349, -0.30713707208633423, 0.17521651089191437]], [[0.4113292098045349, 0.4341631829738617, -0.43725842237472534], [0.5732617974281311, 0.37484750151634216, -0.47361189126968384], [0.08041461557149887, -0.3008061349391937, -0.9270097017288208]], [[-0.18590210378170013, 0.1741333156824112, 0.26960116624832153], [-0.13863563537597656, -0.646180272102356, -0.5408349633216858], [0.17402592301368713, -0.8991760015487671, -0.31977006793022156]], [[0.25405022501945496, 0.6039667725563049, 0.04537239670753479], [0.5117221474647522, 0.7237448692321777, -0.7656006813049316], [0.47116824984550476, 0.4927647113800049, -0.40322422981262207]], [[-0.34521955251693726, 0.25661125779151917, -0.07954398542642593], [0.08334298431873322, 0.290449857711792, -0.08264239132404327], [0.22367998957633972, -0.17506153881549835, -0.6609091758728027]], [[0.8743212819099426, 0.25721248984336853, 0.11342653632164001], [0.991537868976593, 0.585303783416748, -0.10874617844820023], [0.8484232425689697, 0.327542781829834, -0.5124140381813049]], [[-0.5183504223823547, 0.022095032036304474, 0.37755340337753296], [0.04132893681526184, -0.22201719880104065, 0.013166803866624832], [0.4235581159591675, -0.49046435952186584, 0.2906983494758606]], [[0.16333605349063873, -0.20954295992851257, -0.05273396521806717], [0.7251750826835632, 0.1337117999792099, 0.23704774677753448], [0.40547996759414673, -0.19469694793224335, -0.11169157922267914]], [[-0.12621687352657318, -0.267326682806015, -0.523883044719696], [0.4446835517883301, 0.03857197239995003, -0.11284150183200836], [0.9135242700576782, -0.16418176889419556, -0.3897397220134735]], [[0.14331798255443573, 0.2778974771499634, -0.22795653343200684], [0.39323264360427856, 0.11768884211778641, -0.08761533349752426], [-0.132609561085701, -0.6184293627738953, -0.6872824430465698]], [[-0.7162594795227051, 0.12402650713920593, -0.8808106184005737], [0.3323592245578766, 0.7335718870162964, -0.9757301211357117], [0.6030905246734619, 0.3424719274044037, -0.42307835817337036]], [[0.2059045135974884, 0.04124858230352402, -0.2738897502422333], [0.5674960017204285, 0.3388270437717438, -0.040083058178424835], [-0.11552922427654266, -0.4100152850151062, -0.5124454498291016]], [[0.10005155950784683, 0.47348552942276, -0.25098854303359985], [0.12354809045791626, 0.8105947971343994, -0.46563097834587097], [-0.1075739935040474, 0.050651032477617264, 0.03447002172470093]], [[0.058186158537864685, 0.18052273988723755, -0.12654687464237213], [0.30214211344718933, 0.3483217656612396, -0.39577049016952515], [-0.179911807179451, -0.34766286611557007, -0.6204913258552551]], [[0.16766269505023956, 0.31005212664604187, -0.2650091052055359], [0.3465612828731537, 0.31341809034347534, -0.12462752312421799], [-0.16697058081626892, -0.2951260805130005, -0.5221875905990601]], [[0.08575288951396942, -0.051897309720516205, -0.4723074436187744], [0.4387475550174713, 0.330940306186676, -0.22188261151313782], [-0.09783954918384552, -0.37660080194473267, -0.74703049659729]], [[0.20001599192619324, 0.4750191271305084, -0.06432072073221207], [0.16721323132514954, 0.6603772640228271, -0.22855298221111298], [-0.22772397100925446, -0.1586233377456665, -0.49024200439453125]], [[-0.4078265428543091, -0.0675605833530426, -0.6471490859985352], [0.3167515993118286, 0.1444336324930191, -0.9176417589187622], [0.4939117133617401, 0.08693891018629074, -0.5289134383201599]], [[-0.440766841173172, 0.23590044677257538, 0.5885282158851624], [0.16592971980571747, -0.41717833280563354, -0.5722435712814331], [0.3333754241466522, -0.43126794695854187, 0.31468409299850464]], [[-0.7750060558319092, -0.3695068359375, 0.0521186962723732], [-0.42190250754356384, -0.48783421516418457, -0.28166353702545166], [0.26912054419517517, -0.5817533135414124, -0.5590388178825378]], [[-0.21248215436935425, 0.3186008036136627, -0.706075131893158], [1.25066077709198, 1.117615818977356, -1.6220602989196777], [1.8721412420272827, 0.7773841023445129, -1.5881695747375488]], [[-0.320544958114624, -0.28248074650764465, -0.27972421050071716], [0.15603265166282654, 0.13544724881649017, -0.12671591341495514], [0.4663165807723999, 0.007824989967048168, -0.22191576659679413]], [[0.830696165561676, 0.6481508016586304, -0.8932440280914307], [0.8486965298652649, 0.5232577919960022, -2.049015522003174], [0.7538507580757141, -0.021994609385728836, -1.8385372161865234]], [[0.028038423508405685, -0.27544328570365906, -0.02170020341873169], [-0.1966341882944107, -0.3968474864959717, -0.3997410833835602], [-0.3054265081882477, -0.9962572455406189, -0.34678080677986145]], [[0.37324026226997375, 0.299047589302063, -0.9390567541122437], [1.7204395532608032, 0.8828415274620056, -1.9606144428253174], [1.9528465270996094, 0.792052149772644, -1.247065782546997]], [[0.22686338424682617, -0.16661901772022247, -0.6648907661437988], [0.7674959301948547, 0.6567515134811401, -0.9780229926109314], [0.7319665551185608, -0.03867822885513306, -0.4917465150356293]], [[-0.13583995401859283, 0.10508815199136734, -0.3261353373527527], [0.21418899297714233, 0.24485589563846588, -0.20494727790355682], [-0.21059727668762207, -0.5442594885826111, -0.6646250486373901]], [[-0.6088395714759827, 0.38777074217796326, -0.012360502034425735], [0.010707644745707512, 0.14723248779773712, 0.15918941795825958], [0.32971692085266113, -0.14763981103897095, -0.18840593099594116]], [[0.42207831144332886, 0.20922577381134033, 0.09988386183977127], [0.10412189364433289, 0.11316090077161789, 0.04877816513180733], [-0.27824273705482483, -0.25260066986083984, -0.5625501275062561]], [[-0.8928372859954834, 0.1535019725561142, -0.3025715947151184], [0.7685288190841675, 0.9712212681770325, -1.2538813352584839], [1.6038439273834229, 0.6172040104866028, -0.8422049283981323]], [[0.6351986527442932, 0.3729977011680603, -0.6294729113578796], [1.0740854740142822, 0.33065202832221985, -1.7864140272140503], [1.1457618474960327, -0.23152731359004974, -1.122517466545105]], [[0.19811680912971497, 0.18787874281406403, -0.44671326875686646], [0.3163239359855652, 0.21168649196624756, -0.31399837136268616], [0.2329147607088089, -0.14864549040794373, -0.5778397917747498]], [[-0.6289036870002747, 0.2278633564710617, 0.15576918423175812], [0.23559698462486267, 0.2704606056213379, 0.20382070541381836], [0.3088376820087433, -0.44925612211227417, -0.4815286695957184]], [[0.5390622615814209, -0.41223084926605225, -0.6853505969047546], [0.7986026406288147, 0.08047548681497574, -0.9456007480621338], [0.8172144889831543, 0.024881239980459213, -0.8676427602767944]], [[-0.22751685976982117, -0.0412658154964447, 0.2917586863040924], [-0.18640412390232086, -0.44604045152664185, -0.5699636340141296], [0.2611037790775299, -0.6957438588142395, -0.48923176527023315]], [[-0.9646295309066772, -0.010059819556772709, 0.17366404831409454], [0.1752987802028656, 0.30691245198249817, -0.08468049764633179], [0.2278658151626587, -0.31840330362319946, 0.0672139972448349]], [[-0.46812155842781067, -0.15944762527942657, 0.07456212490797043], [0.05736256390810013, 0.08716269582509995, 0.18028204143047333], [0.3559388518333435, -0.32754963636398315, -0.16506287455558777]], [[0.6547731161117554, -0.21205435693264008, -0.6163960099220276], [0.6994113326072693, 0.24187661707401276, -0.255092978477478], [0.5737684965133667, -0.021387483924627304, -0.647806704044342]], [[-0.4410589635372162, 0.21691679954528809, 0.5111532807350159], [0.4620167911052704, 0.5402052998542786, 0.17507623136043549], [0.2093631625175476, -0.4112551808357239, -0.0861893966794014]], [[-0.11700132489204407, 0.47507596015930176, -0.01027638465166092], [-0.11607140302658081, 0.2803509533405304, -0.5476198196411133], [-0.16154201328754425, -0.10284196585416794, -0.1059732511639595]], [[-0.3148620128631592, -0.35412707924842834, -0.24669042229652405], [-0.2618262767791748, -0.48197200894355774, -0.627587616443634], [0.2994856536388397, -0.05700870230793953, -0.06691044569015503]], [[0.10577400773763657, 0.09510275721549988, -0.6359217166900635], [0.7304818034172058, 0.5533183217048645, -1.0857967138290405], [0.9172669053077698, 0.342225044965744, -0.23365622758865356]], [[-0.05745087191462517, 0.31017377972602844, -0.27541184425354004], [0.5958216786384583, 0.7571226954460144, -0.5067665576934814], [0.7486606240272522, 0.4095171093940735, -0.5637791156768799]]], [[[-0.3692724406719208, -0.35853227972984314, -0.2647816836833954], [0.4529745876789093, -0.2474602460861206, -0.5247145891189575], [0.13524118065834045, 0.2530393600463867, -0.41994473338127136]], [[0.07894259691238403, 0.4536093771457672, -0.024320781230926514], [0.49536681175231934, 0.5103029012680054, -0.6689229607582092], [0.37429869174957275, 0.6377528309822083, -0.04808986186981201]], [[-0.45776641368865967, 0.20391441881656647, -0.004266409203410149], [0.1820177137851715, 0.01065849233418703, -0.06574853509664536], [0.33134642243385315, 0.023956315591931343, -0.5428928732872009]], [[0.2786732316017151, 0.46602654457092285, 0.04476240649819374], [0.06634000688791275, 0.028559383004903793, 0.0478813573718071], [-0.420511931180954, -0.31810635328292847, 0.3417503237724304]], [[-0.3674173355102539, -0.5095343589782715, -0.2658065855503082], [-1.000077486038208, -1.704777717590332, -1.0640093088150024], [-0.6959482431411743, -0.9492595791816711, -0.90520179271698]], [[-0.2437809854745865, 0.15901248157024384, -0.16495878994464874], [0.576798141002655, 0.3875579833984375, 0.756503164768219], [0.2774345278739929, -0.1263500452041626, -0.01200852356851101]], [[-0.4171127378940582, -0.4600207805633545, -0.3911621868610382], [-0.045941080898046494, -0.540573239326477, -0.5194544196128845], [-0.31813547015190125, -0.06833062320947647, 0.015533584170043468]], [[0.5830528736114502, 0.30909454822540283, -0.06577349454164505], [0.5116316080093384, 0.6616494059562683, 0.5855066180229187], [0.20134380459785461, 0.18456023931503296, 0.2800075113773346]], [[-0.24975700676441193, -1.0786330699920654, -0.7119457721710205], [-0.9194465279579163, -1.2127701044082642, -1.2945613861083984], [-0.28060081601142883, -0.5871812105178833, -0.5360038876533508]], [[0.3776039779186249, -0.4764057993888855, -0.483302503824234], [0.009858117438852787, 0.270912230014801, 0.27145177125930786], [-0.06137172505259514, -0.001246840925887227, 0.24209530651569366]], [[-0.44080066680908203, -0.31255006790161133, -0.48095500469207764], [0.1476045846939087, 0.2681460976600647, 0.1701265573501587], [0.4055256247520447, 0.4428930878639221, 0.21379925310611725]], [[0.3628428876399994, 0.0798923522233963, -0.27707260847091675], [-0.06676236540079117, -0.8455383777618408, -0.3714246153831482], [-0.7489925622940063, -1.4960354566574097, -1.1061949729919434]], [[-0.6336127519607544, 0.5315557718276978, -0.07750006020069122], [-0.3246857821941376, 0.3899053931236267, -0.09430889785289764], [0.3046691119670868, -0.21851523220539093, -0.2628839910030365]], [[0.39374932646751404, -0.05043529346585274, -0.27872219681739807], [0.03188612312078476, -0.47784721851348877, 0.34065309166908264], [-0.32477763295173645, -0.4906529188156128, 0.4398972988128662]], [[-0.20877908170223236, 0.37951359152793884, -0.06352229416370392], [-0.15225034952163696, -0.08636995404958725, -0.5092560648918152], [-0.07256914675235748, -0.22528046369552612, -0.3618529140949249]], [[-0.2907414138317108, -0.11353301256895065, -0.38247963786125183], [0.17070819437503815, -0.24525582790374756, -0.45857876539230347], [0.14819470047950745, 0.3135528862476349, -0.6771847605705261]], [[0.494103342294693, 0.1428319662809372, -0.373032808303833], [-0.04796890914440155, -0.7758593559265137, -0.5315472483634949], [-0.6176362037658691, -1.207856297492981, -0.7164124846458435]], [[0.3032037019729614, -0.05435050651431084, -0.21789422631263733], [-0.0037830674555152655, -0.36294758319854736, -0.02764299511909485], [-0.516274631023407, -0.8820423483848572, 0.21413487195968628]], [[0.2937427759170532, 0.7057309150695801, -0.019082380458712578], [0.3054691255092621, 0.28888723254203796, -0.4485818147659302], [-0.2703056335449219, -0.4628855586051941, -0.8416203260421753]], [[-1.0911757946014404, -0.520394504070282, -0.8163327574729919], [-0.1613367348909378, -0.16567277908325195, 0.08985038101673126], [0.19866378605365753, -0.016674768179655075, -0.47475677728652954]], [[-0.37117668986320496, -1.0828332901000977, -0.5246818661689758], [-1.26689875125885, -1.5259751081466675, -1.1915451288223267], [-0.6088848114013672, -0.31808939576148987, -0.03576333075761795]], [[0.37609201669692993, 0.29650208353996277, 0.6546396613121033], [-0.33751821517944336, -0.7105942964553833, -0.3648974597454071], [-1.170068383216858, -1.127138376235962, -1.100103497505188]], [[0.3098248243331909, 0.32173392176628113, -0.2979569435119629], [0.711613655090332, 0.5779640674591064, -0.07368915528059006], [0.0418209508061409, 0.332927942276001, -0.21825151145458221]], [[0.25447243452072144, 0.18717613816261292, 0.4843505322933197], [-0.038118813186883926, -0.19758066534996033, -0.21087631583213806], [-0.304389089345932, -0.0912887305021286, -0.2292158156633377]], [[0.036233384162187576, 0.7589370608329773, 0.3488287627696991], [0.7378510236740112, 0.5046018362045288, 0.7314757704734802], [0.003503647865727544, 0.17673273384571075, -0.28108569979667664]], [[0.14589530229568481, 0.4166536033153534, 0.020412616431713104], [0.6763575077056885, 1.1287577152252197, -0.26294562220573425], [0.7614651918411255, 1.4562945365905762, -0.09975200891494751]], [[-0.47924983501434326, -0.018975771963596344, -0.6832329034805298], [0.1493656039237976, -0.40219318866729736, 0.06568310409784317], [-0.49218785762786865, 0.12760242819786072, 0.005845170002430677]], [[0.08453524112701416, 0.14549152553081512, -0.38665059208869934], [0.3476935029029846, -0.07337558269500732, -0.42992085218429565], [-0.17752705514431, -0.4745479226112366, 0.048802804201841354]], [[0.30271458625793457, 0.18111342191696167, -0.32631397247314453], [-0.477098673582077, -0.5967391133308411, -0.1512957513332367], [-0.5813747048377991, -0.5467442274093628, -0.07085859030485153]], [[-0.21651718020439148, -0.18972870707511902, -0.11780566722154617], [-0.10780573636293411, -0.40617355704307556, -0.5512557029724121], [0.34351569414138794, 0.16471295058727264, -0.258181095123291]], [[0.5193039178848267, 0.4675041139125824, 0.0947798639535904], [0.43435153365135193, 0.3238169252872467, -0.1302584856748581], [-0.09279612451791763, -0.11212451010942459, -0.37369972467422485]], [[0.1840939223766327, -0.10863699018955231, -0.1927453875541687], [0.570716381072998, 0.1847747564315796, 0.28160181641578674], [-0.13299472630023956, 0.30931469798088074, -0.2354801744222641]], [[0.6996867656707764, 0.35391589999198914, 0.3241814374923706], [0.4848806858062744, 0.36994078755378723, 0.21432599425315857], [-0.281446248292923, 0.15954838693141937, 0.12635190784931183]], [[0.11254112422466278, 0.3598727285861969, -0.24660825729370117], [0.17103183269500732, 0.10642904788255692, -0.08677709102630615], [0.26887160539627075, 0.25822368264198303, 0.10628940165042877]], [[-0.4414505362510681, -0.36059483885765076, 0.1818758249282837], [-0.05864064395427704, -0.7416478395462036, -0.4651259779930115], [0.1587631106376648, -0.153537780046463, 0.04460693150758743]], [[-0.6184588074684143, -0.662507951259613, -0.9621564745903015], [-0.35915136337280273, -0.22656123340129852, -0.21619217097759247], [0.4798530340194702, 0.050817664712667465, 0.16393083333969116]], [[0.17574456334114075, -0.0705648735165596, 0.1965356022119522], [-0.4615226089954376, -1.0608206987380981, -0.8542081713676453], [-1.1817799806594849, -0.8550952672958374, -1.070919156074524]], [[-1.390602946281433, -1.07969331741333, -0.8838052153587341], [-0.7296203374862671, -1.5667152404785156, -1.2712310552597046], [0.14902064204216003, -0.29181763529777527, -0.5216612815856934]], [[0.6175873279571533, -0.4433879852294922, -0.31532227993011475], [-0.0789228081703186, -0.2468854784965515, -0.5154342651367188], [0.18973565101623535, 0.36018356680870056, -0.4442805051803589]], [[0.187386617064476, 0.02043514885008335, -0.6774392127990723], [0.4281090497970581, 0.2884375751018524, -0.016515828669071198], [0.4669906198978424, 0.10529760271310806, -0.010040842927992344]], [[-1.086789846420288, -1.178581714630127, -0.6679152250289917], [-0.7858619093894958, -1.5346894264221191, -1.2392321825027466], [0.1684836745262146, -0.26243501901626587, -0.6570512652397156]], [[-0.38278669118881226, -0.03082224354147911, -0.20397329330444336], [0.15117335319519043, -0.3712073266506195, -0.6381323933601379], [0.2747724652290344, 0.037089426070451736, -0.022743551060557365]], [[0.4633493721485138, -0.24168120324611664, 0.5292758941650391], [0.11370962858200073, -0.8883269429206848, -0.49374327063560486], [0.24238379299640656, -0.16926303505897522, -0.4249739646911621]], [[0.037529878318309784, 0.06614456325769424, 0.11167258024215698], [0.3294464349746704, -0.17717577517032623, -0.3251229226589203], [-0.36049485206604004, -0.41527059674263, -0.5335764288902283]], [[0.7335445880889893, -0.314870685338974, -0.6508302092552185], [-0.08357889205217361, -0.14962232112884521, -0.2755776047706604], [-0.14263403415679932, 0.25302591919898987, -0.33871158957481384]]], [[[-0.03135386481881142, 0.27758368849754333, 0.5178368091583252], [-0.18876293301582336, -0.007405148819088936, 0.0980953574180603], [-0.4177151918411255, 0.2029116302728653, -0.2502237558364868]], [[-0.14421847462654114, 0.2983846366405487, 0.5133530497550964], [0.08295244723558426, 0.0043605295941233635, -0.7756894826889038], [0.03419489040970802, 0.07548901438713074, -0.4532010853290558]], [[-0.6994915008544922, 0.6763401031494141, 0.04370937496423721], [-0.059005629271268845, 1.3124597072601318, -0.5096937417984009], [-0.6132166385650635, 0.6046295166015625, -0.7788501381874084]], [[-0.21458765864372253, -0.18189175426959991, -0.07175730913877487], [-0.2385467290878296, -0.13868674635887146, -0.15364758670330048], [0.019172145053744316, -0.06130383908748627, -0.22140413522720337]], [[-0.23381160199642181, -0.9527831673622131, -0.25551122426986694], [0.04969744384288788, -1.516330361366272, -0.11174671351909637], [0.25764337182044983, 0.00031060693436302245, 0.1955326795578003]], [[-0.815470278263092, 0.659859299659729, 0.37136080861091614], [-0.48747140169143677, 1.6780675649642944, 0.37336796522140503], [-0.7872847318649292, 1.1438632011413574, 0.04793117940425873]], [[-0.24446450173854828, -0.06661301851272583, 0.09124593436717987], [-0.4102485179901123, -0.8626199960708618, -0.46815282106399536], [-0.26938265562057495, -0.1613769382238388, -0.5146105289459229]], [[0.0579964816570282, -0.1223272904753685, 0.48491978645324707], [0.038999319076538086, 0.4241335391998291, 1.2551840543746948], [-0.1083056703209877, 0.014543956145644188, 0.6049319505691528]], [[0.1831321269273758, -0.4232553541660309, 0.5462995171546936], [0.3336775600910187, -0.6745174527168274, 0.6321965456008911], [0.1818380355834961, -0.3727997839450836, 0.3786858916282654]], [[-0.3421958088874817, -0.4315386414527893, -0.24217650294303894], [-0.21210329234600067, 0.2996145784854889, 0.4771699905395508], [-0.08485603332519531, 0.19128666818141937, 0.36731284856796265]], [[-0.41304314136505127, -0.7604299187660217, 0.12081733345985413], [-0.060483742505311966, -0.6624749302864075, 0.7204523086547852], [-0.2662155330181122, -0.23736561834812164, -0.19324254989624023]], [[-0.4084199368953705, -0.9536470770835876, -0.74125075340271], [-0.2432277649641037, -0.8847309947013855, -0.3400329053401947], [-0.039943475276231766, -0.19302935898303986, -0.11531054228544235]], [[-1.1615396738052368, 0.1552409529685974, -0.5572074055671692], [-0.7150935530662537, 1.116891860961914, -0.4875026345252991], [-1.5604382753372192, 0.25431907176971436, -0.5901482105255127]], [[-0.5408748984336853, -0.025591259822249413, -0.4094058573246002], [-0.4366186559200287, 0.19180773198604584, -0.04231742396950722], [0.030266201123595238, -0.20419970154762268, -0.2159549742937088]], [[0.022136900573968887, 0.5817854404449463, 0.38254284858703613], [-0.47962242364883423, 0.5622559189796448, -0.17671875655651093], [-0.6432642340660095, 0.01842258684337139, -0.30097895860671997]], [[-0.2859102785587311, 0.18605782091617584, 0.5586204528808594], [-0.10945039242506027, 0.0007660544360987842, -0.10343454778194427], [-0.32077574729919434, 0.2701748013496399, -0.45319271087646484]], [[-0.5237705707550049, -0.8906163573265076, -0.702936589717865], [-0.4195834696292877, -0.1789027750492096, -0.15601593255996704], [-0.4324241876602173, 0.03283955901861191, 0.06384280323982239]], [[-0.21845220029354095, -0.1011526808142662, -0.535190761089325], [-0.4262298345565796, -0.06265874207019806, -0.1614125519990921], [-0.14306995272636414, -0.2655908465385437, 0.02226986363530159]], [[-0.47512659430503845, 0.40164780616760254, 0.8964289426803589], [-0.4385436177253723, 0.09666536003351212, 0.008882450871169567], [-0.7712854743003845, -0.21081042289733887, -0.08010654896497726]], [[-0.9169213771820068, 0.40470126271247864, 0.3624611496925354], [-0.8151446580886841, 1.098699688911438, 0.7366465926170349], [-1.4353582859039307, 0.47176575660705566, 0.3218017816543579]], [[-0.649517834186554, -1.451480507850647, -0.0071631805039942265], [0.2903735935688019, -1.0105520486831665, 0.3410881757736206], [0.1317165642976761, 0.39071986079216003, 0.57032310962677]], [[0.16782045364379883, -0.4108770191669464, 0.1443166881799698], [0.33687305450439453, -1.4696155786514282, -0.073521189391613], [0.4456610679626465, -0.16275940835475922, 0.16501709818840027]], [[-0.8158533573150635, 0.21696510910987854, 0.17963528633117676], [-0.19698359072208405, -0.8478956818580627, -0.7603092789649963], [0.3274977505207062, 1.1770769357681274, -0.10966994613409042]], [[0.13827255368232727, -0.04477855935692787, 0.1287502944469452], [0.12233325093984604, -0.21424484252929688, 0.27168941497802734], [-0.08523298054933548, -0.22750163078308105, -0.1169961616396904]], [[-1.570320963859558, -0.04611651971936226, 0.07340942323207855], [-0.896555483341217, 0.0034831613302230835, -0.48626425862312317], [-0.7410528063774109, 1.197309136390686, -1.0458213090896606]], [[0.18122217059135437, 0.08720307052135468, 0.7411312460899353], [0.6284593939781189, -0.8388619422912598, -0.49460408091545105], [0.38212165236473083, -0.10746175795793533, -0.7346076965332031]], [[-0.7628934979438782, 0.9208397269248962, 0.8492200970649719], [-0.5810810923576355, 0.592832624912262, -0.16935236752033234], [-0.8801241517066956, 1.1964552402496338, -0.8422452807426453]], [[0.3276476562023163, 0.27483507990837097, -0.09819428622722626], [-0.08526864647865295, -0.06787397712469101, -0.5766246318817139], [-0.47956162691116333, -0.23511919379234314, 0.028866853564977646]], [[-0.7787476778030396, -0.3221375048160553, -0.26061174273490906], [-0.3695540428161621, -0.1595272421836853, -0.24470742046833038], [0.09836507588624954, -0.2526977062225342, -0.15353728830814362]], [[-0.6380621194839478, -0.6113074421882629, -0.3884197473526001], [0.03447683900594711, -0.7224490642547607, 0.10332350432872772], [-0.05043508857488632, -0.3548468053340912, -0.47907379269599915]], [[-0.043099433183670044, -0.13491177558898926, 0.2377302050590515], [-0.22197572886943817, -0.28557005524635315, 0.16384848952293396], [-0.5830456018447876, -0.24591811001300812, -0.12292147427797318]], [[-0.7846201062202454, 0.19216369092464447, 0.518227219581604], [-0.13291038572788239, -0.6573125123977661, -0.7605732679367065], [0.48034191131591797, 1.075485110282898, 0.25533953309059143]], [[-1.0305296182632446, 0.11248782277107239, -0.05528366193175316], [-0.8329430222511292, -0.4868707060813904, -1.272831916809082], [-0.6233490109443665, 0.14125984907150269, -0.2159656286239624]], [[-0.6934217810630798, -0.6741085052490234, -0.34500718116760254], [-0.25454506278038025, -0.7058833837509155, -0.3982863128185272], [-0.23848727345466614, -0.1465275138616562, -0.7697382569313049]], [[0.2485698014497757, 0.2720482349395752, 0.20247185230255127], [0.007185279857367277, -1.060589075088501, -0.7590662240982056], [0.09871416538953781, 0.048160094767808914, -0.36076343059539795]], [[-0.22346176207065582, -0.6703474521636963, 0.3271365165710449], [-0.30725541710853577, -0.20566391944885254, 0.9509398937225342], [-0.5751622319221497, -0.4988478124141693, 0.7797322273254395]], [[0.07797759026288986, -0.8384309411048889, -0.44010961055755615], [0.271190345287323, -1.5492581129074097, -0.4047752320766449], [0.41102659702301025, -0.29174894094467163, 0.2142435759305954]], [[-0.10825969278812408, -0.37721771001815796, 0.40931376814842224], [0.569385290145874, -0.36913660168647766, 0.05523653328418732], [-0.054443784058094025, 0.4660361707210541, -0.058458078652620316]], [[-0.37254253029823303, -1.009074330329895, -0.4138587713241577], [-0.011634721420705318, -0.5691856741905212, -0.1973630040884018], [-0.49383190274238586, 0.012512403540313244, -0.04332682862877846]], [[-0.2041984498500824, -0.8177511692047119, 0.19364255666732788], [-0.2679010033607483, -0.34723570942878723, 0.8736527562141418], [-0.53743976354599, -0.6999043822288513, 0.5536129474639893]], [[0.1365772932767868, 0.19648166000843048, 1.1269868612289429], [0.3989550769329071, -0.7202116847038269, -0.05476154014468193], [0.0370471365749836, 0.4543272852897644, -0.21076343953609467]], [[-0.29244479537010193, 0.35213640332221985, 0.157923623919487], [-0.43892017006874084, 0.2371731847524643, -0.39397066831588745], [-0.38945457339286804, -0.07150670140981674, -0.49624761939048767]], [[-0.5582737922668457, -0.1909712851047516, -0.1261274516582489], [-0.49262696504592896, 0.08929219096899033, 0.21184088289737701], [-0.14469802379608154, 0.38316524028778076, 0.09536971896886826]], [[-0.6231504082679749, -0.15610343217849731, -0.47568097710609436], [-0.3731304407119751, -0.15168344974517822, -0.8591406345367432], [-0.4795307219028473, 0.38243791460990906, 0.09486385434865952]], [[-0.5836901068687439, -0.783114492893219, 0.01290674228221178], [-0.15481604635715485, -0.6127804517745972, 0.0807514563202858], [-0.2870507538318634, 0.32564613223075867, 0.5261387228965759]]], [[[-0.022576792165637016, -0.04973014071583748, -0.0429997444152832], [0.009000198915600777, 0.008872009813785553, 0.0015693772584199905], [-0.011661962606012821, -0.014421595260500908, 0.0020103082060813904]], [[-0.0029379429761320353, -0.023248430341482162, -0.01448401715606451], [0.004497647285461426, -0.03426600247621536, -0.054512813687324524], [-0.08201851695775986, -0.0065767173655331135, 0.012890014797449112]], [[0.005528721027076244, -0.020283976569771767, 0.012249097228050232], [-0.09404905885457993, -0.07997147738933563, -0.10571619868278503], [0.03982451930642128, -0.03623179718852043, -0.04406232759356499]], [[-0.028225360438227654, -0.05613519251346588, -0.044034238904714584], [-0.02019408717751503, -0.031114164739847183, -0.06552997976541519], [-0.07782764732837677, -0.00759922107681632, 0.011173483915627003]], [[-0.04444008320569992, -0.05960455909371376, -0.008863495662808418], [-0.03480980172753334, -0.055389054119586945, -0.06587386131286621], [-0.037495844066143036, 0.0192873515188694, -0.03733871132135391]], [[-0.009021734818816185, -0.05115970969200134, 0.012281140312552452], [0.007584454026073217, -0.023324206471443176, -0.01630035601556301], [0.017325956374406815, -0.05455796420574188, -0.009616094641387463]], [[-0.027560092508792877, -0.031726691871881485, 0.03903508558869362], [-0.05012793838977814, -0.07320258021354675, -0.0541486032307148], [-0.09060780704021454, 0.013656122609972954, -0.052535947412252426]], [[-0.10525666922330856, -0.022399917244911194, -0.07631818950176239], [-0.08232501149177551, -0.02515687793493271, -0.09309694170951843], [0.0022584127727895975, 0.011501732282340527, -0.03603969141840935]], [[-0.03375810757279396, -0.04460852965712547, -0.007542847190052271], [0.0059362598694860935, -0.013097542338073254, -0.0159139521420002], [-0.08686787635087967, -0.0185672827064991, -0.023510364815592766]], [[-0.08873952925205231, 0.013114139437675476, -0.05505260080099106], [-0.043195903301239014, -0.04216409847140312, -0.020689640194177628], [-0.07924412190914154, -0.02409846894443035, -0.00903177261352539]], [[0.04170209914445877, 0.019294926896691322, -0.03123493306338787], [-0.04030216857790947, 0.027079185470938683, -0.03375403583049774], [0.004700616933405399, 0.007278970442712307, 0.007408008445054293]], [[-0.08058128505945206, 0.0033317639026790857, -0.034531883895397186], [-0.048619192093610764, -0.028717439621686935, -0.03696161136031151], [-0.036418113857507706, 0.020898086950182915, -0.055005237460136414]], [[-0.008380464278161526, -0.05060834437608719, -0.048748694360256195], [-0.029759889468550682, -0.02200382947921753, -0.013986521400511265], [-0.031893983483314514, -0.033169299364089966, -0.03303645923733711]], [[-0.0678592398762703, 0.012790022417902946, -0.011759933084249496], [-0.08852747827768326, 0.034875594079494476, -0.038795821368694305], [-0.0573897548019886, -0.024765148758888245, -0.039310794323682785]], [[-0.03674382343888283, -0.055458735674619675, -0.057635772973299026], [-0.06662003695964813, -0.05108433589339256, 0.010029567405581474], [-0.009513960219919682, -0.0681496113538742, -0.031287409365177155]], [[-0.05991863086819649, -0.04813457280397415, -0.04456453025341034], [-0.05198294296860695, -0.0046235197223722935, -0.06812278181314468], [0.011872537434101105, -0.05247944965958595, -0.039602309465408325]], [[-0.0028333221562206745, -0.0650896281003952, -0.016090212389826775], [0.009934589266777039, -0.020018307492136955, -0.05393095314502716], [-0.07627939432859421, -0.04791751131415367, -0.04272708669304848]], [[-0.025108061730861664, -0.045332398265600204, 0.007819106802344322], [-0.06611364334821701, -0.04085580259561539, -0.018297115340828896], [-0.014420523308217525, 0.02683641016483307, -0.023724250495433807]], [[-0.035936273634433746, -0.04243873432278633, 0.015155330300331116], [-0.07153698056936264, -0.05723148211836815, -0.06951702386140823], [-0.09203512221574783, -0.01160021685063839, -0.025984836742281914]], [[0.01912032440304756, 0.05624265596270561, 0.013910394161939621], [-0.006877447012811899, -0.017651548609137535, -0.003528071567416191], [0.005718575324863195, -0.011886595748364925, -0.01417873241007328]], [[-0.02453594096004963, 0.006632399279624224, -0.0764239951968193], [-0.019447285681962967, -0.07020621001720428, -0.009299008175730705], [-0.024700170382857323, -0.01869208551943302, -0.02537650614976883]], [[0.027622947469353676, -0.04019627720117569, 0.03479169309139252], [-0.020546941086649895, 0.017490070313215256, -0.003930387087166309], [-0.02006792090833187, 0.01817258633673191, -0.013162401504814625]], [[-0.026439767330884933, -0.06625225394964218, -0.023323990404605865], [-0.03135329857468605, -0.029932595789432526, -0.047243811190128326], [-0.09153011441230774, -0.04157201200723648, -0.008326760493218899]], [[0.00566658703610301, -0.05818495154380798, -0.011726288124918938], [-0.08876606822013855, -0.08146541565656662, -0.09126117825508118], [-0.019468966871500015, -0.01211109571158886, -0.056048717349767685]], [[-0.006206942722201347, 0.014771559275686741, -0.009103374555706978], [-0.001079906476661563, -0.06481627374887466, -0.044526606798172], [-0.053061939775943756, -0.027059169486165047, -0.056854765862226486]], [[-0.07198227941989899, 0.011418246664106846, -0.007416455075144768], [0.030339382588863373, -0.046406250447034836, -0.02581680752336979], [-0.01951923780143261, 0.014671030454337597, -0.011932410299777985]], [[-0.017649399116635323, -0.009416772052645683, 0.00937073677778244], [-0.08142631500959396, -0.1045263335108757, -0.056764259934425354], [-0.11169900745153427, -0.054194580763578415, -0.019510654732584953]], [[0.0030181226320564747, -0.05625417083501816, -0.054583124816417694], [-0.03783014044165611, -0.01804266683757305, -0.010936757549643517], [-0.029385950416326523, 0.018581807613372803, -0.04395122453570366]], [[-0.06015437841415405, -0.025066807866096497, -0.011515398509800434], [-0.06491530686616898, -0.027509311214089394, -0.06760992854833603], [-0.06156228110194206, -0.045432187616825104, 0.015177332796156406]], [[-0.06282272934913635, -0.03965718671679497, -0.07940439879894257], [-0.027554569765925407, -0.06942909210920334, -0.025004804134368896], [-0.03736235946416855, -0.06261297315359116, -0.04749017581343651]], [[-0.03307521343231201, 0.029931429773569107, 0.032584287226200104], [-0.0429561585187912, -0.08699050545692444, -0.050405438989400864], [-0.06230201572179794, -0.04029367119073868, -0.012524614110589027]], [[-0.024659790098667145, 0.010252228938043118, -0.02591116540133953], [-0.05786348506808281, -0.031523820012807846, -0.03679971396923065], [-0.021324114874005318, -0.029759900644421577, -0.03366187959909439]], [[-0.059807561337947845, 0.024498941376805305, -0.00862443819642067], [-0.08685428649187088, -0.0006999318138696253, -0.03694238141179085], [-0.016196003183722496, 0.04420478641986847, -0.02000386267900467]], [[-0.02948755770921707, -0.008509193547070026, 0.024789785966277122], [-0.05320129916071892, -0.06476102024316788, -0.033835072070360184], [-0.005886494647711515, -0.02812862955033779, 0.007042878307402134]], [[0.016445426270365715, 0.03219624608755112, 0.020792365074157715], [-0.025029392912983894, -0.06887992471456528, -0.06100907176733017], [-0.02559676207602024, 2.3119077013689093e-05, 0.006063986569643021]], [[-0.008386058732867241, 0.026995431631803513, -0.01818430796265602], [-0.06310849636793137, -0.04853960499167442, -0.0787920206785202], [-0.03465671092271805, -0.03448546305298805, -0.039168018847703934]], [[-0.03950081393122673, 0.0014536360977217555, -0.01705622486770153], [-0.003785915905609727, -0.009664923883974552, -0.0953473299741745], [-0.03579181432723999, -0.017775699496269226, 0.017193177714943886]], [[-0.05704404041171074, -0.03544086590409279, -0.06885970383882523], [-0.004629401955753565, -0.04671363905072212, -0.06636372953653336], [0.03092392161488533, 0.029656553640961647, -0.014183473773300648]], [[-0.07412930577993393, 0.03654341399669647, -0.05497725307941437], [-0.05023517087101936, -0.06390819698572159, -0.07507509738206863], [-0.04475009813904762, -0.050693415105342865, -0.0663045197725296]], [[-0.03710208088159561, 0.018302135169506073, -0.07046421617269516], [-0.03920023888349533, -0.0448966808617115, -0.022685136646032333], [0.022067273035645485, -0.025154007598757744, -0.04736095666885376]], [[-0.05619616061449051, -0.03591269254684448, 0.005246790125966072], [-0.0471486933529377, -0.020698361098766327, -0.04467232525348663], [-0.020214926451444626, -0.0685199722647667, -0.014896906912326813]], [[0.012233353219926357, -0.05844159796833992, -0.030026549473404884], [-0.0018842407735064626, -0.043252985924482346, -0.035197727382183075], [-0.015330665744841099, -0.03453066200017929, -0.02594108320772648]], [[-0.09303084760904312, -0.019815893843770027, -0.05280633643269539], [-0.07652140408754349, -0.06841918081045151, -0.062376413494348526], [-0.014280863106250763, -0.10889480262994766, -0.09507902711629868]], [[-0.01182535383850336, -0.05266007408499718, 0.025574591010808945], [-0.07448789477348328, -0.010619536973536015, -0.06762369722127914], [-0.0377424955368042, 0.01647200435400009, -0.019864600151777267]], [[-0.044981613755226135, 0.019382918253540993, -0.07386638969182968], [-0.06683008372783661, -0.06335917860269547, -0.07193523645401001], [0.003644730895757675, -0.048296406865119934, -0.00546992477029562]]], [[[0.02152305282652378, -0.22979532182216644, -0.5703213214874268], [0.17856526374816895, -0.2091197669506073, -0.1475982367992401], [0.2012818604707718, -0.9891173243522644, -1.1900434494018555]], [[-0.008409101516008377, -0.07588828355073929, -0.09549383074045181], [-0.04999218136072159, 0.1891908198595047, -0.5933571457862854], [-0.24662663042545319, -0.5045247673988342, -0.41543516516685486]], [[0.06387470662593842, -0.4857109785079956, -1.0459269285202026], [0.05190720036625862, 0.2434731125831604, -0.5982599258422852], [0.15082509815692902, -0.02762625738978386, 0.016538867726922035]], [[-0.3056240677833557, 0.06732971966266632, -0.11272362619638443], [-0.46922796964645386, 0.2514171600341797, 0.3555031716823578], [-0.6164957284927368, -0.8058103322982788, -0.20216228067874908]], [[-0.009955675341188908, 0.7255241870880127, -0.15808743238449097], [0.10587004572153091, 0.5214093327522278, 0.24043066799640656], [0.44550856947898865, -0.5927945375442505, -0.8777138590812683]], [[-0.26222801208496094, -0.328918993473053, -1.154207468032837], [-0.5185151696205139, 0.06647466868162155, -0.1789783537387848], [-0.14990663528442383, -0.397431343793869, -0.15981800854206085]], [[0.11183592677116394, -0.4248908460140228, -0.30281561613082886], [-0.19742639362812042, 0.36427322030067444, 0.5572166442871094], [-0.07994867861270905, -0.9504121541976929, -0.48163041472435]], [[0.2966972589492798, -0.054906874895095825, 0.25135281682014465], [0.25471124053001404, 0.5523276329040527, 0.16541731357574463], [-0.07707525789737701, -0.2921754717826843, 0.6651079058647156]], [[0.2271021455526352, 0.3137466609477997, -0.04852283373475075], [-0.2374119609594345, -0.24891825020313263, -0.3503113389015198], [0.2812313139438629, -0.7171531319618225, -0.4560331702232361]], [[0.49575239419937134, -0.16482245922088623, -0.29099565744400024], [0.44522905349731445, 0.4827227294445038, -0.3655414283275604], [-0.08798135071992874, 0.014965400099754333, 0.44413191080093384]], [[0.20540113747119904, -0.29705676436424255, -0.42672401666641235], [0.09828884899616241, 1.0220136642456055, 0.6952128410339355], [-0.016164656728506088, -0.5126702785491943, 0.3523922860622406]], [[-0.639711320400238, 0.42718708515167236, -0.0008913716301321983], [-0.6003831028938293, 0.41077354550361633, 0.7745611667633057], [-0.1311665177345276, -0.9122247695922852, -0.35674306750297546]], [[-0.06626257300376892, -0.38068687915802, -1.2073802947998047], [-0.20275263488292694, -0.24040882289409637, -0.5799016952514648], [0.46639731526374817, 0.35117655992507935, 1.0301254987716675]], [[0.030178355053067207, 0.22918036580085754, 0.0226563960313797], [-0.35832953453063965, 0.5173765420913696, 0.137483149766922], [-0.6219099164009094, -0.6743899583816528, 0.11291772127151489]], [[-0.2582075297832489, 0.03986864164471626, -0.5495108366012573], [-0.6022394299507141, -0.07134999334812164, -0.39689362049102783], [-0.0703342854976654, -0.4455738365650177, -0.6585270762443542]], [[0.14291319251060486, 0.5668680667877197, -0.02641129121184349], [-0.3463808596134186, 0.388624370098114, -0.5393223762512207], [-0.6802693009376526, 0.026369765400886536, -0.4919391870498657]], [[-0.6758798360824585, 0.23670314252376556, 0.12633872032165527], [-0.5794699788093567, 0.05513330549001694, 0.8039806485176086], [-0.16067048907279968, -0.8321300745010376, -0.2605864107608795]], [[0.005340220406651497, 0.04021892696619034, 0.13771997392177582], [-0.08023802936077118, 0.47585320472717285, 0.035542335361242294], [-0.47179803252220154, -0.27408838272094727, 0.11216041445732117]], [[-0.05852591246366501, 0.11002204567193985, -0.24972687661647797], [-0.6718606948852539, 0.378614217042923, 0.16756276786327362], [-0.7770424485206604, -0.6271414756774902, -0.09855393320322037]], [[-0.2965160608291626, -0.10381192713975906, -1.3426427841186523], [-0.7184240818023682, -0.3502647578716278, -0.6282438635826111], [0.15121056139469147, 0.6684185266494751, -0.2136761099100113]], [[0.2483912855386734, 1.1554492712020874, 0.4935269355773926], [0.6390419006347656, 0.3380143940448761, 0.6410847902297974], [0.6210572123527527, -0.7201271653175354, -1.6127208471298218]], [[-0.049264464527368546, 0.347520112991333, -0.391105979681015], [0.08554431051015854, 0.3319333493709564, 0.5833612084388733], [0.8386633992195129, -0.05489012226462364, -0.678441047668457]], [[0.266531378030777, -0.14636319875717163, 0.35177984833717346], [0.5083255171775818, 0.9726225733757019, 0.9817853569984436], [-0.42003047466278076, -0.31475499272346497, -0.05356314405798912]], [[0.29352661967277527, 0.3037137985229492, 0.2366197258234024], [-0.10857841372489929, 0.03519822657108307, 0.35964134335517883], [0.36910778284072876, 0.09656684100627899, 0.0517306923866272]], [[0.8331335783004761, 0.9819997549057007, 0.22701548039913177], [0.7904348373413086, 2.128342628479004, 1.3369324207305908], [-0.06013518199324608, -0.16435787081718445, -0.06336565315723419]], [[0.2765747010707855, 0.32547852396965027, 0.06573617458343506], [0.5853263735771179, 1.3364620208740234, -0.3600431978702545], [0.1348639875650406, 0.7802814841270447, 0.25004929304122925]], [[0.42404499650001526, -0.12480401247739792, -0.7757303714752197], [-0.15656961500644684, -0.49044862389564514, -0.5181043744087219], [-0.4747602641582489, -1.2537930011749268, -1.206435203552246]], [[0.37298163771629333, 0.48805946111679077, 0.23087520897388458], [0.1423674076795578, 0.3696843087673187, 0.2965412139892578], [-0.26858940720558167, -0.06758365780115128, -0.3189236521720886]], [[-0.4170447289943695, 0.5710999965667725, -0.028042901307344437], [-0.6656825542449951, 0.31273338198661804, 0.3957357108592987], [-0.40650323033332825, -0.4852423369884491, -0.018086828291416168]], [[-0.1145242303609848, -0.19675171375274658, -0.38070350885391235], [-0.4078736901283264, 0.29344576597213745, 0.19388258457183838], [-0.1200430616736412, -0.2878176271915436, -0.0789380595088005]], [[0.04946214333176613, -0.20952466130256653, 0.03666068986058235], [0.1300133764743805, 1.393531322479248, 0.1874094307422638], [-0.500883162021637, 0.17920908331871033, 0.532785952091217]], [[0.1225210577249527, -0.2851026654243469, -0.5911718010902405], [0.39446935057640076, 0.558807373046875, 1.1397638320922852], [-0.6684125065803528, -0.343505859375, -0.11645866930484772]], [[0.7056455016136169, 1.311560869216919, 0.2727879583835602], [0.7758496403694153, 1.7144863605499268, 1.3214694261550903], [-0.019841501489281654, 0.6800070405006409, -0.02076396718621254]], [[0.11450236290693283, -0.3771684765815735, -0.7008756399154663], [-0.25585848093032837, 0.9234774708747864, 0.3849797248840332], [-0.6403815150260925, -0.4294452667236328, 0.3016737103462219]], [[-0.22860977053642273, -0.6400755047798157, -0.20602621138095856], [-0.5238651633262634, -0.1948089748620987, 0.17432044446468353], [-0.1586237996816635, -1.4126505851745605, -1.0877537727355957]], [[-0.11535435169935226, -0.0008994798990897834, -0.45524996519088745], [-0.1519620418548584, 0.004906804766505957, -0.6539527177810669], [0.2776567041873932, 0.34681761264801025, 0.669120728969574]], [[-0.05456201732158661, 0.5630653500556946, 0.06066910922527313], [0.12652572989463806, 0.11641382426023483, 0.6595005989074707], [0.6629282832145691, -0.12131946533918381, -0.7610810995101929]], [[-0.40662187337875366, -0.048855870962142944, -0.14098630845546722], [-0.2727668881416321, -1.1140542030334473, -0.2926751673221588], [-0.16196858882904053, -0.6361724734306335, -0.956156313419342]], [[0.06920822709798813, -0.4967246353626251, -0.14317813515663147], [0.2690920829772949, 0.507045567035675, 0.5730456709861755], [0.09489961713552475, 0.9086344242095947, 1.1349995136260986]], [[0.010354241356253624, -0.10559159517288208, -0.23316578567028046], [-0.12907281517982483, 0.4091078042984009, -0.2819116413593292], [-0.1614750623703003, 0.13377875089645386, 0.6751439571380615]], [[-0.4313158094882965, -0.2641684412956238, -0.10371293127536774], [-0.21050049364566803, -1.0335839986801147, -0.363542377948761], [-0.3624507188796997, -0.7927370667457581, -1.3261834383010864]], [[-0.3325725197792053, -0.17298677563667297, -0.16377241909503937], [-0.4432945251464844, -0.06316719204187393, -0.1564067304134369], [-0.04210585355758667, -0.7388504147529602, -0.6880555748939514]], [[-0.39964404702186584, -0.4811968207359314, -0.9305026531219482], [-0.3991549015045166, -0.12048240751028061, -0.42556729912757874], [-0.3490118384361267, 0.3174945116043091, -0.6282566785812378]], [[0.3576279580593109, 0.7092485427856445, 0.3772539794445038], [-0.07117506861686707, 0.482492595911026, 0.7748627662658691], [-0.40832066535949707, -0.5745119452476501, -0.7625196576118469]], [[0.2781568765640259, -0.23307988047599792, -0.1722092628479004], [0.48220348358154297, 1.0510764122009277, 1.031633973121643], [-0.3834529519081116, 0.5769006013870239, 0.7615742087364197]]], [[[0.6077662706375122, 0.3297342360019684, -0.7441443800926208], [0.5648610591888428, -0.43059808015823364, -0.6020591259002686], [0.11020564287900925, -0.3452150523662567, 0.011280317790806293]], [[0.7390415072441101, 0.3066614866256714, -0.5854411125183105], [-0.6207564473152161, -0.3191550076007843, -0.10479899495840073], [-0.5781977772712708, 0.09760653972625732, 0.9498407244682312]], [[0.2050076425075531, 0.3613468110561371, -0.4276582598686218], [-0.49891355633735657, -0.33397433161735535, -0.13191533088684082], [-0.6825263500213623, -0.05866250768303871, 0.2928979694843292]], [[0.009810710325837135, -0.30441421270370483, -0.16858208179473877], [0.25737646222114563, 0.09714116156101227, 0.4525463581085205], [-0.23318108916282654, -0.3188898265361786, 0.1660035401582718]], [[-0.25666874647140503, 0.7715912461280823, 0.5142468810081482], [-0.027910130098462105, 0.2017190307378769, 0.1250314563512802], [0.06899759918451309, -0.9910714626312256, -0.7387910485267639]], [[0.7514224052429199, 1.2924597263336182, -0.07942155748605728], [-0.5554031729698181, 0.4388323128223419, 0.4859597086906433], [-0.7904750108718872, -0.22032515704631805, -0.12029064446687698]], [[-0.6009524464607239, -0.5708287358283997, -0.3097192645072937], [-0.17714273929595947, 0.5122321248054504, 1.1229966878890991], [-0.06590132415294647, -0.578515350818634, 0.43934985995292664]], [[0.7153279781341553, 0.4820929765701294, 0.809829592704773], [0.5196547508239746, 0.5811434984207153, -0.07485765218734741], [-0.036676596850156784, -0.15581569075584412, -0.20815163850784302]], [[-0.09814175963401794, 0.7708702683448792, 0.7154733538627625], [0.3027717173099518, 0.16885361075401306, -0.16775338351726532], [0.2137150764465332, -0.9587129950523376, -1.3951749801635742]], [[-0.07826922088861465, -0.07513896375894547, 0.4224139153957367], [0.2773260474205017, 0.7339116930961609, 0.25523707270622253], [-0.3166327476501465, -0.0006952674593776464, -0.2638487219810486]], [[0.035475797951221466, -0.2653845250606537, -0.07215135544538498], [-0.2886529564857483, 0.5703561305999756, 0.5493295788764954], [-0.03657811880111694, -0.06019875407218933, 0.2592083513736725]], [[-0.7527918219566345, -0.344038188457489, -0.1893044412136078], [-0.29344308376312256, 0.2947721779346466, 0.9982476830482483], [-0.27742883563041687, -0.08442237228155136, 0.39469218254089355]], [[0.5652868151664734, 0.09784354269504547, -0.1960262507200241], [0.1804778277873993, -0.07606334239244461, -0.09616708010435104], [-0.41419070959091187, -0.4827064573764801, -0.3135398328304291]], [[-0.10325232893228531, -0.42835524678230286, 0.1015816330909729], [0.18660399317741394, 0.3617788851261139, 0.3270590901374817], [-0.2469261884689331, -0.21334978938102722, 0.15730522572994232]], [[0.19611120223999023, 0.33459344506263733, -0.5855270624160767], [-0.07095814496278763, -0.18957404792308807, -0.20844051241874695], [-0.3017844557762146, -0.05951694771647453, 0.12745891511440277]], [[0.6314914226531982, 0.35434412956237793, -0.017369532957673073], [-0.217958465218544, -0.7001185417175293, -0.7139336466789246], [-0.25484904646873474, -0.6184477210044861, 0.45490968227386475]], [[-0.4499794840812683, -0.3498419225215912, -0.24427089095115662], [-0.08501690626144409, 0.22802656888961792, 0.8681116700172424], [-0.2183138132095337, 0.16242468357086182, 0.2508017122745514]], [[-0.11686047166585922, -0.5381578803062439, 0.13140706717967987], [0.30250033736228943, 0.2727864980697632, 0.23830248415470123], [-0.21206243336200714, -0.09153474122285843, 0.16644679009914398]], [[0.18225102126598358, -0.14068736135959625, -0.07558393478393555], [-0.019774341955780983, -0.04195597395300865, 0.6857112646102905], [-0.3878527283668518, -0.34330785274505615, 0.47695237398147583]], [[-0.18601952493190765, 0.9225671291351318, 0.36125001311302185], [-0.6357284188270569, 0.3497121334075928, 0.4391266703605652], [-0.9211263656616211, -0.23885488510131836, -0.5174993276596069]], [[0.021708959713578224, 0.971706748008728, 0.5036457180976868], [0.1346808522939682, -0.36017516255378723, -0.16794955730438232], [0.40107718110084534, -0.7678117752075195, -1.127876877784729]], [[-0.3534812331199646, 0.51054447889328, 0.3740907907485962], [0.19646388292312622, 0.2916718125343323, 0.24393485486507416], [0.27607855200767517, -1.0811606645584106, -1.2452284097671509]], [[1.2764226198196411, 0.8408493995666504, 1.0465590953826904], [-0.06440459936857224, -0.10537596791982651, 0.27358460426330566], [-0.3870041072368622, -0.30163800716400146, 0.7193006277084351]], [[-0.10722259432077408, -0.2000083029270172, -0.24158957600593567], [0.36195337772369385, -0.07629673928022385, -0.1965881884098053], [0.3827698826789856, -0.19072841107845306, -0.3500746786594391]], [[1.9683630466461182, 1.5208570957183838, 0.24044489860534668], [-0.46276652812957764, -0.5187715888023376, -0.31189024448394775], [-0.4578147530555725, -1.5177748203277588, 0.43362265825271606]], [[0.06262052059173584, -1.0582571029663086, -1.2674857378005981], [-1.3978251218795776, -1.50419282913208, -1.6200320720672607], [-1.3089311122894287, -0.3386691212654114, 0.6344327926635742]], [[1.7480754852294922, 1.1720694303512573, 0.5409687161445618], [0.25888460874557495, -0.839610755443573, -0.9112299084663391], [0.24622836709022522, -1.2417529821395874, 0.21250519156455994]], [[0.4033377766609192, 0.1465349644422531, 0.5936980247497559], [0.2065727263689041, -0.5590957999229431, -0.5451724529266357], [-0.22507044672966003, -0.251949280500412, 0.07667174190282822]], [[-0.2261907011270523, -0.35135459899902344, 0.20427662134170532], [0.11063619703054428, -0.05919577181339264, 0.8548660278320312], [0.006999745033681393, -0.18105678260326385, 0.14843547344207764]], [[-0.13893191516399384, -0.2544838786125183, -0.4689459800720215], [-0.10569997876882553, 0.49681714177131653, 0.4181845784187317], [0.055165763944387436, -0.3497525751590729, -0.22791582345962524]], [[-0.27280542254447937, -0.8858456611633301, -0.19188694655895233], [-0.4782523214817047, 0.1066969484090805, 0.3341381847858429], [-0.48137664794921875, 0.2268027663230896, 1.0024508237838745]], [[0.6149264574050903, 0.9125706553459167, 0.6281735897064209], [-0.1888488531112671, -0.7148228287696838, 0.3330707550048828], [-0.3110869526863098, 0.22364412248134613, 0.33198124170303345]], [[0.7963528633117676, 0.5981963872909546, 0.46494972705841064], [-0.21571920812129974, -1.218917965888977, -0.24624647200107574], [-0.4317108392715454, 0.345269113779068, 0.3796132504940033]], [[0.07151374220848083, -0.2610569894313812, -0.36182519793510437], [-0.396377831697464, 0.0703710988163948, 0.5210635662078857], [-0.08810847252607346, -0.09318661689758301, 0.34042665362358093]], [[-0.34004226326942444, -0.06736619770526886, 0.14854496717453003], [-0.26435428857803345, 0.5530235171318054, 0.8551620244979858], [-0.5026859045028687, -1.0240670442581177, 0.028278179466724396]], [[0.6288271546363831, 0.11611396074295044, 0.5257587432861328], [0.7371049523353577, 0.14281409978866577, -0.13718971610069275], [0.11697143316268921, -0.44443169236183167, -0.48189324140548706]], [[-0.4885987341403961, 0.49401727318763733, 0.5240227580070496], [0.22664639353752136, 0.11703497171401978, 0.31907549500465393], [0.35021379590034485, -0.9096664786338806, -1.1655555963516235]], [[0.21559560298919678, 0.4120875895023346, -0.04635543003678322], [0.39696478843688965, -0.4615532159805298, -0.6505847573280334], [-0.08180797845125198, -0.3778650462627411, -0.8678455948829651]], [[-0.4092121124267578, -0.08989112079143524, 0.302071750164032], [-0.4470212459564209, -0.19807586073875427, 0.12051114439964294], [-0.44581368565559387, 0.7653927206993103, 0.24557937681674957]], [[0.2227131575345993, -0.15481233596801758, 0.2086613029241562], [0.4437673091888428, 0.1827029138803482, -0.2524954676628113], [0.08047643303871155, -0.20062774419784546, -0.15207915008068085]], [[0.16781523823738098, 0.30941230058670044, 0.015603960491716862], [0.11270363628864288, -0.9025787711143494, -0.772186279296875], [-0.33533504605293274, -0.7159818410873413, -0.5466015338897705]], [[0.3166676461696625, 0.14355777204036713, -0.7260820865631104], [-0.06772524863481522, -0.07153517752885818, 0.4188351631164551], [-0.39673668146133423, -0.3351329565048218, 0.37768474221229553]], [[-0.07746431976556778, 0.30166390538215637, 0.23503246903419495], [0.0645705983042717, -0.45294857025146484, -0.08674881607294083], [0.7520084977149963, 0.06521285325288773, -0.13620434701442719]], [[0.5957140922546387, 0.4407171308994293, 0.47122928500175476], [-0.13395486772060394, -0.8961371779441833, -0.26153987646102905], [-0.18855275213718414, 0.03544352203607559, 0.09032388776540756]], [[0.2081798017024994, 0.2739863097667694, 0.21915577352046967], [-0.20066297054290771, -0.4598402678966522, -0.10035616159439087], [-0.22234825789928436, 1.034685730934143, 0.5018079280853271]]], [[[-0.2531048655509949, -0.11374732851982117, 0.6374899744987488], [0.03096795082092285, -0.8123781085014343, 0.47260770201683044], [-0.24109463393688202, -0.855484664440155, -0.3965591788291931]], [[0.13729725778102875, 0.03964576870203018, 0.8535768985748291], [0.2138788253068924, -1.18410062789917, -0.6371851563453674], [0.4773155748844147, -0.4517644941806793, -0.8477669358253479]], [[-0.17421965301036835, 0.020114082843065262, 0.2970612645149231], [-0.5693545937538147, 0.11365875601768494, 0.29567843675613403], [-0.14690130949020386, -0.006142528261989355, -0.8596692085266113]], [[0.34931692481040955, -0.2927926182746887, 0.2944505512714386], [0.3502770662307739, -0.543424665927887, -0.08319374173879623], [0.33998632431030273, -0.32262808084487915, 0.22225555777549744]], [[-0.2914678752422333, -0.30699828267097473, -0.6581512689590454], [-0.17397257685661316, -0.5135781168937683, 0.1772574484348297], [-0.4270433187484741, -0.0542316697537899, 0.796822726726532]], [[0.22296899557113647, 0.035359639674425125, -0.45384255051612854], [-0.05356490984559059, 0.7313488125801086, 0.7677662968635559], [-0.36987385153770447, 0.8007894158363342, 0.15578126907348633]], [[-0.19848571717739105, -0.4671255648136139, -0.23410649597644806], [0.4870334267616272, -2.1031997203826904, -0.9313478469848633], [0.6668065190315247, -1.101138710975647, 0.2140728086233139]], [[0.03222685307264328, 0.45697692036628723, -0.0955648198723793], [-0.245903879404068, 0.7051467895507812, 0.021017832681536674], [-0.3605440855026245, 0.6555250287055969, -0.23775964975357056]], [[-0.14618125557899475, -0.4649122953414917, -0.6101711392402649], [0.2427358478307724, -0.40464523434638977, 0.17151708900928497], [0.4405392110347748, -0.14928139746189117, 0.09207113087177277]], [[0.055703237652778625, -0.2474936842918396, -0.2736126184463501], [0.038299065083265305, -0.0290360264480114, -0.02001313865184784], [0.035468585789203644, 0.06360307335853577, -0.26820316910743713]], [[-0.5796457529067993, 0.05731280893087387, -0.5997980833053589], [-0.29446089267730713, -0.21363498270511627, -0.30449384450912476], [-0.1592739075422287, 0.0966871827840805, 0.5341911911964417]], [[0.1344696581363678, -0.5714711546897888, -0.23210923373699188], [0.3918834924697876, -0.5451689958572388, -0.30873358249664307], [0.262114942073822, 0.032748106867074966, 0.37765997648239136]], [[0.18251943588256836, 0.06084774434566498, -0.5244560837745667], [0.6429793238639832, 0.7699419856071472, 0.29935359954833984], [0.37578698992729187, 0.21677565574645996, -0.3639363944530487]], [[-0.04207295924425125, -0.4502699673175812, -0.044383641332387924], [0.08413220196962357, -0.5270276069641113, -0.10305734723806381], [0.05394156277179718, -0.07620717585086823, -0.10436582565307617]], [[-0.03579466789960861, -0.043491192162036896, -0.032295677810907364], [-0.008213367313146591, 0.12462684512138367, 0.2594586908817291], [-0.08294257521629333, 0.04401728883385658, -0.2655259668827057]], [[0.2724573016166687, 0.12812967598438263, -0.05574193596839905], [-0.1075955480337143, -0.5874620079994202, 0.16584742069244385], [0.2863074243068695, -0.4028985798358917, -0.2910468876361847]], [[0.3479130268096924, -0.4989609122276306, -0.31571319699287415], [0.4416837692260742, -0.27584749460220337, -0.4320974349975586], [0.3420509696006775, 0.14400988817214966, 0.16856403648853302]], [[0.08180909603834152, -0.378961443901062, -0.2116275280714035], [0.0487755611538887, -0.6455267667770386, -0.21996399760246277], [0.22007974982261658, -0.2852874994277954, 0.05600408837199211]], [[0.3667124807834625, -0.02209017053246498, 0.06044868379831314], [0.19528108835220337, -0.06977295875549316, -0.2778427302837372], [0.5696079730987549, -0.026119587942957878, -0.7913343906402588]], [[-0.16742047667503357, -0.1699455976486206, -0.3074330687522888], [0.32617783546447754, 0.8310523629188538, 0.8967638611793518], [0.06779802590608597, 0.5284088850021362, 0.3256985545158386]], [[0.05355049669742584, -0.11262767016887665, -0.15607595443725586], [0.09284258633852005, -0.9703897833824158, 0.2716226577758789], [-0.2761676609516144, 0.01301325112581253, 0.7903580665588379]], [[0.03802036494016647, 0.1393069624900818, -0.09174931794404984], [0.0700596272945404, 0.13833141326904297, 0.38563287258148193], [-0.43647488951683044, -0.757567286491394, 0.34575894474983215]], [[0.6160535216331482, 0.15379147231578827, 0.5784316062927246], [0.4759625494480133, -2.267455816268921, 0.1494559347629547], [0.0941343754529953, -2.1510322093963623, 0.18059031665325165]], [[-0.06706983596086502, -0.15404699742794037, -0.13967642188072205], [0.08268117159605026, -0.1845838725566864, 0.06382390111684799], [0.2942187488079071, -0.14625759422779083, 0.3100900948047638]], [[-0.12683643400669098, 0.2529425621032715, -0.29804813861846924], [-0.9286501407623291, -0.0956784188747406, 0.3256560266017914], [-0.46824517846107483, 0.5068185925483704, 0.7212879657745361]], [[-0.08889230340719223, 0.6300917267799377, 1.0336010456085205], [-1.405812382698059, -1.3280723094940186, -0.24474705755710602], [-0.4317924678325653, -0.6822605133056641, -0.5543182492256165]], [[-0.04039589688181877, 0.5519370436668396, 0.7606717348098755], [-0.15760177373886108, -0.47892332077026367, 0.45184046030044556], [-0.42770370841026306, 0.23318420350551605, -0.27558454871177673]], [[0.07970896363258362, 0.22628729045391083, -0.03386574611067772], [-0.21105623245239258, -0.24104133248329163, 0.0416719987988472], [-0.13496427237987518, -0.3300744295120239, -0.17997731268405914]], [[0.22236031293869019, -0.5431452989578247, -0.27515608072280884], [0.07418802380561829, -0.6256592869758606, -0.22248797118663788], [0.38994643092155457, -0.10762001574039459, 0.15346869826316833]], [[-0.10509000718593597, 0.08391541242599487, -0.7441741824150085], [0.1821018010377884, -0.7360240817070007, 0.07604579627513885], [0.16544461250305176, -0.47362932562828064, 0.8849998712539673]], [[0.13981464505195618, 0.1386839896440506, 0.3192983865737915], [0.20112915337085724, -0.6488639116287231, -0.08077846467494965], [0.2883545756340027, -0.5982972383499146, -0.14101837575435638]], [[0.498522013425827, 0.3104706108570099, 0.645219624042511], [0.24233268201351166, -1.3060694932937622, 0.35638976097106934], [0.29416245222091675, -1.6522016525268555, 0.14849026501178741]], [[0.3694547414779663, 0.9336809515953064, 0.9623783826828003], [-0.7656142115592957, -0.0868050754070282, 0.2059745043516159], [-0.6167506575584412, -0.4673084616661072, 0.29477185010910034]], [[-0.529884397983551, -0.10406307131052017, -0.43163207173347473], [-0.26095959544181824, -0.39719581604003906, -0.5120171308517456], [0.23006770014762878, 0.20238463580608368, 0.35921528935432434]], [[0.08424702286720276, -0.6209856867790222, 0.20033733546733856], [0.6075774431228638, -4.468356609344482, -1.5518434047698975], [0.7161542773246765, -3.1728339195251465, -0.17955002188682556]], [[-0.15179045498371124, 0.30591899156570435, 0.008016175590455532], [-0.3544211685657501, 0.611737072467804, 0.29235967993736267], [-0.2011009007692337, 0.8334612250328064, -0.03937191888689995]], [[-0.08680804818868637, -0.16049520671367645, -0.4270375669002533], [0.126787006855011, -0.1887986958026886, -0.06184997409582138], [-0.01496279425919056, -0.40612587332725525, 0.36571004986763]], [[0.14482226967811584, 0.20196275413036346, 0.29404622316360474], [0.35785236954689026, -1.7889715433120728, 0.7272698879241943], [0.4498656690120697, -1.735080361366272, 0.0578661784529686]], [[0.28477782011032104, 0.2600461542606354, -0.0004188990860711783], [0.2733921408653259, -0.17934449017047882, -0.06019033119082451], [0.14398464560508728, -0.3968654274940491, -0.014644892886281013]], [[0.143691748380661, 0.47898659110069275, -0.1605025827884674], [-0.12431608885526657, 0.3853290379047394, 0.015347913838922977], [-0.15306828916072845, 0.48769325017929077, -0.059032589197158813]], [[0.6349971294403076, 0.3761540353298187, 0.8446141481399536], [0.3287951946258545, -3.486424207687378, 0.5520266890525818], [0.11838849633932114, -3.2807533740997314, -0.379444420337677]], [[-0.34700337052345276, -0.3003518581390381, -0.009739749133586884], [-0.0586845763027668, -0.574696958065033, -0.26671501994132996], [0.19753454625606537, 0.09986568987369537, -0.465489000082016]], [[-0.21741124987602234, 0.10600710660219193, -0.1518966555595398], [-0.29369235038757324, 0.07061932235956192, 0.5067082047462463], [-0.3166341781616211, -0.11962797492742538, 0.6456034779548645]], [[-0.01700093224644661, -0.0008951924392022192, 0.38165679574012756], [-0.4857928454875946, -0.37649863958358765, 0.014940978959202766], [-0.18338371813297272, -0.33372732996940613, 0.07646103203296661]], [[0.10082961618900299, 0.47939255833625793, 0.38244104385375977], [-0.37794169783592224, -0.23494000732898712, 0.046584438532590866], [-0.3119417428970337, -0.32912489771842957, 0.14540700614452362]]], [[[-0.010111227631568909, -0.03925003856420517, 0.0030385437421500683], [0.009304225444793701, -0.009931589476764202, -0.0737857073545456], [-0.016572989523410797, 0.02353462018072605, -0.055337775498628616]], [[0.006754604633897543, 0.029876936227083206, -0.03712132200598717], [-0.0538753978908062, -0.0764770656824112, -0.009157351218163967], [0.038682762533426285, 0.0065986826084554195, -0.09313174337148666]], [[-0.0652160793542862, -0.033647991716861725, 0.05037122592329979], [-0.034772105515003204, -0.05835307762026787, -0.04785081744194031], [0.00839187391102314, -0.013387201353907585, -0.0498882532119751]], [[-0.03266698122024536, -0.008490698412060738, -0.014861791394650936], [-0.049728184938430786, -0.036584075540304184, -0.03878054767847061], [-0.054230984300374985, -0.04968615993857384, -0.08251237869262695]], [[-0.03982790559530258, -0.02217807061970234, -0.052244625985622406], [-0.03351239487528801, -0.05153627693653107, 0.006295098457485437], [-0.006073411554098129, 0.07199740409851074, -0.07149670273065567]], [[-0.07343550771474838, -0.017643369734287262, -0.0581471249461174], [0.03181023150682449, -0.05344914272427559, 0.06600859016180038], [0.040754158049821854, -0.026266299188137054, -0.0002679491008166224]], [[0.02959338389337063, 0.015882840380072594, -0.06860800832509995], [-0.024181287735700607, -0.08027146756649017, 0.00794279109686613], [-0.013732120394706726, 0.00292618153616786, -0.0738053023815155]], [[-0.052102215588092804, -0.026866847649216652, 0.00747476052492857], [-0.024139437824487686, -0.037109024822711945, 0.03171643987298012], [0.07349693775177002, -0.039484161883592606, 0.02333419770002365]], [[-0.0020328809041529894, 0.013191688805818558, -0.03005628101527691], [-0.09227625280618668, -0.061896126717329025, -0.030055968090891838], [0.06126949191093445, -0.05951381474733353, 0.010944796726107597]], [[-0.0021701727528125048, 0.004879610612988472, 0.019377348944544792], [-0.032217297703027725, -0.05104193463921547, -0.0074417488649487495], [0.013668878003954887, -0.024086706340312958, -0.06393109261989594]], [[-0.004160948097705841, 0.007221736013889313, -0.02915884554386139], [-0.07657723128795624, -0.10036589205265045, -0.04275210574269295], [0.05955006554722786, -0.019736720249056816, -0.01443087961524725]], [[-0.05141444504261017, 0.020680923014879227, -0.03861253708600998], [-0.03833824768662453, -0.08514203131198883, -0.07984332740306854], [-0.025366930291056633, 0.013922590762376785, 0.00471116229891777]], [[-0.050221506506204605, -0.018771441653370857, -0.0349956713616848], [0.04072117805480957, -0.07123544812202454, -0.009051977656781673], [0.052956342697143555, 0.024565517902374268, -0.038189880549907684]], [[0.002374767791479826, -0.036073990166187286, -0.015500509180128574], [-0.06250158697366714, -0.0901331976056099, -0.07662556320428848], [-0.011106036603450775, -0.0006938243750482798, -0.024174168705940247]], [[-0.03348242864012718, 0.020635288208723068, -0.02040828950703144], [-0.045589715242385864, -0.0006479473668150604, -0.0696137547492981], [-0.01566551811993122, -0.021676834672689438, -0.01704980805516243]], [[-0.03115968033671379, -0.03589320555329323, 0.009674536995589733], [-0.009654920548200607, -0.0355132557451725, -0.007119526155292988], [0.04527910053730011, 0.005011989269405603, -0.010809473693370819]], [[-0.042818497866392136, 0.03512265533208847, 0.008483449928462505], [-0.031074773520231247, -0.012132792733609676, 0.008238165639340878], [-0.035645853728055954, -0.014155593700706959, -0.07132494449615479]], [[0.0545835979282856, 0.022898096591234207, -0.03562682867050171], [-0.022198835387825966, -0.02518201433122158, -0.03518112748861313], [0.051148831844329834, 0.016851115971803665, -0.08460810780525208]], [[-0.06343831866979599, 0.0037149095442146063, -0.01800231635570526], [-0.003268731292337179, -0.03732829540967941, 0.01704295165836811], [-0.04614871367812157, 0.014460892416536808, 0.003746133064851165]], [[-0.00040127814281731844, -0.03437696024775505, 0.02041432075202465], [-0.08005811274051666, -0.012549050152301788, 0.00863354466855526], [-0.07920253276824951, -0.08054526150226593, 0.059061214327812195]], [[-0.042114391922950745, -0.05801810696721077, -0.021720319986343384], [-0.10152540355920792, 0.011736880987882614, 0.014047940261662006], [0.0039444430731236935, 0.019122468307614326, 0.0014495138311758637]], [[-0.013789248652756214, -0.05625496059656143, 0.016864463686943054], [-0.04854587838053703, 0.005906735081225634, -0.0439230315387249], [-0.018626827746629715, 0.06134781241416931, -0.012457548640668392]], [[-0.0324513204395771, -0.03195587918162346, 0.013645900413393974], [0.013728207908570766, -0.052576806396245956, -0.05416829511523247], [0.0025675464421510696, 0.025650687515735626, -0.03197436407208443]], [[-0.03654631972312927, -0.0649527832865715, 0.008933750912547112], [-0.08058637380599976, -0.08222484588623047, 0.005606216844171286], [0.02786363661289215, -0.008341015316545963, -0.003097429173067212]], [[-0.06180978938937187, 0.010541262105107307, -0.03651062026619911], [-0.05379592999815941, -0.06907426565885544, -0.012694431468844414], [-0.10638722777366638, -0.021202070638537407, -0.02100483886897564]], [[-0.062133580446243286, -0.05003637075424194, -0.03316962718963623], [-0.00759029109030962, -0.007605339400470257, -0.06586528569459915], [-0.008960486389696598, -0.05470998212695122, -0.04852883145213127]], [[-0.04675917327404022, -0.051788609474897385, -0.032080601900815964], [-0.05238886550068855, -0.01459185965359211, 0.026971150189638138], [0.04505658522248268, -0.04853811115026474, 0.008477714844048023]], [[-0.004549105651676655, 0.044757694005966187, -0.07382769137620926], [-0.07278217375278473, -0.08224370330572128, -0.0775112435221672], [0.01643824763596058, -0.006176031194627285, -0.02698568068444729]], [[-0.012760360725224018, -0.003081528004258871, -0.04265217483043671], [-0.05805828049778938, -0.08198156207799911, -0.009021277539432049], [-0.03175365924835205, -0.009306284599006176, -0.018119538202881813]], [[-0.044912535697221756, -0.04608793556690216, -0.06848397105932236], [-0.03842297941446304, -0.008990542963147163, 0.011786933057010174], [0.04793326184153557, -0.027771148830652237, -0.01874246634542942]], [[-0.010384456254541874, 0.017566069960594177, -0.0334702730178833], [-0.05261049419641495, -0.04486459121108055, -0.025946101173758507], [-0.053743328899145126, -0.012685096822679043, -0.007767719682306051]], [[0.0058347731828689575, 0.01886647380888462, -0.019530536606907845], [-0.017376592382788658, -0.04643372446298599, -0.03656619042158127], [0.020574061200022697, -0.03951750695705414, 0.015489890240132809]], [[0.03856980800628662, 0.01341138407588005, -0.02979671210050583], [-0.0708443894982338, -0.040009595453739166, -0.002564705442637205], [-0.04569339379668236, -0.08639973402023315, -0.08562541753053665]], [[0.0265008844435215, -0.025414206087589264, -0.06050429493188858], [-0.05641712248325348, 0.012620221823453903, -0.043249305337667465], [-0.03226484730839729, -0.052482400089502335, -0.01186335552483797]], [[-0.039436861872673035, -0.023962363600730896, -0.0197907704859972], [-0.019384874030947685, -0.006111511494964361, -0.013956467621028423], [-0.028659919276833534, -0.00876813754439354, -0.05179746821522713]], [[-0.002821001224219799, 0.021198153495788574, -0.06562182307243347], [-0.02555786445736885, -0.1031208261847496, -0.035201989114284515], [-0.017865056172013283, -0.01383395679295063, 0.020209958776831627]], [[-0.001467364956624806, -0.0067473482340574265, -0.023332910612225533], [-0.09964925050735474, -0.055621810257434845, -0.011131751351058483], [-0.0653151273727417, -0.010705648921430111, -0.03964436799287796]], [[0.016438057646155357, -0.06946748495101929, -0.07878533005714417], [0.048021409660577774, -0.07618990540504456, 0.024644020944833755], [0.03178507834672928, -0.07692504674196243, 0.02491350844502449]], [[-0.036373164504766464, -0.05283409729599953, -0.07179484516382217], [-0.057764217257499695, -0.024133624508976936, -0.0740862786769867], [0.04149078205227852, -0.04379803314805031, -0.004541650880128145]], [[-0.036591753363609314, -0.016009250655770302, -0.03571319952607155], [0.0033214872237294912, -0.06250210851430893, -0.019420910626649857], [0.03550345450639725, -0.06262198835611343, -0.05261800065636635]], [[-0.017265038564801216, 0.0021586220245808363, -0.04835394024848938], [0.0175975002348423, 0.005544528365135193, -0.014351410791277885], [-0.0029724054038524628, -0.019532835111021996, -0.07881422340869904]], [[-0.03726596757769585, -0.022457828745245934, -0.052508458495140076], [-0.011906543746590614, -0.043947912752628326, -0.05143817886710167], [0.005276198033243418, -0.009215027093887329, 0.018791841343045235]], [[0.000755166809540242, 0.013404511846601963, -0.04468771442770958], [0.012780770659446716, -0.032110750675201416, -0.0019686466548591852], [0.022010356187820435, -0.0642203539609909, -0.033559173345565796]], [[-0.044421400874853134, -0.07191678881645203, -0.026056384667754173], [-0.020871004089713097, -0.04082396253943443, -0.004096135497093201], [-0.01294735912233591, 0.006205912213772535, -0.02698102593421936]], [[-0.05169419199228287, -0.03855866566300392, -0.06464152038097382], [-0.033008817583322525, -0.03684612736105919, -0.03240508586168289], [-0.01855096034705639, -0.004897912032902241, 0.02329225465655327]]], [[[-0.06809701025485992, -0.03133539855480194, -0.09453865140676498], [-0.09388148784637451, -0.037806812673807144, -0.09702832251787186], [-0.13195498287677765, -0.048936713486909866, -0.10622982680797577]], [[-0.057074014097452164, -0.07673091441392899, -0.016476843506097794], [-0.0828452929854393, -0.05102857947349548, -0.042251553386449814], [-0.10198569297790527, -0.07848389446735382, -0.11107314378023148]], [[0.013830007053911686, -0.0907895416021347, 0.020647192373871803], [-0.026681281626224518, -0.015590828843414783, -0.06247873976826668], [-0.0433717742562294, -0.03885003179311752, -0.04495568946003914]], [[-0.0433228500187397, 0.003719385014846921, -0.10405699163675308], [-0.07295773923397064, -0.02477145567536354, -0.04358125850558281], [-0.020430173724889755, -0.0657714456319809, -0.06520115584135056]], [[-0.1293165534734726, -0.0793711245059967, -0.08121811598539352], [-0.053349126130342484, -0.05755438655614853, -0.06239990144968033], [-0.09447386115789413, -0.07839280366897583, -0.06818617880344391]], [[-0.023027664050459862, -0.06653104722499847, -0.004653312265872955], [-0.03285909816622734, -0.06905411928892136, 0.029105132445693016], [-0.03877786919474602, -0.0547482930123806, -0.08796199411153793]], [[-0.09136095643043518, -0.004913681652396917, -0.09058808535337448], [-0.10200905799865723, -0.07290492206811905, -0.039673417806625366], [-0.09908506274223328, -0.021890811622142792, -0.03855150565505028]], [[-0.06922242045402527, -0.0004253158695064485, -0.025818437337875366], [0.025408372282981873, -0.012995275668799877, -0.0637274831533432], [-0.029070474207401276, -0.025972764939069748, -0.05722885951399803]], [[-0.05812999606132507, -0.09397419542074203, -0.05300648882985115], [-0.020502444356679916, 0.006646316964179277, -0.032522838562726974], [-0.10582904517650604, -0.09474874287843704, -0.09167829155921936]], [[-0.08775938302278519, 0.007536709774285555, -0.052626967430114746], [-0.0735999345779419, 0.03700423985719681, -0.03362392634153366], [-0.081666499376297, -0.032268889248371124, -0.05856796354055405]], [[-0.0875934511423111, -0.030899973586201668, -0.04266227409243584], [-0.06745638698339462, -0.04893110319972038, -0.059539008885622025], [-0.09249933809041977, -0.012281134724617004, -0.04078512266278267]], [[-0.08400142192840576, -0.05346553027629852, -0.047200508415699005], [-0.10366814583539963, -0.03540054336190224, -0.10527601838111877], [-0.04013483598828316, -0.03773704171180725, -0.07383346557617188]], [[-0.05156359076499939, -0.08033771067857742, -0.054520200937986374], [-0.08004000037908554, -0.06249632686376572, -0.042576782405376434], [-0.12552258372306824, -0.08844147622585297, -0.019157566130161285]], [[-0.10105685889720917, -0.017950085923075676, -0.047167785465717316], [-0.12155407667160034, -0.041440386325120926, -0.09606320410966873], [-0.07550011575222015, -0.07926099747419357, -0.09224619716405869]], [[-0.04595474153757095, -0.08239860087633133, -0.08224407583475113], [-0.03928409144282341, -0.050970520824193954, -0.09217653423547745], [-0.0712403655052185, -0.058969710022211075, -0.09966830164194107]], [[-0.059324853122234344, 0.00384986842982471, -0.018108686432242393], [0.024075645953416824, -0.06431010365486145, -0.04102945327758789], [-0.0366237536072731, -0.06829680502414703, -0.02263426035642624]], [[-0.009129627607762814, 0.026869291439652443, -0.1023307740688324], [-0.03237098082900047, -0.00928824208676815, -0.08862137049436569], [-0.060749731957912445, -0.027441181242465973, -0.03880525752902031]], [[-0.11214438080787659, 0.03966992348432541, -0.09458533674478531], [-0.055609330534935, -0.03928402438759804, -0.11746720224618912], [-0.10242755711078644, 0.017581213265657425, -0.09012378752231598]], [[-0.0076266382820904255, -0.021893514320254326, -0.021502984687685966], [-0.08718112856149673, -0.06293714791536331, -0.07797829061746597], [-0.0962042585015297, -0.007147965952754021, -0.08428903669118881]], [[-0.05891040340065956, -0.10909518599510193, -0.04537378251552582], [-0.08019860088825226, -0.05265388637781143, -0.021193262189626694], [-0.06459425389766693, -0.014035976491868496, -0.0708392933011055]], [[-0.10296385735273361, -0.11195416748523712, -0.011174583807587624], [-0.07502178102731705, -0.037673044949769974, -0.03332838416099548], [-0.029407992959022522, -0.09495460987091064, 0.00014983587607275695]], [[-0.12505868077278137, -0.12809520959854126, -0.0052640317007899284], [-0.08817018568515778, -0.11288948357105255, -0.06898527592420578], [-0.1193392425775528, -0.15115180611610413, -0.0700143501162529]], [[-0.0012628004187718034, 0.006431240122765303, -0.05667993798851967], [-0.08577977865934372, 0.022839713841676712, -0.07100055366754532], [-0.05595635622739792, -0.04873676970601082, -0.06951180100440979]], [[-0.003295853966847062, -0.0016822614707052708, 0.01676079072058201], [-0.013461217284202576, -0.02149868570268154, -0.04987720772624016], [0.0031825383193790913, -0.029654663056135178, -0.001056098728440702]], [[-0.06916047632694244, -0.0819467231631279, -0.029197514057159424], [-0.04135125130414963, -0.022898802533745766, -0.01825682632625103], [-0.051527831703424454, -0.007988997735083103, -0.06225275993347168]], [[0.0015218541957437992, -0.06629865616559982, -0.024864058941602707], [-0.04338417947292328, -0.14167803525924683, -0.05692671984434128], [-0.028713872656226158, -0.15653878450393677, -0.07576902955770493]], [[-0.0643247738480568, -0.06509839743375778, -0.027960650622844696], [-0.02825731225311756, -0.08266258984804153, -0.08633730560541153], [-0.02504282258450985, -0.01867075078189373, -0.060794807970523834]], [[-0.006427655927836895, 0.03204213082790375, -0.08537165075540543], [-0.06001356616616249, 0.007882648147642612, -0.08895431458950043], [-0.08082593232393265, -0.029181303456425667, -0.10719253122806549]], [[-0.02558748424053192, -0.03483201190829277, -0.09846794605255127], [-0.0121992789208889, -0.017309650778770447, -0.030172238126397133], [-0.0161649938672781, -0.044162970036268234, -0.052432820200920105]], [[0.033626869320869446, -0.04701916500926018, -0.024102777242660522], [-0.007837971672415733, -0.026791919022798538, -0.0014159182319417596], [0.0010520678479224443, -0.046819716691970825, -0.0475134439766407]], [[0.01180296577513218, -0.0423947237432003, -0.09933193773031235], [-0.11291961371898651, 0.010073215700685978, -0.1169944629073143], [-0.09721393138170242, -0.016275275498628616, -0.10602261871099472]], [[0.02080819383263588, -0.08235303312540054, -0.05481696128845215], [-0.052797865122556686, -0.05636728182435036, -0.04153449088335037], [-0.025853563100099564, -0.09656065702438354, -0.05363430455327034]], [[-0.02755572833120823, -0.04319855570793152, -0.09862065315246582], [-0.08199138939380646, -0.02778947539627552, -0.1396491676568985], [-0.13853903114795685, -0.12381453067064285, -0.07962284982204437]], [[-0.0504811555147171, -0.027815070003271103, -0.02516275830566883], [-0.08613172173500061, -0.07829707860946655, -0.06793850660324097], [-0.09951996803283691, -0.07125172764062881, -0.0541808120906353]], [[-0.03017536737024784, -0.10223489254713058, 0.017630165442824364], [-0.02959241159260273, -0.13353675603866577, -0.03710314631462097], [-0.014160708524286747, -0.09999439120292664, -0.08257916569709778]], [[-0.1410880833864212, -0.027916226536035538, -0.07383239269256592], [-0.049166418612003326, -0.04921996593475342, -0.03578973561525345], [-0.08710888028144836, -0.07785750180482864, -0.05853228643536568]], [[-0.017759306356310844, -0.06775108724832535, -0.020796431228518486], [-0.06005314737558365, -0.11106952279806137, 0.003992088139057159], [-0.06237996369600296, -0.06161537021398544, -0.06433161348104477]], [[-0.019494211301207542, -0.06976362317800522, -0.03322647511959076], [0.021890103816986084, -0.068791463971138, 0.010506655089557171], [-0.07517287135124207, -0.026712600141763687, -0.10281436145305634]], [[-0.07808217406272888, -0.06278856843709946, -0.04239477217197418], [-0.028825918212532997, -0.0617491751909256, -0.009246003814041615], [-0.021535389125347137, 0.004138594958931208, 0.0010453352006152272]], [[0.005787889007478952, -0.043028559535741806, -0.020438633859157562], [0.017041675746440887, -0.006067925598472357, -0.02767372317612171], [0.0006348793394863605, -0.07962774485349655, 0.01029974315315485]], [[-0.010739443823695183, -0.08225226402282715, -0.10364855825901031], [-0.05116527900099754, -0.026312993839383125, -0.08905651420354843], [-0.12004993110895157, -0.05402373522520065, -0.06527981907129288]], [[-0.047919124364852905, -0.023014115169644356, -0.018606076017022133], [-0.07959658652544022, -0.05779319629073143, -0.10715078562498093], [-0.11886905878782272, -0.07903216034173965, -0.07225557416677475]], [[-0.02311507984995842, 0.0007624250138178468, 0.004477606154978275], [-0.06540323793888092, -0.008315450511872768, -0.017379358410835266], [-0.06424504518508911, -0.02805899828672409, -0.06276682019233704]], [[-0.10324657708406448, -0.09683609008789062, 0.008950242772698402], [-0.0998227447271347, -0.03639782965183258, -0.010735665448009968], [-0.09153875708580017, -0.10158973932266235, -0.09949908405542374]], [[-0.016559364274144173, -0.045296378433704376, -0.015282263979315758], [-0.016093501821160316, -0.039354052394628525, 0.01473994366824627], [-0.05001828074455261, -0.05526354908943176, -0.0879145935177803]]], [[[-0.43855053186416626, -0.6426536440849304, 0.08935198187828064], [0.17842067778110504, 0.7452675104141235, 0.8259100317955017], [0.14970280230045319, -0.024792609736323357, 0.4717932641506195]], [[-0.27305787801742554, 0.5770270824432373, 0.6405580043792725], [0.42374542355537415, 0.721264123916626, 0.44120293855667114], [0.6307082772254944, 0.04354500398039818, -0.45709580183029175]], [[0.0641569048166275, -0.1118384525179863, 0.5519194602966309], [0.1908980756998062, 0.686906635761261, 0.6800588965415955], [0.4457872807979584, -0.06408020108938217, -0.046952418982982635]], [[-0.2079145461320877, 0.14998193085193634, 0.07904338836669922], [0.11156004667282104, 0.054302528500556946, -0.5657954216003418], [-0.28002116084098816, 0.13370762765407562, -0.3771854043006897]], [[0.0407324880361557, -0.8845604062080383, -0.7699071764945984], [-0.4696017801761627, -0.44402652978897095, -0.12988583743572235], [-0.7865325212478638, 0.012901523150503635, 0.3476288616657257]], [[0.7141993641853333, -0.10383227467536926, 0.28499075770378113], [0.7326620817184448, 0.5279116034507751, 0.38360917568206787], [0.27276504039764404, 0.313754141330719, -0.09267248213291168]], [[0.3677178919315338, -0.15778996050357819, 0.3088803291320801], [0.0944417268037796, -0.2517136335372925, 0.23760084807872772], [-0.7252830266952515, -0.5625200271606445, -0.18535932898521423]], [[0.31158575415611267, 0.5611034035682678, 0.3521507978439331], [0.19257886707782745, -0.3283138573169708, -0.0862329825758934], [-0.10378199070692062, 0.17305642366409302, 0.32871538400650024]], [[-0.014402949251234531, 0.24920548498630524, 0.08674655109643936], [0.3945741653442383, 0.09605409950017929, 0.19711266458034515], [0.07996254414319992, -0.6045134663581848, 0.3336399793624878]], [[0.11005955934524536, 0.5728271007537842, -0.03984431177377701], [0.5508559942245483, -0.2869226932525635, -0.442243367433548], [-0.012543800286948681, -0.2676449418067932, 0.179743230342865]], [[1.096052646636963, -0.5276758670806885, -0.36225953698158264], [-0.460162878036499, -1.0276451110839844, 0.17285019159317017], [-1.030236840248108, -0.25778114795684814, 0.06096108630299568]], [[0.4912780821323395, -0.5413422584533691, -0.8810529708862305], [0.3085162937641144, -1.019734501838684, -1.2613946199417114], [-0.4966873824596405, -0.18596838414669037, -0.72468101978302]], [[-0.7820397615432739, -1.0250563621520996, -0.46753108501434326], [-0.8504613637924194, -0.17882145941257477, 0.09400767087936401], [0.22443491220474243, 0.5006301999092102, -0.08393356204032898]], [[0.32930153608322144, 0.830987274646759, -0.32271334528923035], [0.7885262370109558, -0.34809622168540955, -1.0412675142288208], [-0.20803295075893402, -0.43496719002723694, -0.39007097482681274]], [[-0.06964969635009766, 0.15755760669708252, 0.023919058963656425], [0.6194164156913757, 0.43042758107185364, -0.37097859382629395], [0.5037955641746521, -0.42020943760871887, -0.7888299822807312]], [[0.7485357522964478, 0.7591696381568909, 0.11439798027276993], [1.0905343294143677, 0.872109055519104, -0.15436847507953644], [0.6409675478935242, 0.02064695581793785, -0.20515628159046173]], [[0.4448666572570801, -0.304425984621048, -0.5394049286842346], [0.5298702716827393, -0.7489579916000366, -0.9670740962028503], [-0.29973018169403076, -0.23948386311531067, -0.8361766338348389]], [[0.1905602514743805, 0.8953473567962646, 0.10459518432617188], [0.8634889721870422, -0.12781965732574463, -0.7643004655838013], [0.039997000247240067, -1.0406547784805298, -0.6608479022979736]], [[0.07086825370788574, 0.7329313158988953, 0.36772671341896057], [0.8201004862785339, 0.7105839252471924, -0.23743826150894165], [0.7997504472732544, 0.06469384580850601, -0.6244571805000305]], [[-0.04672488570213318, -1.214718222618103, -0.14259642362594604], [-0.6661959290504456, -0.1719333380460739, -0.10189127177000046], [-0.13232915103435516, 0.14954707026481628, -0.030127905309200287]], [[-0.48329266905784607, -1.086721658706665, -0.35572078824043274], [-0.6033415794372559, -0.2376793771982193, 0.3229122757911682], [-0.7527366280555725, -0.22068242728710175, 0.5209963321685791]], [[-0.00811783317476511, -0.7783193588256836, -0.21184079349040985], [-0.44161951541900635, -0.21323101222515106, 0.6843733787536621], [-0.9011721611022949, -0.1043228730559349, 0.8318629860877991]], [[-0.7556199431419373, -1.765626072883606, 0.2977416515350342], [-0.7582308650016785, 0.5476205945014954, 1.0627166032791138], [-0.4409320652484894, -0.0719163790345192, 0.3071373701095581]], [[-0.1870986372232437, -0.2584666609764099, -0.05729815363883972], [-0.14536060392856598, -0.45638954639434814, 0.2256668657064438], [-0.1427086591720581, 0.06975170969963074, 0.5697072148323059]], [[0.15402349829673767, -0.5711614489555359, -0.27841100096702576], [0.4799007475376129, 0.73785799741745, 0.5366628170013428], [-0.25248339772224426, 0.03739694133400917, 0.36195608973503113]], [[-0.6544466614723206, 0.4403410851955414, 0.8347183465957642], [-0.27610713243484497, 0.3208959400653839, 0.18742619454860687], [0.4534839689731598, 0.21833956241607666, -0.2847249209880829]], [[-0.801670253276825, 0.10366711020469666, 0.5122962594032288], [-0.29996806383132935, 1.0985548496246338, 1.006730079650879], [-0.0498201958835125, 0.49339109659194946, 1.0350334644317627]], [[-0.20753911137580872, 0.6350778341293335, -0.029615089297294617], [0.3556046783924103, 0.7378344535827637, -0.12320143729448318], [0.36059898138046265, -0.20230714976787567, -0.43818584084510803]], [[0.15461978316307068, 0.4387368857860565, -0.44172266125679016], [0.5040727257728577, -0.4865025579929352, -1.0585707426071167], [0.076364666223526, -0.3429048955440521, -0.6216107606887817]], [[0.7274629473686218, -0.19056856632232666, 0.009990648366510868], [0.12980914115905762, 0.120459645986557, 0.2379240244626999], [-0.4318375289440155, -0.3100699186325073, -0.08494699746370316]], [[0.26474514603614807, 0.0850953757762909, -0.2417207807302475], [0.118364118039608, -0.4791974425315857, -0.7552428245544434], [0.14010918140411377, -0.42809849977493286, -0.9833868145942688]], [[-1.2839494943618774, -1.6322604417800903, 0.4238562285900116], [-0.6295751333236694, 0.4135481119155884, 1.44504714012146], [-0.4800585210323334, 0.034531015902757645, 0.4475669860839844]], [[-0.28453198075294495, 0.40443551540374756, 0.39141470193862915], [-0.19578291475772858, 0.6721083521842957, 0.09498316794633865], [-0.32917550206184387, 0.13431274890899658, -0.444886714220047]], [[0.6507931351661682, 0.2371622920036316, -0.29402342438697815], [0.2775290608406067, -0.1591590940952301, -0.3277376890182495], [-0.373220294713974, 0.04496840760111809, -0.1733376830816269]], [[0.02105708234012127, -0.5125235915184021, 0.157743901014328], [-0.30297303199768066, 0.03307822719216347, 0.35378459095954895], [-0.8602879643440247, -0.6313018202781677, -0.061084188520908356]], [[-0.5135524868965149, -0.08309733867645264, -0.16056273877620697], [-0.05207683518528938, -0.1577806919813156, 0.1993885189294815], [0.36546990275382996, -0.05088689923286438, 0.31745028495788574]], [[0.038574814796447754, -0.6478855609893799, -0.4064839780330658], [-0.358621209859848, -0.6540601849555969, 0.22493019700050354], [-0.955513596534729, -0.5158036351203918, 0.5249325633049011]], [[-0.8355960845947266, -1.396329641342163, 0.1502862274646759], [-0.5788032412528992, 0.1615348607301712, 0.37277376651763916], [-0.004914820659905672, -0.038129303604364395, 0.16844026744365692]], [[0.25182926654815674, -1.4291311502456665, -0.24394932389259338], [-0.9266688227653503, -1.4982692003250122, -0.6020259857177734], [-0.33546119928359985, 0.01594666577875614, -0.2400437742471695]], [[0.0636742040514946, 0.41818252205848694, -0.21813414990901947], [0.12833364307880402, -0.18900765478610992, -0.17661823332309723], [0.10692495852708817, 